tree
version=v4
num_class=1
num_tree_per_iteration=1
label_index=0
max_feature_idx=7
objective=lambdarank
feature_names=rank_pct_5d rank_pct_20d rank_momentum_5d market_return_1d market_return_5d market_breadth_1d market_dispersion_1d market_volatility_20d
feature_infos=[0:1] [0:1] [-1:0.97752808988764039] [-0.049585464134470299:0.036012358476607553] [-0.10116671736988472:0.054726216916397064] [0.022222222222222223:0.98888888888888893] [0.0079151013248990945:0.029086357152055337] [0.0039238631080082331:0.060188323905258592]
tree_sizes=1746 1743 1743 1735 1733 1742 1739 1744 1727 1739 1753 1735 1746 1742 1740 1740 1750 1738 1743 1737 1735 1744 1741 1730 1733 1746 1747 1736 1746 1743 1736 1737 1741 1748 1744 1760 1746 1727 1734 1747

Tree=0
num_leaves=15
num_cat=0
split_feature=1 4 0 7 7 5 4 7 4 4 5 2 6 2
split_gain=22.13 3.2815 2.69666 2.90462 2.44944 2.16183 1.98184 2.03006 1.31763 2.11821 1.25284 1.1168 1.04329 0.983561
threshold=0.76966292134831471 -0.043531449693776002 0.050561797752808994 0.017733776502749276 0.023340927537131899 0.16111111111111112 -0.043531449693776002 0.0083628833437192508 -0.035833375522273836 0.0084189758770523166 0.90555555555555567 0.15730337078651688 0.015358624277638474 0.34269662921348326
decision_type=2 2 2 2 2 2 2 2 2 2 2 2 2 2
left_child=4 -2 -3 12 6 -5 -1 11 -6 -10 -7 -8 -4 -9
right_child=1 2 3 5 8 10 7 13 9 -11 -12 -13 -14 -15
leaf_value=0.0083640953859270735 -0.016435808949858327 -0.020348835071933049 0.016621271895580412 0.012485871885142372 -0.017868472663751064 0.050495765618433108 -0.0077227604130033134 -0.013210290689754964 0.025483515461012064 -0.0092052931897294282 0.01530505622841489 0.036041355145988462 -0.018820259980183048 -0.026618956797667733
leaf_weight=10.078996505588291 3.2953772083856157 1.8015485974028695 9.2742579192854446 6.7101880251429966 3.6873996802605715 24.831745785661045 2.1649911683052769 98.408960703760386 10.164645059499891 6.5832197749987236 4.0183428544551125 2.1626629214733839 1.7182424031198014 16.634642597287893
leaf_count=466 168 106 477 278 156 871 112 4825 353 285 153 58 110 852
internal_value=3.06241e-10 0.0279104 0.0312044 0.0335855 -0.00973901 0.0404118 -0.0122685 -0.0140656 0.00610918 0.0120977 0.0462712 0.0168074 0.009974 -0.0153618
internal_weight=201.535 51.6497 48.3543 46.5528 149.886 35.5603 129.45 119.371 20.4353 16.7479 28.8501 4.32765 10.9925 115.044
internal_count=9270 2163 1995 1889 7107 1302 6313 5847 794 638 1024 170 587 5677
is_linear=0
shrinkage=0.05


Tree=1
num_leaves=15
num_cat=0
split_feature=1 1 7 4 7 7 1 6 2 1 2 4 3 5
split_gain=59.5579 11.7008 9.15191 7.54702 6.42403 5.90918 4.83921 5.12593 4.73918 4.72114 4.45063 4.16485 3.67325 3.6069
threshold=0.8370786516853933 0.97191011235955072 0.025614282555239589 -0.035833375522273836 0.028110065585420618 0.0070573456000657892 0.41011235955056186 0.013843728366543498 0.061797752808988755 0.76966292134831471 -0.72471910112359539 -0.035833375522273836 -0.011258262280815086 0.90555555555555567
decision_type=2 2 2 2 2 2 2 2 2 2 2 2 2 2
left_child=2 4 3 -1 8 -5 -4 -8 -2 12 -6 -3 -7 -14
right_child=1 11 6 5 10 9 7 -9 -10 -11 -12 -13 13 -15
leaf_value=-0.00059430773486826669 0.01355141074199657 -0.0082707624016114794 -0.010285565350641774 0.027169697835951336 -0.0063253850104078068 -0.0098106091670447579 0.042358959788303022 -0.011250941781824158 -0.026011705674255578 -0.0055629459552340235 0.051792106700634992 0.050342026304550751 -0.033248262823723139 -0.0098152594420725658
leaf_weight=56.425779004581273 96.126072593964636 2.9930643150582901 15.460466594435273 5.31267369352281 3.8177271680906442 29.399888585321605 13.53171916306019 5.92086128424853 7.2919270545244208 33.960020553320646 16.320794138126075 39.745538357645273 112.93686214555055 20.409439138136804
leaf_count=1097 979 48 246 67 54 836 137 92 84 466 119 261 4167 617
internal_value=-5.78695e-10 0.023822 -0.013539 -0.0167808 0.0157929 -0.0212766 0.0102575 0.0262892 0.0105394 -0.0227158 0.0409965 0.046142 -0.0262393 -0.0297615
internal_weight=459.653 166.295 293.358 258.445 123.557 202.019 34.913 19.4526 103.418 196.706 20.1385 42.7386 162.746 133.346
internal_count=9270 1545 7725 7250 1236 6153 475 229 1063 6086 173 309 5620 4784
is_linear=0
shrinkage=0.05


Tree=2
num_leaves=15
num_cat=0
split_feature=1 4 7 4 1 7 7 0 6 6 1 6 4 7
split_gain=57.976 9.12836 8.82759 9.47583 7.30116 4.92998 4.37927 3.76414 3.90989 3.72135 3.63995 3.46987 3.44962 3.19334
threshold=0.8370786516853933 -0.043531449693776002 0.025036501992084174 -0.035833375522273836 0.89325842696629221 0.013362417175606165 0.032176407521962803 0.23033707865168543 0.027667779864059008 0.027667779864059008 0.41011235955056186 0.015211574711071591 -0.010329171654805883 0.0083628833437192508
decision_type=2 2 2 2 2 2 2 2 2 2 2 2 2 2
left_child=2 -2 3 11 -3 -6 10 12 -9 13 -4 -1 -7 -5
right_child=1 4 6 9 5 7 -8 8 -10 -11 -12 -13 -14 -15
leaf_value=0.013470481762835962 -0.032653623509852098 0.0062413367825716673 -0.011738076298074921 0.0029998900252370805 -0.033924253089835411 0.036203373370611448 -0.034079958263532578 0.036864393862494932 -0.036746762583488704 0.030877418213749747 0.025225379979950877 -0.013007941729951848 -0.018971786922063513 -0.02632713296628152
leaf_weight=25.848379218950868 6.1821569744497529 37.598566068336368 8.5944023327901977 9.6348978746682388 2.0414712242782107 3.6987759042531252 4.3329778248444191 106.24648815020919 1.0776747316122044 2.2564491755329064 22.581198480911553 21.956363392062485 6.1528939940035325 162.74050805810839
leaf_count=585 120 475 224 167 30 41 84 789 10 69 239 495 80 5862
internal_value=-5.06015e-10 0.0232615 -0.0147322 -0.0184183 0.0256588 0.0316798 0.00823032 0.0331001 0.0357928 -0.0237905 0.0149873 0.00129179 0.00317079 -0.0246801
internal_weight=420.943 162.998 257.945 222.437 156.816 119.217 35.5086 117.176 107.324 174.632 31.1756 47.8047 9.85167 172.375
internal_count=9270 1545 7725 7178 1425 950 547 920 799 6098 463 1080 121 6029
is_linear=0
shrinkage=0.05


Tree=3
num_leaves=15
num_cat=0
split_feature=1 7 5 5 4 4 1 0 7 1 7 0 2 4
split_gain=53.4569 7.09075 4.7137 4.63217 4.55999 4.1408 3.92946 3.70762 4.4774 7.45397 10.0395 5.55978 3.97995 2.41189
threshold=0.8370786516853933 0.015431774803188024 0.90555555555555567 0.93888888888888899 0.011607665470346052 -0.042178112301349553 0.96067415730337091 0.095505617977528101 0.025253299408496736 0.96067415730337091 0.022946979219282789 0.97191011235955072 0.016853932584269652 0.0032924101364701255
decision_type=2 2 2 2 2 2 2 2 2 2 2 2 2 2
left_child=1 5 7 6 13 -1 -4 -2 9 -9 12 -12 -11 -3
right_child=2 4 3 -5 -6 -7 -8 8 -10 10 11 -13 -14 -15
leaf_value=0.0030410247086295815 -0.011662594336473382 -0.0038564786491428814 0.0043018283122154147 0.024676048430776976 -0.020990732897908516 -0.02746125328933879 -0.059788102664853099 0.0072716769168175129 0.038154837621239467 0.06328365640371543 0.020358197495801887 -0.064274100147486454 -0.021684971691048563 0.020591183639107363
leaf_weight=12.375557078979908 5.7195829008705905 91.520394082646817 4.7353106737136823 7.2477930886670938 39.837006573565304 94.815445967484266 3.5891652144491673 48.249441254418343 58.350699071772397 18.08306395821274 4.3252207711338988 2.0989126935601234 1.0128916036337603 10.326087123714386
leaf_count=266 106 2403 66 90 1310 3451 24 749 359 101 30 10 10 295
internal_value=1.17889e-10 -0.0142925 0.0231285 -0.00278672 -0.00687384 -0.0239441 -0.0267795 0.0260552 0.0277634 0.0191436 0.0404685 -0.0122261 0.0579219 -0.00120165
internal_weight=402.287 248.874 153.412 15.5723 141.683 107.191 8.32448 137.84 132.12 73.7695 25.5201 6.42413 19.096 101.846
internal_count=9270 7725 1545 180 4008 3717 90 1365 1259 900 151 40 111 2698
is_linear=0
shrinkage=0.05


Tree=4
num_leaves=15
num_cat=0
split_feature=1 7 4 1 4 7 3 6 4 1 0 7 1 0
split_gain=47.6014 7.32798 6.7591 6.29576 5.96005 3.8383 3.34003 3.32253 3.24957 3.16496 2.93459 3.51882 5.37054 3.2299
threshold=0.79213483146067432 0.01616047864808939 -0.043531449693776002 0.89325842696629221 -0.042178112301349553 0.0070573456000657892 0.021629966209206302 0.027667779864059008 0.017210550320282552 0.62359550561797761 0.050561797752808994 0.020508832548869843 0.97191011235955072 0.98314606741573041
decision_type=2 2 2 2 2 2 2 2 2 2 2 2 2 2
left_child=1 4 -2 -4 9 -6 7 10 -3 -1 -5 12 -12 -13
right_child=2 8 3 6 5 -7 -8 -9 -10 -11 11 13 -14 -15
leaf_value=0.013705925000584859 -0.025568861782051134 -0.0013815769458820381 0.0059272168790517324 -0.015884515513667076 0.017775247150614071 -0.032059327626061035 -0.024667673217361831 -0.040297434203025388 -0.020703444624845843 -0.034350758372212874 7.8947367392593224e-05 0.041984948244645041 0.044433250418452259 0.016249669821181478
leaf_weight=13.335723727010192 7.0103944828733793 83.691488744225353 44.803042270243168 2.7920653931796542 3.4383899327367535 85.179937962442636 2.218459101393818 0.87185633555054565 28.483808443881571 3.505922006443142 19.33915503136814 64.564937682822347 9.5496300496160966 17.153521470725536
leaf_count=236 152 2366 855 55 70 3602 20 10 982 57 272 440 49 104
internal_value=2.9896e-10 -0.0154124 0.0199034 0.0220251 -0.0248194 -0.029949 0.0281134 0.0293432 -0.00642741 0.00233737 0.0302262 0.0315221 0.015737 0.0368446
internal_weight=385.938 217.635 168.303 161.293 105.46 88.6183 116.49 114.271 112.175 16.8416 113.399 110.607 28.8888 81.7185
internal_count=9270 7313 1957 1805 3965 3672 950 930 3348 293 920 865 321 544
is_linear=0
shrinkage=0.05


Tree=5
num_leaves=15
num_cat=0
split_feature=1 7 4 4 7 4 3 3 0 2 7 5 1 5
split_gain=47.1685 6.41666 4.25387 4.21116 3.92279 4.69228 7.29439 4.08447 3.91592 5.27402 3.76634 3.08947 4.00215 3.26606
threshold=0.8370786516853933 0.01795951711192775 0.017210550320282552 -0.042178112301349553 0.027166307926354629 -0.03558967540609654 -0.015037744648040202 0.014706447597191346 0.99438202247191021 -0.39887640449438194 0.0070573456000657892 0.18333333333333338 0.96067415730337091 0.083333333333333356
decision_type=2 2 2 2 2 2 2 2 2 2 2 2 2 2
left_child=1 3 -3 -1 7 6 -6 11 9 -7 -5 13 -13 -2
right_child=4 2 -4 10 5 8 -8 -9 -10 -11 -12 12 -14 -15
leaf_value=-0.001080197598208332 0.022391690952543081 0.0013278300333353335 -0.021940765264618127 0.018608252809596892 0.04084093341495007 0.0089693275611402081 -0.047406174765573267 -0.025993010150698784 -0.0062605826101948068 0.052733195579504802 -0.027694588860468036 0.014239500008451911 0.040785697224225211 -0.013006718369091078
leaf_weight=20.664023706689477 10.710212704259904 74.465304623823613 25.629762483760715 3.9261110071092835 3.6870832657441497 9.2832890348508936 3.6858272613026193 4.7259631194174281 4.1320905834436408 32.041390851140022 101.17490590689704 42.483265364542603 21.867138288915157 13.721561495214699
leaf_count=399 145 1945 870 71 29 103 38 85 39 156 4440 630 135 185
internal_value=3.65206e-10 -0.0143062 -0.00478829 -0.0217838 0.0220276 0.0329144 -0.00366805 0.0155937 0.0387991 0.0433462 -0.0258058 0.0180722 0.0237463 0.00278126
internal_weight=372.198 225.86 100.095 125.765 146.338 52.8297 7.37291 93.5081 45.4568 41.3247 105.101 88.7822 64.3504 24.4318
internal_count=9270 7725 2815 4910 1545 365 67 1180 298 259 4511 1095 765 330
is_linear=0
shrinkage=0.05


Tree=6
num_leaves=15
num_cat=0
split_feature=1 7 4 1 4 4 6 7 0 7 0 0 2 4
split_gain=39.3686 6.24005 5.78205 4.67623 6.16028 3.36748 2.92959 2.90971 2.46277 3.08604 4.17467 3.56273 2.19681 3.2933
threshold=0.78089887640449451 0.018231543840972076 -0.042178112301349553 0.89325842696629221 -0.043531449693776002 0.011607665470346052 0.027667779864059008 0.0070573456000657892 0.050561797752808994 0.027166307926354629 0.98314606741573041 0.96067415730337091 0.1404494382022472 0.0032924101364701255
decision_type=2 2 2 2 2 2 2 2 2 2 2 2 2 2
left_child=1 2 -1 -2 -5 12 8 -4 -6 -10 11 -11 13 -3
right_child=3 5 7 4 6 -7 -8 -9 9 10 -12 -13 -14 -15
leaf_value=0.00080743258120147428 0.0051599670301147081 0.0016477386672494225 0.012312923057481589 -0.038984172104875224 -0.016391317333740951 -0.019694272145444603 -0.040251865155583481 -0.029986276690495774 0.020528250910521306 0.034030347207277684 0.00083778706937220795 0.073636702635939438 -0.012700810456825732 0.038644000836514703
leaf_weight=21.226807142607868 49.087957649026066 37.410489370115101 3.7463006824254981 2.9443462127819648 2.6314734062179914 25.438685697503388 0.81554317381232877 86.758274274878204 65.856262627989054 26.649652540683746 6.2653561756014815 8.2750853449106199 17.885402648709714 6.1910822587087742
leaf_count=394 1030 941 68 80 56 845 10 4297 646 145 63 30 547 118
internal_value=2.08219e-10 -0.0148982 -0.0226659 0.01819 0.0237341 -0.00476957 0.02574 -0.0281199 0.02659 0.0277885 0.0386347 0.0452032 0.0016215 0.00764957
internal_weight=361.183 198.657 111.731 162.526 113.438 86.9257 110.493 90.5046 109.678 107.046 41.1901 34.9247 61.487 43.6016
internal_count=9270 7210 4759 2060 1030 2451 950 4365 940 884 238 175 1606 1059
is_linear=0
shrinkage=0.05


Tree=7
num_leaves=15
num_cat=0
split_feature=1 7 4 4 7 0 0 0 4 7 2 6 0 3
split_gain=38.8899 8.19645 3.21927 3.18389 2.99567 4.56082 4.17531 2.91566 2.49108 3.14678 2.45624 2.43978 2.29818 2.27048
threshold=0.88202247191011252 0.01795951711192775 0.017896972366020097 -0.042178112301349553 0.027166307926354629 0.30898876404494385 0.98314606741573041 0.42134831460674166 0.019329746175432604 0.0080530814583392295 0.15168539325842698 0.015358624277638474 0.96067415730337091 0.014361166485571319
decision_type=2 2 2 2 2 2 2 2 2 2 2 2 2 2
left_child=1 3 10 -1 13 -6 12 -4 9 -5 -3 -10 -7 -2
right_child=4 2 7 8 5 6 -8 -9 11 -11 -12 -13 -14 -15
leaf_value=-0.0038551665522468213 0.019013732384655022 0.0067845752716987791 -0.035781393467391016 0.0093434999503718922 -0.0084057929205099465 0.035112034950215948 0.00098326549100788397 -0.0034821938511792904 -0.019009966744980684 -0.031988332619131671 -0.014171679788980396 0.015903013100582866 0.067615590336386006 -0.016697067178133438
leaf_weight=23.031570799648762 68.418909234926105 70.343596817459911 10.711119047366084 4.5083740819245568 5.2916492163203648 23.23044804809615 6.002637500409036 17.930976901203394 18.582510829903189 68.148618881590664 16.416327103041112 5.8744344264268866 9.6887106164358539 4.0071926405653349
leaf_count=413 737 1572 361 99 83 138 71 545 779 3489 609 270 38 66
internal_value=3.00866e-10 -0.011684 -0.00212835 -0.020769 0.0234939 0.0337843 0.0395871 -0.0163606 -0.0247001 -0.0293317 0.00270303 -0.0103288 0.0463898 0.0168374
internal_weight=352.187 235.548 115.402 120.146 116.64 44.2134 38.9218 28.6421 97.1139 72.657 86.7599 24.4569 32.9192 72.4261
internal_count=9270 8137 3087 5050 1133 330 247 906 4637 3588 2181 1049 176 803
is_linear=0
shrinkage=0.05


Tree=8
num_leaves=15
num_cat=0
split_feature=1 7 4 7 4 2 6 1 7 3 0 6 0 2
split_gain=33.7 4.90718 4.60076 3.90828 4.05863 3.7872 3.62376 3.41797 3.24817 3.2662 3.39917 3.16098 3.63214 2.81836
threshold=0.80337078651685401 0.018231543840972076 -0.042178112301349553 0.027166307926354629 -0.03558967540609654 -0.46629213483146054 0.015211574711071591 0.96067415730337091 0.02643804622114743 0.013628407421265322 0.12921348314606743 0.023980595796910083 0.99438202247191021 -0.016853932584269645
decision_type=2 2 2 2 2 2 2 2 2 2 2 2 2 2
left_child=1 2 -1 7 6 -6 -5 -2 9 10 -9 12 -7 -12
right_child=3 -3 -4 4 5 11 -8 8 -10 -11 13 -13 -14 -15
leaf_value=-0.00013970509834191198 0.0058884113522753119 -0.0046934922785501184 -0.02576242826499053 -0.048679299100501582 -6.586053067340982e-05 0.048554184770810901 0.021826628645830785 -0.040494283700756063 -0.022068826981890752 -0.022397335705231558 0.053509941761901762 -0.026426513098541816 -0.007832228305016932 0.018179271113045247
leaf_weight=21.904680592939258 70.595970903057605 87.40318750217557 86.728809393942356 2.1881640511564902 6.599542641080915 31.665366778150201 3.3369491170160472 0.63860691711307538 2.5285951197147361 2.0114359026774755 13.955934293568143 1.0462961960583914 2.8488034605979911 11.500026188790789
leaf_count=402 1249 2556 4458 33 99 175 36 10 14 26 82 10 37 83
internal_value=-8.93261e-11 -0.0135925 -0.0206443 0.0178649 0.0295939 0.0347849 -0.00927748 0.0121044 0.0257901 0.030706 0.0354749 0.0410777 0.0438106 0.0388394
internal_weight=344.952 196.037 108.633 148.916 47.6851 42.16 5.52511 101.231 30.6346 28.106 26.0946 35.5605 34.5142 25.456
internal_count=9270 7416 4860 1854 390 321 69 1464 215 201 175 222 212 165
is_linear=0
shrinkage=0.05


Tree=9
num_leaves=15
num_cat=0
split_feature=1 7 7 1 0 6 6 4 0 3 1 7 7 4
split_gain=33.0931 6.14405 3.41792 4.29106 3.97078 2.8837 2.7159 2.6276 2.56636 2.34038 2.21151 2.13087 2.08833 2.26694
threshold=0.89325842696629221 0.01795951711192775 0.020581198599587916 0.98314606741573041 0.21910112359550563 0.027667779864059008 0.011200069106291776 0.017210550320282552 0.98314606741573041 0.006308587911913713 0.9269662921348315 0.016019053931448583 0.0083628833437192508 -0.043531449693776002
decision_type=2 2 2 2 2 2 2 2 2 2 2 2 2 2
left_child=1 6 3 9 -4 8 -1 -3 -6 10 -2 -12 -8 -14
right_child=2 7 4 -5 5 -7 12 -9 -10 -11 11 -13 13 -15
leaf_value=-0.0336397664124021 0.0073144872998273077 0.0017267921047545425 -0.0073136630188302522 0.039373338467540181 0.03661174093573042 -0.039459992020710599 0.015698472486990644 -0.015153865062408487 0.0084804292275737683 0.019465841661954211 0.0071007626650837945 -0.04255602788795447 -0.00010844919159019773 -0.020548597949320593
leaf_weight=24.383453004993498 7.0556877013295987 87.781164334155619 6.8398628123104563 7.1019550431519738 60.580331373028457 0.60674687661230464 4.6013630805537096 30.183586681261659 10.154479440301655 7.0947408331558099 2.7069527283310872 6.2948516476899385 16.972454854287207 66.772997201420367
leaf_count=1157 100 2206 114 42 441 6 118 959 112 97 35 83 287 3513
internal_value=1.19995e-10 -0.0107028 0.0226599 0.008043 0.0281432 0.0315967 -0.0189971 -0.00268353 0.0327478 -0.00279989 -0.0132021 -0.0284066 -0.0146245 -0.0164562
internal_weight=339.131 230.695 108.436 30.2542 78.1814 71.3416 112.73 117.965 70.7348 23.1522 16.0575 9.0018 88.3468 83.7455
internal_count=9270 8240 1030 357 673 559 5075 3165 553 315 218 118 3918 3800
is_linear=0
shrinkage=0.05


Tree=10
num_leaves=15
num_cat=0
split_feature=1 7 4 7 4 3 4 6 1 4 3 7 4 4
split_gain=26.1416 3.77244 5.34593 3.44113 3.2033 2.71991 2.56318 2.85336 2.5615 3.17441 2.40039 2.28689 2.11564 1.95056
threshold=0.8370786516853933 0.01795951711192775 -0.042178112301349553 0.013207914920603135 -0.043531449693776002 -1.0000000180025095e-35 0.019329746175432604 0.015054629445111621 0.91573033707865181 -0.025300996977612168 0.019832578913812009 0.0080530814583392295 -0.045353003315025696 0.017896972366020097
decision_type=2 2 2 2 2 2 2 2 2 2 2 2 2 2
left_child=1 2 12 -2 5 -5 10 -8 9 -6 11 -4 -1 -3
right_child=3 13 6 4 8 -7 7 -9 -10 -11 -12 -13 -14 -15
leaf_value=-0.009844123446618655 -0.028326742829574644 -0.00040223236143072517 0.004142256165086876 0.0091162573092079049 0.032446365296995655 -0.055770252827416572 -0.020396903264806709 0.016404227539173557 0.025124771023615284 0.00093502982489592564 0.021657238544017989 -0.033164529356268575 0.02256147783491802 -0.016380832423984408
leaf_weight=9.5385881420224923 3.1796848280355325 76.221688860561699 4.2095534810796371 3.505062460899353 9.9437954146414977 1.6727404668927182 14.703300219960513 7.0359786599874488 83.889634463004768 29.866463132202625 1.6168862432241429 54.71962682926096 8.769364854320882 24.509327211417258
leaf_count=186 76 1977 95 56 138 58 695 320 740 477 106 3295 213 838
internal_value=4.38419e-10 -0.0113204 -0.0181259 0.0172136 0.0185466 -0.0174803 -0.0235112 -0.00828851 0.0201827 0.00940811 -0.0287534 -0.0304749 0.00604249 -0.00441286
internal_weight=333.382 201.324 100.593 132.057 128.878 5.1778 82.2853 21.7393 123.7 39.8103 60.5461 58.9292 18.308 100.731
internal_count=9270 7725 4910 1545 1469 114 4511 1015 1355 615 3496 3390 399 2815
is_linear=0
shrinkage=0.05


Tree=11
num_leaves=15
num_cat=0
split_feature=1 7 7 0 1 4 0 0 4 6 3 4 6 0
split_gain=26.8842 4.0131 3.3639 3.95322 3.75927 3.10507 2.58787 2.91428 2.57602 1.99834 1.92449 2.26933 1.85534 1.63004
threshold=0.80337078651685401 0.017882357195635756 0.025951171680061395 0.050561797752808994 0.96067415730337091 -0.042178112301349553 0.97191011235955072 0.23033707865168543 -0.012406312813846927 0.015952985619624171 0.019832578913812009 0.019329746175432604 0.015054629445111621 0.99438202247191021
decision_type=2 2 2 2 2 2 2 2 2 2 2 2 2 2
left_child=1 5 4 -4 -2 -1 7 -6 -8 -9 11 -7 -13 -5
right_child=2 -3 3 13 6 10 8 9 -10 -11 -12 12 -14 -15
leaf_value=-0.0012720340771927238 0.0040043095151006741 -0.0047165346055133943 -0.027020276865535243 0.032493349882946075 -0.030211681012619895 -0.030522199983565052 -0.02591088614387968 0.045987785230354419 0.024684265006882471 -0.02214056460707297 0.020039166826311492 -0.021795404862036932 0.0066716130238559492 -0.0027892838038261723
leaf_weight=19.31942739430815 64.863350770436227 92.281536990776658 2.483970253262668 44.758118619676679 0.80893519893289223 53.621829041279852 3.4438783172518015 15.371622032485899 4.8160081356763822 0.58034573495388109 1.7449724553152908 13.80871938262135 8.7140470817685109 3.3628487386740735
leaf_count=386 1188 2679 59 368 15 3269 38 93 38 8 107 668 307 47
internal_value=4.20194e-11 -0.0122627 0.0165097 0.0267518 0.0105124 -0.0193055 0.0265816 0.0373435 0.00306905 0.0423494 -0.0237056 -0.0249549 -0.0109661 0.0300211
internal_weight=329.98 189.491 140.489 50.6049 89.8841 97.209 25.0208 16.7609 8.25989 15.952 77.8896 76.1446 22.5228 48.121
internal_count=9270 7416 1854 474 1380 4737 192 116 76 101 4351 4244 975 415
is_linear=0
shrinkage=0.05


Tree=12
num_leaves=15
num_cat=0
split_feature=1 1 4 7 4 2 0 7 7 6 4 3 6 5
split_gain=22.1288 3.18197 4.20982 2.8195 3.64551 2.53271 2.1717 2.09168 2.0584 2.31131 1.95731 2.60199 1.98865 1.91991
threshold=0.82584269662921361 0.97191011235955072 -0.035833375522273836 0.01795951711192775 -0.042178112301349553 -1.0000000180025095e-35 0.14044943820224723 0.0070573456000657892 0.017342025016155341 0.027667779864059008 0.019329746175432604 0.019832578913812009 0.015054629445111621 0.88333333333333341
decision_type=2 2 2 2 2 2 2 2 2 2 2 2 2 2
left_child=3 8 -3 4 -1 6 -4 -6 -2 -10 11 -9 -12 -7
right_child=1 2 5 -5 7 13 -8 10 9 -11 12 -13 -14 -15
leaf_value=0.0028110158211729192 -0.0053333414151867549 -0.021875907533966857 -0.0040658618090221319 -0.0045912946906547947 0.013818650624013787 0.016819259805009198 0.044927371797706284 -0.030565645463746589 0.015187285539779655 -0.038039347999272409 -0.021872098623442259 0.021944088167386029 0.0074106118749552976 -0.041705184608697148
leaf_weight=18.995121111162007 16.279678619932383 3.2045363532379261 2.3170900885015753 95.003801710903645 3.3900247849524012 8.1133011141791904 23.561638321727514 50.981444463366643 76.866849123034626 1.1657302370294917 13.282792360521855 1.7885837224312116 9.0918630389496666 0.68267773836851198
leaf_count=395 334 48 38 2755 70 79 134 3313 994 11 667 104 318 10
internal_value=2.73494e-10 0.0156855 0.0278073 -0.0107949 -0.0167299 0.0328834 0.0405526 -0.0214321 0.0105762 0.0139209 -0.023183 -0.0284109 -0.0101652 0.00848334
internal_weight=324.725 132.192 37.8792 192.534 97.5298 34.6747 25.8787 78.5347 94.3123 78.0326 75.1447 52.77 22.3747 8.79598
internal_count=9270 1648 309 7622 4867 261 172 4472 1339 1005 4402 3417 985 89
is_linear=0
shrinkage=0.05


Tree=13
num_leaves=15
num_cat=0
split_feature=1 1 7 6 0 7 4 4 5 6 2 5 4 7
split_gain=21.0416 3.21315 2.24766 3.00202 2.16251 2.52184 2.05812 1.93465 1.96827 1.92743 1.81448 1.87959 1.60953 1.60536
threshold=0.82584269662921361 0.98314606741573041 0.01795951711192775 0.011200069106291776 0.028089887640449441 0.019714428273593498 0.026276036172351084 -0.042178112301349553 0.90555555555555567 0.023980595796910083 0.011235955056179791 0.02777777777777778 0.017210550320282552 0.015196330151498325
decision_type=2 2 2 2 2 2 2 2 2 2 2 2 2 2
left_child=2 4 3 12 -2 6 -6 13 -9 -7 11 -3 -1 -5
right_child=1 10 -4 7 5 9 -8 8 -10 -11 -12 -13 -14 -15
leaf_value=-0.044342852777899643 -0.032609895404008278 -0.027644841095380526 -0.0050004437878171382 0.010462252375302798 -0.0055234874704424494 0.018653076004606819 0.028013484617697135 -0.018216266848779649 0.015586153446998327 -0.030490012138969864 -0.01530741614449768 0.036696720283793963 -0.012283846704458756 -0.021434655809281267
leaf_weight=11.680654412368314 1.8012075859587628 0.49425712600350991 94.296013372484595 14.628791322000327 25.606535727158192 71.08516376838088 4.5246740132570258 54.446966603863984 3.9203194989822796 1.1837270781397808 1.4329913780093182 23.683430808130652 7.1206684233620754 4.2871343754231921
leaf_count=709 47 8 2755 249 479 823 73 3211 180 20 18 180 386 132
internal_value=2.29598e-11 0.0154553 -0.010564 -0.0159162 0.0113543 0.0124355 0.000250697 -0.0112816 -0.0157216 0.017443 0.0310871 0.0343357 -0.0334346 0.00251982
internal_weight=320.193 129.812 190.381 96.0845 104.201 102.4 30.1312 77.2832 58.3673 72.2689 25.6107 24.1777 18.8013 18.9159
internal_count=9270 1648 7622 4867 1442 1395 552 3772 3391 843 206 188 1095 381
is_linear=0
shrinkage=0.05


Tree=14
num_leaves=15
num_cat=0
split_feature=1 1 7 0 6 5 7 4 5 3 6 3 2 3
split_gain=19.4007 3.33934 2.37461 2.1583 1.92748 1.9939 1.68354 1.60338 1.56922 1.75723 1.70895 1.43655 1.83256 1.42573
threshold=0.78089887640449451 0.98314606741573041 0.014206776570408352 0.028089887640449441 0.011200069106291776 0.90555555555555567 0.017175821300611831 0.026276036172351084 0.88333333333333341 -0.022040356405469513 0.01101168521221753 0.018224333734519798 1.0000000180025095e-35 -0.012350848500915971
decision_type=2 2 2 2 2 2 2 2 2 2 2 2 2 2
left_child=2 3 4 -2 -1 -6 7 -5 9 -3 -10 -8 -13 -4
right_child=1 8 13 6 5 -7 11 -9 10 -11 -12 12 -14 -15
leaf_value=-0.03832079065392463 -0.031570212780558521 -0.013307384560815162 0.0030218061795809835 -0.0088067794486889981 -0.016967322053707733 0.026103153734996384 0.014979998623535299 0.024855470391877091 0.026775195414526262 0.036641917023839385 -0.038136467740364353 -0.033284323601364851 0.021916321779318404 -0.010056185936343252
leaf_weight=10.483327500289304 2.1327698212116948 1.4139106478542149 26.599131284980103 16.729275119490925 44.331293187569827 1.9840814908966411 90.801527196075767 3.4254406196996561 1.0133025310933583 22.144603272899985 1.0942965224385259 2.7236845064908257 1.6418880829587577 89.110986646730453
leaf_count=611 61 18 911 432 2199 87 1219 68 12 160 16 52 22 3402
internal_value=1.966e-10 0.0135586 -0.0112621 0.00982742 -0.0195732 -0.0146096 0.0108579 -0.00218114 0.0296248 0.0332243 -0.00835452 0.0136133 -0.0123081 -0.00704972
internal_weight=315.63 143.121 172.509 117.455 56.7987 46.3154 115.322 20.1547 25.6661 23.5585 2.1076 95.1671 4.36557 115.71
internal_count=9270 2060 7210 1854 2897 2286 1793 500 206 178 28 1293 74 4313
is_linear=0
shrinkage=0.05


Tree=15
num_leaves=15
num_cat=0
split_feature=1 1 4 0 4 4 1 7 0 7 7 1 6 3
split_gain=15.0145 3.72765 2.80801 3.32006 2.27266 3.05075 2.57595 2.15678 2.10597 2.02137 1.93727 2.16384 1.69936 1.54397
threshold=0.80337078651685401 0.98314606741573041 -0.043531449693776002 0.78089887640449451 -0.043531449693776002 -0.046123525294134368 0.89325842696629221 0.016307738751807091 0.039325842696629219 0.0070573456000657892 0.020236692203380469 0.89325842696629221 0.023980595796910083 0.019832578913812009
decision_type=2 2 2 2 2 2 2 2 2 2 2 2 2 2
left_child=2 4 3 -1 5 6 -2 9 -6 -4 -10 -12 -9 -11
right_child=1 -3 7 -5 8 -7 -8 12 10 13 11 -13 -14 -15
leaf_value=0.012591471412835349 0.036863355375940064 0.029105119716093177 0.015313302544509785 -0.039963152617713667 -0.028754607246050414 -0.052909716289500697 -0.025776316965345821 -0.0082325974034900308 0.0018462821827933931 -0.022572377158976545 0.0013592552410337311 0.021981244108803966 0.026628334346437917 0.017303243922161329
leaf_weight=22.032761331647638 2.4128042925149202 26.216724550817162 3.3627359159290782 2.4722668165341011 2.4355561072006813 2.4879291534889481 2.2093353951349854 84.88669167063199 34.761160754133016 59.184642996639013 17.48122139275074 47.102297404780984 2.6859376281499854 1.8306642686948169
leaf_count=505 40 206 72 71 65 48 40 2951 683 3686 332 440 48 83
internal_value=-5.88764e-11 0.012493 -0.00958205 0.00593035 0.008265 -0.0174429 0.00766302 -0.0121061 0.0102131 -0.0190083 0.0114455 0.0165052 -0.00687481 -0.0211163
internal_weight=311.563 135.107 176.456 24.505 108.89 7.11007 4.62214 151.951 101.78 64.378 99.3447 64.5835 87.5726 61.0153
internal_count=9270 1854 7416 576 1648 128 80 6840 1520 3841 1455 772 2999 3769
is_linear=0
shrinkage=0.05


Tree=16
num_leaves=15
num_cat=0
split_feature=1 1 7 0 2 3 6 5 7 4 4 4 7 7
split_gain=14.8074 2.77418 2.33227 1.89741 1.73157 1.74844 1.72013 1.90534 1.59539 1.68785 1.5313 1.70454 1.47688 1.31354
threshold=0.78089887640449451 0.98314606741573041 0.014206776570408352 0.016853932584269666 0.011235955056179791 -0.022040356405469513 0.011200069106291776 0.90555555555555567 0.019148936491937416 0.026276036172351084 0.044820112823377473 -0.030579894156827585 0.0070573456000657892 0.015196330151498325
decision_type=2 2 2 2 2 2 2 2 2 2 2 2 2 2
left_child=2 3 6 -2 5 -3 -1 12 9 -5 11 -7 -8 -4
right_child=1 4 13 8 -6 10 7 -9 -10 -11 -12 -13 -14 -15
leaf_value=-0.036662049942212178 -0.036334609149299008 -0.015789764326118037 0.0087837678722840016 -0.0051277717581496591 -0.018758829313523948 -0.0029330623062580963 0.016164148873305851 0.021855607637219523 0.013118686690891189 0.024317141492074139 -0.021351999520166528 0.039441612340238748 -0.018991439332858413 -0.0077455130681446148
leaf_weight=9.9219932456035149 1.3574774279259134 1.4386224802583516 12.737882316112517 27.303861308377236 1.3521046005189408 2.5159378685057261 2.4916136637330046 2.6690447526052585 78.819568003062159 4.877598248422145 0.63590789213776489 20.664329733699557 37.526930039282888 103.713575522881
leaf_count=611 43 18 530 650 18 26 49 87 1069 92 5 139 2150 3783
internal_value=-3.08569e-10 0.0120449 -0.0099133 0.00846218 0.0263197 0.0293557 -0.018569 -0.0136207 0.00932954 -6.65839e-05 0.0326091 0.0349113 -0.0164619 -0.00587809
internal_weight=308.026 138.965 169.061 112.359 26.6069 25.2548 52.6096 42.6876 111.001 32.1815 23.8162 23.1803 40.0185 116.451
internal_count=9270 2060 7210 1854 206 188 2897 2286 1811 742 170 165 2199 4313
is_linear=0
shrinkage=0.05


Tree=17
num_leaves=15
num_cat=0
split_feature=1 1 4 1 7 7 0 5 0 7 4 6 4 0
split_gain=12.2823 2.35791 1.69967 2.13276 2.00937 1.53736 1.43891 2.18851 1.73542 1.43572 1.41538 1.47298 1.44651 1.3628
threshold=0.78089887640449451 0.98314606741573041 -0.043531449693776002 0.63483146067415741 0.016089511777215983 0.018954182848060264 0.98314606741573041 0.86111111111111127 0.14044943820224723 0.0070573456000657892 -0.030579894156827585 0.011569955842833031 0.044820112823377473 0.039325842696629219
decision_type=2 2 2 2 2 2 2 2 2 2 2 2 2 2
left_child=2 13 3 5 9 -1 8 -8 -3 -4 11 -10 -12 -2
right_child=1 6 4 -5 -6 -7 7 -9 10 -11 12 -13 -14 -15
leaf_value=0.017881613606453465 -0.023063848631671022 -0.007737409518044064 0.011332496489790275 -0.027025927745424207 -0.0060822682608985624 -0.0097806325918996517 0.01577564293988069 -0.046257067990341218 -0.040609029087452495 -0.020134340607042046 0.045322762343721845 0.02021363838479549 -0.017226386492243454 0.0086264753700235775
leaf_weight=14.713722355663782 2.5632776608690611 2.1965034138411346 3.2529766783118239 3.9590149340219787 82.889491740381345 6.6158890482038251 6.5011389646679154 0.76139603834599245 0.43360411562026202 55.464621499646455 13.782132767140858 2.2668790016323328 0.48746098577976305 108.46979951160029
leaf_count=269 79 32 70 104 2964 187 66 15 5 3616 67 19 2 1775
internal_value=1.65968e-10 0.0110243 -0.00909161 0.00275695 -0.0112121 0.00924774 0.0242183 0.00446089 0.0311123 -0.0182305 0.0362915 0.00211276 0.0421978 0.00769555
internal_weight=304.358 137.462 166.896 25.2886 141.607 21.3296 26.4291 7.26254 19.1666 58.7176 16.9701 2.70048 14.2696 111.033
internal_count=9270 2060 7210 560 6650 456 206 81 125 3686 93 24 69 1854
is_linear=0
shrinkage=0.05


Tree=18
num_leaves=15
num_cat=0
split_feature=1 4 7 7 6 7 6 5 7 6 7 6 0 0
split_gain=11.3101 3.59831 2.21978 2.03772 2.05574 1.52083 1.73317 1.49784 1.40939 1.88578 1.49205 1.39959 1.28537 1.24774
threshold=0.89325842696629221 -0.043531449693776002 0.014206776570408352 0.013564549524976238 0.023980595796910083 0.0070573456000657892 0.015777744436215897 0.15000000000000002 0.023031674633909562 0.018911739148065328 0.015709554314835384 0.01591784592363496 0.050561797752808994 0.91573033707865181
decision_type=2 2 2 2 2 2 2 2 2 2 2 2 2 2
left_child=2 -2 5 -3 12 -1 -7 8 9 10 -4 -10 -5 -6
right_child=1 3 7 4 13 6 -8 -9 11 -11 -12 -13 -14 -15
leaf_value=0.014261880234037025 -0.029491212605682021 -0.028746071210090648 0.01509579332514787 -0.015011576407939743 0.018655305366148837 -0.021943780931384858 -0.00075759613161751357 -0.0060447949627714832 0.02549936881337489 0.034180783607889981 -0.012895719650792933 -0.021714683677055032 0.019831667688009553 -0.047127872818180316
leaf_weight=3.4610889852046958 3.5590497022494665 1.5599465519189823 5.4592468971386614 2.0414532846771172 0.44245036318898101 40.222052193246782 12.700762350112198 115.43062161467969 9.9771148161962611 2.3291358798742285 17.750130998902023 1.0511507149785746 83.481517981737852 1.0873261541128156
leaf_count=73 80 34 164 56 7 2424 594 4003 232 66 659 25 840 13
internal_value=1.44924e-10 0.0144921 -0.00644876 0.016568 0.0176972 -0.0148356 -0.0169677 -0.00326101 0.00545357 -0.00114914 -0.00596004 0.019568 0.0188361 -0.0282483
internal_weight=300.553 92.1717 208.381 88.6127 87.0527 56.3839 52.9228 151.997 36.5668 25.5385 23.2094 11.0283 85.523 1.52978
internal_count=9270 1030 8240 950 916 3091 3018 5149 1146 889 823 257 896 20
is_linear=0
shrinkage=0.05


Tree=19
num_leaves=15
num_cat=0
split_feature=1 7 4 7 7 1 2 4 7 2 2 7 2 4
split_gain=10.9389 2.2853 2.15103 1.95741 1.72034 1.23083 1.56187 1.44177 1.26711 1.69208 1.80653 2.58959 1.45495 1.29857
threshold=0.89325842696629221 0.012659293265255831 -0.043531449693776002 0.013564549524976238 0.0076276902007656059 0.98314606741573041 0.011235955056179791 -0.035833375522273836 0.020318472624127022 -0.44382022471910104 -0.044943820224719107 0.019148936491937416 -0.63483146067415719 -0.0019871056518531139
decision_type=2 2 2 2 2 2 2 2 2 2 2 2 2 2
left_child=1 4 -2 -4 -1 8 7 -7 9 -5 -11 -12 13 -10
right_child=2 -3 3 5 -6 6 -8 -9 12 10 11 -13 -14 -15
leaf_value=0.0098052744856615952 -0.021444067002744382 -0.0039308651787717721 -0.028599312888948372 0.032083856360543873 -0.022003644694709765 -0.01296654731366228 -0.016883653928337433 0.032640197043620305 0.013733423976381155 -0.026421979571247135 0.021198421079687446 -0.037631418500559032 0.019971744411478386 -0.032667674873311396
leaf_weight=4.3323708856478325 3.1914602657780042 172.64759419998154 1.5439594741910685 2.511202625930312 30.370247303042561 1.3560767788440049 1.3274202421307553 21.895936094224453 2.338206703774631 5.5131099261343488 6.9384559663012588 1.4757640324532983 40.941029936075211 1.8604893535375584
leaf_count=110 80 6271 34 35 1859 16 16 154 37 99 96 27 392 44
internal_value=2.2477e-10 -0.00633817 0.0143706 0.015901 -0.0178691 0.0170174 0.0264854 0.0295554 0.0128753 0.000899152 -0.00649634 0.00797902 0.0171227 -0.00915624
internal_weight=298.243 207.35 90.8931 87.7017 34.7026 86.1577 24.5794 23.252 61.5783 16.4385 13.9273 8.41422 45.1397 4.1987
internal_count=9270 8240 1030 950 1969 916 186 170 730 257 222 123 473 81
is_linear=0
shrinkage=0.05


Tree=20
num_leaves=15
num_cat=0
split_feature=1 7 7 6 4 7 7 0 0 7 1 7 0 2
split_gain=10.5943 2.32795 1.91094 1.4931 1.53299 3.03028 1.60438 1.90323 3.06518 1.43755 2.8268 2.57537 2.03051 1.88807
threshold=0.89325842696629221 0.012659293265255831 0.0076276902007656059 0.027667779864059008 -0.035833375522273836 0.029676518121829181 0.027166307926354629 0.98314606741573041 0.78089887640449451 0.022946979219282789 0.96067415730337091 0.021686267123913344 0.42134831460674166 1.0000000180025095e-35
decision_type=2 2 2 2 2 2 2 2 2 2 2 2 2 2
left_child=1 2 -1 4 5 -2 9 8 -8 10 11 12 -6 -12
right_child=3 -3 -4 -5 6 -7 7 -9 -10 -11 13 -13 -14 -15
leaf_value=0.01040563040662623 0.011538705416715617 -0.0038363878097576044 -0.022709919294962189 -0.034735734797256931 0.026973063204089043 -0.044811394683945162 0.0058779010485180416 -0.0018583483733834124 0.044347204030230014 -0.0012832848221311023 0.042064721206272478 0.035163661522961319 -0.01272872007516089 -0.007436904735327929
leaf_weight=4.4969402276910833 8.8495439090765995 172.89119848236442 29.035611053928733 0.6194392004981627 3.1487246761098566 2.1510893320664755 7.9449968608096304 4.7468799892812958 15.960046172142027 15.040867941454051 11.035244851373134 4.4661308713257304 13.60535705834627 1.9691134355962265
leaf_count=110 122 6271 1859 10 44 38 98 60 95 176 86 47 229 25
internal_value=1.28687e-10 -0.0062289 -0.0180962 0.0142706 0.0149945 -0.00229602 0.0174338 0.0267783 0.0323111 0.0115745 0.0171012 0.00531973 -0.00416826 0.0345734
internal_weight=295.961 206.424 33.5326 89.5374 88.918 11.0006 77.9174 28.6519 23.905 49.2654 34.2246 21.2202 16.7541 13.0044
internal_count=9270 8240 1969 1030 1020 160 860 253 193 607 431 320 273 111
is_linear=0
shrinkage=0.05


Tree=21
num_leaves=15
num_cat=0
split_feature=1 7 7 4 7 0 6 1 4 2 7 0 3 1
split_gain=10.2236 2.09588 1.70598 1.50079 1.45003 1.21043 1.1205 1.10703 1.55542 2.21605 2.19189 1.69955 1.55515 1.54697
threshold=0.89325842696629221 0.012659293265255831 0.0076276902007656059 -0.043531449693776002 0.013362417175606165 0.050561797752808994 0.023980595796910083 0.75842696629213491 -0.043531449693776002 0.25280898876404506 0.018954182848060264 0.46629213483146076 -0.026503202857854066 0.64606741573033721
decision_type=2 2 2 2 2 2 2 2 2 2 2 2 2 2
left_child=1 2 -1 -2 -5 -6 -7 8 9 10 11 -3 -9 -13
right_child=3 7 -4 4 5 6 -8 12 -10 -11 -12 13 -14 -15
leaf_value=0.009007332531932569 -0.01781998567672707 0.0059549702925137324 -0.022095333232217212 -0.025646660850448772 -0.015746214626882006 0.018231484686597962 -0.018416930563378314 0.034912196125098528 -0.008758422498606179 -0.023581003213685087 -0.0089561266604479949 0.051495172750626143 0.0001775280927804883 -0.018042695406146423
leaf_weight=4.6375378472730509 2.7215226707048705 6.1650338685140067 27.890043725725263 1.2444817796349514 2.1097860662266603 79.927251787856221 1.3760041249915946 2.4768082033842793 105.25467497715726 4.2198222335427991 6.5519852293655267 4.8969316212460399 44.192246249411255 0.42159991338849057
leaf_count=110 80 108 1859 30 56 844 20 29 4684 108 185 54 1080 23
internal_value=-1.71732e-10 -0.00606055 -0.0175246 0.0142434 0.0154701 0.0163801 0.017395 -0.00383186 -0.00623038 0.00558823 0.0132933 0.0256883 0.00271467 0.0439998
internal_weight=294.086 206.707 32.5276 87.379 84.6575 83.413 81.3033 174.179 127.51 22.2554 18.0356 11.4836 46.6691 5.31853
internal_count=9270 8240 1969 1030 950 920 864 6271 5162 478 370 185 1109 77
is_linear=0
shrinkage=0.05


Tree=22
num_leaves=15
num_cat=0
split_feature=1 1 5 6 4 7 3 4 0 3 7 7 7 5
split_gain=9.72106 1.95428 1.51112 1.59502 1.40459 1.34038 1.3728 1.44556 1.43184 1.33277 1.97487 1.22936 1.34958 1.22515
threshold=0.79213483146067432 0.98314606741573041 0.88333333333333341 0.01101168521221753 0.029715012890065475 0.017342025016155341 -0.026503202857854066 -0.043531449693776002 0.039325842696629219 0.018224333734519798 0.019489293854912489 0.012659293265255831 0.0070573456000657892 0.038888888888888896
decision_type=2 2 2 2 2 2 2 2 2 2 2 2 2 2
left_child=9 5 4 -4 13 -2 -7 -8 -9 11 -11 12 -1 -3
right_child=1 2 3 -5 -6 6 7 8 -10 10 -12 -13 -14 -15
leaf_value=0.0083155829861263856 -0.0046476708502216166 -0.018023890000106142 0.022507786980392505 -0.041796444277712869 -0.013418373773567924 0.038197624099849163 -0.020548496920347208 -0.024887322560058683 0.010965424189147314 0.027717058622752644 -0.01061284390774352 -0.0070360119987636404 -0.022507181882674848 0.032479837540649432
leaf_weight=3.583635579794648 18.903863190673292 0.66288693621755612 0.96457412466406722 1.026523847132921 1.4723144676536311 3.1521105375140896 3.223421490751206 1.9679960962384928 76.06321685668081 5.3340781098231655 6.3309322781860828 122.54657715838403 25.170026849023998 19.799613460898399
leaf_count=71 474 12 12 16 14 32 79 64 1102 156 199 5099 1788 152
internal_value=2.00316e-10 0.0103123 0.0229455 -0.0135346 0.0267027 0.00719461 0.00987019 0.00832027 0.00975773 -0.0080652 0.0077189 -0.00932483 -0.0185153 0.0300802
internal_weight=290.202 127.237 23.9259 1.9911 21.9348 103.311 84.4067 81.2546 78.0312 162.965 11.665 151.3 28.7537 20.4625
internal_count=9270 1957 206 28 178 1751 1277 1245 1166 7313 355 6958 1859 164
is_linear=0
shrinkage=0.05


Tree=23
num_leaves=15
num_cat=0
split_feature=1 7 1 7 7 0 2 0 0 0 7 7 7 6
split_gain=8.32695 1.78996 2.2456 1.9967 1.93363 2.12822 1.74895 1.56723 1.63558 1.33691 1.29423 1.25168 1.40237 1.54575
threshold=0.79213483146067432 0.025951171680061395 0.96067415730337091 0.022169188424248754 0.024446584655149029 0.80337078651685401 1.0000000180025095e-35 0.050561797752808994 0.98314606741573041 0.90449438202247201 0.013737608113728032 0.017342025016155341 0.023340927537131899 0.0094836317969536378
decision_type=2 2 2 2 2 2 2 2 2 2 2 2 2 2
left_child=-1 2 9 6 5 -5 10 -3 -9 11 -4 -2 13 -13
right_child=1 7 3 4 -6 -7 -8 8 -10 -11 -12 12 -14 -15
leaf_value=-0.0074580782552086319 -0.0078987785054574992 -0.019909214951502798 -0.019723725354413184 0.02365843615020476 0.025596719618787435 -0.041058137898456269 -0.009914410558003366 0.02378002054629344 -0.0045046665538322431 -0.011305815717433977 0.040537370221979514 -0.016820140953954666 -0.0091892326995047825 0.019301959071119285
leaf_weight=162.2004116626922 12.919214940164236 1.8448862158693362 0.38476320728659885 1.0933399535715569 2.5916408114135265 2.9685223773121834 1.9262435296550382 35.617198619060218 5.6047802651301017 16.606682536192238 10.907952998764811 2.595444853417578 6.8226678892970076 23.310837174765766
leaf_count=7313 369 59 6 9 24 36 28 347 79 310 89 60 136 405
internal_value=1.71004e-10 0.00964515 0.00520642 0.0193993 -0.00280666 -0.0224058 0.0299876 0.0177994 0.0199187 0.000440818 0.0370467 0.00486497 0.00998805 0.0151924
internal_weight=287.395 125.194 82.1273 19.8725 6.6535 4.06186 13.219 43.0669 41.222 62.2548 11.2927 45.6482 32.7289 25.9063
internal_count=9270 1957 1472 192 69 45 123 485 426 1280 95 970 601 465
is_linear=0
shrinkage=0.05


Tree=24
num_leaves=15
num_cat=0
split_feature=1 7 7 4 3 3 7 1 2 1 0 3 6 4
split_gain=7.16577 1.52324 1.50012 1.4901 1.20844 1.03442 1.51266 1.20585 0.954228 0.937545 1.24214 1.83718 1.28193 1.24726
threshold=0.89325842696629221 0.012659293265255831 0.0083628833437192508 -0.043531449693776002 -0.01037643240001628 -0.015037744648040202 0.024920220158213793 0.91573033707865181 0.14606741573033707 0.98314606741573041 0.98314606741573041 0.0078709722981511552 0.016875160575085896 0.044820112823377473
decision_type=2 2 2 2 2 2 2 2 2 2 2 2 2 2
left_child=1 2 8 -2 5 -5 7 -7 -1 -6 13 -12 -13 -11
right_child=3 -3 -4 4 9 6 -8 -9 -10 10 11 12 -14 -15
leaf_value=-0.011032278636132944 -0.018875405643234505 -0.0032144875707305906 -0.020296085622937752 0.012722998547190915 0.012440603165824833 0.0097897313012187317 0.007656595576856981 -0.045439105673444544 0.024376367455562251 0.037552832547776638 0.021567349221753886 -0.052748045710475616 0.01770462079285855 -0.019428480811874239
leaf_weight=3.0187551947310594 2.8659983822144559 170.96670595277101 25.085366965737194 8.9968269728124159 46.259842809755355 0.94800624996423577 4.7809400707483292 2.5298916324973106 2.7354193571954966 12.159434175118804 3.6479803081601849 0.9053769204765556 0.38115879334509373 0.43947541341185647
leaf_count=116 80 6271 1787 100 592 17 46 47 66 85 37 17 5 4
internal_value=-3.567e-11 -0.00510584 -0.0151607 0.0121945 0.0135098 0.0016503 -0.0104832 -0.0315605 0.00691719 0.0166428 0.0264603 0.00407659 -0.0332608 0.0342827
internal_weight=285.721 201.806 30.8395 83.9149 81.0489 17.2557 8.25884 3.4779 5.75417 63.7933 17.5334 4.93452 1.28654 12.5989
internal_count=9270 8240 1969 1030 950 210 110 64 182 740 148 59 22 89
is_linear=0
shrinkage=0.05


Tree=25
num_leaves=15
num_cat=0
split_feature=1 1 4 6 7 7 3 5 6 0 7 0 4 2
split_gain=6.78657 1.52979 1.04633 1.77777 1.03909 1.2442 0.978107 0.920651 1.2365 0.97568 0.887041 1.21674 2.7159 2.90741
threshold=0.79213483146067432 0.98314606741573041 -0.030579894156827585 0.011569955842833031 0.012659293265255831 0.0070573456000657892 -0.0076718381665754802 0.88333333333333341 0.01101168521221753 0.14044943820224723 0.017342025016155341 0.90449438202247201 0.022566823884922465 1.0000000180025095e-35
decision_type=2 2 2 2 2 2 2 2 2 2 2 2 2 2
left_child=4 10 3 -3 5 -1 -5 9 -9 -4 -2 -12 13 -13
right_child=1 2 7 6 -6 -7 -8 8 -10 -11 11 12 -14 -15
leaf_value=0.010015374672270313 -0.0037192875493314878 -0.048091765949094652 -0.005369892813542148 0.026379681708450359 -0.0048139771729250836 -0.019314039989036014 -0.02582107997385032 0.023970066233507271 -0.034020591789562488 0.031766351284585624 0.012776985840537033 -0.030982531816101801 0.025342830121160183 0.0049482751332871324
leaf_weight=3.5805351622402695 18.34767648531124 0.57904274296015801 1.6823874954134286 2.4867708254605541 133.39834230020642 24.391820691525936 0.33150531910359804 0.86028266325592884 0.85729165747761726 15.658715870231388 52.351172326598316 7.9062233129516306 6.9798903968185178 14.698937734588979
leaf_count=72 474 10 25 24 5422 1819 8 8 16 115 856 97 99 225
internal_value=-8.02758e-11 0.00882119 0.0203721 -0.00417071 -0.00672248 -0.0153437 0.0150851 0.0247368 -0.00684252 0.0280671 0.00605907 0.00826714 0.000130074 -0.00839879
internal_weight=284.111 122.74 22.456 3.39732 161.371 27.9724 2.81828 19.0587 1.71757 17.3411 100.284 81.9362 29.5851 22.6052
internal_count=9270 1957 206 42 7313 1891 32 164 24 140 1751 1277 421 322
is_linear=0
shrinkage=0.05


Tree=26
num_leaves=15
num_cat=0
split_feature=1 4 7 7 7 0 6 7 7 6 1 3 4 6
split_gain=6.84565 1.36375 1.33058 1.25662 1.14531 1.10389 1.10781 0.85037 1.76912 1.35944 1.19566 1.14941 1.07662 1.02023
threshold=0.89325842696629221 -0.043531449693776002 0.012659293265255831 0.0070573456000657892 0.013362417175606165 0.050561797752808994 0.027667779864059008 0.032176407521962803 0.025614282555239589 0.015358624277638474 0.54494382022471921 0.018224333734519798 -0.03558967540609654 0.027667779864059008
decision_type=2 2 2 2 2 2 2 2 2 2 2 2 2 2
left_child=2 -2 3 -1 -3 -6 -7 8 12 10 -10 -12 -4 -14
right_child=1 4 7 -5 5 6 -8 -9 9 -11 11 -13 13 -15
leaf_value=0.010279196878025129 -0.018229708618501105 -0.023695307392962991 0.0029861555817011208 -0.018506382536005998 -0.016461223738694221 0.015871575288782854 -0.029199037547519374 -0.025391683460362021 0.0016346258389729846 -0.013386646056761096 0.03246660631740652 -0.014389987298173985 -0.0078315615702659307 0.020804384522754724
leaf_weight=3.7605453655123737 2.7357929637655607 1.1778249330818642 34.302776467753574 25.740990865975618 2.0680721066892138 75.745486390776932 0.50458027888089318 3.2422463027760378 8.3823760580271536 4.1476388173177829 8.7881736513227189 0.93216080404818136 108.81525572715327 2.2650311337783924
leaf_count=73 80 30 991 1896 56 854 10 97 195 99 150 15 4671 53
internal_value=2.71527e-10 0.0120618 -0.00498531 -0.0146204 0.0133178 0.0141662 0.0151992 -0.00324644 -0.00267009 0.0101681 0.0159832 0.02705 -0.00469097 -0.00706724
internal_weight=282.609 82.2318 200.377 29.5015 79.496 78.3181 76.2501 170.876 167.633 22.2503 18.1027 9.72033 145.383 111.08
internal_count=9270 1030 8240 1969 950 920 864 6271 6174 459 360 165 5715 4724
is_linear=0
shrinkage=0.05


Tree=27
num_leaves=15
num_cat=0
split_feature=1 7 7 7 0 4 4 4 4 6 6 2 2 5
split_gain=6.61713 1.22079 1.1905 1.16215 1.01045 1.46601 2.56823 1.09031 2.01476 2.1885 1.94896 1.26637 1.04454 1.02382
threshold=0.89325842696629221 0.013362417175606165 0.012659293265255831 0.0076276902007656059 0.21910112359550563 -0.010329171654805883 -0.032409215220653889 -0.0083067958695001876 -0.019375606103095952 0.010468553453093804 0.011595937999535936 0.022471910112359567 0.022471910112359567 0.97222222222222232
decision_type=2 2 2 2 2 2 2 2 2 2 2 2 2 2
left_child=2 -2 3 -1 5 6 -3 8 9 12 -10 13 -6 -12
right_child=1 4 -4 -5 7 -7 -8 -9 10 -11 11 -13 -14 -15
leaf_value=0.0076806994253769524 -0.025732003904429299 -0.038218756751755442 -0.0032689356789282979 -0.018374981392477462 -0.05107061863363295 -0.024060295031547461 0.038080883052647688 0.019975189512585288 0.015110311819746591 0.018633287568815993 -0.049034141028889255 0.012123807096155717 0.01114690987052502 0.0079519331841023354
leaf_weight=4.5691540576517609 1.2070404728874553 0.68108726758509908 170.3644012552686 24.291555646341294 0.8778572399169231 3.5854172538965932 2.5640183109790087 40.377815676853061 3.1867736987769586 23.081908882595599 3.4809795822948217 0.98684176430106152 0.58598573040217161 0.65008400380611409
leaf_count=110 35 21 6271 1859 26 79 30 451 38 266 57 13 7 7
internal_value=1.04067e-10 0.0119386 -0.00490516 -0.0141308 0.012817 -0.00496194 0.0168363 0.0145198 0.00742243 0.0145034 -0.0128159 -0.0298324 -0.031749 -0.0402645
internal_weight=280.491 81.2658 199.225 28.8607 80.0588 6.83052 3.24511 73.2282 32.8504 24.5458 8.30468 5.11791 1.46384 4.13106
internal_count=9270 1030 8240 1969 995 130 51 865 414 299 115 77 33 64
is_linear=0
shrinkage=0.05


Tree=28
num_leaves=15
num_cat=0
split_feature=1 4 7 7 7 7 6 7 4 1 6 3 0 4
split_gain=6.21547 1.15302 1.06434 1.09733 1.00585 1.53685 1.20622 0.988445 0.953482 0.947263 0.848524 1.0293 0.819472 1.54671
threshold=0.89325842696629221 -0.043531449693776002 0.012659293265255831 0.0070573456000657892 0.032176407521962803 0.025614282555239589 0.015358624277638474 0.013362417175606165 -0.03558967540609654 0.54494382022471921 0.010141157987983944 -0.010070727445876502 0.21910112359550563 -0.010329171654805883
decision_type=2 2 2 2 2 2 2 2 2 2 2 2 2 2
left_child=2 -2 3 -1 5 8 9 -3 -4 10 -7 -12 13 -9
right_child=1 7 4 -5 -6 6 -8 12 -10 -11 11 -13 -14 -15
leaf_value=0.0098367943638315598 -0.016590476653741255 -0.022050133107228614 0.0027367341902691626 -0.017299614665077314 -0.028040531777101387 0.018834758285690856 -0.013151613670266944 0.020351061351409721 -0.0066861927644445013 0.024996065175237895 0.017666540780040006 -0.023422034375676762 0.015193652100441102 -0.022577452569436912
leaf_weight=3.6922261156141785 2.6447009132243684 1.1251560514792789 34.655831440119073 24.643719372339547 2.9912304021418086 3.2717448696494156 3.9323060652241102 2.9250051425769925 111.3707014801912 9.50238263979554 1.4403564203530574 3.4763117283582661 69.848555340431631 3.5282844007015219
leaf_count=73 80 30 991 1896 97 65 99 41 4724 165 33 97 800 79
internal_value=3.6925e-10 0.0116781 -0.00473436 -0.0135489 -0.00320024 -0.0025934 0.00956439 0.0128429 -0.00444649 0.0150472 0.00203796 -0.0104335 0.013636 -0.0029999
internal_weight=279.049 80.0717 198.977 28.3359 170.641 167.65 21.6231 77.427 146.027 17.6908 8.18841 4.91667 76.3018 6.45329
internal_count=9270 1030 8240 1969 6271 6174 459 950 5715 360 195 130 920 120
is_linear=0
shrinkage=0.05


Tree=29
num_leaves=15
num_cat=0
split_feature=1 7 7 7 2 4 7 0 2 4 2 6 4 5
split_gain=5.69383 0.985045 0.919964 1.04242 0.879793 0.877082 2.20529 1.10131 1.49655 1.3619 1.31434 1.13865 1.08056 1.86751
threshold=0.89325842696629221 0.013362417175606165 0.012659293265255831 0.0070573456000657892 0.15168539325842698 -0.035833375522273836 0.029676518121829181 0.81460674157303381 -0.016853932584269645 0.038909747882340862 -0.22471910112359544 0.01075488178717931 -0.030227081454995006 0.18333333333333338
decision_type=2 2 2 2 2 2 2 2 2 2 2 2 2 2
left_child=2 -2 3 4 -1 6 -3 9 -9 10 -7 -10 -13 -14
right_child=1 5 -4 -5 -6 7 -8 8 11 -11 -12 12 13 -15
leaf_value=-0.014147661405066174 -0.022998861164357606 0.0095213500423240241 -0.0031130428592073458 -0.016543962800569943 0.026109634328374792 0.013443555609780271 -0.043891759045511673 0.027921433636499168 0.024967119287266845 -0.038620676353963414 -0.016637055526807876 0.032660314147611308 -0.032155402332558251 0.0062882963590039382
leaf_weight=1.539431009441617 1.1659858636558045 8.1342940176837129 170.35564026073553 24.12385545251891 2.1549281887710094 16.722362955566503 1.4529550150036801 20.98702470399439 7.4510305356234374 0.73837517388164897 3.6619489490985861 1.6236141622066522 2.9767996761947897 14.405535430647431
leaf_count=37 35 115 6271 1896 36 234 38 204 82 14 60 21 46 181
internal_value=-1.98896e-10 0.011238 -0.00453191 -0.0128114 0.00989422 0.0120329 -0.00195459 0.0139887 0.0181569 0.00422884 0.00751441 0.00967641 0.00273354 -0.00168646
internal_weight=277.494 79.3199 198.174 27.8182 3.69436 78.1539 9.58725 68.5667 47.444 21.1227 20.3843 26.457 19.0059 17.3823
internal_count=9270 1030 8240 1969 73 995 153 842 534 308 294 330 248 227
is_linear=0
shrinkage=0.05


Tree=30
num_leaves=15
num_cat=0
split_feature=1 5 4 5 7 0 7 7 7 7 7 2 1 4
split_gain=5.19075 0.879934 1.27303 0.974237 1.13719 1.0978 1.11417 0.997326 1.04976 0.820453 1.26253 0.9621 0.966033 0.865157
threshold=0.89325842696629221 0.15000000000000002 -0.043531449693776002 0.083333333333333356 0.030782352420441 0.93820224719101131 0.023226005748221177 0.020812060486824369 0.016730532679318923 0.025614282555239589 0.032176407521962803 -0.56741573033707848 0.54494382022471921 -0.035833375522273836
decision_type=2 2 2 2 2 2 2 2 2 2 2 2 2 2
left_child=9 3 -3 5 -5 6 7 8 -2 13 11 -11 -13 -1
right_child=1 2 -4 4 -6 -7 -8 -9 -10 10 -12 12 -14 -15
leaf_value=0.0013135285581311715 0.017059865675984966 -0.032373341350180537 0.01435023726677799 -0.025537803161411007 0.012878335558255752 0.026661232126818726 -0.028571725684541496 0.035590358829233171 -0.037253324521614777 -0.017544762973233621 -0.0236647073104683 0.00043006874248866487 0.022462122707758197 -0.0073126901369334881
leaf_weight=36.438474488677457 0.99819658137857759 0.57748628314584394 62.13403377821669 4.5868580932728937 2.1862528249621391 4.1593545628711581 1.8723836448043583 1.2111292500048874 0.70067837089300156 2.2329778354615035 2.5573827922344199 9.3203825829550642 9.7709837760776264 137.50429762713611
leaf_count=1164 13 40 770 78 22 50 33 10 14 50 97 240 169 6520
internal_value=2.07469e-11 0.0108049 0.0134186 0.00019571 -0.0130762 0.0105529 -0.00564491 0.0126414 -0.0108441 -0.00431632 0.00423891 0.00849547 0.0122629 -0.00550844
internal_weight=276.251 78.4264 62.7115 15.7149 6.77311 8.94174 4.78239 2.91 1.69887 197.824 23.8817 21.3243 19.0914 173.943
internal_count=9270 1030 810 220 100 120 70 37 27 8240 556 459 409 7684
is_linear=0
shrinkage=0.05


Tree=31
num_leaves=15
num_cat=0
split_feature=1 5 6 4 0 4 7 0 1 0 2 7 6 3
split_gain=4.45258 0.991563 1.03289 0.980094 0.755176 1.24377 1.00812 1.95002 1.33031 0.964162 1.23618 1.02977 1.21619 0.872218
threshold=0.89325842696629221 0.15000000000000002 0.012399514937492122 -0.043531449693776002 0.23033707865168543 -0.010329171654805883 0.020508832548869843 0.98314606741573041 0.98314606741573041 0.42134831460674166 -0.044943820224719107 0.019148936491937416 0.013577846281203848 -0.0079947941464673881
decision_type=2 2 2 2 2 2 2 2 2 2 2 2 2 2
left_child=-1 2 -2 -3 5 -5 8 -8 9 -6 13 12 -12 -11
right_child=1 3 -4 4 6 -7 7 -9 -10 10 11 -13 -14 -15
leaf_value=-0.0040080153132219373 0.011618965207219632 -0.028674814916399862 -0.012715789244281312 0.019049596559389134 0.025617227443339281 -0.022811561986117279 0.023925421810095628 -0.0049778660715264402 0.028446063752001861 0.014003274645215079 0.025320964409917664 -0.029047342828088421 -0.018972632843079876 -0.034448465842238846
leaf_weight=196.63973776483908 7.3151840115897349 0.49623008072376151 8.1790502155199629 2.3146252110600471 1.3657104447484005 2.855644146911799 34.555551003664732 6.6124321715906254 3.1952551342546931 0.56769122555851925 4.2731057591736317 0.84011749550700177 1.3575563281774519 3.9366326406598073
leaf_count=8240 90 40 130 32 18 69 332 92 26 11 60 19 25 86
internal_value=7.67054e-11 0.0100443 -0.00121891 0.0128174 0.013601 -0.00402105 0.0152496 0.019275 0.00406235 -0.00391004 -0.00941671 0.0047305 0.013391 -0.0269073
internal_weight=274.505 77.8648 15.4942 62.3706 61.8743 5.17027 56.7041 41.168 15.5361 12.3408 10.9751 6.47078 5.63066 4.50432
internal_count=9270 1030 220 810 770 101 669 424 245 219 201 104 85 97
is_linear=0
shrinkage=0.05


Tree=32
num_leaves=15
num_cat=0
split_feature=1 5 4 0 2 4 5 1 7 2 7 7 2 4
split_gain=3.94524 0.946486 0.8734 0.806598 1.4006 1.21809 0.989406 1.12667 0.88898 0.810825 0.783732 1.11138 0.876486 0.743896
threshold=0.89325842696629221 0.18333333333333338 -0.043531449693776002 0.81460674157303381 -0.25280898876404484 0.038909747882340862 0.90555555555555567 0.97191011235955072 0.024920220158213793 -1.0000000180025095e-35 0.012659293265255831 0.0070573456000657892 0.15168539325842698 -0.020740661406079514
decision_type=2 2 2 2 2 2 2 2 2 2 2 2 2 2
left_child=10 -2 -3 4 5 -4 7 -5 -8 -9 11 12 -1 -11
right_child=1 2 3 6 -6 -7 8 9 -10 13 -12 -13 -14 -15
leaf_value=-0.013026223182571581 0.00023070974029600839 -0.026939251144973267 0.015932100611051766 0.011291989715545764 -0.018548602261788984 -0.031374331308175123 -0.02366064400783556 0.038205624059601956 0.01648842366417019 -0.020411115133140031 -0.0024341264695393102 -0.015429002318511199 0.027095242763117901 0.018754855640917632
leaf_weight=1.5466520767658978 20.088470732793212 0.46027021668851276 13.495330768171698 18.970400208607316 4.0161350667476645 0.57608217187225896 1.96638960763812 10.001622334122656 1.6366198053583501 0.67680081352591503 169.73756296769716 23.632672414183617 2.2546623609960079 4.4265263732522717
leaf_count=37 280 40 194 256 67 13 30 72 18 11 6271 1896 36 49
internal_value=-1.18635e-10 0.00957958 0.0128573 0.0136546 0.00463392 0.0120422 0.0177532 0.0203384 -0.00580337 0.0302933 -0.00373738 -0.0114316 0.0114578 0.0110675
internal_weight=273.486 76.3146 56.2262 55.7659 18.0875 14.0714 37.6784 34.0753 3.60301 15.1049 197.172 27.434 3.80131 5.10333
internal_count=9270 1030 750 710 274 207 436 388 48 132 8240 1969 73 60
is_linear=0
shrinkage=0.05


Tree=33
num_leaves=15
num_cat=0
split_feature=1 7 5 7 7 7 6 7 4 4 4 0 6 2
split_gain=3.47286 0.92207 0.839548 1.09412 0.892051 0.82473 1.09654 0.76506 0.746811 0.773525 1.64119 1.68034 1.19315 1.23912
threshold=0.89325842696629221 0.013564549524976238 0.15000000000000002 0.016730532679318923 0.020037308647815982 0.022084945137776518 0.012399514937492122 0.028110065585420618 -0.043531449693776002 -0.019375606103095952 -0.0077310874839638987 0.21910112359550563 0.011595937999535936 0.022471910112359567
decision_type=2 2 2 2 2 2 2 2 2 2 2 2 2 2
left_child=-1 -2 3 -3 -5 -6 -7 -8 -4 -10 12 -12 -11 -14
right_child=1 2 8 4 5 6 7 -9 9 10 11 -13 13 -15
leaf_value=-0.0034901523654805771 -0.022569776479927459 0.026076757135470332 -0.024959532850994216 -0.030838057793308823 0.023138274341094445 0.012792087787288972 -0.034181339084691363 0.00022356335738186263 0.022909585682944284 0.012761648508594584 -0.020606923421236267 0.017273332306853559 -0.033298880815441634 0.016323403389143853
leaf_weight=196.91746586700901 1.3279782473109651 2.1695310045033684 0.41482974961399932 1.9591335961595167 1.9860115749761451 3.5701169054955226 2.7395622199401259 2.8224844699725509 15.029971262440084 3.0130826830863864 2.3727774592116537 32.488373573869467 4.2024256167933345 0.98884817585349072
leaf_count=8240 39 25 38 39 23 41 44 37 170 40 59 396 68 11
internal_value=1.16708e-10 0.00907881 0.00994292 -0.000493575 -0.00644087 4.81768e-05 -0.00676137 -0.0193489 0.0126251 0.0133113 0.00951757 0.0141923 -0.00972981 -0.0227369
internal_weight=272.003 75.0851 73.7571 15.2468 13.0773 11.1182 9.13216 5.56205 58.5103 58.0955 43.0655 34.8612 8.20436 5.19127
internal_count=9270 1030 991 209 184 145 122 81 782 744 574 455 119 79
is_linear=0
shrinkage=0.05


Tree=34
num_leaves=15
num_cat=0
split_feature=1 3 1 3 0 1 7 4 1 0 0 7 3 3
split_gain=3.06986 1.38207 0.941932 0.938051 1.35737 1.00548 0.992096 0.914604 0.896109 0.862743 0.818164 1.00913 2.24724 1.34688
threshold=0.75842696629213491 0.018224333734519798 0.99438202247191021 0.018224333734519798 0.21910112359550563 0.10674157303370788 0.019489293854912489 0.011607665470346052 0.63483146067415741 0.016853932584269666 0.99438202247191021 0.029676518121829181 -0.012204698548717976 -0.026283586675912796
decision_type=2 2 2 2 2 2 2 2 2 2 2 2 2 2
left_child=3 2 9 -1 5 -5 8 -4 -6 -2 11 -11 13 -13
right_child=1 -3 7 4 6 -7 -8 -9 -10 10 -12 12 -14 -15
leaf_value=-0.0058913209293177922 -0.026279342748606868 -0.01804952016119107 0.0079768179703929212 0.023158693061271191 0.039927879513508825 -0.028139490675957165 -0.00042476568620088194 0.039998920275121974 -0.013686785553133525 0.0049455830768602655 -0.015249931455792815 0.018513059757814088 0.027982317330072844 -0.041807494665245727
leaf_weight=139.0051121993456 1.1206933977082361 4.8203878942877045 6.2739539472386223 0.46588555350899641 3.8183949557133001 2.5461148237809539 3.8067552680149674 3.1451999619603157 0.42133025918155897 88.821293672081083 3.3839176548644891 0.78568220324814353 11.322940619662402 1.3567107804119576
leaf_count=6664 45 110 66 15 93 74 138 32 20 1785 60 8 133 27
internal_value=2.94193e-11 0.00589818 0.00703705 -0.00476461 0.00871215 -0.0164102 0.0188906 0.0214822 0.0330046 0.00557549 0.00615652 0.00700549 0.019312 -0.0208344
internal_weight=271.094 121.031 116.21 150.064 11.0585 3.012 8.04648 9.41915 4.23973 106.791 105.671 102.287 13.4653 2.14239
internal_count=9270 2266 2156 7004 340 89 251 98 113 2058 2013 1953 168 35
is_linear=0
shrinkage=0.05


Tree=35
num_leaves=15
num_cat=0
split_feature=1 3 1 2 7 6 3 4 4 4 7 6 6 0
split_gain=2.78309 1.04997 1.00643 0.824281 0.79722 1.4423 1.26955 1.81515 1.20527 1.00422 0.916587 0.779479 0.932018 0.777879
threshold=0.75842696629213491 0.018224333734519798 0.99438202247191021 1.0000000180025095e-35 0.014206776570408352 0.011200069106291776 -0.0078458774981329023 0.002360929140729722 -0.024766233460214251 -0.030579894156827585 0.013829987631713088 0.0140521679336652 0.013443450928142683 0.016853932584269666
decision_type=2 2 2 2 2 2 2 2 2 2 2 2 2 2
left_child=4 2 13 -3 5 -1 11 8 9 10 -8 12 -7 -2
right_child=1 3 -4 -5 -6 6 7 -9 -10 -11 -12 -13 -14 -15
leaf_value=-0.02822037370489568 -0.025364280530578598 -0.027297655212636301 0.021697121955155566 0.010424305379158673 -0.0022471057714218076 -0.012913533523419955 0.027010814693817282 -0.012268698544018417 0.028338120177644532 -0.024045054738018535 -0.020427198914309771 -0.031154789541968837 0.029259717232935425 0.0056752971360555281
leaf_weight=7.9915834560524663 1.085588861722498 3.2207098496146491 9.2057294109836203 1.5497467024251816 107.96025469060987 5.4587419708259386 2.2882096162065868 10.915934053249655 6.1793959988281149 2.0791863673366606 0.62918222043663252 5.0635705888271332 0.66194170340895642 105.35958094522357
leaf_count=596 45 79 98 31 4173 350 83 733 464 161 15 365 64 2013
internal_value=-6.80481e-11 0.00562934 0.00661939 -0.0153603 -0.00454989 -0.0103785 -0.00539531 0.00167834 0.0151897 -0.00308536 0.0141772 -0.0183587 -0.00488397 0.00512562
internal_weight=269.649 120.421 115.651 4.77046 149.228 41.2677 33.2762 22.0919 11.176 4.99658 2.91739 11.1843 6.12068 106.445
internal_count=9270 2266 2156 110 7004 2831 2235 1456 723 259 98 779 414 2058
is_linear=0
shrinkage=0.05


Tree=36
num_leaves=15
num_cat=0
split_feature=1 5 4 6 3 1 4 5 6 0 7 4 3 5
split_gain=2.62511 0.911494 0.720331 0.739194 1.09975 0.836653 0.908229 0.808942 0.869159 0.709682 0.706762 0.703972 1.12308 1.1148
threshold=0.89325842696629221 0.18333333333333338 -0.043531449693776002 0.016875160575085896 0.021629966209206302 0.97191011235955072 -0.030227081454995006 0.90555555555555567 0.01101168521221753 0.24157303370786518 0.018085479063104159 -0.01734831545187519 0.00053910991704075634 0.32222222222222224
decision_type=2 2 2 2 2 2 2 2 2 2 2 2 2 2
left_child=-1 -2 -3 4 5 11 -7 9 -9 -8 -5 -4 13 -13
right_child=1 2 3 10 -6 6 7 8 -10 -11 -12 12 -14 -15
leaf_value=-0.0030452720125300628 -0.0011339184197468729 -0.025124198260351352 0.017561787017210579 -0.014549335766253028 -0.033248549841626146 -0.025430793740708165 -0.0060028233908664217 0.018622965533570679 -0.029999912934564374 0.027445657328521514 0.031323977691395055 0.0015496829759053035 0.0080812743681490488 -0.035737599808020167
leaf_weight=194.88328214292414 19.986090758815408 0.43169999308884044 7.1269274055957785 0.36956379190087219 0.52059921808540721 0.29957922548055904 1.4078236557543302 0.87469035014510044 0.87664865329861641 14.531404798850415 6.0386264938861132 4.3813261128962102 14.550459627993403 2.5765933445654809
leaf_count=8240 280 40 84 10 10 6 28 9 15 128 70 70 231 49
internal_value=1.39713e-10 0.00795654 0.0112813 0.0120299 0.00946564 0.0106307 0.0188192 0.0208891 -0.00777331 0.0243114 0.0270716 0.0050248 0.000274921 -0.0150139
internal_weight=268.855 73.972 53.9859 53.5542 47.1461 46.6255 17.9901 17.6906 1.75134 15.9392 6.40819 28.6353 21.5084 6.95792
internal_count=9270 1030 750 710 630 620 186 180 24 156 80 434 350 119
is_linear=0
shrinkage=0.05


Tree=37
num_leaves=15
num_cat=0
split_feature=1 3 4 4 4 0 6 7 3 5 7 0 5 2
split_gain=2.32656 0.861388 1.01238 0.861033 1.6295 1.34962 1.1343 1.08725 1.00765 1.49659 0.976658 0.97558 1.08993 0.971931
threshold=0.89325842696629221 -0.01037643240001628 -0.036786697794381353 -0.019375606103095952 -0.0077310874839638987 0.23033707865168543 0.011595937999535936 0.037090819448020972 0.00099987218959622756 0.32222222222222224 0.023226005748221177 0.97191011235955072 0.7777777777777779 0.022471910112359567
decision_type=2 2 2 2 2 2 2 2 2 2 2 2 2 2
left_child=-1 -2 -3 11 6 -6 -5 8 9 -7 -10 -4 -13 -8
right_child=1 2 3 4 5 7 13 -9 10 -11 -12 12 -14 -15
leaf_value=-0.0028547901603928508 -0.0020077732530011465 -0.021906999439962199 0.030226011301729024 0.011607804212076767 -0.016099804059590717 0.015189551007187847 -0.032643036937156526 0.041633942570396362 0.02899850617662901 -0.018783137323069198 0.0056770928708937381 0.017223850756102638 -0.038358965925397344 0.012081496449768499
leaf_weight=194.9240108653903 17.608915267046541 1.4272802034392942 8.8904392160475236 2.9218452516943199 2.8580138278193763 6.3036894947290438 4.1893050745129585 2.8305698409676543 9.9057931434363145 4.8290473762899637 8.6473564673215133 1.2143221236765374 0.4994511492550372 1.0128456205129621
leaf_count=8240 250 50 103 40 68 83 69 21 128 68 112 16 11 11
internal_value=1.268e-10 0.00754425 0.0105552 0.0117936 0.00832138 0.0129168 -0.0109111 0.0158714 0.0121382 0.000119673 0.018975 0.0240921 -0.0071407 -0.0233913
internal_weight=268.063 73.1389 55.53 54.1027 43.4985 35.3745 8.124 32.5165 29.6859 11.1327 18.5531 10.6042 1.71377 5.20215
internal_count=9270 1030 780 730 600 480 120 412 391 151 240 130 27 80
is_linear=0
shrinkage=0.05


Tree=38
num_leaves=15
num_cat=0
split_feature=1 3 4 1 4 4 7 0 0 6 4 4 2 0
split_gain=2.14791 0.826803 0.952289 0.844107 0.813137 1.54075 1.33492 1.61859 1.22418 1.13122 1.08059 0.99984 0.854794 0.767546
threshold=0.89325842696629221 -0.01037643240001628 -0.036786697794381353 0.9269662921348315 -0.019375606103095952 -0.00574188453913265 0.037090819448020972 0.23033707865168543 0.93820224719101131 0.014376143588034742 -0.01734831545187519 -0.013527143608736367 0.022471910112359567 0.97191011235955072
decision_type=2 2 2 2 2 2 2 2 2 2 2 2 2 2
left_child=-1 -2 3 -3 13 8 7 -7 11 10 -10 -6 -12 -4
right_child=1 2 4 -5 5 6 -8 -9 9 -11 12 -13 -14 -15
leaf_value=-0.0027235364012647063 -0.0020207746496193322 0.010842784115873964 0.028970181647204281 -0.042535064289768894 0.0048645243303446078 -0.027033322117219302 0.040115600343137416 0.012622782220427821 -0.024848532615915981 -0.021612965022583773 0.038141358767257383 -0.037751785382753728 -0.011284360143539264 -0.0054248051876138528
leaf_weight=195.350123899756 17.596711904741824 0.75931261759251245 8.7444449234753829 0.65506126638501883 1.7586195822805164 1.8940219939686382 3.1955749592743805 27.315830307081342 0.35084809735417311 1.4242777023464439 3.0400406159460553 3.1106192735023779 0.62704290822148312 1.6053091678768385
leaf_count=8240 250 15 103 35 29 50 33 367 5 19 25 61 11 27
internal_value=1.97712e-10 0.00731778 0.0103161 -0.021257 0.0115352 0.00813196 0.013396 0.00924167 -0.0081328 0.00772562 0.0203602 -0.0241537 0.0290829 0.0236274
internal_weight=267.428 72.0777 54.481 1.41437 53.0666 42.7169 32.4054 29.2099 10.3114 5.44221 4.01793 4.86924 3.66708 10.3498
internal_count=9270 1030 780 50 730 600 450 417 150 60 41 90 36 130
is_linear=0
shrinkage=0.05


Tree=39
num_leaves=15
num_cat=0
split_feature=1 3 2 3 3 4 7 3 6 2 0 6 0 7
split_gain=1.89924 0.93596 1.01082 0.755011 1.2299 1.32427 1.22567 1.1326 1.29252 1.04311 0.906946 1.09765 0.872601 0.75978
threshold=0.79213483146067432 0.018224333734519798 1.0000000180025095e-35 -0.026503202857854066 -0.012204698548717976 -0.036786697794381353 0.029676518121829181 -0.015037744648040202 0.01591784592363496 -1.0000000180025095e-35 0.98314606741573041 0.012630192652430369 0.039325842696629219 0.028662146252268077
decision_type=2 2 2 2 2 2 2 2 2 2 2 2 2 2
left_child=-1 3 -3 9 7 -6 13 -5 -9 -2 12 -12 -8 -7
right_child=1 2 -4 4 5 6 10 8 -10 -11 11 -13 -14 -15
leaf_value=-0.0035010388432645347 0.03551704221049657 -0.03035147102629664 0.012361824332354535 0.003174542198858812 -0.022370410185341329 0.0067952460372675246 -0.0078688786485504036 -0.037081056845039727 0.0026404974070399472 -0.014187045745890695 -0.027960240803366666 0.021556118365913691 0.031776853664795303 -0.023758192483046867
leaf_weight=157.6312438424211 3.2911256654188037 2.7362381056882432 1.5036205742508171 12.808394634164872 2.5743792820721856 62.932807184755802 1.1819478492252518 3.8116440330632022 3.3487685723230243 0.79612032137811084 1.2473563887178891 1.250682011246681 10.387942595407365 1.1407504007220257
leaf_count=7313 38 70 25 209 57 1201 37 76 57 19 17 18 113 20
internal_value=1.89978e-11 0.00504832 -0.0157353 0.00603019 0.00502434 0.00775861 0.00902133 -0.00587075 -0.020457 0.0249499 0.0219262 -0.00409391 0.027423 0.00589454
internal_weight=266.643 109.012 4.23986 104.772 100.685 80.7159 78.1415 19.9688 7.16041 4.08725 14.0679 2.49804 11.5699 64.0736
internal_count=9270 1957 95 1862 1805 1463 1406 342 133 57 185 35 150 1221
is_linear=0
shrinkage=0.05


end of trees

feature_importances:
market_volatility_20d=134
market_return_5d=105
rank_pct_20d=86
rank_pct_5d=68
market_dispersion_1d=56
market_return_1d=41
rank_momentum_5d=39
market_breadth_1d=31

parameters:
[boosting: gbdt]
[objective: lambdarank]
[metric: ndcg]
[tree_learner: serial]
[device_type: cpu]
[data_sample_strategy: bagging]
[data: ]
[valid: ]
[num_iterations: 40]
[learning_rate: 0.05]
[num_leaves: 15]
[num_threads: 1]
[seed: 20260720]
[deterministic: 1]
[force_col_wise: 1]
[force_row_wise: 0]
[histogram_pool_size: -1]
[max_depth: -1]
[min_data_in_leaf: 2]
[min_sum_hessian_in_leaf: 0.001]
[bagging_fraction: 1]
[pos_bagging_fraction: 1]
[neg_bagging_fraction: 1]
[bagging_freq: 0]
[bagging_seed: 843]
[bagging_by_query: 0]
[feature_fraction: 1]
[feature_fraction_bynode: 1]
[feature_fraction_seed: 57]
[extra_trees: 0]
[extra_seed: 8811]
[early_stopping_round: 0]
[early_stopping_min_delta: 0]
[first_metric_only: 0]
[max_delta_step: 0]
[lambda_l1: 0]
[lambda_l2: 1]
[linear_lambda: 0]
[min_gain_to_split: 0]
[drop_rate: 0.1]
[max_drop: 50]
[skip_drop: 0.5]
[xgboost_dart_mode: 0]
[uniform_drop: 0]
[drop_seed: 21666]
[top_rate: 0.2]
[other_rate: 0.1]
[min_data_per_group: 100]
[max_cat_threshold: 32]
[cat_l2: 10]
[cat_smooth: 10]
[max_cat_to_onehot: 4]
[top_k: 20]
[monotone_constraints: ]
[monotone_constraints_method: basic]
[monotone_penalty: 0]
[feature_contri: ]
[forcedsplits_filename: ]
[refit_decay_rate: 0.9]
[cegb_tradeoff: 1]
[cegb_penalty_split: 0]
[cegb_penalty_feature_lazy: ]
[cegb_penalty_feature_coupled: ]
[path_smooth: 0]
[interaction_constraints: ]
[verbosity: -1]
[saved_feature_importance_type: 0]
[use_quantized_grad: 0]
[num_grad_quant_bins: 4]
[quant_train_renew_leaf: 0]
[stochastic_rounding: 1]
[linear_tree: 0]
[max_bin: 255]
[max_bin_by_feature: ]
[min_data_in_bin: 3]
[bin_construct_sample_cnt: 200000]
[data_random_seed: 4432]
[is_enable_sparse: 1]
[enable_bundle: 1]
[use_missing: 1]
[zero_as_missing: 0]
[feature_pre_filter: 1]
[pre_partition: 0]
[two_round: 0]
[header: 0]
[label_column: ]
[weight_column: ]
[group_column: ]
[ignore_column: ]
[categorical_feature: ]
[forcedbins_filename: ]
[precise_float_parser: 0]
[parser_config_file: ]
[objective_seed: 7759]
[num_class: 1]
[is_unbalance: 0]
[scale_pos_weight: 1]
[sigmoid: 1]
[boost_from_average: 1]
[reg_sqrt: 0]
[alpha: 0.9]
[fair_c: 1]
[poisson_max_delta_step: 0.7]
[tweedie_variance_power: 1.5]
[lambdarank_truncation_level: 30]
[lambdarank_norm: 1]
[label_gain: 0,1,3,7,15]
[lambdarank_position_bias_regularization: 0]
[eval_at: 1,2,3,4,5]
[multi_error_top_k: 1]
[auc_mu_weights: ]
[num_machines: 1]
[local_listen_port: 12400]
[time_out: 120]
[machine_list_filename: ]
[machines: ]
[gpu_platform_id: -1]
[gpu_device_id: -1]
[gpu_use_dp: 0]
[num_gpu: 1]

end of parameters

pandas_categorical:null
