tree
version=v4
num_class=1
num_tree_per_iteration=1
label_index=0
max_feature_idx=19
objective=lambdarank
feature_names=momentum_1d momentum_3d momentum_5d momentum_10d momentum_20d volatility_5d volatility_20d drawdown_20d rank_pct_5d rank_pct_20d rank_momentum_5d market_return_1d market_return_5d market_breadth_1d market_dispersion_1d market_volatility_20d rule_time_series_score rule_cross_section_score rule_rank_momentum_score rule_direction_score
feature_infos=[-0.10813718513007242:0.12229216739576731] [-0.18234825421959322:0.27465397817296533] [-0.25743860440229616:0.28092117351019485] [-0.27022648853672249:0.40351170424303073] [-0.28062547585271636:0.58906651566951895] [0.0012453562741035964:0.088373331352552278] [0.0039238631080082331:0.060188323905258592] [0.0043877162311911633:0.28987731592235633] [0:1] [0:1] [-1:0.97752808988764039] [-0.049585464134470299:0.036012358476607553] [-0.10116671736988472:0.054726216916397064] [0.022222222222222223:0.98888888888888893] [0.0079151013248990945:0.029086357152055337] [0.0039238631080082331:0.060188323905258592] [0:100] [0:100] [0:100] [0:100]
tree_sizes=1751 1735 1735 1730 1737 1739 1745 1748 1749 1730 1739 1741 1731 1738 1731 1745 1744 1744 1742 1742 1744 1743 1745 1731 1759 1744 1743 1721 1743 1754 1744 1741 1729 1752 1762 1755 1745 1761 1741 1762

Tree=0
num_leaves=15
num_cat=0
split_feature=9 7 3 6 12 9 5 7 6 14 8 12 4 19
split_gain=22.13 5.76484 3.69143 3.25643 2.98414 2.81393 2.80144 2.53044 2.38192 1.55371 1.44687 1.34745 1.48187 1.33754
threshold=0.76966292134831471 0.066272481937293917 0.02204332624525818 0.01795951711192775 -0.043531449693776002 0.26404494382022475 0.015711013352119722 0.055319768755990768 0.018085479063104159 0.01075488178717931 0.23033707865168543 0.013257522763930864 0.010877816846936674 31.682212635750563
decision_type=2 2 2 2 2 2 2 2 2 2 2 2 2 2
left_child=1 5 3 -2 -4 -1 8 11 -3 -5 -6 12 -7 -14
right_child=2 6 4 9 10 7 -8 -9 -10 -11 -12 -13 13 -15
leaf_value=-0.04498062473094197 -0.019158567474573673 -0.0035706925525507438 -0.031218903867239481 -0.011791955197161683 -0.0051497945684693446 0.0029351613510523525 0.0052484907473494798 -0.034076514323705689 -0.027809033186894195 0.028755893506764291 0.044088068883832508 0.0051286652394156706 0.0089699713201233534 -0.035015194662646611
leaf_weight=10.854793191421775 5.6174835921265212 31.66358625004068 0.77575071016326802 2.2523539797402909 1.3644325947389031 6.0519755198620322 52.6470892210491 12.645001898985354 14.163870834279804 13.464201553724704 28.175480362959206 11.878869786392896 1.6880994690582145 8.2922322400845569
leaf_count=598 330 1772 40 121 70 262 2219 546 641 539 1063 579 71 419
internal_value=3.06241e-10 -0.00973901 0.0279104 0.0112294 0.0389159 -0.0231386 -0.00258114 -0.0163509 -0.0114959 0.0225872 0.0417196 -0.00741952 -0.0164721 -0.0274361
internal_weight=201.535 149.886 51.6497 21.334 30.3157 51.411 98.4745 40.5562 45.8275 15.7166 29.5399 27.9112 16.0323 9.98033
internal_count=9270 7107 2163 990 1173 2475 4632 1877 2413 660 1133 1331 752 490
is_linear=0
shrinkage=0.05


Tree=1
num_leaves=15
num_cat=0
split_feature=9 5 4 6 8 7 6 5 8 7 7 9 7 6
split_gain=59.1545 24.5845 16.5694 16.8618 10.4394 10.1759 10.0599 9.65781 9.50575 7.36252 6.30125 6.28788 5.80887 9.87397
threshold=0.76966292134831471 0.015090917995118362 0.16706649897786965 0.025614282555239589 0.89325842696629221 0.051553360886846707 0.019060235194896576 0.046177153296566818 0.29775280898876411 0.073098717281291373 0.078699725338724338 0.94943820224719111 0.052831062812136183 0.014451472913104163
decision_type=2 2 2 2 2 2 2 2 2 2 2 2 2 2
left_child=1 -1 3 4 6 11 12 8 -5 -7 -8 -4 13 -2
right_child=2 -3 5 7 -6 9 10 -9 -10 -11 -12 -13 -14 -15
leaf_value=-0.036536016138304733 0.015476041197897462 -0.0030372844352943565 -0.004378505998915122 -0.016205204083624344 -0.017592171904383332 -0.035047620690016011 0.037849426952192143 -0.061459726212812288 0.047147057642045596 0.034666791644392035 0.0022920099981335856 0.066273795306236852 0.017339600851354865 -0.044309274723323029
leaf_weight=102.04876279598102 10.833119306713344 117.32993853930384 3.3889038171619168 6.319381126202642 46.419254292733967 5.327855327166616 34.143625148572028 1.6384880729019631 43.877467781305313 8.4957471769303066 19.513308387249708 28.702335307374597 14.677887489087878 16.271968709304929
leaf_count=4334 170 2773 22 95 399 33 244 13 289 78 258 119 259 184
internal_value=2.57004e-10 -0.018715 0.0171415 0.0106203 0.00162849 0.0438386 0.0110624 0.0347318 0.0390108 0.00724593 0.0251969 0.0589059 -0.00725359 -0.0207143
internal_weight=458.988 219.379 239.609 193.695 141.859 45.9148 95.4399 51.8353 50.1968 13.8236 53.6569 32.0912 41.783 27.1051
internal_count=9270 7107 2163 1911 1514 252 1115 397 384 111 502 141 613 354
is_linear=0
shrinkage=0.05


Tree=2
num_leaves=15
num_cat=0
split_feature=9 5 9 12 5 1 7 7 6 13 1 13 13 7
split_gain=67.1131 28.763 11.9667 10.9623 6.4582 4.84255 4.66477 4.20602 3.90803 3.81505 7.91086 4.94421 4.63417 3.66486
threshold=0.76966292134831471 0.015090917995118362 0.91573033707865181 -0.043531449693776002 0.010649446260398689 -0.060135989332393107 0.069035078621313486 0.15392114634640039 0.017342025016155341 0.90555555555555567 0.040242601445627753 0.15000000000000002 0.083333333333333356 0.075043230210451908
decision_type=2 2 2 2 2 2 2 2 2 2 2 2 2 2
left_child=1 -1 7 -4 -5 -6 -3 8 -2 11 -11 12 -7 -14
right_child=2 6 3 4 5 9 -8 -9 -10 10 -12 -13 13 -15
leaf_value=-0.039896644397421938 -0.009341675952915806 -0.030961832909438991 -0.038186457033370161 -0.023749827150270901 -0.025418516368918717 0.040360788962818306 0.00012547143134732157 -0.053552307521877944 0.014957191919263705 0.036448195310281907 -0.058589744324346243 0.048939787769228825 -0.045207430778153347 0.018656161231567662
leaf_weight=93.939800709486008 20.464068674016744 12.540430340915917 4.448350728955119 3.7098439792171112 2.2481817770749322 7.8442482585087401 110.83089463599026 1.7219153661280859 74.320033676922321 5.8205315601080638 2.2341671045869589 70.525975681841373 3.264529119245708 3.8998991688713431
leaf_count=4334 464 443 64 57 27 57 2330 27 848 48 18 485 29 39
internal_value=5.96063e-10 -0.0192065 0.0208087 0.0325031 0.0360103 0.0385449 -0.00325803 0.00800259 0.00966826 0.0403339 0.00652778 0.0434052 0.0159655 -0.0124167
internal_weight=417.813 217.311 200.502 103.996 99.5474 95.8375 123.371 96.506 94.7841 93.5894 8.0547 85.5347 15.0087 7.16443
internal_count=9270 7107 2163 824 760 703 2773 1339 1312 676 66 610 125 68
is_linear=0
shrinkage=0.05


Tree=3
num_leaves=15
num_cat=0
split_feature=9 5 9 5 1 14 2 4 6 3 5 10 3 8
split_gain=68.2505 24.0429 13.3633 5.18998 4.36831 5.12364 4.24144 4.18123 7.35409 3.80216 3.66898 3.17239 3.60234 3.16463
threshold=0.79213483146067432 0.014951632126243142 0.91573033707865181 0.010649446260398689 -0.016805556216228697 0.011762852665911287 0.13626554625851331 0.16706649897786965 0.021339371370061942 0.17060225697883682 0.02208106354372321 -0.25280898876404484 0.071301571271384936 0.073033707865168551
decision_type=2 2 2 2 2 2 2 2 2 2 2 2 2 2
left_child=1 -1 -2 -4 5 -5 7 8 11 -8 -3 -6 -13 -7
right_child=2 10 3 4 6 13 9 -9 -10 -11 -12 12 -14 -15
leaf_value=-0.03858513848560479 0.0065319521856223306 -0.011370127942879532 -0.025362049257838356 -0.036248569856114118 0.036481651875607965 -0.024070384569213753 0.033616197109623679 0.058067442109992255 0.043584052307926099 -0.033314648688581118 0.0058291007901908956 -0.042117745696706024 0.02004552769506528 0.036387899313371073
leaf_weight=88.735324253793806 74.142958146519959 81.213997802231461 2.8640571478754273 3.4143671584315589 2.6269157258793703 1.9235542677342881 3.4172811098396769 32.484008686151356 35.730843743309379 3.0852966066449881 48.992108614183962 4.9814252173528057 3.0472521036863327 10.659306715242563
leaf_count=4376 1133 1963 65 40 26 32 15 167 257 20 974 78 38 86
internal_value=2.98154e-10 -0.0186678 0.0228893 0.0343519 0.0362703 0.0114061 0.0407433 0.0439052 0.0329715 0.0016517 -0.00490354 -0.00330133 -0.0189169 0.0260539
internal_weight=397.319 218.941 178.377 104.234 101.37 15.9972 85.373 78.8704 46.3864 6.50258 130.206 10.6556 8.02868 12.5829
internal_count=9270 7313 1957 824 759 158 601 566 399 35 2937 142 116 118
is_linear=0
shrinkage=0.05


Tree=4
num_leaves=15
num_cat=0
split_feature=9 5 12 9 5 3 1 5 12 6 12 5 7 4
split_gain=64.1926 18.1624 10.7637 9.13072 5.95669 5.16186 3.9194 3.63442 3.30593 3.25123 5.0652 4.0353 3.85619 3.28556
threshold=0.89325842696629221 0.018001804448019555 -0.043531449693776002 0.75842696629213491 0.013292678867215319 0.10581963769606585 -0.060135989332393107 0.012582664993568837 0.011607665470346052 0.030180892941662905 -0.03558967540609654 0.034822836431848934 0.097465840674084273 0.013479698543270914
decision_type=2 2 2 2 2 2 2 2 2 2 2 2 2 2
left_child=1 3 -2 7 5 -4 -6 -1 -3 11 -11 12 -8 -14
right_child=2 8 4 -5 6 -7 9 -9 -10 10 -12 -13 13 -15
leaf_value=-0.040628521256178017 -0.042423970106631917 0.0055548698407624506 -0.020243055515591371 -0.003877499712424454 -0.029588532570806705 0.037361971291086885 0.039399026990382717 -0.021387205073450943 -0.015376425390497481 -0.035437915797806023 0.058652154517808232 -0.01812871045249833 0.027391841401953478 -0.028357484921889522
leaf_weight=62.688685288187116 4.072173358872532 89.570846327580512 8.8078792607411724 37.123587393201888 1.4533164035528887 5.4499613717198363 60.449289036216214 47.071107012219727 22.832316152751446 0.87611756473779934 25.577899614349008 3.1810568645596495 5.1009587328881008 3.6739833280444145
leaf_count=3240 80 1782 143 736 31 46 483 1954 528 8 136 26 41 36
internal_value=1.51606e-10 -0.0139341 0.0303141 -0.0254492 0.0332441 0.00278164 0.0375037 -0.0326444 0.00120502 0.0387764 0.0543587 0.0324203 0.0349682 0.00353701
internal_weight=377.929 259.287 118.643 146.883 114.57 14.2578 100.313 109.76 112.403 98.8593 26.454 72.4053 69.2242 8.77494
internal_count=9270 8240 1030 5930 950 189 761 5194 2310 730 144 586 560 77
is_linear=0
shrinkage=0.05


Tree=5
num_leaves=15
num_cat=0
split_feature=9 5 9 4 5 13 12 10 5 5 10 14 8 0
split_gain=59.952 18.5213 8.9819 5.18138 4.79042 3.63504 3.58839 3.83831 3.50895 3.26958 3.16825 3.56828 3.11517 2.54701
threshold=0.89325842696629221 0.018001804448019555 0.75842696629213491 0.16706649897786965 0.011424331283871535 0.15000000000000002 -0.035833375522273836 1.0000000180025095e-35 0.014740557502135401 0.010768767688001203 0.016853932584269652 0.0094300497298678097 0.039325842696629219 -0.012823564067326597
decision_type=2 2 2 2 2 2 2 2 2 2 2 2 2 2
left_child=1 2 9 4 -2 -6 13 -8 -7 -1 11 -9 -10 -5
right_child=3 -3 -4 6 5 8 7 10 12 -11 -12 -13 -14 -15
leaf_value=-0.043858477394889878 -0.027222234983682866 0.0011571069439025709 -0.0041957077846675184 0.027364256924200272 0.0013394582846106414 -0.0036584784653024937 0.05289091609351157 0.036340498384544832 -0.031708546765506267 -0.024753102680814366 0.037822164705274101 -0.053425990903707754 0.036910191556140136 -0.050665895124151719
leaf_weight=44.983081529382616 4.0409393156878641 114.21086805313826 35.236714360304177 1.2320458944886925 13.944642085116355 6.566650576889514 35.27237500064075 0.87196709215640966 0.98761506751179595 56.032839165534824 3.2532208077609539 2.0975498110055923 45.483927079709247 1.0440359916537989
leaf_count=2419 102 2310 736 9 155 94 179 5 21 2775 21 17 413 14
internal_value=-8.68354e-11 -0.0137086 -0.0260871 0.02977 0.020935 0.0241979 0.043318 0.0466379 0.0300718 -0.0336074 0.00877847 -0.0245525 0.0348147 -0.0129681
internal_weight=365.258 250.464 136.253 114.795 71.0238 66.9828 43.7712 41.4951 53.0382 101.016 6.22274 2.96952 46.4715 2.27608
internal_count=9270 8240 5930 1030 785 683 245 222 528 5194 43 22 434 23
is_linear=0
shrinkage=0.05


Tree=6
num_leaves=15
num_cat=0
split_feature=9 5 9 4 12 6 8 13 10 5 19 12 12 12
split_gain=51.524 16.5953 9.08155 6.1745 3.54236 3.2957 3.04311 2.58687 2.57763 2.53081 2.31623 3.39901 2.33319 2.42926
threshold=0.89325842696629221 0.018001804448019555 0.75842696629213491 0.16706649897786965 -0.043531449693776002 0.021686267123913344 0.039325842696629219 0.15000000000000002 -0.44382022471910104 0.010899567945764573 39.455550701723404 0.022566823884922465 -0.053546905871580418 -0.046123525294134368
decision_type=2 2 2 2 2 2 2 2 2 2 2 2 2 2
left_child=1 2 9 4 -2 8 -7 -8 -6 -1 11 -3 -12 -14
right_child=3 10 -4 -5 5 6 7 -9 -10 -11 12 -13 13 -15
leaf_value=-0.042127158578780577 -0.032329679683363213 0.011979714301161853 -0.0032028074432723288 0.043431690423797381 0.032178030018030927 -0.034397550786555896 0.0041350973767077205 0.036461757033874082 -0.0051024222782748239 -0.024556132441642158 -0.040717925249858962 -0.041259291039343858 0.037671081666111328 -0.005038591825496967
leaf_weight=43.354070155881345 2.4075201337691388 48.875923305749893 35.327894709073007 41.288653017720208 5.297953054308894 1.0637185787782062 7.7763956058770409 35.68937979452312 16.810711987316608 51.191387612372637 3.3316328506916753 2.2209227830171576 2.5335335694253436 57.787786426022649
leaf_count=2471 71 920 736 245 61 25 69 300 259 2723 50 60 21 1259
internal_value=9.0365e-12 -0.0127893 -0.0249591 0.0282154 0.0186261 0.0209178 0.0286202 0.0309013 0.00483706 -0.03297 0.00108109 0.00891813 -0.00525066 -0.00265969
internal_weight=354.957 244.623 129.873 110.334 69.0457 66.6382 44.5295 43.4658 22.1087 94.5455 114.75 51.0968 63.653 60.3213
internal_count=9270 8240 5930 1030 785 714 394 369 320 5194 2310 980 1330 1280
is_linear=0
shrinkage=0.05


Tree=7
num_leaves=15
num_cat=0
split_feature=9 5 4 6 5 8 8 4 5 3 10 1 12 0
split_gain=45.4954 14.6755 8.60519 5.76529 3.59098 3.08702 2.88919 3.76091 2.71418 2.61105 2.52231 2.84707 2.48434 2.42866
threshold=0.79213483146067432 0.01786779921613612 0.16706649897786965 0.025951171680061395 0.046177153296566818 0.039325842696629219 0.90449438202247201 0.049612904056594138 0.015711013352119722 -0.009861164319275138 1.0000000180025095e-35 -0.058693993568554308 -0.04312310034346753 0.02959075094138908
decision_type=2 2 2 2 2 2 2 2 2 2 2 2 2 2
left_child=1 -1 3 6 5 -5 7 8 -2 13 11 -4 -13 -3
right_child=2 9 10 4 -6 -7 -8 -9 -10 -11 -12 12 -14 -15
leaf_value=-0.030401755652708053 -0.022252660806392058 -0.00060466083361185362 -0.019680045396823529 -0.030744194434393753 -0.044683488843604652 0.033827582700416241 -0.010846062159115898 0.021675036232118094 0.0083487111278726048 -0.016890243951651271 0.0026510405658859877 -0.029703383386875299 0.047182760277127783 0.028940444753464658
leaf_weight=96.10403994936496 10.313239960931243 58.809898747131228 1.226697802543639 1.199702234007417 0.78540532290935416 35.592215890064836 21.07869439967908 32.504023461602628 19.214117432013154 21.304102282039821 4.5073779094964257 0.44606646057218213 35.345731342211366 6.8829430853947988
leaf_count=5376 215 1256 16 33 13 310 352 495 287 550 47 8 181 131
internal_value=-1.56072e-10 -0.0170389 0.0192195 0.0122787 0.0282658 0.0309642 0.00480021 0.0102046 -0.00271848 -0.00209951 0.0386287 0.0428243 0.0454432 0.00287844
internal_weight=345.314 183.101 162.213 120.687 37.5773 36.7919 83.1101 62.0314 29.5274 86.9969 41.5259 37.0185 35.7918 65.6928
internal_count=9270 7313 1957 1705 356 343 1349 997 502 1937 252 205 189 1387
is_linear=0
shrinkage=0.05


Tree=8
num_leaves=15
num_cat=0
split_feature=9 5 9 12 5 1 7 5 4 14 3 3 5 7
split_gain=40.8286 13.7264 6.29141 4.38732 3.0517 3.12569 2.89379 2.53582 2.4713 2.22333 2.06377 3.01447 2.73574 2.25374
threshold=0.89325842696629221 0.018001804448019555 0.75842696629213491 -0.043531449693776002 0.011424331283871535 -0.060135989332393107 0.23411600798910373 0.039307114566529723 -0.017657132658285165 0.027667779864059008 -0.097396888616253272 -0.051658535332820325 0.02208106354372321 0.12940104046702969
decision_type=2 2 2 2 2 2 2 2 2 2 2 2 2 2
left_child=1 2 -1 -2 -5 -6 7 10 -4 -7 -3 12 -12 -14
right_child=3 6 8 4 5 9 -8 -9 -10 -11 11 -13 13 -15
leaf_value=-0.030383648590929298 -0.030028606091418837 -0.01972750983331048 -0.031030071297220296 -0.0077342727587185484 -0.028935881003345806 0.031260041228237764 0.048296360999531662 -0.03957515872026883 0.0024290796977143063 -0.030106997126877318 -0.0029001119032869833 -0.0034032388295076378 0.038005458424063339 0.00490768379145704
leaf_weight=87.286906996741891 2.6647094928193829 9.8625013977289182 5.9363329131156197 5.5092417374253264 1.5174393309280265 95.654836332891136 2.1244856417179099 3.0022733584046355 26.419623215682805 0.7512732669711103 13.425831595435737 61.768715281505138 12.817479531280698 8.7251820154488069
leaf_count=5194 80 209 160 110 31 801 27 44 576 8 308 1368 173 181
internal_value=-8.72651e-11 -0.0117721 -0.0234669 0.0255419 0.0272474 0.0292738 0.00084838 -0.000499687 -0.00445589 0.0304776 0.000958406 0.00324763 0.0147638 0.0254126
internal_weight=337.467 231.369 119.643 106.098 103.433 97.9235 111.726 109.602 32.356 96.4061 106.6 96.7372 34.9685 21.5427
internal_count=9270 8240 5930 1030 950 840 2310 2283 736 809 2239 2030 662 354
is_linear=0
shrinkage=0.05


Tree=9
num_leaves=15
num_cat=0
split_feature=9 5 7 9 4 6 7 9 5 12 10 7 14 1
split_gain=34.693 12.3902 6.5728 5.37672 3.578 2.86368 2.80312 2.66691 2.52669 4.31584 2.4655 2.6927 2.40944 2.90014
threshold=0.89325842696629221 0.018001804448019555 0.23411600798910373 0.75842696629213491 0.16706649897786965 0.021686267123913344 0.13555944937877071 0.050561797752808994 0.034822836431848934 -0.0019871056518531139 -0.44382022471910104 0.092936800700336678 0.015894468872209837 0.040242601445627753
decision_type=2 2 2 2 2 2 2 2 2 2 2 2 2 2
left_child=1 3 6 -1 5 10 -3 -8 12 -10 11 -2 -6 -14
right_child=4 2 -4 -5 8 -7 7 -9 9 -11 -12 -13 13 -15
leaf_value=-0.028825234330026539 0.040213003665340002 0.00287850571093298 0.058869922375523347 -0.0042637546857004936 0.046744016109306147 0.023254301516399033 0.015538485505556327 -0.024699009934102581 -0.026405290495421986 0.04027400363376913 -0.0088598288441119315 -0.034567508331562816 0.030408137804600173 -0.041439926334542104
leaf_weight=85.094626241363585 4.9017091533169177 81.242077770642936 3.7067537792026988 30.58588214032352 27.513723962008957 43.92232105601579 4.4815459921956089 18.53126968909055 3.7727124132215977 3.9990010932087889 16.250222918577492 0.696436297148466 2.7604370452463618 1.2491864869371054
leaf_count=5194 54 1717 27 736 159 438 102 464 35 22 282 11 15 14
internal_value=-2.71823e-10 -0.0111278 0.00107003 -0.0224234 0.0235682 0.0160323 -0.00152481 -0.0165423 0.0354707 0.00858497 0.00113137 0.0270809 0.0416313 0.00422023
internal_weight=328.708 223.642 107.962 115.681 105.066 65.7707 104.255 23.0128 39.2951 7.77171 21.8484 5.59815 31.5233 4.00962
internal_count=9270 8240 2310 5930 1030 785 2283 566 245 57 347 65 188 29
is_linear=0
shrinkage=0.05


Tree=10
num_leaves=15
num_cat=0
split_feature=9 5 7 12 9 5 3 8 14 3 4 14 9 12
split_gain=27.4188 11.9482 6.91404 4.88835 4.79062 2.86479 3.37714 2.57659 2.25996 2.16757 1.98654 2.49417 2.25905 2.19456
threshold=0.89325842696629221 0.018001804448019555 0.23411600798910373 -0.043531449693776002 0.75842696629213491 0.013292678867215319 0.10581963769606585 0.016853932584269666 0.027667779864059008 0.0056780142066746872 0.16706649897786965 0.0140521679336652 0.94943820224719111 -0.03558967540609654
decision_type=2 2 2 2 2 2 2 2 2 2 2 2 2 2
left_child=1 4 -3 -2 -1 6 -5 -7 10 -6 11 13 -12 -9
right_child=3 2 -4 5 9 7 -8 8 -10 -11 12 -13 -14 -15
leaf_value=-0.02741297135344567 -0.035739453543906383 -0.00085883793662277228 0.05755174885745571 -0.02080871068631969 -0.021253673347834779 -0.025081312479624571 0.031681930933356438 -0.030432170780991804 -0.033759805849971847 0.0058609714735444289 -0.02338456578585817 0.034373079850987746 0.040077462308393805 0.015577382047087902
leaf_weight=82.832946216221899 2.8078237241134039 101.57744034379721 4.3308459632098666 7.0865927366539818 10.540024228394033 1.6821232121437777 3.9346971157938242 1.9020675299689092 0.70329879969358344 19.563784508034587 0.84380635619163413 21.383637698367238 32.57292202860117 30.678462547250099
leaf_count=5194 80 2283 27 143 300 29 46 23 8 436 12 199 177 313
internal_value=-1.17469e-11 -0.0100259 0.0020457 0.0210731 -0.0212649 0.0229914 -0.000992475 0.0259146 0.0271591 -0.00401057 0.0280258 0.0213693 0.0378421 0.0120651
internal_weight=322.44 218.845 105.908 103.595 112.937 100.788 11.0213 89.7663 88.0842 30.1038 87.3809 53.9642 33.4167 32.5805
internal_count=9270 8240 2310 1030 5930 950 189 761 732 736 724 535 189 336
is_linear=0
shrinkage=0.05


Tree=11
num_leaves=15
num_cat=0
split_feature=9 5 7 9 12 4 5 2 4 7 9 19 12 19
split_gain=24.4456 10.465 5.013 4.15646 3.51428 2.65134 2.30484 2.27206 2.27905 2.07721 4.38803 2.25996 2.6708 2.34611
threshold=0.89325842696629221 0.018001804448019555 0.23411600798910373 0.72471910112359561 -0.043531449693776002 -0.017657132658285165 0.010649446260398689 0.13626554625851331 0.16706649897786965 0.13555944937877071 0.050561797752808994 39.455550701723404 0.022566823884922465 71.853428740482443
decision_type=2 2 2 2 2 2 2 2 2 2 2 2 2 2
left_child=1 3 9 -1 -2 -5 -6 8 -8 11 -11 12 -3 -13
right_child=4 2 -4 5 6 -7 7 -9 -10 10 -12 13 -14 -15
leaf_value=-0.026413660275737466 -0.033673992875876052 0.014991338452688692 0.051285513204360159 -0.032832868963679977 -0.015520642473195581 0.001838612990651251 0.018406862561089622 -0.0088133971329271057 0.035576451406123519 0.020548077859572262 -0.028456637302134755 -0.010840465169583285 -0.038882007938018465 0.015303479254268405
leaf_weight=77.38303698785603 2.0804915218614033 36.047962875105441 3.8802334628999224 5.8849101909436277 3.3305892059579483 27.229376062285155 56.802264640107751 4.7659297063946715 33.061748363077641 5.6232323031872538 14.630171022377906 34.349503797478974 1.5068071503192175 10.384254384785889
leaf_count=4982 80 638 27 233 84 715 629 35 202 102 464 806 52 221
internal_value=1.8498e-10 -0.00942546 0.00177375 -0.0201308 0.0203283 -0.00510485 0.0218039 0.0232661 0.0250457 -0.000577012 -0.0145241 0.00298892 0.0118774 -0.00456963
internal_weight=316.961 216.919 106.422 110.497 100.041 33.1143 97.9605 94.6299 89.864 102.542 20.2534 82.2885 37.5548 44.7338
internal_count=9270 8240 2310 5930 1030 948 950 866 831 2283 566 1717 690 1027
is_linear=0
shrinkage=0.05


Tree=12
num_leaves=15
num_cat=0
split_feature=9 5 7 9 12 4 3 1 2 6 7 5 4 7
split_gain=21.1834 9.459 4.87932 3.83693 3.10937 2.64114 2.45937 2.28364 2.05809 2.69771 4.00803 3.33753 3.51767 4.30001
threshold=0.89325842696629221 0.018001804448019555 0.21598335597797544 0.72471910112359561 -0.043531449693776002 -0.10201851370653979 0.0045841633172497573 -0.060135989332393107 0.13626554625851331 0.030180892941662905 0.071118913742055492 0.034822836431848934 0.19398772866322536 0.055103346154004702
decision_type=2 2 2 2 2 2 2 2 2 2 2 2 2 2
left_child=1 3 -3 -1 -2 -4 -5 -6 9 11 -11 12 -9 -14
right_child=4 2 5 6 7 -7 -8 8 -10 10 -12 -13 13 -15
leaf_value=-0.025329242367367052 -0.033612071186495583 -0.00089415713882087442 0.054426724989002764 -0.022934923093814785 -0.029058099794113293 -0.029472974542372739 0.0052674837523065017 0.013141634870122121 -0.011172933836678967 -0.0047160427210208794 0.048941070171519982 -0.032389378277964967 0.046397125401323513 -0.03702433445158302
leaf_weight=75.765730371233076 1.8875199891626824 96.87357110530138 5.0189652610570192 10.855598591268061 1.4768546242266882 0.46056565269827743 21.431730241980404 52.855928756296635 4.1111944317817679 4.127808969467881 16.663261312991381 2.319385051727294 15.373013291507959 0.96919952705502588
leaf_count=4982 80 2261 39 405 31 10 543 628 34 29 108 26 85 9
internal_value=5.4283e-11 -0.00899281 0.00190639 -0.0192399 0.0188634 0.0439145 -0.00461883 0.0202048 0.0212499 0.0227982 0.0385606 0.0177474 0.0198653 0.0396
internal_weight=310.19 210.406 102.353 108.053 99.7842 5.47953 32.2873 97.8966 96.4198 92.3086 20.7911 71.5175 69.1981 16.3422
internal_count=9270 8240 2310 5930 1030 49 948 950 919 885 137 748 722 94
is_linear=0
shrinkage=0.05


Tree=13
num_leaves=15
num_cat=0
split_feature=9 5 7 4 6 10 7 8 19 2 6 4 9 5
split_gain=19.5939 8.1493 4.5832 4.55453 2.75713 3.5647 3.25788 2.85452 2.65633 2.95309 2.77491 2.35288 2.30175 2.30025
threshold=0.79213483146067432 0.01786779921613612 0.21598335597797544 0.16706649897786965 0.025951171680061395 -0.47752808988764034 0.097465840674084273 0.67977528089887651 89.814349396264618 -0.0085232210665027713 0.027762022690278471 -0.10201851370653979 0.97191011235955072 0.046177153296566818
decision_type=2 2 2 2 2 2 2 2 2 2 2 2 2 2
left_child=1 -1 -3 4 6 -6 7 -2 9 -5 -10 -4 -11 -7
right_child=3 2 11 8 5 13 -8 -9 10 12 -12 -13 -14 -15
leaf_value=-0.022689583162865592 0.01889989657065828 -0.0038404790191306701 0.049959977328376891 -0.0011768658853528906 -0.013476987548608464 0.029492035072601081 -0.026528364312779374 -0.0021312745416843847 0.031230103228013964 0.0084098114457600674 -0.037339598799129785 -0.028936791265877556 0.046851006473019825 -0.036666079370961467
leaf_weight=83.176822237670422 25.788927348330617 74.046273984014988 5.0219894833862782 5.1615750771015909 6.0479730088263741 27.587951071560386 7.5526544526219359 40.121328984387219 1.6890214309096325 5.3160716183483627 2.3257858594879508 0.4487395416945209 21.425358659587801 0.55477932188659806
leaf_count=5376 433 1888 39 40 100 246 164 752 14 58 21 10 119 10
internal_value=6.64336e-11 -0.0118466 -0.000363613 0.0134135 0.00812585 0.0196394 0.0025755 0.00625714 0.0286125 0.0333257 -0.00801728 0.0400166 0.0397877 0.0269745
internal_weight=306.265 162.694 79.517 143.571 107.654 34.1907 73.4629 65.9103 35.9178 31.903 4.01481 5.47073 26.7414 28.1427
internal_count=9270 7313 1937 1957 1705 356 1349 1185 252 217 35 49 177 256
is_linear=0
shrinkage=0.05


Tree=14
num_leaves=15
num_cat=0
split_feature=9 5 7 9 12 2 3 4 6 2 7 10 4 7
split_gain=17.8462 8.00073 3.5037 3.36154 2.76623 2.52874 2.4395 2.36119 2.5082 4.13166 3.9058 3.12682 2.88371 2.80723
threshold=0.89325842696629221 0.018001804448019555 0.21598335597797544 0.72471910112359561 -0.043531449693776002 0.13626554625851331 0.0045841633172497573 0.16706649897786965 0.027166307926354629 -0.0064805905358337737 0.092936800700336678 -0.2078651685393258 -0.0069774034789918385 0.066272481937293917
decision_type=2 2 2 2 2 2 2 2 2 2 2 2 2 2
left_child=1 3 -3 -1 -2 7 -5 8 10 -10 11 -6 -12 -13
right_child=4 2 -4 6 5 -7 -8 -9 9 -11 12 13 -14 -15
leaf_value=-0.023662478900293271 -0.032103013920738117 -0.00061442098892631623 0.037088575317069376 -0.023307342154497718 0.031623930165775027 -0.01905354946943133 0.0052240336329926031 0.032063636458636136 -0.012850365753623916 0.040996531935342667 0.023764211610094753 -0.01140267671091473 -0.046876895377892233 0.025328799944590537
leaf_weight=73.147141207009554 1.8285058941692103 96.364633301272988 5.58075729291886 10.131559697911142 13.221074499189845 3.3989204913377753 22.109160145744681 30.707019221037626 4.0913899978622821 14.658619001507757 1.3010330982506273 14.191969875246295 4.1444914024323216 6.9124561082571736
leaf_count=4982 80 2261 49 405 149 35 543 215 56 105 13 227 60 90
internal_value=7.74222e-11 -0.00820311 0.00178976 -0.0177955 0.0179034 0.0192229 -0.00417332 0.020876 0.0145656 0.029191 0.00712355 0.0135005 -0.028931 0.00122979
internal_weight=301.789 207.333 101.945 105.388 94.4555 92.627 32.2407 89.2281 58.521 18.75 39.771 34.3255 5.44552 21.1044
internal_count=9270 8240 2310 5930 1030 950 948 915 700 161 539 466 73 317
is_linear=0
shrinkage=0.05


Tree=15
num_leaves=15
num_cat=0
split_feature=9 5 4 6 10 7 7 3 5 12 8 5 1 6
split_gain=16.1682 6.52855 3.57997 3.04388 3.28285 2.97156 2.95513 3.02319 2.52724 3.39468 2.48353 2.16383 1.80013 2.18819
threshold=0.79213483146067432 0.012718807333720621 0.16706649897786965 0.025951171680061395 -0.47752808988764034 0.097465840674084273 0.21598335597797544 -0.059895316623110699 0.034822836431848934 -0.0019871056518531139 0.67977528089887651 0.046177153296566818 -0.047064489771481026 0.015431774803188024
decision_type=2 2 2 2 2 2 2 2 2 2 2 2 2 2
left_child=1 -1 3 5 -5 10 -3 -8 -4 -10 12 -6 -2 -14
right_child=2 6 8 4 11 -7 7 -9 9 -11 -12 -13 13 -15
leaf_value=-0.025296927866462961 -0.015096490725917695 -0.0057858468980775939 0.03373286927732589 -0.013615386480799616 0.029971613585479145 -0.027321754181123478 0.043631552756716846 -0.03292811748807084 -0.031329155637309002 0.030025406888012231 -0.0026839920267441161 -0.035160810781728995 -0.011991033058335447 0.027410277901636766
leaf_weight=51.275168751366436 3.1956335324794081 103.40964000904933 25.750439818948507 5.260555584914985 26.159197477623824 6.6975592728704205 4.7686409973539412 0.86822472885250945 3.4118839781731367 3.6103672794997683 38.806676855310798 0.52811786998063226 3.6146279070526388 20.690223846584558
leaf_count=3415 51 3842 195 100 246 164 44 12 35 22 752 10 98 284
internal_value=2.78326e-10 -0.0107631 0.0125163 0.00786904 0.020488 0.00214459 -0.00376132 0.0286547 0.026725 2.58722e-05 0.00548264 0.0274593 0.0166966 0.0213082
internal_weight=298.047 160.322 137.725 104.953 31.9479 73.0047 109.047 5.63687 32.7727 7.02225 66.3072 26.6873 27.5005 24.3049
internal_count=9270 7313 1957 1705 356 1349 3898 56 252 57 1185 256 433 382
is_linear=0
shrinkage=0.05


Tree=16
num_leaves=15
num_cat=0
split_feature=9 5 9 9 7 12 4 5 1 7 7 7 18 4
split_gain=14.369 6.62666 2.97522 2.5484 3.04137 2.48525 2.26516 2.24302 2.04326 1.99649 1.90793 2.5495 2.44586 1.8649
threshold=0.89325842696629221 0.018001804448019555 0.72471910112359561 0.050561797752808994 0.13555944937877071 -0.043531449693776002 -0.017657132658285165 0.010165105976008974 -0.060135989332393107 0.23411600798910373 0.083797876578534672 0.097465840674084273 5.0561797752809037 -0.10461470701569341
decision_type=2 2 2 2 2 2 2 2 2 2 2 2 2 2
left_child=1 2 -1 13 10 -2 -4 -7 -9 -6 -5 -12 -13 -3
right_child=5 3 6 4 9 7 -8 8 -10 -11 11 12 -14 -15
leaf_value=-0.021944104366821614 -0.031122416089688205 0.032008470182882283 -0.032220403565485688 -0.006817830776157505 -0.027591442721010495 -0.021394558845766576 0.0024469453458742258 -0.028389764199759727 0.020401953429347332 0.024529875496392663 0.027889286330777342 -0.032454169417618306 0.0067403985464143867 -0.019261379241523029
leaf_weight=70.360615727491677 1.7906158696860064 9.0579014848917705 4.6697626425884691 30.002753792330623 12.979201111942528 2.7286233864724627 27.232261881232262 1.3642681268975128 84.270228947512805 1.3291007056832302 12.137248896062372 3.5371768549084655 31.602200487628579 1.4543439932167519
leaf_count=4982 80 124 233 700 464 74 715 31 845 10 231 66 679 36
internal_value=-2.53193e-10 -0.00733306 -0.0162648 0.00168389 -0.00109146 0.0165208 -0.00345265 0.0178238 0.0193059 -0.0214638 0.00290649 0.00909115 0.00200616 0.0238584
internal_weight=294.516 204.363 102.263 102.1 91.5877 90.1537 31.902 88.3631 85.6345 14.3083 77.2794 47.2766 35.1394 10.5122
internal_count=9270 8240 5930 2310 2150 1030 948 950 876 474 1676 976 745 160
is_linear=0
shrinkage=0.05


Tree=17
num_leaves=15
num_cat=0
split_feature=9 5 4 3 6 5 10 7 8 5 12 10 6 4
split_gain=12.7605 5.93256 3.52452 3.20606 2.66891 2.53656 2.48331 2.21696 2.5508 1.83647 2.93444 1.88098 2.98575 3.01703
threshold=0.79213483146067432 0.02208106354372321 0.16706649897786965 -0.050614262215332599 0.025951171680061395 0.010899567945764573 -0.47752808988764034 0.097465840674084273 0.67977528089887651 0.034822836431848934 -0.0019871056518531139 -0.011235955056179718 0.027762022690278471 0.22243687806385651
decision_type=2 2 2 2 2 2 2 2 2 2 2 2 2 2
left_child=1 5 4 -3 7 -1 -6 8 -2 11 -11 -4 13 -13
right_child=2 3 9 -5 6 -7 -8 -9 -10 10 -12 12 -14 -15
leaf_value=-0.026124578544914304 0.015592336530488941 0.018776771604150574 0.040515436453505013 -0.0081417478912470913 -0.012090449700062605 -0.010129822034461337 0.024496063324604779 -0.02515641341847168 -0.0042600516968327251 -0.030412531315583816 0.028713470751421083 -0.022238967326558549 -0.039318930599563033 0.042535145666154045
leaf_weight=37.714444437995553 26.742602569051087 22.381586592644453 17.132635547779508 20.175394742749631 4.9479110799729851 75.749841900542378 26.387104754336178 6.2139804223552337 38.060141062363982 2.9222514536231756 3.5153888352215281 1.8417840804904679 1.4487830102443693 4.9489340074360371
leaf_count=2556 433 468 115 506 100 3783 256 164 752 35 22 27 18 35
internal_value=-4.43382e-10 -0.00969445 0.0112623 0.00612131 0.00661488 -0.0156281 0.0185237 0.00117606 0.00404503 0.0255587 0.00139384 0.0314047 0.0101258 0.0243675
internal_weight=290.183 156.021 134.162 42.557 102.352 113.464 31.335 71.0167 64.8027 31.8098 6.43764 25.3721 8.2395 6.79072
internal_count=9270 7313 1957 974 1705 6339 356 1349 1185 252 57 195 80 62
is_linear=0
shrinkage=0.05


Tree=18
num_leaves=15
num_cat=0
split_feature=9 5 4 9 12 3 4 1 6 8 8 2 3 9
split_gain=11.5988 5.70561 2.49488 2.42643 2.41723 2.32307 2.25011 3.59788 2.92593 2.40942 2.28383 2.15671 1.9118 2.22647
threshold=0.89325842696629221 0.018001804448019555 -0.14190571270525246 0.72471910112359561 -0.043531449693776002 0.0045841633172497573 0.24699773336960154 -0.019303479962731903 0.021339371370061942 0.47752808988764051 0.016853932584269666 0.13626554625851331 0.11204182192468339 0.93820224719101131
decision_type=2 2 2 2 2 2 2 2 2 2 2 2 2 2
left_child=1 3 -3 -1 -2 -5 8 -8 9 -6 -10 -12 13 -11
right_child=4 2 -4 5 6 -7 7 -9 10 12 11 -13 -14 -15
leaf_value=-0.020276957266147422 -0.031219712791727212 0.025914108215788257 -0.00075316348076799903 -0.022917299631367988 0.025812848693693869 0.0055614454449982708 -0.031585827774534884 0.041163921151437591 -0.039604255324700355 -0.0031331761439850566 0.022646008156189546 -0.024070242675859846 0.020230539320614981 -0.042855917960653245
leaf_weight=68.489287668839097 1.8608858035877336 8.7151177963241917 89.724771991372108 9.4217233685776609 4.5675404276698854 22.028419215232134 1.1863943450152881 13.565672881901261 0.73545378912240167 8.8176122568547743 47.568789605982602 1.8131617102771986 2.9211931191384783 5.0799383893609038
leaf_count=4982 80 133 2177 405 56 543 15 89 21 153 460 21 41 94
internal_value=1.64913e-12 -0.00670265 0.00184461 -0.0150565 0.0149957 -0.00341344 0.0163392 0.0336795 0.0123465 -0.00305007 0.0188477 0.020487 -0.0118972 -0.019555
internal_weight=286.496 198.379 98.4399 99.9394 88.1166 31.4501 86.2558 14.7521 71.5037 21.3863 50.1174 49.382 16.8187 13.8976
internal_count=9270 8240 2310 5930 1030 948 950 104 846 344 502 481 288 247
is_linear=0
shrinkage=0.05


Tree=19
num_leaves=15
num_cat=0
split_feature=9 5 4 4 9 7 13 5 2 3 5 11 1 3
split_gain=10.9095 5.37725 3.34676 2.35163 2.10301 2.09496 2.18199 4.12429 2.74068 2.34645 2.16198 2.15051 2.09394 1.92365
threshold=0.89325842696629221 0.018001804448019555 0.24699773336960154 -0.14190571270525246 0.72471910112359561 0.026573269114125945 0.15000000000000002 0.014740557502135401 0.13626554625851331 0.10581963769606585 0.016043886728492069 -0.026283586675912796 -0.015885841114868401 0.0045841633172497573
decision_type=2 2 2 2 2 2 2 2 2 2 2 2 2 2
left_child=1 4 5 -3 -1 -2 10 9 -9 -8 -7 -12 -4 -6
right_child=2 3 12 -5 13 6 7 8 -10 -11 11 -13 -14 -15
leaf_value=-0.019719954828555854 -0.027931111443636608 0.02462727931026433 -0.015012097301638938 -0.00084132944875998548 -0.022220306557582229 0.019226441214003631 -0.02637927368678469 0.024856297015119769 -0.029513926704946559 0.021614770749267372 0.022286598213578548 -0.030423286114389256 0.040956070608144796 0.0040582190440283687
leaf_weight=66.706223221495748 2.5824306588619939 9.0817041648551804 1.3730465210974223 89.200128582306206 8.9605088662356156 4.7255763933062545 7.1920983828604204 43.862564431969076 1.6281861960887898 2.8200473226606846 1.7203189730644215 7.4388235639780751 13.817688483744856 22.388172408565879
leaf_count=4982 49 133 17 2177 405 71 139 482 19 36 24 102 91 543
internal_value=-4.6658e-11 -0.00653288 0.014623 0.00173644 -0.0147552 0.00983867 0.0116212 0.0159995 0.0223173 -0.0121259 -0.00577959 -0.0193038 0.0352825 -0.00390777
internal_weight=283.498 196.337 87.1608 98.2818 98.0549 71.97 69.3876 55.5029 45.4908 10.0121 13.8847 9.15914 15.1907 31.3487
internal_count=9270 8240 1030 2310 5930 922 873 676 501 175 197 126 108 948
is_linear=0
shrinkage=0.05


Tree=20
num_leaves=15
num_cat=0
split_feature=9 5 12 9 19 5 5 13 4 4 4 7 19 19
split_gain=10.3081 4.89728 2.23885 2.17471 2.71545 2.26274 2.45361 2.42804 2.15638 2.03651 1.97123 1.9504 2.67736 2.57823
threshold=0.89325842696629221 0.018001804448019555 -0.043531449693776002 0.98314606741573041 89.814349396264618 0.041695868009044255 0.014740557502135401 0.13888888888888892 -0.14190571270525246 0.044910881750625971 0.085419661064740096 0.12940104046702969 39.455550701723404 71.853428740482443
decision_type=2 2 2 2 2 2 2 2 2 2 2 2 2 2
left_child=1 9 -2 5 10 6 -4 -8 -3 -1 -5 12 -10 -14
right_child=2 8 3 4 -6 -7 7 -9 11 -11 -12 -13 13 -15
leaf_value=-0.018265929556864083 -0.031678031391312936 0.022798802602561112 -0.0078469452491246872 -0.014352804999012959 -0.015112827459536203 -0.040939290908893346 -0.0080772072025841451 0.022070101923537058 0.013074814283520714 -0.0013069441731733192 0.037751362803410876 -0.015211679387909117 -0.013819566725379016 0.014721757649404657
leaf_weight=73.637452309019864 1.6647562808357168 9.655211662873624 11.876823128201066 1.4744453988969386 2.6679096296429625 1.1377433296293009 7.5028289360925546 38.376513669267297 32.731810338795185 23.418469681404531 20.333356047049165 18.044413559138775 28.096203066408634 9.9540524184703809
leaf_count=5112 80 133 221 19 28 15 96 428 635 818 143 576 761 205
internal_value=4.34059e-10 -0.00631841 0.0144338 0.0157191 0.028043 0.0102148 0.0119021 0.0170729 0.00154231 -0.014229 0.0337537 -0.000996303 0.00278904 -0.00616728
internal_weight=280.572 195.538 85.0344 83.3696 24.4757 58.8939 57.7562 45.8793 98.4817 97.0559 21.8078 88.8265 70.7821 38.0503
internal_count=9270 8240 1030 950 190 760 745 524 2310 5930 162 2177 1601 966
is_linear=0
shrinkage=0.05


Tree=21
num_leaves=15
num_cat=0
split_feature=9 7 9 9 0 5 5 3 8 14 12 7 11 13
split_gain=9.39521 4.50773 3.62343 2.63557 2.10741 1.84257 2.46072 2.59609 1.98225 1.89003 1.86154 1.79249 1.5531 1.63592
threshold=0.79213483146067432 0.066757675632158744 0.98314606741573041 0.050561797752808994 0.038631290539214998 0.017144584946818097 0.034822836431848934 0.027372389651667665 0.039325842696629219 0.015284095056766997 -0.03558967540609654 0.052831062812136183 0.013628407421265322 0.038888888888888896
decision_type=2 2 2 2 2 2 2 2 2 2 2 2 2 2
left_child=1 -1 5 -3 12 9 8 10 -7 -2 -8 -6 13 -4
right_child=2 3 4 -5 11 6 7 -9 -10 -11 -12 -13 -14 -15
leaf_value=-0.022494193657111059 0.0021687920397443872 0.015298316583099375 -0.021735534621297771 -0.0062825908410183819 0.028500965955667576 -0.033199363284098338 -0.029833207468545831 -0.049251557048748222 0.015646696118685622 -0.02615275732827127 0.035835483350219542 -0.027257128768295742 -0.011407127011653325 0.038853258172950544
leaf_weight=40.408048073528334 33.556001311168075 15.642879039980469 0.56641204468906892 94.267838440369815 1.4411499556154002 1.243734374642371 0.82108839042484794 2.4003314799629152 55.460979141294956 6.1146058104932299 1.8415294922888268 2.568733342923224 1.4173848014324892 19.251569850370288
leaf_count=2601 685 457 12 4255 10 34 20 48 791 151 22 24 20 140
internal_value=-5.28572e-12 -0.00842831 0.00998846 -0.00310088 0.026577 0.00564089 0.0109764 -0.0197879 0.0140186 -0.00273224 0.0129685 -0.00552873 0.0326155 0.0361607
internal_weight=277.002 150.319 126.684 109.911 25.2452 101.438 61.7677 5.06295 56.7047 39.6706 2.66262 4.00988 21.2354 19.818
internal_count=9270 7313 1957 4712 206 1751 915 90 825 836 42 34 172 152
is_linear=0
shrinkage=0.05


Tree=22
num_leaves=15
num_cat=0
split_feature=9 5 7 9 5 13 5 3 13 12 4 8 14 3
split_gain=8.70392 3.78303 2.39545 2.24583 1.70961 1.9462 1.75097 1.65295 1.59741 1.56715 1.53595 1.26365 1.25211 1.22968
threshold=0.89325842696629221 0.010899567945764573 0.23411600798910373 0.98314606741573041 0.014740557502135401 0.13888888888888892 0.041695868009044255 -0.059895316623110699 0.88333333333333341 -0.035833375522273836 0.036203988983550713 0.039325842696629219 0.010141157987983944 -0.097396888616253272
decision_type=2 2 2 2 2 2 2 2 2 2 2 2 2 2
left_child=1 -1 13 4 10 12 11 -4 9 -5 -2 -7 -6 -3
right_child=3 2 7 8 5 6 -8 -9 -10 -11 -12 -13 -14 -15
leaf_value=-0.018721923181314961 -0.043376273381339953 -0.020076291331018514 0.041950871254235994 -0.0081040809749515063 0.014518043648218328 -0.026123363784164327 -0.033866611597620652 -0.028004598263676267 -0.012792806804858973 0.03375783433562899 4.6274597036752696e-05 0.020092727264374045 -0.022454324312249446 -0.0019094659873343128
leaf_weight=43.078953640069813 1.5450448095798481 9.0334892226383072 3.6831483235582714 2.1130005503073397 2.7748686112463465 0.7097823703661551 0.76717700622975726 0.30332315340638061 1.896871062926947 20.323043238371611 10.181352927349506 37.24562765751034 5.2149984887801111 135.23497382597998
leaf_count=2743 49 330 28 28 29 21 11 3 28 150 186 434 94 5136
internal_value=1.33003e-10 -0.00585883 -0.00202076 0.0134514 0.00789582 0.0121393 0.0167146 0.0320794 0.0259557 0.0296378 -0.0086338 0.0185801 -0.00942727 -0.00317737
internal_weight=274.106 191.334 148.255 82.7718 58.4389 46.7125 38.7226 3.98647 24.3329 22.436 11.7264 37.9554 7.98987 144.268
internal_count=9270 8240 5497 1030 824 589 466 31 206 178 235 455 123 5466
is_linear=0
shrinkage=0.05


Tree=23
num_leaves=15
num_cat=0
split_feature=9 5 3 16 12 9 19 8 10 6 8 5 1 8
split_gain=7.67481 3.78208 2.22038 2.06745 2.04581 1.76671 1.87055 1.84107 1.624 1.59375 1.79273 1.80593 1.47341 2.22044
threshold=0.89325842696629221 0.02208106354372321 -0.050614262215332599 72.596783195966438 -0.043531449693776002 0.98314606741573041 89.814349396264618 0.14044943820224723 0.2303370786516854 0.019963903022355154 0.039325842696629219 0.041695868009044255 0.05031281160501911 0.47752808988764051
decision_type=2 2 2 2 2 2 2 2 2 2 2 2 2 2
left_child=1 3 8 -1 -2 9 7 -7 -3 12 -11 -12 13 -6
right_child=4 2 -4 -5 5 6 -8 -9 -10 10 11 -13 -14 -15
leaf_value=-0.012008159469508888 -0.031378176082440944 0.021571363177374694 -0.0037631037421198259 0.0076491632006116701 0.022476835147645518 -0.0064111025272694704 -0.01208122138305194 0.035429172106046326 -0.011507990489946364 -0.031442349579886911 0.01789443302628585 -0.035127545289372085 0.027886859839375711 -0.02167060265765805
leaf_weight=122.16648933384567 1.6424022233113635 21.140746830031279 28.904465526342392 14.323533193208275 2.9093902278691521 2.7188299112021985 2.4546119272708884 18.417790461331606 3.7983101904392234 1.1828156253322948 39.180617769248784 0.76994582265615363 1.943876203149556 10.337780690751968
leaf_count=6545 80 411 696 489 38 32 28 130 99 33 443 15 29 202
internal_value=-1.35535e-11 -0.00549792 0.00564978 -0.00990465 0.0127418 0.0140251 0.025309 0.0300007 0.0162838 0.00893986 0.0139605 0.0160397 -0.0046773 -0.0110777
internal_weight=271.892 190.334 53.8435 136.49 81.5581 79.9157 23.5912 21.1366 24.9391 56.3244 41.1334 39.9506 15.191 13.2472
internal_count=9270 8240 1206 7034 1030 950 190 162 510 760 491 458 269 240
is_linear=0
shrinkage=0.05


Tree=24
num_leaves=15
num_cat=0
split_feature=9 5 7 9 5 13 2 5 10 12 6 1 3 2
split_gain=6.95402 3.31632 2.60454 1.80864 1.39878 1.28984 1.52261 1.26998 1.17676 1.17006 1.19527 1.13885 1.12926 1.67039
threshold=0.89325842696629221 0.010999566093273546 0.23411600798910373 0.98314606741573041 0.011424331283871535 0.88333333333333341 -0.058497451245078318 0.041695868009044255 -0.016853932584269645 0.014796334673949094 0.0070573456000657892 0.10417343742109543 -0.097396888616253272 -0.054996789601403022
decision_type=2 2 2 2 2 2 2 2 2 2 2 2 2 2
left_child=1 9 12 4 -2 6 -5 -6 -7 10 -1 -8 -3 -14
right_child=3 2 -4 5 7 8 11 -9 -10 -11 -12 -13 13 -15
leaf_value=0.021356748662126425 -0.018903363548859197 -0.019275836533103399 0.035166917246606491 -0.02010258398133348 0.010645299892661565 0.015666279855791668 0.033285795562404318 -0.033018084795485306 -0.041553111573736923 -0.0065304815922760107 -0.025773813851600842 -0.0073661994225310687 0.012081811377327445 -0.0038129091001975752
leaf_weight=0.69292171439156192 3.8217617571353903 8.6788981775753182 3.6718882601708165 0.95220332220197335 52.122704233508557 1.1847214940935371 19.10645825043321 0.76787725649773975 0.61876143980771203 17.039624390657991 25.319932508282363 1.5283521749079216 18.270549002569169 115.67557986918837
leaf_count=50 105 327 31 13 703 14 149 16 14 1043 1721 16 492 4576
internal_value=-7.36199e-11 -0.00522376 -0.00159082 0.0122602 0.00720795 0.0237122 0.0270682 0.00941046 -0.0117847 -0.0172525 -0.0237742 0.0300735 -0.00277542 -0.00157137
internal_weight=269.452 189.349 146.297 80.1028 56.7123 23.3905 21.587 52.8906 1.80348 43.0525 26.0129 20.6348 142.625 133.946
internal_count=9270 8240 5426 1030 824 206 178 719 28 2814 1771 165 5395 5068
is_linear=0
shrinkage=0.05


Tree=25
num_leaves=15
num_cat=0
split_feature=9 7 9 7 12 19 6 3 10 8 5 3 12 4
split_gain=6.17197 3.70439 2.41305 2.08154 1.52609 1.43347 1.42192 2.52815 1.80057 1.48152 1.60719 2.0101 1.60998 1.40237
threshold=0.79213483146067432 0.066757675632158744 0.98314606741573041 0.23411600798910373 -0.035833375522273836 89.814349396264618 0.017342025016155341 0.062739305605315723 -0.11235955056179771 0.039325842696629219 0.034822836431848934 0.027372389651667665 -0.03558967540609654 0.10256734289101889
decision_type=2 2 2 2 2 2 2 2 2 2 2 2 2 2
left_child=1 13 6 -3 -4 -6 7 -2 -9 -8 -11 12 -12 -1
right_child=2 3 4 -5 5 -7 9 8 -10 10 11 -13 -14 -15
leaf_value=-0.022040887365496132 -0.018345059134656418 -0.0034262335810564745 -0.012919745161307911 0.030660305179033738 0.031182856272372519 -0.0080615307313160467 -0.025103339460489288 -0.034787071233247605 0.029011425862360413 0.010957081066902838 -0.027632112439666286 -0.045364834694241213 0.035733232706275736 0.01479404889971086
leaf_weight=37.326823846902698 13.674698123708369 103.78500839928165 2.1315307798795429 3.6824283711612216 18.416200259700421 2.2328613717108956 2.3526951838284722 0.46981993690133084 5.0890040192753068 71.815053892321885 0.75050790794193778 2.0048863105475903 1.5233856979757536 2.0963500239886335
leaf_count=2515 378 4674 32 38 147 27 69 9 87 1124 19 46 19 86
internal_value=-4.51641e-11 -0.00685914 0.0083517 -0.00198634 0.0226627 0.0267629 0.00481831 -0.00710149 0.0191376 0.0077934 0.00912294 -0.0179052 0.0127672 -0.0197646
internal_weight=267.351 146.891 120.461 107.467 22.7806 20.6491 97.6801 19.2335 5.55882 78.4465 76.0938 4.27878 2.27389 39.4232
internal_count=9270 7313 1957 4712 206 174 1751 474 96 1277 1208 84 38 2601
is_linear=0
shrinkage=0.05


Tree=26
num_leaves=15
num_cat=0
split_feature=5 9 9 7 6 16 7 16 7 7 12 1 1 3
split_gain=5.63683 3.71316 1.83381 1.76346 2.46346 3.47201 3.24069 2.73917 2.65097 2.17516 1.89402 1.87705 1.99956 1.78216
threshold=0.010649446260398689 0.89325842696629221 0.050561797752808994 0.036010819136743651 0.025253299408496736 67.072245930739655 0.047479250697007765 46.645991808782057 0.092936800700336678 0.068004487455105081 -0.035833375522273836 -0.042365522385402636 -0.060135989332393107 0.085957630082607719
decision_type=2 2 2 2 2 2 2 2 2 2 2 2 2 2
left_child=-1 2 -2 13 5 8 -6 11 -5 -7 -9 12 -8 -3
right_child=1 3 -4 4 6 9 7 10 -10 -11 -12 -13 -14 -15
leaf_value=-0.016572083128219759 0.015499501613347524 0.0047987209149679922 -0.0032273353423621035 0.016570151654954225 -0.043768773932621095 -0.052474478796420178 -0.029015719073295011 -0.01570050124801135 -0.034389771525555959 -0.0017953991611310482 0.031134190899726872 -0.018544400203275673 0.040380738913836603 0.042167519066615047
leaf_weight=42.040435772854835 13.477605755440889 5.4653052836656553 134.3275781807024 15.049371949397033 1.2139428704977024 3.7407615664415053 0.63651507534086738 1.7611922221258272 2.0749615961685768 3.9586277296766639 24.605506705120209 6.2324693733826262 2.6427092999219894 7.7658151388168335
leaf_count=2701 345 83 5288 209 20 72 24 25 48 63 209 83 22 78
internal_value=-4.69782e-10 0.00318492 -0.00142705 0.0121557 0.00834387 -0.00377476 0.0163403 0.0195058 0.00883858 -0.0296195 0.0275464 -0.00328312 0.0232777 0.0281536
internal_weight=264.993 222.952 147.805 75.1472 61.9161 24.8237 37.0923 35.8784 17.1243 7.69939 26.3667 9.51169 3.27922 13.2311
internal_count=9270 6569 5633 936 775 392 383 363 257 135 234 129 46 161
is_linear=0
shrinkage=0.05


Tree=27
num_leaves=15
num_cat=0
split_feature=5 9 7 7 7 6 19 16 6 12 7 3 6 4
split_gain=5.44106 3.37604 1.74092 1.62957 2.2019 2.07776 2.66985 2.36554 2.31978 2.25539 2.08766 1.71301 1.7866 1.52437
threshold=0.010649446260398689 0.89325842696629221 0.23411600798910373 0.036010819136743651 0.045523530815892173 0.025253299408496736 80.249372991984941 47.431080826577976 0.024071700806965631 -0.009013994952009859 0.12671966757926875 0.085957630082607719 0.021269799069128587 0.048335491698715101
decision_type=2 2 2 2 2 2 2 2 2 2 2 2 2 2
left_child=-1 2 -2 11 -5 6 8 9 13 -7 -11 12 -3 -6
right_child=1 3 -4 4 5 7 -8 -9 -10 10 -12 -13 -14 -15
leaf_value=-0.016385190375401926 -0.0021491594088926991 -0.014119553139812195 0.029012196339251551 -0.022670295520853735 -0.0091668654415969775 0.014825089569194875 -0.038958160200646012 0.025994742599146605 -0.03943564662280849 -0.054410233226107718 0.012805231502815789 0.041014452170619137 0.038313861942527977 0.022024390659265761
leaf_weight=41.543126045260578 145.23051731614396 3.8402221910655481 3.6254582460969678 4.4110894482582799 5.0595150394365289 6.097036587074399 2.93647417705506 25.195306370966136 1.4765922725200642 2.039378120563923 1.3527203304693101 7.7073871232569218 1.4573846310377119 11.374900663271545
leaf_count=2701 5601 67 32 72 98 82 59 229 32 35 18 78 16 150
internal_value=4.52088e-11 0.00312866 -0.00120167 0.0118618 0.00810948 0.0109122 -0.0015572 0.0182407 0.00631044 -0.00286315 -0.0307931 0.027343 0.0040984 0.0124468
internal_weight=263.347 221.804 148.856 72.948 59.943 55.5319 20.8475 34.6844 17.911 9.48914 3.3921 13.005 5.29761 16.4344
internal_count=9270 6569 5633 936 775 703 339 364 280 135 53 161 83 248
is_linear=0
shrinkage=0.05


Tree=28
num_leaves=15
num_cat=0
split_feature=5 9 9 7 6 12 7 7 8 14 8 1 7 3
split_gain=4.83575 2.94754 1.71002 1.64576 2.19207 3.69061 2.95699 2.57554 2.46942 2.43351 2.23165 2.09425 2.00525 2.02085
threshold=0.010649446260398689 0.79213483146067432 0.050561797752808994 0.036010819136743651 0.027166307926354629 -0.03558967540609654 0.083314559113557132 0.097465840674084273 0.016853932584269666 0.023980595796910083 0.67977528089887651 -0.040012973605889283 0.061678553965660528 0.096754432333361576
decision_type=2 2 2 2 2 2 2 2 2 2 2 2 2 2
left_child=-1 2 -2 -3 7 11 12 10 -8 -10 -5 -6 -7 -14
right_child=1 3 -4 4 5 6 8 -9 9 -11 -12 -13 13 -15
leaf_value=-0.015553296191361032 0.013178450263168022 0.023826307784576565 -0.0049305857940037459 0.01645783608958416 0.016795832962713569 0.017697039217503385 -0.023489888123778432 -0.024602387801480288 0.041652796918582015 -0.028951839467500913 -0.0041909650546461613 -0.046522970261109735 -0.055768763266858083 0.0078916804336901722
leaf_weight=41.011152202729136 13.988971225917338 14.888609109446405 100.29816534882411 21.837315517477691 1.4350425098091366 4.9801171645522135 1.1328912973403955 7.7641059625893822 17.684750564396385 0.62380344420671363 29.918605040758848 2.4706928152591017 1.5811238549649718 1.9958351366221903
leaf_count=2701 345 217 4533 340 21 45 30 191 176 8 560 52 28 23
internal_value=-3.28251e-10 0.00294861 -0.00261892 0.00890238 0.00624049 0.0165971 0.0229903 0.000506544 0.0333224 0.0378723 0.00466818 -0.024577 -0.00151443 -0.0262847
internal_weight=261.611 220.6 114.287 106.313 91.4243 31.9043 27.9985 59.52 19.4414 18.3086 51.7559 3.90574 8.55708 3.57696
internal_count=9270 6569 4878 1691 1474 383 310 1091 214 184 900 73 96 51
is_linear=0
shrinkage=0.05


Tree=29
num_leaves=15
num_cat=0
split_feature=9 7 12 3 1 4 12 11 6 7 7 9 0 6
split_gain=4.45169 2.76515 1.68389 2.02096 1.77814 1.78984 2.0795 2.01654 2.9516 2.50337 2.07978 1.68267 1.66409 1.6315
threshold=0.79213483146067432 0.066757675632158744 -0.043531449693776002 -0.081339420471999088 -0.060135989332393107 0.24699773336960154 -0.025300996977612168 -0.012204698548717976 0.027166307926354629 0.083797876578534672 0.063092784060618703 0.050561797752808994 -0.017096957541351928 0.013408576405620239
decision_type=2 2 2 2 2 2 2 2 2 2 2 2 2 2
left_child=1 -1 3 -2 -4 6 13 -8 -9 10 -10 -3 -12 -6
right_child=2 11 4 -5 5 -7 7 8 9 -11 12 -13 -14 -15
leaf_value=-0.017177510689374325 0.026311643625533829 0.013104196409071288 -0.029194288395181286 -0.032549130870837877 -0.023336431304924868 0.027823844682034162 -0.020337329321595956 -0.00064717174087017076 0.023606956114287852 0.034038950471696021 0.018786808026486024 -0.0042300195753780037 -0.050477004401126117 0.023149550557164989
leaf_weight=38.095205231104046 1.1710853548720477 15.502783978823571 2.067529907450079 4.2619673055596641 1.2608874496072555 11.272071313112972 7.2703317441046229 47.513512614183128 2.1332575082778957 12.460822269320486 0.62970959395170245 91.695740147959441 1.8774105701595543 22.519865672104061
leaf_count=2601 20 457 57 132 48 97 138 936 24 134 7 4255 36 328
internal_value=-5.03661e-11 -0.00579251 0.00734077 -0.0177439 0.00874098 0.0097381 0.00734131 0.00299019 0.0058849 0.0230666 -0.00720862 -0.00162524 -0.0326838 0.0198425
internal_weight=259.732 145.294 114.438 5.43305 109.005 106.938 95.6658 71.885 64.6147 17.1012 4.64038 107.199 2.50712 23.7808
internal_count=9270 7313 1957 152 1805 1748 1651 1275 1137 201 67 4712 43 376
is_linear=0
shrinkage=0.05


Tree=30
num_leaves=15
num_cat=0
split_feature=5 9 4 7 12 14 6 2 3 19 3 6 10 5
split_gain=4.33909 2.63562 1.48134 1.36281 1.30252 1.19518 1.1007 1.12522 1.7222 1.44355 1.694 1.1375 1.58569 1.27781
threshold=0.010649446260398689 0.89325842696629221 -0.15594719991433667 0.18806106137364223 -0.043531449693776002 0.027667779864059008 0.037090819448020972 0.041688694334543371 0.10189132635698729 35.70923654992724 -0.095774229776504446 0.028110065585420618 0.10112359550561797 0.034148860923551731
decision_type=2 2 2 2 2 2 2 2 2 2 2 2 2 2
left_child=-1 2 3 -2 -3 -6 7 9 -9 10 -4 -11 13 -13
right_child=1 4 6 -5 5 -7 -8 8 -10 11 -12 12 -14 -15
leaf_value=-0.014907900689936372 -0.010182032311535161 -0.026225732173807744 -0.019366167134362285 0.032010013903291189 0.012723433828060921 -0.032780687086158541 -0.037305907891800986 0.01476384604200872 -0.032878571438730117 -0.0093249350906737458 0.0067104585829763259 0.044851072041490553 -0.02338430330636047 -0.020402734681632229
leaf_weight=40.094833672512323 2.2151549351401618 1.4005533210001875 6.2475660699419668 5.1000289050862193 67.536251380108297 0.54435727931558986 1.1965538635849942 16.267517704050992 1.1830692840740074 68.501110670622438 44.009531271643937 2.3640934349969029 0.99854520987719286 0.33654851559549559
leaf_count=2701 86 70 249 70 858 8 33 484 32 3147 1459 34 31 8
internal_value=-1.01961e-10 0.0027987 -0.000975758 0.0195456 0.0107608 0.0118903 -0.00216969 -0.00160657 0.00992699 -0.00331723 0.00315424 -0.00780344 0.0163601 0.0334034
internal_weight=257.996 217.901 148.42 7.31518 69.4812 68.0806 141.105 139.908 17.4506 122.457 50.2571 72.2003 3.69919 2.70064
internal_count=9270 6569 5633 156 936 866 5477 5444 516 4928 1708 3220 73 42
is_linear=0
shrinkage=0.05


Tree=31
num_leaves=15
num_cat=0
split_feature=5 4 1 7 8 19 11 9 5 4 5 11 9 3
split_gain=3.70071 2.41328 2.37973 1.5336 1.49947 1.45784 1.23168 1.21854 2.31121 1.51401 1.31763 1.55402 1.78287 1.47539
threshold=0.010649446260398689 0.043849757710266675 0.048588414562593114 0.23411600798910373 0.43258426966292141 89.814349396264618 0.021629966209206302 0.98314606741573041 0.034822836431848934 0.085419661064740096 0.018971034358525953 0.0078709722981511552 0.9269662921348315 0.13884063195531995
decision_type=2 2 2 2 2 2 2 2 2 2 2 2 2 2
left_child=-1 2 3 -2 -5 6 7 8 10 -9 11 12 -3 -14
right_child=1 5 -4 4 -6 -7 -8 9 -10 -11 -12 -13 13 -15
leaf_value=-0.013858409660592859 -0.0041271455778100563 0.005827166813198518 0.022331676320863299 0.041027989417913316 -0.023968558412263558 -0.017048567516583207 -0.034484035530886255 -0.02485279082946501 -0.034602103468964036 0.026947000465104599 0.018380230274995954 0.021165228242699861 -0.032812124418999701 0.018108179679324245
leaf_weight=39.587751013226807 125.86098186206073 14.889700721949344 8.8260312099009735 2.5095875896513458 0.45814586896449316 4.0042618438601485 0.51629414968192477 0.76733451709151523 2.0499679725617161 16.29976949095726 25.719913328997791 7.425199218094348 5.7594707021489731 1.1111035794019697
leaf_count=2701 5002 375 192 22 8 61 15 7 44 150 384 192 101 16
internal_value=-1.4535e-10 0.00258972 -0.00140709 -0.00319292 0.0274821 0.00952418 0.0111585 0.0119322 0.00816028 0.0233714 0.0103472 0.00289374 -0.00399698 -0.0233229
internal_weight=255.786 216.198 137.655 128.829 2.96773 78.543 74.5388 74.0225 56.9554 17.0671 54.9054 29.1855 21.7603 6.87057
internal_count=9270 6569 5224 5032 30 1345 1284 1269 1112 157 1068 684 492 117
is_linear=0
shrinkage=0.05


Tree=32
num_leaves=15
num_cat=0
split_feature=5 4 1 5 6 4 19 6 7 14 7 3 4 5
split_gain=3.39451 2.15928 2.06607 1.44418 2.16122 1.69071 2.92407 2.12284 1.96482 1.63406 1.35941 1.23154 1.21378 1.32923
threshold=0.010649446260398689 0.043849757710266675 0.048588414562593114 0.034822836431848934 0.030782352420441 0.24699773336960154 81.57241277677376 0.027762022690278471 0.048692564160561287 0.011762852665911287 0.23411600798910373 -0.095774229776504446 0.054181642789412073 0.026877014602042133
decision_type=2 2 2 2 2 2 2 2 2 2 2 2 2 2
left_child=-1 2 10 5 -5 6 -3 -7 -9 -6 -2 -12 -8 -14
right_child=1 3 -4 4 9 7 12 8 -10 -11 11 -13 13 -15
leaf_value=-0.013403729641647655 -0.003863797674542307 0.012286453051725359 0.020447459050846634 -0.04689151798431665 -0.04176769326871882 0.046750495152881003 0.021049500895859521 -0.049094696316342216 0.019530361808143364 0.016716670995638849 0.039065370971109369 -0.021708099389007751 -0.036495875317619796 0.0094393339410030752
leaf_weight=38.887365313712507 125.49863955704495 54.653073249384761 9.1282153781503421 1.8010428361594666 0.49793504923582066 5.5594633743166906 0.8817293019965281 0.57520001288503442 2.1166549548506737 5.1233257111161947 2.340471626259387 0.40012803580611844 5.3199313944205642 1.6298474948853252
leaf_count=2701 5002 1039 192 34 8 46 12 11 21 57 22 8 97 20
internal_value=-3.50134e-11 0.00246917 -0.0013122 0.00904778 -0.0108698 0.0112601 0.00815255 0.0313678 -0.0044597 0.00601039 -0.00300731 0.0267611 -0.018821 -0.025891
internal_weight=254.413 215.526 137.367 78.1582 7.4223 70.7359 62.4846 8.25132 2.69185 5.62126 128.239 2.7406 7.83151 6.94978
internal_count=9270 6569 5224 1345 99 1246 1168 78 32 65 5032 30 129 117
is_linear=0
shrinkage=0.05


Tree=33
num_leaves=15
num_cat=0
split_feature=9 3 5 8 12 3 6 7 12 3 6 5 4 19
split_gain=3.37839 2.94445 1.76797 1.65885 1.76475 1.38506 1.35428 2.21116 2.70374 1.8057 2.2399 2.00816 2.06322 3.39422
threshold=0.75842696629213491 -0.011106518387093199 0.02208106354372321 0.016853932584269666 -0.043531449693776002 -0.081339420471999088 0.029676518121829181 0.071118913742055492 -0.03558967540609654 0.015093535364447243 0.01795951711192775 0.034822836431848934 0.22243687806385651 81.57241277677376
decision_type=2 2 2 2 2 2 2 2 2 2 2 2 2 2
left_child=1 2 -1 -2 5 -5 9 -8 -9 10 -6 12 13 -11
right_child=3 -3 -4 4 6 -7 7 8 -10 11 -12 -13 -14 -15
leaf_value=-0.005005166972008643 -0.031700033682919564 -0.015529116967574613 0.0099146290170935153 0.018216842194179916 -0.026663284877217308 -0.029637645523734886 -0.017052028287866665 -0.030810273377750819 0.033398368203875733 0.013585200074859437 0.003840213168671767 -0.030225624261155843 0.034522025138346825 -0.019469426189897384
leaf_weight=58.370597527828068 1.8716755788773287 46.110647013410926 28.833326856605709 1.3124759932979939 7.2672631451860097 4.5643868898041537 2.6415177304297712 1.0509286867454672 14.586413875222201 46.812762584537268 21.413190229795873 1.9942451315000642 7.9532064720988265 8.3612968865782005
leaf_count=3604 55 2728 672 28 281 146 38 18 155 857 415 42 75 156
internal_value=-6.24537e-11 -0.00545704 -1.55706e-05 0.00606608 0.00692677 -0.0178554 0.00837261 0.0205031 0.0274906 0.00581745 -0.00452692 0.0103728 0.0121067 0.00831855
internal_weight=253.144 133.315 87.2039 119.829 117.958 5.87686 112.081 18.2789 15.6373 93.802 28.6805 65.1215 63.1273 55.1741
internal_count=9270 7004 4276 2266 2211 174 2037 211 173 1826 696 1130 1088 1013
is_linear=0
shrinkage=0.05


Tree=34
num_leaves=15
num_cat=0
split_feature=9 3 7 12 12 14 11 3 1 4 2 8 6 3
split_gain=2.96398 2.85479 1.61733 1.67758 1.50987 1.49603 1.41554 1.49796 1.44368 1.45733 1.54474 1.59217 1.49955 1.73162
threshold=0.75842696629213491 -0.011106518387093199 0.23411600798910373 -0.019767899551877553 -0.00574188453913265 0.0140521679336652 0.018224333734519798 0.057999757329005426 -0.056606496031581958 0.24699773336960154 -0.047904994370875968 0.016853932584269666 0.024920220158213793 0.0091511294356595458
decision_type=2 2 2 2 2 2 2 2 2 2 2 2 2 2
left_child=1 2 3 5 -5 -1 8 -8 -2 10 11 -10 13 -12
right_child=6 -3 -4 4 -6 -7 7 -9 9 -11 12 -13 -14 -15
leaf_value=0.00099443724899475703 -0.0198275076663641 -0.015123675059903419 0.031381704198921626 0.01655989567353509 -0.0022590795787539113 -0.017541968460531063 -0.038680465914538963 0.013953303878469527 -0.026689221783662172 0.025337423452404903 -0.013041448052861304 0.033223995289571859 0.013004955379954941 0.0049108234672539594
leaf_weight=21.84419908747077 3.9489286448806515 45.454897284973413 2.9759145267307749 17.493838614784181 24.670902783982456 20.497693061362952 2.5701087010093024 1.5150452647358177 0.52730521932244201 9.9686969276517612 18.058280672412366 7.0042670583352447 30.297488057054579 44.509617934934795
leaf_count=944 99 2728 36 920 1387 989 88 22 20 99 500 106 405 927
internal_value=-3.20184e-10 -0.00510633 0.000210659 -0.00124121 0.00575153 -0.00817672 0.00572806 -0.0202551 0.0068242 0.00794728 0.00598771 0.0263927 0.00406928 -0.000394191
internal_weight=251.337 132.937 87.4825 84.5066 42.1647 42.3419 118.4 4.08515 114.315 110.366 100.397 7.53157 92.8654 62.5679
internal_count=9270 7004 4276 4240 2307 1933 2266 110 2156 2057 1958 126 1832 1427
is_linear=0
shrinkage=0.05


Tree=35
num_leaves=15
num_cat=0
split_feature=9 3 5 12 1 3 12 4 11 6 7 7 10 7
split_gain=2.81701 2.83489 1.46852 1.2341 1.53893 1.22271 1.1681 1.83722 1.63487 2.03303 2.01225 1.6366 1.62045 1.67822
threshold=0.75842696629213491 -0.011106518387093199 0.02208106354372321 -0.043531449693776002 -0.060135989332393107 -0.081339420471999088 -0.025300996977612168 0.24699773336960154 -0.012204698548717976 0.027166307926354629 0.083797876578534672 0.063092784060618703 -0.74719101123595488 0.12671966757926875
decision_type=2 2 2 2 2 2 2 2 2 2 2 2 2 2
left_child=1 2 -1 5 -5 -2 -6 8 -8 -10 11 -11 13 -12
right_child=3 -3 -4 4 6 -7 7 -9 9 10 12 -13 -14 -15
leaf_value=-0.0043147265041184628 0.018036761687922179 -0.015091577946826194 0.0091869836704472282 -0.029175641177938989 0.016739332509890553 -0.027376434562590597 -0.018548281813454175 0.025824770442290635 -0.00042798196585993806 0.019268673104081063 -0.037400080329912183 -0.030970796191171459 0.036777325530971891 0.026423703134038485
leaf_weight=58.378153929486871 1.275218225084245 44.627350726164877 29.47630984056741 1.9413092853501428 26.11921273265034 4.2345616393722585 7.5555276172235599 8.1875425241887552 51.218860132619739 2.1721699256449964 1.0955789480358373 2.4051530696451664 10.170014399103817 1.0666404170915482
leaf_count=3604 29 2728 672 61 455 147 162 81 1120 25 18 44 111 13
internal_value=2.23995e-10 -0.00498048 0.000267683 0.00561292 0.00679232 -0.0157096 0.00768429 0.00470037 0.00210814 0.00463415 0.019135 -0.00794948 0.0290301 -0.00751577
internal_weight=249.924 132.482 87.8545 117.442 111.932 5.50978 109.991 83.8715 75.6839 68.1284 16.9096 4.57732 12.3322 2.16222
internal_count=9270 7004 4276 2266 2090 176 2029 1574 1493 1331 211 69 142 31
is_linear=0
shrinkage=0.05


Tree=36
num_leaves=15
num_cat=0
split_feature=5 4 5 7 6 14 11 5 6 1 9 7 12 7
split_gain=2.51768 1.62383 1.68961 1.94183 1.57734 1.55306 1.38527 1.33557 1.29694 2.09056 2.00864 2.41784 1.45866 1.44742
threshold=0.010649446260398689 0.15112976239453493 0.023707031038974934 0.047479250697007765 0.025253299408496736 0.015894468872209837 -0.0077347775857169038 0.020674522415802424 0.029676518121829181 -0.025690162958627468 0.028089887640449441 0.12982512624846446 -0.044328331853691075 0.14570192579227773
decision_type=2 2 2 2 2 2 2 2 2 2 2 2 2 2
left_child=-1 7 5 -4 -5 -3 -6 -2 10 12 -9 -12 -10 -11
right_child=1 2 3 4 6 -7 -8 8 9 13 11 -13 -14 -15
leaf_value=-0.011770462942778301 -0.0032080097213262829 0.033238494228776401 -0.04699802442692487 -0.035553460995518822 -0.013911470290304248 -0.020046277066032764 0.024216069534653772 0.033449789220498044 0.019271295070998177 0.038655436823253148 0.0048806820601927847 -0.018474964078737739 -0.035939425589439515 -0.0054905070146650352
leaf_weight=37.456767484545708 104.031291896943 10.131615322083235 0.83452116698026557 0.85348457004874845 2.5137044005095941 0.88995121233165342 7.8683468466624618 3.8742849212139836 1.269073184579611 7.7739773690700513 54.321961504872888 12.856730227824299 1.765230462886392 2.0661089783534408
leaf_count=2701 4432 138 15 17 30 13 79 51 16 96 1166 424 53 39
internal_value=2.64563e-10 0.00213465 0.0143565 0.00105272 0.00817111 0.0276263 0.0145734 0.000565115 0.00522476 0.0192206 0.00245722 0.000205435 -0.0137949 0.0297348
internal_weight=248.507 211.05 23.0916 12.0701 11.2355 11.0216 10.3821 187.959 83.9274 12.8744 71.053 67.1787 3.0343 9.84009
internal_count=9270 6569 292 141 126 151 109 6277 1845 204 1641 1590 69 135
is_linear=0
shrinkage=0.05


Tree=37
num_leaves=15
num_cat=0
split_feature=9 7 9 3 3 12 10 5 19 4 10 11 3 7
split_gain=2.39346 2.42932 1.42865 1.28812 1.52553 1.38844 1.56262 1.45589 1.38538 1.82578 1.2608 1.24759 1.26011 1.23258
threshold=0.75842696629213491 0.066757675632158744 0.050561797752808994 -0.093979606306701421 -0.0084627382987682558 -0.025300996977612168 -0.38764044943820214 0.01786779921613612 71.220144374411277 -0.024953839913970596 -0.34269662921348304 0.018224333734519798 0.057999757329005426 0.099685506297766915
decision_type=2 2 2 2 2 2 2 2 2 2 2 2 2 2
left_child=1 10 13 -4 5 7 -7 -5 -6 -10 -1 -2 -13 -3
right_child=11 2 3 4 8 6 -8 -9 9 -11 -12 12 -14 -15
leaf_value=0.012430398380000251 0.0062474312970062385 -0.020091544491430521 -0.022361549848850117 -0.019178573140225197 -0.022650556384335361 -0.020509106547941917 0.013603090668024082 0.0034037281697586515 0.021920296371047379 -0.028869900074944818 -0.019573611356931048 -0.036870526080272463 0.01174291794555191 0.01827739510396003
leaf_weight=2.755337075795981 112.03715872159228 1.6077276435680676 7.0124637708067885 10.469498108606784 12.200867915060373 2.9017805051989845 27.922029764391489 18.259007196873426 4.3038906338624656 1.6790045499801625 28.762416775105521 2.4408255973830815 1.5533308722078798 13.182965551503001
leaf_count=156 2156 84 326 826 690 120 1476 418 159 89 2287 88 22 373
internal_value=2.50394e-10 -0.004614 -0.000730388 -0.00326848 -0.00128399 0.00262568 0.00984819 -0.00519421 -0.0135576 0.00557366 -0.0164795 0.00520639 -0.019399 0.0130985
internal_weight=247.088 131.057 99.5392 84.7485 77.7361 59.5523 30.8238 28.7285 18.1838 5.9829 31.5178 116.031 3.99416 14.7907
internal_count=9270 7004 4561 4104 3778 2840 1596 1244 938 248 2443 2266 110 457
is_linear=0
shrinkage=0.05


Tree=38
num_leaves=15
num_cat=0
split_feature=9 7 9 3 19 1 12 7 7 11 9 8 19 7
split_gain=2.17719 2.2465 1.25326 1.17946 1.16697 1.36074 1.17883 1.11246 1.06438 1.22258 1.23925 1.54104 1.73639 0.948213
threshold=0.75842696629213491 0.077191247804854882 0.050561797752808994 -0.093979606306701421 22.063036815027711 -0.03760494943543035 0.036066359410254691 0.15392114634640039 0.13649059474168337 0.021629966209206302 0.98314606741573041 0.24157303370786518 89.814349396264618 0.23411600798910373
decision_type=2 2 2 2 2 2 2 2 2 2 2 2 2 2
left_child=1 -1 4 13 -3 -6 -7 8 9 10 -2 -12 -13 -4
right_child=7 2 3 -5 5 6 -8 -9 -10 -11 11 12 -14 -15
leaf_value=-0.013870209361138223 0.0032479892029461223 0.034439471302624536 -0.028172168785321208 -0.0004201562117693806 -0.028198092943458326 0.017710741547592786 -0.02933753690191139 -0.023937019794059752 0.031642150132267982 -0.0267244281739305 -0.017292892936841723 0.030077414858891285 -0.013865410443977089 0.014869713060483573
leaf_weight=41.572406596969813 92.274983526673168 3.5451154848560682 5.7690827869810155 66.752267475705594 1.6844698884524394 8.520802507642653 0.62726845499128181 2.2784375799819818 2.8630826170556238 2.0263489517383269 1.9953081682324434 12.571513719856737 2.0844921674579373 0.91462717205286015
leaf_count=3090 1923 68 315 3155 61 282 22 56 48 59 23 129 28 11
internal_value=6.71184e-11 -0.00444426 0.000124064 -0.00256188 0.0131174 0.00381858 0.0119117 0.00494875 0.00573045 0.00478514 0.00560909 0.0177681 0.0233411 -0.0211135
internal_weight=245.48 129.386 87.8136 73.436 14.3777 10.8325 9.14807 116.094 113.816 110.953 108.926 16.6513 14.656 6.68371
internal_count=9270 7004 3914 3481 433 365 304 2266 2210 2162 2103 180 157 326
is_linear=0
shrinkage=0.05


Tree=39
num_leaves=15
num_cat=0
split_feature=9 7 18 3 19 4 12 5 10 5 12 5 10 11
split_gain=2.01661 2.03656 1.29809 1.40051 1.83582 1.77637 1.5659 1.91475 1.44533 1.2095 1.08723 1.19659 1.0602 0.996419
threshold=0.75842696629213491 0.066757675632158744 5.0561797752808983 -0.0049831514983733052 71.853428740482443 -0.026629390134176253 -0.019767899551877553 0.030073748772573562 0.15168539325842698 0.013454594869987615 0.011607665470346052 0.018090815252672324 -0.34269662921348304 0.018224333734519798
decision_type=2 2 2 2 2 2 2 2 2 2 2 2 2 2
left_child=1 12 -3 6 9 -6 7 -4 -9 -5 -8 -12 -1 -2
right_child=13 2 3 4 5 -7 10 8 -10 -11 11 -13 -14 -15
leaf_value=0.011257891690970884 0.0056762978683965563 -0.023145786341767921 -0.008670981006114107 0.0015567473449111633 0.023565167806055248 -0.026948920093457725 0.016843600246950797 0.029408125715875123 -0.015244151123057617 -0.033190648170843516 0.010869672879865283 -0.018822671401879258 -0.018282629319301063 -0.017639195923990592
leaf_weight=2.7274108482524779 111.99485424347222 5.0666859378106883 31.59811595454812 3.4040913893841225 4.7116652331314981 1.5614446448162187 24.47161203995347 5.6222837632521978 1.7828938318416474 7.643729783128947 7.3648885763250274 4.7135974178090692 27.743749739136547 3.8210459724068633
leaf_count=156 2156 190 1516 280 158 86 1085 106 67 370 557 146 2287 110
internal_value=4.60464e-10 -0.00429908 -0.000735837 0.000720259 -0.0117061 0.00901515 0.00368476 -0.00325802 0.0181229 -0.0232436 0.010983 -0.00127091 -0.0153648 0.00476265
internal_weight=244.228 128.412 97.941 92.8743 17.3209 6.27311 75.5534 39.0033 7.40518 11.0478 36.5501 12.0785 30.4712 115.816
internal_count=9270 7004 4561 4371 894 244 3477 1689 173 650 1788 703 2443 2266
is_linear=0
shrinkage=0.05


end of trees

feature_importances:
volatility_5d=83
drawdown_20d=75
rank_pct_20d=75
market_return_5d=48
momentum_20d=47
momentum_10d=45
volatility_20d=40
rank_pct_5d=26
momentum_3d=24
rank_momentum_5d=20
rule_direction_score=19
market_dispersion_1d=14
momentum_5d=12
market_return_1d=11
market_breadth_1d=11
momentum_1d=4
rule_time_series_score=4
rule_rank_momentum_score=2

parameters:
[boosting: gbdt]
[objective: lambdarank]
[metric: ndcg]
[tree_learner: serial]
[device_type: cpu]
[data_sample_strategy: bagging]
[data: ]
[valid: ]
[num_iterations: 40]
[learning_rate: 0.05]
[num_leaves: 15]
[num_threads: 1]
[seed: 20260720]
[deterministic: 1]
[force_col_wise: 1]
[force_row_wise: 0]
[histogram_pool_size: -1]
[max_depth: -1]
[min_data_in_leaf: 2]
[min_sum_hessian_in_leaf: 0.001]
[bagging_fraction: 1]
[pos_bagging_fraction: 1]
[neg_bagging_fraction: 1]
[bagging_freq: 0]
[bagging_seed: 843]
[bagging_by_query: 0]
[feature_fraction: 1]
[feature_fraction_bynode: 1]
[feature_fraction_seed: 57]
[extra_trees: 0]
[extra_seed: 8811]
[early_stopping_round: 0]
[early_stopping_min_delta: 0]
[first_metric_only: 0]
[max_delta_step: 0]
[lambda_l1: 0]
[lambda_l2: 1]
[linear_lambda: 0]
[min_gain_to_split: 0]
[drop_rate: 0.1]
[max_drop: 50]
[skip_drop: 0.5]
[xgboost_dart_mode: 0]
[uniform_drop: 0]
[drop_seed: 21666]
[top_rate: 0.2]
[other_rate: 0.1]
[min_data_per_group: 100]
[max_cat_threshold: 32]
[cat_l2: 10]
[cat_smooth: 10]
[max_cat_to_onehot: 4]
[top_k: 20]
[monotone_constraints: ]
[monotone_constraints_method: basic]
[monotone_penalty: 0]
[feature_contri: ]
[forcedsplits_filename: ]
[refit_decay_rate: 0.9]
[cegb_tradeoff: 1]
[cegb_penalty_split: 0]
[cegb_penalty_feature_lazy: ]
[cegb_penalty_feature_coupled: ]
[path_smooth: 0]
[interaction_constraints: ]
[verbosity: -1]
[saved_feature_importance_type: 0]
[use_quantized_grad: 0]
[num_grad_quant_bins: 4]
[quant_train_renew_leaf: 0]
[stochastic_rounding: 1]
[linear_tree: 0]
[max_bin: 255]
[max_bin_by_feature: ]
[min_data_in_bin: 3]
[bin_construct_sample_cnt: 200000]
[data_random_seed: 4432]
[is_enable_sparse: 1]
[enable_bundle: 1]
[use_missing: 1]
[zero_as_missing: 0]
[feature_pre_filter: 1]
[pre_partition: 0]
[two_round: 0]
[header: 0]
[label_column: ]
[weight_column: ]
[group_column: ]
[ignore_column: ]
[categorical_feature: ]
[forcedbins_filename: ]
[precise_float_parser: 0]
[parser_config_file: ]
[objective_seed: 7759]
[num_class: 1]
[is_unbalance: 0]
[scale_pos_weight: 1]
[sigmoid: 1]
[boost_from_average: 1]
[reg_sqrt: 0]
[alpha: 0.9]
[fair_c: 1]
[poisson_max_delta_step: 0.7]
[tweedie_variance_power: 1.5]
[lambdarank_truncation_level: 30]
[lambdarank_norm: 1]
[label_gain: 0,1,3,7,15]
[lambdarank_position_bias_regularization: 0]
[eval_at: 1,2,3,4,5]
[multi_error_top_k: 1]
[auc_mu_weights: ]
[num_machines: 1]
[local_listen_port: 12400]
[time_out: 120]
[machine_list_filename: ]
[machines: ]
[gpu_platform_id: -1]
[gpu_device_id: -1]
[gpu_use_dp: 0]
[num_gpu: 1]

end of parameters

pandas_categorical:null
