tree
version=v4
num_class=1
num_tree_per_iteration=1
label_index=0
max_feature_idx=10
objective=lambdarank
feature_names=momentum_1d momentum_3d momentum_5d momentum_10d momentum_20d volatility_5d volatility_20d drawdown_20d rank_pct_5d rank_pct_20d rank_momentum_5d
feature_infos=[-0.10813718513007242:0.12229216739576731] [-0.18234825421959322:0.27465397817296533] [-0.25743860440229616:0.28092117351019485] [-0.27022648853672249:0.40351170424303073] [-0.28062547585271636:0.58906651566951895] [0.0012453562741035964:0.088373331352552278] [0.0039238631080082331:0.060188323905258592] [0.0043877162311911633:0.28987731592235633] [0:1] [0:1] [-1:0.97752808988764039]
tree_sizes=1750 1733 1733 1723 1740 1730 1734 1729 1748 1733 1739 1752 1739 1729 1743 1736 1740 1748 1748 1744 1745 1723 1740 1742 1730 1732 1737 1749 1734 1735 1742 1735 1739 1737 1747 1770 1745 1773 1755 1735

Tree=0
num_leaves=15
num_cat=0
split_feature=9 7 3 6 9 5 7 6 8 10 7 9 6 5
split_gain=22.13 5.76484 3.69143 3.25643 2.81393 2.80144 2.53044 2.38192 1.50319 1.33478 1.20651 2.31009 2.21076 3.00191
threshold=0.76966292134831471 0.066272481937293917 0.02204332624525818 0.01795951711192775 0.26404494382022475 0.015711013352119722 0.055319768755990768 0.018085479063104159 0.23033707865168543 0.089887640449438186 0.12940104046702969 0.073033707865168551 0.025442886829762756 0.021656161071158458
decision_type=2 2 2 2 2 2 2 2 2 2 2 2 2 2
left_child=1 4 3 -2 -1 7 -6 9 -4 -3 12 -12 13 -7
right_child=2 5 8 -5 6 10 -8 -9 -10 -11 11 -13 -14 -15
leaf_value=-0.04498062473094197 -0.019158567474573673 -0.014738599488574589 -0.0070543062895161201 0.022587154774139633 -0.0074195197133913558 -0.008312020811248641 -0.034076514323705689 -0.027809033186894195 0.041323862073954949 0.0053604623769457696 0.024862941447956005 -0.014246803666053283 0.037798028519819324 0.023440973605964581
leaf_weight=10.854793191421775 5.6174835921265212 13.78098896937445 1.4128812039271021 15.716555533464996 27.911177015397698 17.405807825736705 12.645001898985354 14.163870834279804 28.902782463934273 17.882597280666232 4.0242377743124988 14.436841240618376 5.2225712789222589 11.557631101459263
leaf_count=598 330 797 74 660 1331 827 546 641 1099 975 204 621 141 426
internal_value=3.06241e-10 -0.00973901 0.0279104 0.0112294 -0.0231386 -0.00258114 -0.0163509 -0.0114959 0.0389159 -0.00357069 0.00524849 -0.00488197 0.0107024 0.0047182
internal_weight=201.535 149.886 51.6497 21.334 51.411 98.4745 40.5562 45.8275 30.3157 31.6636 52.6471 18.4611 34.186 28.9634
internal_count=9270 7107 2163 990 2475 4632 1877 2413 1173 1772 2219 825 1394 1253
is_linear=0
shrinkage=0.05


Tree=1
num_leaves=15
num_cat=0
split_feature=6 7 9 9 6 9 7 3 7 1 10 6 7 5
split_gain=52.5123 19.864 12.2624 11.3148 9.05883 16.3017 7.9491 7.57311 7.34277 9.93028 8.27177 8.02015 7.21918 7.11639
threshold=0.017817768502999289 0.052196525168809134 0.96067415730337091 0.96067415730337091 0.025614282555239589 0.96067415730337091 0.092936800700336678 -0.0084627382987682558 0.083314559113557132 -0.043065402018241931 0.1404494382022472 0.031535420825838587 0.21598335597797544 0.010649446260398689
decision_type=2 2 2 2 2 2 2 2 2 2 2 2 2 2
left_child=3 2 -2 -1 5 6 -3 -8 11 12 -11 -6 -10 -4
right_child=1 4 13 -5 8 -7 7 -9 9 10 -12 -13 -14 -15
leaf_value=-0.02484061290187126 0.011734066815132961 0.013544862596011807 -0.037558161301412527 0.046329465242511997 0.013467077975395585 -0.065304455689594407 0.00029071097479927376 -0.039175269324018366 -0.036840946263816787 0.041949721968738925 -0.013719063956270676 -0.050702664542625835 0.051116984833658279 0.063061189640695667
leaf_weight=159.71889804396778 25.210420363582671 74.913586602546275 1.2252378910779942 4.8919467190280548 14.361041571944954 8.3968645185232145 43.238157159648836 15.901011741720138 8.57235982082784 49.64655872900039 7.1991008426994076 6.155217300169169 2.1407554782927027 31.761346541345119
leaf_count=5161 282 1039 7 41 135 65 1209 462 136 420 128 34 23 128
internal_value=1.55816e-10 0.0128378 0.0386835 -0.0224586 0.00617402 -0.00163583 0.0028063 -0.0107956 0.018682 0.0265468 0.0347844 -0.00724662 -0.0164012 0.0583287
internal_weight=453.333 288.722 58.197 164.611 230.525 142.45 134.053 59.1392 88.075 67.5588 56.8457 20.5163 10.7131 32.9866
internal_count=9270 4068 417 5202 3651 2775 2710 1671 876 707 548 169 159 135
is_linear=0
shrinkage=0.05


Tree=2
num_leaves=15
num_cat=0
split_feature=9 5 4 9 4 3 3 7 5 7 6 3 3 2
split_gain=72.2443 25.6873 11.4368 10.7267 8.32523 5.77973 5.67825 5.51691 5.0384 4.40553 4.14888 5.31951 3.4107 3.07564
threshold=0.76966292134831471 0.014951632126243142 -0.14473399133010131 0.94943820224719111 0.030556875292749756 0.19909924504084667 -0.0084627382987682558 0.15392114634640039 0.010165105976008974 0.13486017076516685 0.01795951711192775 0.0266554237431933 -0.12608476339889416 -0.060612533429444997
decision_type=2 2 2 2 2 2 2 2 2 2 2 2 2 2
left_child=1 -1 12 7 -5 8 -4 10 -6 13 11 -2 -3 -10
right_child=3 2 6 4 5 -7 -8 -9 9 -11 -12 -13 -14 -15
leaf_value=-0.036841885470050913 -0.035560681679728194 0.069004613484701979 -0.0010996775622755697 -0.039190935893187812 -0.036824356984828485 -0.0087301815440065968 -0.028546859604508375 -0.056975223201711424 -0.018796095343462424 -0.0081065122601890107 0.01852476581562755 0.012449346120311386 0.014414216190738417 0.049443482970320585
leaf_weight=108.8806613208726 8.0083821350708622 5.1939590163528919 71.927868067286909 2.756164780817925 1.219344152137636 5.468257585540413 24.573826963081956 1.8512622565031041 1.2091652415692795 3.4201565235853186 91.894292239099741 15.127191117033361 6.5873926486819965 64.642992082051933
leaf_count=4280 334 31 1898 44 17 36 764 30 23 26 1027 257 134 369
internal_value=1.17499e-10 -0.0198094 -0.00250241 0.0219824 0.0361641 0.039372 -0.00831011 0.0122057 0.0431734 0.0450855 0.0138005 -0.00495415 0.041997 0.0479281
internal_weight=412.761 217.164 108.283 195.597 78.7161 75.9599 96.5017 116.881 70.4917 69.2723 115.03 23.1356 11.7814 65.8522
internal_count=9270 7107 2827 2163 515 471 2662 1648 435 418 1618 591 165 392
is_linear=0
shrinkage=0.05


Tree=3
num_leaves=15
num_cat=0
split_feature=9 5 9 4 7 7 3 6 2 6 2 3 7 5
split_gain=65.0045 23.4681 12.6581 11.7983 3.68772 9.581 7.3732 5.11751 10.0032 4.23629 4.09876 4.36532 3.26304 3.21871
threshold=0.78089887640449451 0.014951632126243142 0.94943820224719111 -0.15594719991433667 0.036010819136743651 0.047479250697007765 0.076547958936011865 0.025036501992084174 0.026265777264849025 0.027166307926354629 -0.0052327801409635102 0.17060225697883682 0.059970825028109416 0.025858968497732532
decision_type=2 2 2 2 2 2 2 2 2 2 2 2 2 2
left_child=1 -1 -2 -3 9 6 -6 8 -7 -4 12 -12 -9 -13
right_child=2 3 4 -5 5 7 -8 10 -10 -11 11 13 -14 -15
leaf_value=-0.037295932171465193 0.0096917328935929754 0.047582926516652441 0.059437769665571051 -0.0086063120611731651 0.032611615942959006 0.042661981204792095 -0.067438390661598346 0.053177477237656291 -0.042966581552615173 -0.03775326031221992 0.060257593626742934 0.046527409270843173 -0.002166682622012361 -0.021268298244191949
leaf_weight=97.065687896683812 107.44837774243206 9.3704417161643487 19.065292276442054 93.532133672386408 2.3339941725134841 6.8528016936033946 3.4810169711709023 2.8848027586936906 5.0429661497473717 0.53672190755605598 26.711327427998192 2.0586484000086775 8.2375508192926628 3.1708662286400795
leaf_count=4329 1545 102 94 2779 14 62 19 10 68 4 122 12 83 27
internal_value=7.28227e-11 -0.019792 0.0210649 -0.00308093 0.0359629 0.0290073 -0.0283882 0.0354789 0.00584459 0.0550733 0.0433466 0.0523187 0.0153905 0.00860481
internal_weight=387.793 199.968 187.824 102.903 80.376 60.774 5.81501 54.959 11.8958 19.602 43.0632 31.9408 11.1224 5.22951
internal_count=9270 7210 2060 2881 515 417 33 384 130 98 254 161 93 39
is_linear=0
shrinkage=0.05


Tree=4
num_leaves=15
num_cat=0
split_feature=9 5 7 9 1 4 6 1 7 3 5 4 8 6
split_gain=56.6439 22.3727 11.8994 11.8418 3.98808 2.85843 2.7525 6.84284 3.0363 2.74093 2.66779 2.64906 2.42833 2.63116
threshold=0.80337078651685401 0.014951632126243142 0.23411600798910373 0.96067415730337091 -0.018262635153140413 -0.15594719991433667 0.027166307926354629 -0.015132088964438626 0.092936800700336678 -0.095774229776504446 0.046177153296566818 0.030556875292749756 0.97191011235955072 0.030180892941662905
decision_type=2 2 2 2 2 2 2 2 2 2 2 2 2 2
left_child=1 -1 5 6 -5 -3 8 -8 -2 -7 -9 -6 -13 -14
right_child=3 2 -4 4 11 9 7 10 -10 -11 -12 12 13 -15
leaf_value=-0.036041612622396038 0.010646286529993309 0.020132789803742682 0.062486967203596699 0.0043117328292644804 -0.023882917247105853 -0.037325050444830352 -0.019313600021935929 0.044996588951985189 -0.014220595772519757 -0.0065686787695736094 -0.033015005112491766 0.053294239240268118 0.014139383677546949 0.049750109243042212
leaf_weight=91.82616859395057 71.871327404864132 8.1574377156794053 5.6088294703513375 7.9902251176536074 0.88047391921281715 6.9895145185291758 5.6508574252948192 16.57409014552832 13.860415380448101 88.130421795882285 0.47311149537563224 32.262198148295283 13.951696773990991 8.5645290166139585
leaf_count=4424 1052 85 31 79 24 240 70 117 197 2636 6 170 95 44
internal_value=-3.80133e-10 -0.0180056 -0.00260586 0.0209844 0.0379553 -0.00670628 0.0107665 0.0258961 0.0065084 -0.00919349 0.0411221 0.0426238 0.0441018 0.0292243
internal_weight=372.791 200.712 108.886 172.079 63.6491 103.277 108.43 22.6981 85.7317 95.1199 17.0472 55.6589 54.7784 22.5162
internal_count=9270 7416 2992 1854 412 2961 1442 193 1249 2876 123 333 309 139
is_linear=0
shrinkage=0.05


Tree=5
num_leaves=15
num_cat=0
split_feature=9 5 4 4 5 1 6 2 7 5 6 7 10 7
split_gain=51.3536 17.8198 10.5663 7.75523 4.25679 3.18019 3.50826 5.69424 5.66362 4.53055 3.16408 7.03655 3.10339 4.39226
threshold=0.8370786516853933 0.016545911580750378 -0.15594719991433667 0.16706649897786965 0.010999566093273546 -0.060135989332393107 0.027166307926354629 0.0078835431623339742 0.07911101938927724 0.032747714673989681 0.02643804622114743 0.047479250697007765 -0.24157303370786509 0.066272481937293917
decision_type=2 2 2 2 2 2 2 2 2 2 2 2 2 2
left_child=1 -1 -3 4 -2 -6 8 9 12 -8 -5 -12 -7 -14
right_child=3 2 -4 10 5 6 7 -9 -10 -11 11 -13 13 -15
leaf_value=-0.029462668377418563 -0.013211474259099821 0.04182822887729732 -0.0065810776389813672 0.055587275303768294 -0.030932278490225215 0.038603962141937849 -0.024535912818281873 0.048327833285250955 -0.0125779714840437 0.039466596810906085 -0.05758540817264976 0.0343246853321117 0.00032808816372553322 0.037533093677062951
leaf_weight=111.85515622841194 11.008257101289926 11.950349092483519 85.98672098480165 19.581313017755747 2.2918493142351499 16.543300835415721 5.801471287384631 20.581821747124195 15.429008528590201 3.6607600003480911 1.4353523589670683 17.483360379002988 24.720271907746792 10.693813946098087
leaf_count=5184 180 92 2449 126 44 176 65 123 243 32 16 110 316 114
internal_value=7.17238e-11 -0.0159199 -0.000311068 0.0223376 0.0153721 0.0186273 0.0200955 0.0341472 0.0134229 0.00163101 0.0414748 0.0248106 0.0212356 0.0122849
internal_weight=359.023 209.792 97.9371 149.231 110.731 99.7223 97.4304 30.0441 67.3864 9.46223 38.5 18.9187 51.9574 35.4141
internal_count=9270 7725 2541 1545 1293 1113 1069 220 849 97 252 126 606 430
is_linear=0
shrinkage=0.05


Tree=6
num_leaves=15
num_cat=0
split_feature=9 5 4 9 5 1 9 5 3 10 6 10 3 1
split_gain=50.5655 16.1905 9.98096 7.93203 5.56426 4.08477 2.28482 3.77105 3.74284 2.70107 2.10047 2.77712 3.68615 2.67493
threshold=0.89325842696629221 0.016545911580750378 -0.15594719991433667 0.75842696629213491 0.010649446260398689 -0.060135989332393107 0.98314606741573041 0.037531677906596526 0.013834864681810723 0.011235955056179791 0.020508832548869843 -0.44382022471910104 0.085957630082607719 -0.015132088964438626
decision_type=2 2 2 2 2 2 2 2 2 2 2 2 2 2
left_child=1 3 -3 -1 -2 -6 7 10 -9 -8 11 -7 -13 -12
right_child=4 2 -4 -5 5 6 9 8 -10 -11 13 12 -14 -15
leaf_value=-0.032400179298248698 -0.020595792881011932 0.040910974789795801 -0.0047382829511401874 -0.0019163613996041971 -0.030692323945277239 0.047745341619909371 0.048777138681474305 0.033746659368277032 -0.052944562077755275 -0.01068385665894802 0.0073449797960932414 -0.013475670548840602 0.032621707735639445 0.039613679777103811
leaf_weight=94.030916584189981 4.9212464522570363 12.488582268357275 105.65620967186987 27.687848834786564 1.9104452496394504 3.8820199389010694 25.763732603751127 1.2156518474221223 2.0945303104817867 1.7079863213002671 8.1335264202207309 10.331222884356977 6.0486467136070123 42.7710185861215
leaf_count=4762 94 92 2728 658 39 36 163 10 21 17 98 161 51 340
internal_value=-1.5668e-10 -0.0128186 0.000389977 -0.025538 0.0281247 0.0306077 0.0320434 0.0267935 -0.0206645 0.0448349 0.0292567 0.0145959 0.0044444 0.0346986
internal_weight=348.644 239.864 118.145 121.719 108.78 103.859 101.948 74.4766 3.31018 27.4717 71.1664 20.2619 16.3799 50.9045
internal_count=9270 8240 2820 5420 1030 936 897 717 31 180 686 248 212 438
is_linear=0
shrinkage=0.05


Tree=7
num_leaves=15
num_cat=0
split_feature=9 5 4 9 5 1 4 2 3 6 8 2 5 7
split_gain=46.8247 13.8291 9.05548 8.07678 4.54292 3.56849 2.21547 2.26144 2.49071 2.12303 4.31894 3.84971 3.60676 2.03627
threshold=0.89325842696629221 0.016545911580750378 -0.15594719991433667 0.75842696629213491 0.010649446260398689 -0.060135989332393107 0.16706649897786965 0.13626554625851331 0.17060225697883682 0.027166307926354629 0.90449438202247201 -0.0064805905358337737 0.032747714673989681 0.092936800700336678
decision_type=2 2 2 2 2 2 2 2 2 2 2 2 2 2
left_child=1 3 -3 -1 -2 -6 9 -8 -9 10 13 12 -11 -7
right_child=4 2 -4 -5 5 6 7 8 -10 11 -12 -13 -14 -15
leaf_value=-0.031798322153829918 -0.019805779466053108 0.038557791703511 -0.0052380569525897541 -0.00085085607466319499 -0.031229381563566486 0.034361511448429 0.045128132551771151 0.041042380535450618 -0.030179463955802757 -0.034623154979583098 -0.002739639402085305 0.046093949336401818 0.037379398988200557 -0.0071412591686196049
leaf_weight=89.782096092123538 4.2661416959017506 12.313112437725065 103.04350432567298 27.53285917500034 1.6240563634783018 23.114302582107488 31.2883270829916 1.1283653974533072 1.900295227766037 2.8425696864724186 16.602382924407721 19.272109480574727 2.1804939657449722 3.0154004879295817
leaf_count=4762 94 92 2728 658 39 243 195 5 16 43 211 121 16 47
internal_value=2.81075e-10 -0.0125931 -0.000272108 -0.0246038 0.0271878 0.0293066 0.0305724 0.0412531 -4.37299e-05 0.0245779 0.0171889 0.036381 -0.00235045 0.0294854
internal_weight=339.906 232.672 115.357 117.315 107.234 102.968 101.344 34.317 3.02866 67.0273 42.7321 24.2952 5.02306 26.1297
internal_count=9270 8240 2820 5420 1030 936 897 216 21 681 501 180 59 290
is_linear=0
shrinkage=0.05


Tree=8
num_leaves=15
num_cat=0
split_feature=9 6 7 4 5 5 1 1 9 3 5 4 6 8
split_gain=40.8384 12.578 6.31779 4.47787 3.84251 3.60788 2.63166 2.63063 2.25642 3.18859 2.78378 2.13645 2.11609 3.67882
threshold=0.89325842696629221 0.01795951711192775 0.23411600798910373 0.062150941132217204 0.010950463128555989 0.010649446260398689 -0.060135989332393107 -0.053585238639947512 0.75842696629213491 -0.0084627382987682558 0.01786779921613612 0.16706649897786965 0.027166307926354629 0.97191011235955072
decision_type=2 2 2 2 2 2 2 2 2 2 2 2 2 2
left_child=1 3 8 4 -1 -2 -7 -6 9 10 -3 12 13 -8
right_child=5 2 -4 -5 7 6 11 -9 -10 -11 -12 -13 -14 -15
leaf_value=-0.039866979051897754 -0.017679788850955672 -0.020766888794415943 0.04974186987550281 0.0028639451815607644 0.018693946834318392 -0.027052540456945797 0.021008374104876285 -0.021765447689193938 0.0062202467647640676 -0.023507100111330434 0.0051688486102050291 0.039401901312275618 0.034804200410126357 -0.021699009024374175
leaf_weight=39.311834978405386 3.9139161175116888 12.852154662832616 4.9142432585358611 13.285786314867435 3.6008146563544861 1.4079663800075639 36.323603242635727 51.569912139326334 40.340748342685401 22.74838038161397 39.922895152121782 33.38020021468401 23.449804397299886 5.0016949772834769
leaf_count=2113 94 583 38 403 151 39 428 2408 716 892 936 216 180 73
internal_value=-5.61594e-11 -0.0117948 -0.000682077 -0.0241283 -0.0279141 0.0259144 0.0277869 -0.018839 -0.00322809 -0.00829024 -0.00141593 0.0288384 0.0228785 0.0154489
internal_weight=332.024 228.547 120.778 107.768 94.4826 103.477 99.5633 55.1707 115.864 75.5234 52.775 98.1553 64.7751 41.3253
internal_count=9270 8240 3165 5075 4672 1030 936 2559 3127 2411 1519 897 681 501
is_linear=0
shrinkage=0.05


Tree=9
num_leaves=15
num_cat=0
split_feature=9 5 9 4 5 7 9 7 1 6 1 7 2 5
split_gain=35.6208 10.6873 6.13788 5.0892 2.99669 2.24164 5.03231 2.99482 5.08433 4.14367 3.63014 3.35337 2.62913 2.55787
threshold=0.89325842696629221 0.018001804448019555 0.75842696629213491 -0.15139921737048304 0.010165105976008974 0.049942202885870431 0.96067415730337091 0.083314559113557132 0.042077835558798633 0.027166307926354629 -0.016805556216228697 0.07911101938927724 0.13626554625851331 0.030514192761038252
decision_type=2 2 2 2 2 2 2 2 2 2 2 2 2 2
left_child=1 2 -1 -3 -2 6 -6 8 11 -9 -11 13 -12 -7
right_child=4 3 -4 -5 5 7 -8 9 -10 10 12 -13 -14 -15
leaf_value=-0.026841727394364686 -0.01975447411902484 0.033652772992868479 -0.0011709702297781511 -0.0026510641121220589 0.006119109672244152 0.029143071138776108 0.046950898114412297 -0.0033846539824841206 -0.03201896733838016 -0.0047622042229017933 0.051849080354980363 -0.046281241007621043 -0.0035768210160268387 -0.012135183041686107
leaf_weight=96.671293195802718 3.0818322487175456 9.9102836735546571 30.697708369232714 82.936952853575349 10.888439776375888 19.560134176164876 26.291333377361298 7.3245810884982339 5.5700533352792254 3.9085663026198771 19.620343673974279 1.0180869288742531 2.2486473806202403 4.0031858757138243
leaf_count=5194 84 89 736 2221 148 212 147 109 75 62 118 18 15 42
internal_value=5.46349e-10 -0.0113651 -0.020712 0.00154122 0.0240553 0.0255811 0.0354664 0.0193091 0.00753432 0.0294989 0.03862 0.0173982 0.0462428 0.0219217
internal_weight=323.731 220.216 127.369 92.8472 103.515 100.433 37.1798 63.2536 30.1515 33.1021 25.7776 24.5814 21.869 23.5633
internal_count=9270 8240 5930 2310 1030 946 295 651 347 304 195 272 133 254
is_linear=0
shrinkage=0.05


Tree=10
num_leaves=15
num_cat=0
split_feature=9 5 9 7 5 3 4 7 0 7 6 10 2 9
split_gain=30.8358 10.0141 5.55478 4.57435 2.91981 2.63178 2.18677 2.00778 2.89639 2.52051 2.56554 4.73153 3.60961 2.82643
threshold=0.89325842696629221 0.018001804448019555 0.75842696629213491 0.21598335597797544 0.010649446260398689 -0.059895316623110699 -0.10201851370653979 0.036010819136743651 -0.0065506027065937436 0.045523530815892173 0.025253299408496736 -0.033707865168539304 -0.007177499457623914 0.91573033707865181
decision_type=2 2 2 2 2 2 2 2 2 2 2 2 2 2
left_child=1 2 -1 -3 -2 6 -5 8 -6 -9 11 -11 -12 -13
right_child=4 3 -4 5 7 -7 -8 9 -10 10 12 13 -14 -15
leaf_value=-0.025730725154020404 -0.017777357777719962 -0.0012677203783621827 -0.0012511063287597496 0.060048207658208667 0.003848637585250397 -0.026507040807830048 -0.022944382312708188 -0.01042378059150334 0.049658631181348223 0.026732905757245674 0.0042726826579914745 0.023548392267623917 0.038001120295593778 -0.029123596704008554
leaf_weight=93.832740669604391 3.5586311975494018 87.596426599659026 30.807881949469447 5.0367197096347809 4.6687864847481277 0.65779102966189285 0.38544122874736775 5.549824744462966 14.480066310614346 15.983292856253685 10.604987715370951 2.7088168133050186 34.083540287800133 7.9242639541625977
leaf_count=5194 94 2261 736 30 48 11 8 72 113 178 127 29 237 132
internal_value=-1.79559e-10 -0.010512 -0.0197381 0.00184257 0.0229257 0.0405035 0.0514945 0.0246022 0.0392348 0.0204993 0.023017 0.0101912 0.0302658 -0.0148344
internal_weight=317.879 218.317 124.641 93.6764 99.5622 6.07995 5.42216 96.0036 19.1489 76.8547 71.3049 26.6164 44.6885 10.6331
internal_count=9270 8240 5930 2310 1030 49 38 936 161 775 703 339 364 161
is_linear=0
shrinkage=0.05


Tree=11
num_leaves=15
num_cat=0
split_feature=9 6 7 1 4 5 5 7 8 9 3 5 3 9
split_gain=26.3691 8.98679 4.92706 3.1147 3.62152 2.38642 2.12242 1.9932 1.78388 1.68027 2.57659 2.03298 1.91729 2.53632
threshold=0.89325842696629221 0.01795951711192775 0.23411600798910373 -0.046206772643775477 0.062150941132217204 0.010165105976008974 0.046177153296566818 0.066757675632158744 0.039325842696629219 0.75842696629213491 -0.0084627382987682558 0.01786779921613612 -0.090859874068938126 0.028089887640449441
decision_type=2 2 2 2 2 2 2 2 2 2 2 2 2 2
left_child=1 3 9 -1 7 -2 8 -5 -7 10 11 -3 13 -13
right_child=5 2 -4 4 -6 6 -8 -9 -10 -11 -12 12 -14 -15
leaf_value=0.011161709771383836 -0.019191177026872033 -0.018876828607846612 0.044797907218658464 -0.035162725296715033 0.0012366729521425405 -0.010147642519454762 -0.021512841779838681 -0.018442153950383278 0.025222936922462864 0.005568382191317299 -0.021701822703511134 0.026107336838031625 0.0099847624384865555 -0.030259930412902467
leaf_weight=6.5625286092981687 2.7874766513705245 11.227373022120444 4.7633264064788809 39.425474717281759 13.060206312686203 3.202671847306191 1.9078455436974753 40.217910712584853 89.847027027048171 39.561161471530795 20.428546634502709 1.8804025873541776 31.508573506958786 6.3266438115388155
leaf_count=317 84 583 38 2129 402 52 24 2227 870 716 892 25 702 209
internal_value=-2.16114e-10 -0.00978662 -0.000288966 -0.020743 -0.0230965 0.021404 0.0227833 -0.0270526 0.0239106 -0.00260787 -0.00715428 -0.00101511 0.00437391 -0.0159122
internal_weight=312.707 214.962 115.696 99.2661 92.7036 97.745 94.9575 79.6434 93.0497 110.933 71.3715 50.943 39.7156 8.20705
internal_count=9270 8240 3165 5075 4758 1030 946 4356 922 3127 2411 1519 936 234
is_linear=0
shrinkage=0.05


Tree=12
num_leaves=15
num_cat=0
split_feature=9 5 9 4 4 5 4 7 7 9 0 0 7 3
split_gain=22.3831 8.37933 4.40606 4.04401 2.18387 2.51701 3.26001 2.16048 4.0122 3.18915 1.9325 1.89492 1.85369 1.95798
threshold=0.89325842696629221 0.018001804448019555 0.75842696629213491 -0.14190571270525246 0.16706649897786965 0.015090917995118362 0.036203988983550713 0.036010819136743651 0.047479250697007765 0.97191011235955072 -0.010185942242082744 -0.0039288566134503813 0.024363640232993648 0.10581963769606585
decision_type=2 2 2 2 2 2 2 2 2 2 2 2 2 2
left_child=1 2 -1 -3 5 6 -2 11 -9 -10 -8 -6 -7 -14
right_child=4 3 -4 -5 7 12 10 8 9 -11 -12 -13 13 -15
leaf_value=-0.023311433192741034 -0.049567742050358986 0.029208001361207155 -0.0010789472897788951 -0.0018014347819321987 -0.0014867857862813358 -0.031936826733129371 -0.027679207068899203 -0.049606266281597006 -0.034875451553797392 0.030801130348998468 0.015961677366991892 0.054356360925360739 0.024507158776736926 -0.0050988689412207527
leaf_weight=89.670899698510766 2.1264935340732327 11.109621638432143 29.680037060752511 79.101834272965789 1.6968232616782195 0.85850532352924247 2.272033153101801 1.0597384534776235 1.2247429303824926 17.484842243604362 10.769406110979615 10.203546606004238 43.70834104437381 6.0272882133722296
leaf_count=5194 55 133 736 2177 16 9 38 17 19 126 147 67 473 63
internal_value=-4.99619e-10 -0.00920094 -0.0178376 0.00229576 0.0196824 0.0141219 -0.00356762 0.030443 0.0187579 0.0249506 0.00692893 0.0468959 0.0193915 0.0208895
internal_weight=306.994 209.562 119.351 90.2115 97.4318 65.7621 15.1679 31.6697 19.7693 18.7096 13.0414 11.9004 50.5941 49.7356
internal_count=9270 8240 5930 2310 1030 785 240 245 162 145 185 83 545 536
is_linear=0
shrinkage=0.05


Tree=13
num_leaves=15
num_cat=0
split_feature=9 5 4 9 4 7 4 7 5 6 6 6 7 7
split_gain=19.359 7.79031 5.38611 3.99546 2.33108 3.18368 2.70084 2.46804 2.44453 2.4946 2.63899 2.30768 2.64462 2.8615
threshold=0.89325842696629221 0.016545911580750378 -0.15594719991433667 0.75842696629213491 0.24699773336960154 0.026573269114125945 0.11704880593582491 0.040842598657498626 0.034822836431848934 0.027762022690278471 0.033840345038530291 0.025253299408496736 0.14570192579227773 0.092505688077539075
decision_type=2 2 2 2 2 2 2 2 2 2 2 2 2 2
left_child=1 3 -3 -1 5 6 -2 -7 9 -6 -11 -9 13 -13
right_child=4 2 -4 -5 8 7 -8 11 -10 10 -12 12 -14 -15
leaf_value=-0.023875245637568737 0.022190691234546769 0.034025120240145604 -0.0027707389166527481 -0.001245548506785683 0.059785676249664299 0.036749533478139078 -0.05018261625618297 0.0021585415067525036 -0.0038411559782048966 -0.033419717850858642 0.037296636389899877 0.0075435208610535754 -0.031195452345673454 0.036741220546026229
leaf_weight=77.328854850959033 1.3287065848708146 10.116799313575028 93.455504493787885 26.124844154343009 8.1661410443484765 12.607136589474974 2.4567315652966499 28.923001302406192 2.8514891266822806 1.3937669992446893 1.9804639555513857 15.607423691079019 1.4615303762257088 18.913637163117528
leaf_count=4762 16 92 2728 658 47 129 33 424 29 17 15 149 23 148
internal_value=-2.28511e-10 -0.00859204 0.00111443 -0.0182273 0.0184855 0.0148605 -0.0254506 0.0171283 0.0366669 0.0461841 0.00712406 0.0128173 0.0210948 0.0241246
internal_weight=302.716 207.026 103.572 103.454 95.69 81.2982 3.78544 77.5127 14.3919 11.5404 3.37423 64.9056 35.9826 34.5211
internal_count=9270 8240 2820 5420 1030 922 49 873 108 79 32 744 320 297
is_linear=0
shrinkage=0.05


Tree=14
num_leaves=15
num_cat=0
split_feature=9 5 7 9 7 3 6 2 10 7 7 7 5 9
split_gain=16.5635 6.86735 4.55982 4.21585 2.38776 2.98219 2.8826 3.37807 3.20204 4.26502 3.75127 2.90812 2.25064 1.68287
threshold=0.89325842696629221 0.017427224018273211 0.23411600798910373 0.72471910112359561 0.036010819136743651 0.062739305605315723 0.025253299408496736 -0.0052327801409635102 -0.25280898876404484 0.092936800700336678 0.068004487455105081 0.047479250697007765 0.046177153296566818 0.96067415730337091
decision_type=2 2 2 2 2 2 2 2 2 2 2 2 2 2
left_child=1 3 -3 -1 5 -2 8 -8 9 -6 -10 -9 -13 -12
right_child=4 2 -4 -5 6 -7 7 11 10 -11 13 12 -14 -15
leaf_value=-0.022619075638167216 -0.0020887603177563432 -0.00075411849637607102 0.046570163820057076 -0.0011133410975749812 0.035362106498168067 0.043162368300369063 -0.0021354467659231552 -0.029661638882930549 -0.028216503786756719 -0.040737350864165169 0.022450364299444497 0.035075709172782431 -0.018238480171952513 -0.028207791909366804
leaf_weight=78.020753715652972 4.6331790154799846 89.983803696930408 4.393473505973815 32.174597364850342 8.900772377848627 14.596002653241156 11.703239783644674 1.2700092718005169 11.528605779632928 1.3833517227321852 7.4779392145574075 30.106190495193008 1.5184674281626929 1.132917179726064
leaf_count=4829 69 2472 28 911 99 125 137 18 189 29 101 216 19 28
internal_value=-5.96502e-11 -0.00798622 0.00191411 -0.0164064 0.0172361 0.032695 0.0128958 0.0208492 0.000944361 0.0224227 -0.0105653 0.0288484 0.0320352 0.0135438
internal_weight=298.823 204.573 94.3773 110.195 94.2507 19.2292 75.0215 44.5979 30.4236 10.2841 20.1395 32.8947 31.6247 8.61086
internal_count=9270 8240 2500 5740 1030 194 836 390 446 128 318 253 235 129
is_linear=0
shrinkage=0.05


Tree=15
num_leaves=15
num_cat=0
split_feature=9 5 4 4 2 10 5 7 3 7 6 5 1 3
split_gain=15.0848 7.74929 4.15124 2.82321 2.20152 2.44272 1.80521 2.69565 2.26219 2.34451 1.7035 2.44537 2.47345 2.99197
threshold=0.8370786516853933 0.016545911580750378 -0.15594719991433667 0.16706649897786965 -0.019082322983991536 1.0000000180025095e-35 0.018898318139131974 0.12741164207324721 0.10581963769606585 0.13087081510559087 0.027425769178128345 0.034148860923551731 -0.036335976838006372 0.018180108531108522
decision_type=2 2 2 2 2 2 2 2 2 2 2 2 2 2
left_child=1 -1 -3 6 -5 -6 7 -2 9 10 11 12 -8 -14
right_child=3 2 -4 4 5 -7 8 -9 -10 -11 -12 -13 13 -15
leaf_value=-0.019662533348024949 -0.0027129431826578964 0.03074838649177148 -0.0026809778065377712 -0.011150697243469209 0.037467636404260693 -0.0030428712094960533 0.046473646111736565 0.042783912760893092 -0.017418867290448056 -0.018505229851218646 0.036521202395065684 -0.034300166122276467 -0.012199239727169242 0.024002135449663557
leaf_weight=88.043169084005058 37.63283371925354 9.5026396568864566 79.308089513331652 2.9432063587009933 22.704172492027286 4.2440683338791123 5.089352559298276 2.5560311321169129 4.0116117261350146 3.172919299453496 13.012485696002839 1.507703598588704 8.7165472898632377 13.246797572821377
leaf_count=5184 646 92 2449 34 171 47 54 25 53 50 116 29 150 170
internal_value=2.50251e-11 -0.00923893 0.00119847 0.0137117 0.0268104 0.0312071 0.00906059 0.00114915 0.0154275 0.0186887 0.0218954 0.0142217 0.0180522 0.00972938
internal_weight=295.692 176.854 88.8107 118.838 29.8914 26.9482 88.9463 40.1889 48.7574 44.7458 41.5729 28.5604 27.0527 21.9633
internal_count=9270 7725 2541 1545 252 218 1293 671 622 569 519 403 374 320
is_linear=0
shrinkage=0.05


Tree=16
num_leaves=15
num_cat=0
split_feature=9 6 4 5 7 1 4 6 10 3 0 7 8 5
split_gain=14.5872 6.1349 2.92262 3.09428 2.78882 2.35025 1.80237 2.84279 2.25342 2.88713 2.28584 2.10514 1.73832 1.73664
threshold=0.89325842696629221 0.01795951711192775 0.10256734289101889 0.010999566093273546 0.23411600798910373 -0.060135989332393107 0.24699773336960154 0.021686267123913344 -0.44382022471910104 0.068798873093605009 -0.023935705725890429 0.14570192579227773 0.016853932584269666 0.034822836431848934
decision_type=2 2 2 2 2 2 2 2 2 2 2 2 2 2
left_child=1 2 3 -1 -3 -2 7 8 -7 10 -10 12 -9 -8
right_child=5 4 -4 -5 -6 6 13 11 9 -11 -12 -13 -14 -15
leaf_value=-0.029801496716831952 -0.029566109281296406 -0.0012248331038658728 0.017093332410162101 -0.010556939015284598 0.036091595560858135 0.027623484371798391 0.042578264592459281 -0.033652481004986246 0.022587144529511199 0.014682872576458056 -0.029939976439728733 -0.028750969186537037 0.024550120139502998 -0.0027764017292979861
leaf_weight=37.527724072802812 1.8205279717221845 105.89088697731495 5.2025474160909644 49.535024015698582 4.2530608512461177 5.2304098354652551 10.732333593070505 0.48376910760998626 1.754759937524798 8.6696806754916889 10.552574474364517 1.2048854138702143 47.605246666818857 2.4301904663443556
leaf_count=2284 41 3127 134 2657 38 63 78 10 21 116 191 20 467 23
internal_value=1.27525e-10 -0.00745782 -0.0168944 -0.0190964 0.000527855 0.0165819 0.0178487 0.0145143 0.00111818 -0.00644687 -0.0213162 0.0214726 0.023291 0.0345997
internal_weight=292.894 202.409 92.2653 87.0627 110.144 90.4844 88.6639 75.5013 26.2074 20.977 12.3073 49.2939 48.089 13.1625
internal_count=9270 8240 5075 4941 3165 1030 989 888 391 328 212 497 477 101
is_linear=0
shrinkage=0.05


Tree=17
num_leaves=15
num_cat=0
split_feature=9 5 9 3 7 1 4 7 2 6 5 4 1 4
split_gain=13.201 5.78478 3.06455 2.4738 2.0799 2.02521 1.95082 1.904 1.73172 2.26061 2.14203 1.65812 1.61659 1.56977
threshold=0.89325842696629221 0.018001804448019555 0.72471910112359561 0.0056780142066746872 0.066757675632158744 -0.060135989332393107 -0.14190571270525246 0.12940104046702969 -0.051220124263351145 0.025253299408496736 0.028032799905350351 -0.018344138320964484 0.072089282254943057 0.24699773336960154
decision_type=2 2 2 2 2 2 2 2 2 2 2 2 2 2
left_child=1 2 4 -4 -1 -2 -3 8 -8 -10 -11 -5 -12 -7
right_child=5 6 3 11 -6 13 7 -9 9 10 12 -13 -14 -15
leaf_value=-0.029392089723744571 -0.029172847269538366 0.021622679149567361 -0.019526461199282679 -0.03133060741400058 -0.012428989040883649 0.013891693631331607 0.020933908070164577 -0.014815789498739219 -0.0055351856580140137 0.036608184231694312 -0.022411905474462319 0.012270840221781633 0.034721181226172911 0.032719381824590631
leaf_weight=33.819613562431186 1.5586257334798563 10.400846464559434 11.756593110971151 1.4726429879665399 43.144339898135513 74.258697893470526 10.732160103507338 17.045598365366459 41.894236085005105 6.0341945849359018 3.3793116007000208 20.075224050320685 0.75258346833288658 13.110001251101492
leaf_count=2142 41 133 412 54 2840 888 236 576 1186 96 74 482 9 101
internal_value=-1.62101e-10 -0.00710892 -0.0147395 -0.00198079 -0.0201643 0.0159295 0.0022747 -0.00048214 0.00358012 -0.00032445 0.0197215 0.00803363 -0.00726768 0.0170551
internal_weight=289.435 200.507 110.268 33.3045 76.964 88.9273 90.2389 79.8381 62.7925 52.0603 10.1661 21.5479 4.1319 87.3687
internal_count=9270 8240 5930 948 4982 1030 2310 2177 1601 1365 179 536 83 989
is_linear=0
shrinkage=0.05


Tree=18
num_leaves=15
num_cat=0
split_feature=9 5 9 3 7 5 4 0 6 1 3 10 4 6
split_gain=11.9369 5.36217 2.75421 2.08515 2.00855 1.86163 1.78873 2.02538 1.99794 1.9829 2.49101 2.6645 1.97204 1.65681
threshold=0.89325842696629221 0.018001804448019555 0.72471910112359561 0.0056780142066746872 0.23411600798910373 0.010101872693372852 0.24699773336960154 -0.021456324016805636 0.021686267123913344 -0.015132088964438626 0.044152131180230876 -0.57865168539325829 0.047176434992624146 0.018536274637412701
decision_type=2 2 2 2 2 2 2 2 2 2 2 2 2 2
left_child=1 2 5 -4 -3 -1 8 -8 12 10 11 -10 -2 -14
right_child=6 4 3 -5 -6 -7 7 -9 9 -11 -12 -13 13 -15
leaf_value=-0.028908376919361923 -0.028954636147606516 0.00051537025971381157 -0.018730404094662815 0.0069507550001729401 0.034907589527350812 -0.012513080413089295 -0.02423823508133708 0.036573420841371385 -0.021724954057637792 0.022269888751132547 -0.038227970932102853 0.034210615617575289 0.017576423136488561 -0.0090308227606461702
leaf_weight=30.811419997829944 3.7361576966941383 84.998006488196552 11.178925386629997 21.571279187686741 3.4703209586441508 44.444803032558411 0.83591028116643507 12.680485103279349 2.6844097469002008 40.348665188066661 2.4366784552112222 4.3084174236282688 12.805671634152533 9.3253237968310696
leaf_count=2042 88 2283 412 536 27 2940 12 96 51 391 39 46 177 130
internal_value=2.12649e-10 -0.00688255 -0.0143065 -0.00211047 0.00223955 -0.0195167 0.0150744 0.0314019 0.0117853 0.0175472 -0.00285887 0.0127065 0.000456857 0.00645922
internal_weight=285.636 196.475 108.006 32.7502 88.4683 75.2562 89.1617 13.5164 75.6453 49.7782 9.42951 6.99283 25.8672 22.131
internal_count=9270 8240 5930 948 2310 4982 1030 108 922 527 136 97 395 307
is_linear=0
shrinkage=0.05


Tree=19
num_leaves=15
num_cat=0
split_feature=9 5 9 4 3 4 5 6 6 7 7 7 5 3
split_gain=10.7832 5.06282 2.57871 1.92827 1.85493 1.79845 2.23317 1.78425 3.4716 1.71895 1.69728 1.73836 1.63623 2.0075
threshold=0.89325842696629221 0.018001804448019555 0.72471910112359561 -0.14190571270525246 0.0056780142066746872 0.24699773336960154 0.034822836431848934 0.027762022690278471 0.033840345038530291 0.066272481937293917 0.12940104046702969 0.069457363727385105 0.02208106354372321 -0.050614262215332599
decision_type=2 2 2 2 2 2 2 2 2 2 2 2 2 2
left_child=1 2 9 -3 -4 -2 7 -7 -9 -1 11 -5 -13 -14
right_child=5 3 4 10 -6 6 -8 8 -10 -11 -12 12 13 -15
leaf_value=-0.027942985906418416 0.011024942868589413 0.021441326841030374 -0.018237892674689848 -0.012644434421131204 0.0062610289420555396 0.052759030773929766 -0.0078739212908904756 -0.039370080763473314 0.039290569967522074 -0.01201814012875666 -0.01450773703173857 -0.0030620467541546108 0.03245565370868031 0.0049742777957734342
leaf_weight=31.102342074736953 74.257086474448442 10.385068308562039 10.709289382211862 12.709145850501953 21.777158168144524 7.3641391880810243 2.7302160803228608 1.3775878027081492 2.4847068712115288 41.905613797716796 16.169938661158085 21.065684746019542 9.6514480533078295 18.881143591366712
leaf_count=2120 922 133 412 369 536 47 29 17 15 2862 576 604 184 444
internal_value=1.33679e-10 -0.00657734 -0.0139315 0.00221113 -0.0021186 0.0144028 0.0304361 0.039635 0.00890738 -0.0190882 -0.000571401 0.00321737 0.0074514 0.0150544
internal_weight=282.571 194.357 105.494 88.8624 32.4864 88.2137 13.9566 11.2264 3.86229 73.008 78.4774 62.3074 49.5983 28.5326
internal_count=9270 8240 5930 2310 948 1030 108 79 32 4982 2177 1601 1232 628
is_linear=0
shrinkage=0.05


Tree=20
num_leaves=15
num_cat=0
split_feature=9 5 9 2 4 4 5 6 7 8 7 2 5 4
split_gain=9.3295 4.5315 2.34289 2.16661 1.83859 1.79327 2.37504 1.83346 1.84759 1.77225 1.79023 1.99696 2.57751 1.67912
threshold=0.89325842696629221 0.018001804448019555 0.71348314606741581 -0.054996789601403022 -0.044670018413547778 0.24699773336960154 0.034822836431848934 0.021686267123913344 0.14570192579227773 0.016853932584269666 0.11453181948349302 0.11389289153945716 0.017144584946818097 -0.017657132658285165
decision_type=2 2 2 2 2 2 2 2 2 2 2 2 2 2
left_child=1 2 4 -3 -1 7 -7 -2 9 -9 11 12 -11 -4
right_child=5 3 13 -5 -6 6 -8 8 -10 10 -12 -13 -14 -15
leaf_value=-0.0087655707324727113 -0.00081874392086300611 0.016645137744035331 -0.024989051677172094 -0.002023076688467951 -0.025403679099243643 0.039018425245342464 -0.010233530946109126 -0.03497909637961958 -0.030182520874575753 -0.0093607086675387974 0.035762432973082979 -0.029777138542283671 0.022875114388159437 0.0030541993658396802
leaf_weight=30.786206457298249 25.387894847430289 19.046916723251343 5.5609297584742299 68.437047335319221 39.464533491525799 11.083650279790161 2.6187488734722129 0.68294480070471664 1.2387774419039477 7.4158218596130601 11.229315737262366 1.6814701873809088 26.287235887721181 27.807769463863224
leaf_count=2169 395 436 258 1874 2744 79 29 19 23 108 89 23 265 759
internal_value=1.27492e-10 -0.0061911 -0.0132149 0.00218353 -0.0183377 0.0134197 0.0295498 0.0100753 0.0156753 0.0174764 0.0189635 0.0127959 0.0157168 -0.00221035
internal_weight=278.729 191.103 103.619 87.484 70.2507 87.6259 13.7024 73.9235 48.5356 47.2968 46.6138 35.3845 33.7031 33.3687
internal_count=9270 8240 5930 2310 4913 1030 108 922 527 504 485 396 373 1017
is_linear=0
shrinkage=0.05


Tree=21
num_leaves=15
num_cat=0
split_feature=5 9 7 3 4 7 3 6 7 6 1 5 7 7
split_gain=8.21144 5.34791 2.65167 1.90915 1.82966 1.56435 2.241 2.40689 1.75625 1.66542 2.61843 2.71338 2.58282 2.39465
threshold=0.010649446260398689 0.89325842696629221 0.21598335597797544 -0.059895316623110699 -0.10201851370653979 0.036010819136743651 0.085957630082607719 0.021269799069128587 0.045523530815892173 0.030782352420441 0.043030345925633935 0.034148860923551731 0.07760537268537189 0.071118913742055492
decision_type=2 2 2 2 2 2 2 2 2 2 2 2 2 2
left_child=-1 2 -2 4 -4 6 7 -3 -7 10 11 12 -10 -11
right_child=1 5 3 -5 -6 8 -8 -9 9 13 -12 -13 -14 -15
leaf_value=-0.019167003664477759 -0.0032511998588371964 -0.014703160609026001 0.049403689657734291 -0.024889932437159212 -0.024481635110270572 -0.015683402492904792 0.04258467732687013 0.041906499860353871 0.026109618261990965 -0.011995098431934661 -0.017814213168922226 -0.03526528845461023 -0.0031184880890500282 0.031929587499382288
leaf_weight=45.52346319379285 142.28123254980892 4.7516561299562445 4.3720707409083843 0.67824012134224076 0.37086044438183297 5.1194251328706732 9.1466784328222257 1.7991406209766863 21.585287583060563 3.2272441051900413 7.7992824763059607 1.8177914731204499 11.065886850468813 16.331633614376187
leaf_count=2701 5575 67 33 14 11 72 78 16 237 32 109 27 147 151
internal_value=-3.89021e-11 0.00385446 -0.0018545 0.0296002 0.0403695 0.0139578 0.0278382 0.00433526 0.0103413 0.0127115 0.00683974 0.0127631 0.0164055 0.024451
internal_weight=275.87 230.346 147.702 5.42117 4.74293 82.644 15.6975 6.5508 66.9466 61.8271 42.2682 34.469 32.6512 19.5589
internal_count=9270 6569 5633 58 44 936 161 83 775 703 520 411 384 183
is_linear=0
shrinkage=0.05


Tree=22
num_leaves=15
num_cat=0
split_feature=5 9 7 7 7 0 1 6 10 2 1 6 5 9
split_gain=7.4149 4.76544 2.40358 1.60175 1.91899 1.87948 1.47652 1.42882 4.07857 2.08453 2.72601 1.9144 1.79443 1.48029
threshold=0.010649446260398689 0.89325842696629221 0.23411600798910373 0.036010819136743651 0.045523530815892173 -0.0065506027065937436 -0.060135989332393107 0.025253299408496736 -0.033707865168539304 -0.0052327801409635102 -0.042365522385402636 0.023438425027020791 0.046177153296566818 0.91573033707865181
decision_type=2 2 2 2 2 2 2 2 2 2 2 2 2 2
left_child=-1 2 -2 5 -5 -3 -6 8 11 10 -9 -8 -11 -10
right_child=1 3 -4 4 6 -7 7 9 13 12 -12 -13 -14 -15
leaf_value=-0.018376121539459087 -0.0028341009220858413 -0.0039277965687816432 0.033498154192285592 -0.018356345278951067 -0.026900038592632809 0.036129112361121402 0.027509865921265517 0.038849211301160591 0.011225208420679277 0.029049292183610693 -0.015861713836694945 -0.017666341694607703 -0.02171171770000908 -0.031820725359073598
leaf_weight=44.786130725871772 144.06421343423426 3.5398467909544715 3.7019203957170239 4.7772789020091286 1.452181939035653 12.044739369302984 11.760382367298009 2.142469547688961 2.1084802672266942 26.135943705216057 7.267709223553533 2.1484394222497931 1.1573248393833626 6.8297643261030316
leaf_count=2701 5601 48 32 72 39 113 138 22 29 209 89 31 14 132
internal_value=-3.58872e-11 0.00365606 -0.00170483 0.0132945 0.00960661 0.0273425 0.0120572 0.0134358 0.00340334 0.0194248 -0.000870069 0.0198148 0.0262056 -0.0215587
internal_weight=273.917 229.131 147.766 81.3646 65.78 15.5846 61.0027 59.5505 22.8471 36.7034 9.41018 13.9088 27.2933 8.93824
internal_count=9270 6569 5633 936 775 161 703 664 330 334 111 169 223 161
is_linear=0
shrinkage=0.05


Tree=23
num_leaves=15
num_cat=0
split_feature=9 7 3 5 4 8 10 5 9 5 3 10 6 7
split_gain=6.73354 4.93561 2.4363 2.63654 2.3129 2.02605 1.94924 2.07227 1.8072 1.65417 1.70702 1.51514 1.44765 1.4268
threshold=0.75842696629213491 0.066757675632158744 -0.0084627382987682558 0.02208106354372321 0.16706649897786965 0.016853932584269666 1.0000000180025095e-35 0.023990483063500212 0.98314606741573041 0.016545911580750378 0.10581963769606585 0.016853932584269652 0.017342025016155341 0.047479250697007765
decision_type=2 2 2 2 2 2 2 2 2 2 2 2 2 2
left_child=1 -1 3 -3 5 -2 7 -6 -9 -7 12 -8 -11 -10
right_child=4 2 -4 -5 6 9 11 8 13 10 -12 -13 -14 -15
leaf_value=-0.023374879857991096 -0.039086436303528191 -0.0047135561312386422 -0.017414699538095029 0.013864681198242745 0.04119901249421027 -0.0022260558904672128 -0.036940443253039724 -0.027465460986547466 -0.032822809370833102 -0.010244287813229537 -0.016925224520250647 0.015739960500839787 0.015122088798388883 0.023712616973467517
leaf_weight=36.036667817272246 1.6051117945462454 53.582071981858462 19.577452219091356 28.396689565852284 10.889919152483349 40.994749147910625 1.6149373427033418 1.7051739245653141 0.37656138092279334 5.5480327978730193 4.4188397210091344 2.0065750181674957 55.809706435538828 9.4459418114274722
leaf_count=2443 42 2886 1004 671 97 935 24 20 6 147 64 23 826 82
internal_value=-3.15622e-11 -0.00774771 -0.00202864 0.00181131 0.0079295 0.00461689 0.0210361 0.0263935 0.0102349 0.00563047 0.010487 -0.0106618 0.0127009 0.0187127
internal_weight=272.008 137.593 101.556 81.9788 134.416 108.376 26.0391 22.4176 11.5277 106.771 65.7766 3.62151 61.3577 9.8225
internal_count=9270 7004 4561 3557 2266 2014 252 205 108 1972 1037 47 973 88
is_linear=0
shrinkage=0.05


Tree=24
num_leaves=15
num_cat=0
split_feature=5 9 7 5 9 4 3 1 6 7 7 10 9 6
split_gain=6.40167 4.18928 2.15208 1.37304 1.31882 1.10812 1.10171 3.63316 2.77226 4.50794 2.94821 2.24244 1.99193 1.93732
threshold=0.010649446260398689 0.89325842696629221 0.23411600798910373 0.046177153296566818 0.71348314606741581 -0.12146213028448753 0.076547958936011865 -0.013923328889812124 0.030782352420441 0.079514166060321592 0.083314559113557132 -0.43258426966292124 0.90449438202247201 0.021414471383649807
decision_type=2 2 2 2 2 2 2 2 2 2 2 2 2 2
left_child=4 2 -2 6 -1 -4 8 -8 9 11 -10 -3 -11 -13
right_child=1 3 5 -5 -6 -7 7 -9 10 12 -12 13 -14 -15
leaf_value=-0.02295182829652612 -0.0026708454957213995 0.034762907664665159 0.040638279106064289 -0.025233535422927098 -0.0039604846413837215 -0.017809598681194413 -0.032338742021152223 0.02534681850116029 -0.031591009437015698 0.01818315530350913 0.040908832632373035 -0.012932808845098322 -0.03563722840179416 0.016893989531808196
leaf_weight=30.192540652584285 143.04140955628827 6.9323593564331487 3.2724489513784651 1.4505865648388852 13.611452660523353 0.40090885944664378 2.1428973665460935 30.036798471584916 0.89488804340362449 1.4718199856579284 8.2660575052723271 9.2127276528626769 7.9511682027950883 10.70807323604822
leaf_count=2258 5601 69 24 24 443 8 34 295 16 20 80 154 125 119
internal_value=1.24586e-10 0.00341206 -0.00159792 0.0126123 -0.0172707 0.0318134 0.0136315 0.0206466 0.0083257 0.00180865 0.0314146 0.0122596 -0.0262928 0.00314122
internal_weight=269.586 225.782 146.715 79.0674 43.804 3.67336 77.6168 32.1797 45.4371 36.2761 9.16095 26.8532 9.42299 19.9208
internal_count=9270 6569 5633 936 2701 32 912 329 583 487 96 342 145 273
is_linear=0
shrinkage=0.05


Tree=25
num_leaves=15
num_cat=0
split_feature=5 9 7 2 1 0 5 2 9 5 3 5 6 1
split_gain=5.74604 3.53778 2.12625 2.01739 1.27383 1.09894 1.88473 1.29206 1.14421 1.35143 1.89307 1.19471 1.09815 1.18396
threshold=0.010999566093273546 0.89325842696629221 0.23411600798910373 0.047103103352375338 -0.060135989332393107 0.040453152563805446 0.029233049867952384 -0.0085232210665027713 0.98314606741573041 0.037531677906596526 0.013834864681810723 0.014452182497147094 0.021686267123913344 -0.036335976838006372
decision_type=2 2 2 2 2 2 2 2 2 2 2 2 2 2
left_child=3 2 -2 -1 -3 8 -7 -8 9 11 -11 -6 13 -13
right_child=1 4 -4 -5 5 6 7 -9 -10 10 -12 12 -14 -15
leaf_value=-0.01929109196539848 -0.002297014402818225 -0.025065619147310005 0.031609943073036204 0.010784248421247153 -0.0041319906839150594 -0.030167395021349963 -0.032142867256126813 0.024701550936646235 0.026344758896262779 0.022923697239080457 -0.049055831969653796 0.032156380801116234 0.022109411927951628 -0.0022206295458158283
leaf_weight=42.063908732961863 140.22109981719404 1.3607808323577035 3.7813683450222006 5.7521715406328431 8.2950010001659376 3.0162899382412425 0.34055515006184567 4.0571526847779751 16.433723287656903 0.78614362701773544 1.2029612101614473 2.1167557844892135 26.365289159119129 12.205808828584848
leaf_count=2754 5395 39 31 169 131 39 5 37 142 8 19 19 289 193
internal_value=2.58725e-10 0.00342672 -0.00119479 -0.0155263 0.012065 0.013062 -0.00467445 0.0151602 0.0150526 0.0109751 -0.0224559 0.0127548 0.016214 0.00462706
internal_weight=267.999 220.183 144.002 47.8161 76.1805 74.8197 7.414 4.39771 67.4057 50.972 1.9891 48.9829 40.6879 14.3226
internal_count=9270 6347 5426 2923 921 882 81 42 801 659 27 632 501 212
is_linear=0
shrinkage=0.05


Tree=26
num_leaves=15
num_cat=0
split_feature=5 9 7 5 3 9 7 7 10 7 7 6 2 10
split_gain=5.27447 3.54398 2.036 1.30435 1.17878 1.16488 1.08633 1.94485 1.75 1.17264 2.15008 1.95019 3.04915 2.69077
threshold=0.010649446260398689 0.89325842696629221 0.23411600798910373 0.046177153296566818 -0.059895316623110699 0.71348314606741581 0.021844861954281928 0.026573269114125945 -0.095505617977528059 0.036010819136743651 0.045523530815892173 0.025253299408496736 -0.0052327801409635102 -0.033707865168539304
decision_type=2 2 2 2 2 2 2 2 2 2 2 2 2 2
left_child=5 2 -2 6 -4 -1 8 -8 -3 -9 -11 13 -13 -12
right_child=1 3 4 -5 -6 -7 7 9 -10 10 11 12 -14 -15
leaf_value=-0.021437056064166564 -0.0025011425950071122 -0.025469539420412936 0.038668867791016311 -0.025078789961665061 -0.02342280462209741 -0.0034142138247517059 -0.033278620901827378 0.029197956150400474 0.045337761224297418 -0.020482402366389589 0.014243603705558836 -0.0041401333456403981 0.028749260058250067 -0.019808520309382745
leaf_weight=29.017675483599305 143.6526065398939 0.38955288752913464 3.5278314463794236 1.4447158556431521 0.22962551563978095 13.399568709079174 1.4738604072481383 8.2793392427265626 3.8590531684458247 4.5454039443284264 13.658180358819665 9.4163468843325884 24.534463778138168 8.6027364218607527
leaf_count=2258 5601 6 28 24 4 443 25 99 31 72 178 130 210 161
internal_value=4.40521e-10 0.00308376 -0.00145214 0.0117633 0.0307485 -0.0159534 0.0127969 0.0109714 0.0352298 0.0123778 0.00965003 0.012402 0.0197698 0.000798305
internal_weight=266.031 223.614 147.41 76.2037 3.75746 42.4172 74.7589 70.5103 4.24861 69.0365 60.7571 56.2117 33.9508 22.2609
internal_count=9270 6569 5633 936 32 2701 912 875 37 850 751 679 340 339
is_linear=0
shrinkage=0.05


Tree=27
num_leaves=15
num_cat=0
split_feature=5 4 5 4 6 6 9 9 7 2 3 5 6 7
split_gain=4.64805 2.85803 1.85733 1.55132 2.27286 1.84177 1.95208 1.92154 1.70799 1.68432 1.91707 1.29545 1.24611 2.41284
threshold=0.010649446260398689 0.15112976239453493 0.017336577090606018 -0.15594719991433667 0.037090819448020972 0.027425769178128345 0.97191011235955072 0.10674157303370788 0.055103346154004702 -0.047332535639015398 -0.10183996338009309 0.046177153296566818 0.022946979219282789 0.092505688077539075
decision_type=2 2 2 2 2 2 2 2 2 2 2 2 2 2
left_child=-1 2 -2 -4 5 6 9 -7 -8 10 -5 -9 -3 -14
right_child=1 12 3 4 -6 7 8 11 -10 -11 -12 -13 13 -15
leaf_value=-0.015121630039525887 -0.0058032359068063378 0.031074240946999239 0.025552791789493757 -0.019037030228493186 -0.039657501162761538 -0.028546953809168486 0.0083346693991187548 0.023804537116336663 -0.058991316841454859 -0.0012418948323377435 0.020642848061117054 -0.028961186535590756 -0.0069466930431703756 0.029654692611671998
leaf_weight=41.671425210312009 68.946820476558059 10.057828469201924 7.0853416603058568 2.8159335199743536 2.0695614945143452 1.2700998298823858 1.1714512780308717 19.063633508980278 1.4622297044843433 73.5407954454422 17.848911398090422 0.41180531121790309 10.006529752165081 6.7731976117938748
leaf_count=2701 3311 121 83 114 43 33 13 275 25 1957 412 11 107 64
internal_value=-1.79118e-10 0.00288676 0.000750407 0.00433313 0.00287524 0.00395195 0.000988636 0.017103 -0.0349926 0.00235153 0.0146067 0.0213289 0.0178775 0.00866452
internal_weight=264.196 222.524 195.687 126.74 119.654 117.585 96.8393 20.7455 2.63368 94.2056 20.6648 19.4754 26.8376 16.7797
internal_count=9270 6569 6277 2966 2883 2840 2521 319 38 2483 526 286 292 171
is_linear=0
shrinkage=0.05


Tree=28
num_leaves=15
num_cat=0
split_feature=9 3 5 8 5 4 1 7 7 0 5 7 4 6
split_gain=4.41178 4.1394 2.6125 1.74445 1.26651 1.42453 2.91208 1.8201 2.4315 2.18376 2.0911 1.95432 1.90597 1.88927
threshold=0.75842696629213491 -0.011106518387093199 0.02208106354372321 0.016853932584269666 0.046177153296566818 0.043849757710266675 0.030287049975129102 0.083314559113557132 0.077191247804854882 0.040453152563805446 0.034822836431848934 0.052831062812136183 0.070566662884741685 0.028662146252268077
decision_type=2 2 2 2 2 2 2 2 2 2 2 2 2 2
left_child=1 2 -1 -2 5 6 -5 8 10 -9 13 -12 -10 -7
right_child=3 -3 -4 4 -6 7 -8 9 12 -11 11 -13 -14 -15
leaf_value=-0.0058752216522780509 -0.030189162841578271 -0.018595599995826759 0.012272895073457824 -0.0070005467488710796 -0.027620859410169642 0.014490767609650238 0.023356098808300901 0.032946084226937837 0.013762938407834643 -0.017435733064734869 0.022083186838551948 -0.04780194581807054 -0.054043456781434324 -0.017630798697229159
leaf_weight=61.003450568765402 2.1876771245151749 44.580881994217634 28.15515074878931 31.401349478866905 1.5762696396559466 58.411176238209009 9.4477952066808921 14.267838803119959 1.1277969777584069 1.8633619435131539 0.80581297725439016 1.9221822395920751 1.7543546874076126 4.1249497830867758
leaf_count=3604 55 2728 672 762 27 933 181 149 18 19 6 32 35 49
internal_value=3.52076e-11 -0.00633867 -7.17171e-05 0.0065753 0.00744152 0.0080987 0.000410823 0.0117765 0.0079712 0.0264483 0.0101224 -0.0267725 -0.0308 0.0121278
internal_weight=262.63 133.739 89.1586 128.891 126.703 125.127 40.8491 84.2775 68.1463 16.1312 65.2641 2.728 2.88215 62.5361
internal_count=9270 7004 4276 2266 2211 2184 943 1241 1073 168 1020 38 53 982
is_linear=0
shrinkage=0.05


Tree=29
num_leaves=15
num_cat=0
split_feature=5 9 2 9 2 7 8 7 2 5 4 3 4 6
split_gain=4.17809 2.3616 1.90901 1.5907 1.53773 1.33151 1.87855 1.67738 1.31547 1.37395 1.29442 1.21994 1.09608 1.29213
threshold=0.010999566093273546 0.89325842696629221 -0.054996789601403022 0.050561797752808994 0.047103103352375338 0.021844861954281928 0.89325842696629221 0.026573269114125945 -0.065066017275462615 0.023522768999179943 0.32617339111272775 -0.04528440247269349 -0.1201349252446287 0.024920220158213793
decision_type=2 2 2 2 2 2 2 2 2 2 2 2 2 2
left_child=4 2 3 -2 -1 6 -3 -7 12 11 -9 -10 -5 -14
right_child=1 5 -4 8 -6 7 -8 10 9 -11 -12 -13 13 -15
leaf_value=-0.017085246846248705 0.033521295577308985 -0.026171097330652589 -0.0035335630125774616 0.015921363131913297 0.0094140296733430037 -0.033243077889749222 0.04729283272737269 0.010804574081470359 -0.021322343669865917 0.035695555903753555 -0.025733238413734767 0.025881769619996747 -0.00084736623877065169 -0.038541977676890188
leaf_weight=39.622763292863965 5.2192673240788308 0.40386326983570997 117.445130281616 3.1900749206543013 5.6759697678498915 1.4041085056960572 3.4411377757787704 66.092732119373977 2.4817004678770904 4.1609736615791917 1.587941700592636 1.2662218171171815 6.2267429893836361 2.6234699850901961
leaf_count=2754 85 7 4686 99 169 23 27 839 129 82 25 43 222 80
internal_value=1.89948e-11 0.0029149 -0.000838942 0.0113897 -0.0136332 0.0101676 0.0357675 0.00825275 0.00427568 0.0189294 0.00958512 -0.00328232 -0.00606334 -0.0147996
internal_weight=260.842 215.543 142.614 25.1685 45.2987 72.9298 3.845 69.0848 19.9492 7.9089 67.6807 3.74792 12.0403 8.85021
internal_count=9270 6347 5426 740 2923 921 34 887 655 254 864 172 401 302
is_linear=0
shrinkage=0.05


Tree=30
num_leaves=15
num_cat=0
split_feature=5 9 2 7 7 4 8 0 4 4 2 5 10 7
split_gain=3.83782 2.31127 1.77073 1.28391 1.55374 1.33884 1.26517 1.18714 1.15263 1.13976 1.97392 1.70374 1.62259 1.14612
threshold=0.010649446260398689 0.89325842696629221 -0.054996789601403022 0.021844861954281928 0.026573269114125945 0.32617339111272775 0.89325842696629221 -0.0060041462704522033 0.030556875292749756 -0.098375520116531986 -0.066423772139186307 0.02208106354372321 0.12921348314606745 0.097465840674084273
decision_type=2 2 2 2 2 2 2 2 2 2 2 2 2 2
left_child=-1 2 9 6 -5 -6 -3 8 -4 12 13 -12 -2 -11
right_child=1 3 7 4 5 -7 -8 -9 -10 10 11 -13 -14 -15
leaf_value=-0.014004734554272397 0.030652669419893825 -0.019893638628019076 -0.013577762229572733 -0.031827968808527916 0.010385988801568576 -0.026916686127163948 0.043009164064385284 0.0003485041800157275 0.0060249804008301166 0.0079123095567600246 -0.0089641927214699976 0.035954325208897409 -0.012616384783466326 -0.03043623436515297
leaf_weight=40.198097177315503 9.0182583127170819 0.3580025434494013 37.250921503640711 1.4307909104973067 66.824434162117541 1.5578093770891417 3.6309522986412048 73.896458933595568 8.7102455915883166 2.5388446012511849 3.0366025748662633 4.1141562974080443 2.1632323120720676 4.306555132381618
leaf_count=2701 240 7 1684 25 849 25 30 2941 250 68 139 68 78 165
internal_value=-1.02492e-10 0.00262452 -0.00105042 0.009764 0.00788286 0.0091605 0.0345078 -0.00359726 -0.0098136 0.010748 0.000945578 0.0181199 0.0219331 -0.0170178
internal_weight=259.035 218.837 145.035 73.802 69.813 68.3822 3.98895 119.858 45.9612 25.1776 13.9962 7.15076 11.1815 6.8454
internal_count=9270 6569 5633 936 899 874 37 4875 1934 758 440 207 318 233
is_linear=0
shrinkage=0.05


Tree=31
num_leaves=15
num_cat=0
split_feature=5 4 9 2 10 2 1 0 7 6 7 4 7 5
split_gain=3.5967 2.84715 1.45717 1.80398 1.32603 1.58948 1.66197 1.47912 1.61086 1.35119 2.88703 1.88611 2.26558 1.82867
threshold=0.015711013352119722 0.044910881750625971 0.89325842696629221 -0.054996789601403022 -0.016853932584269645 0.016340376810355498 0.015083946977109021 0.043933116274239133 0.052554542467733341 0.032888011009672126 0.12441695128291565 0.095492610792362834 0.021844861954281928 0.041695868009044255
decision_type=2 2 2 2 2 2 2 2 2 2 2 2 2 2
left_child=1 -1 3 -2 5 6 -4 8 -8 10 11 -6 -13 -11
right_child=2 -3 4 -5 9 -7 7 -9 -10 13 -12 12 -14 -15
leaf_value=-0.013957566879209791 0.013274163333126069 0.0036465356374469934 0.01453865080888295 -0.0024874400404513463 0.019629051933590425 0.029321572315532004 0.014463656453155014 0.028216297036208385 -0.045831712822001318 0.035782055690833051 -0.060134807976693155 0.033629940372434983 -0.02423611319738761 -0.021512262731369483
leaf_weight=61.677554412279278 22.348177240230143 35.70605127653107 16.922192689962689 80.686405875254422 6.8265883736312452 14.048137251287697 1.0303276441991323 0.59546397626399983 2.6485979072749615 3.9527617767453185 1.1597966160625208 1.1977255158126334 7.3681720830500126 1.1750495620071886
leaf_count=4426 544 992 221 2605 100 151 12 4 38 31 15 12 102 17
internal_value=2.9641e-10 -0.0075315 0.0046035 0.00102598 0.0109493 0.0168014 0.00755644 -0.0176016 -0.0294631 0.00111449 -0.00599085 0.00150837 -0.0134752 0.0212849
internal_weight=257.343 97.3836 159.959 103.035 56.9248 35.2447 21.1966 4.27439 3.67893 21.6801 16.5523 15.3925 8.5659 5.12781
internal_count=9270 5418 3852 3149 703 426 275 54 50 277 229 214 114 48
is_linear=0
shrinkage=0.05


Tree=32
num_leaves=15
num_cat=0
split_feature=5 4 5 7 10 0 10 0 2 3 4 7 2 7
split_gain=3.39045 1.91109 2.62578 1.86268 1.6019 1.36249 1.32552 1.24556 1.51313 1.12236 1.62843 1.32121 1.20736 1.16702
threshold=0.010649446260398689 0.043849757710266675 0.02208106354372321 0.069701565558472858 0.022471910112359567 0.038631290539214998 0.34269662921348326 0.0143281272974094 0.041688694334543371 0.073507241732599718 0.19398772866322536 0.068004487455105081 0.057296835900012895 0.036434325303553013
decision_type=2 2 2 2 2 2 2 2 2 2 2 2 2 2
left_child=-1 2 7 -4 5 -3 -5 8 -2 11 13 -6 -13 -11
right_child=1 4 3 6 9 -7 -8 -9 -10 10 -12 12 -14 -15
leaf_value=-0.013307845131357996 -0.0061886422045498678 0.013124265089252109 -0.026007252179574131 0.013335128715161574 -0.012367201118822883 -0.012403363125282202 -0.01169729685314245 -0.01984225887084955 0.017337034833113142 0.015999678448302038 0.022642227787429241 0.044185036226852853 -0.012812351497615483 -0.042644120536292761
leaf_weight=39.37816683575511 63.997112859040499 66.072662638500333 2.8558856258168808 41.664283384568989 3.7745669577270728 4.8933982346206895 5.2555883266031733 13.703741051256655 6.66950376657769 0.48104850389063347 0.85752122476696957 1.8345448672771456 0.83724141959100951 3.9876322504132986
leaf_count=2701 3181 1023 80 952 122 61 157 615 239 8 7 22 18 84
internal_value=1.04372e-10 0.0024662 -0.001225 0.00778874 0.00839398 0.0112161 0.0103456 -0.00657175 -0.00375736 -0.00816449 -0.023227 0.00572858 0.0276991 -0.0345599
internal_weight=256.263 216.885 134.146 49.7758 82.7386 70.9661 46.9199 84.3704 70.6666 11.7726 5.3262 6.44635 2.67179 4.46868
internal_count=9270 6569 5224 1189 1345 1084 1109 4035 3420 261 99 162 40 92
is_linear=0
shrinkage=0.05


Tree=33
num_leaves=15
num_cat=0
split_feature=5 4 4 7 4 1 5 3 1 10 10 6 3 6
split_gain=3.13638 3.32165 1.51427 1.46803 1.7728 1.944 1.31649 1.25455 1.58422 1.35456 1.2459 1.14997 2.0113 1.47052
threshold=0.020674522415802424 0.043849757710266675 0.19398772866322536 0.049171668372695328 0.090327180827336387 -0.016472399168443393 0.016545911580750378 0.17060225697883682 0.072089282254943057 -1.0000000180025095e-35 -0.078651685393258425 0.014405039593626854 0.061229683491659144 0.021616686032077888
decision_type=2 2 2 2 2 2 2 2 2 2 2 2 2 2
left_child=1 -1 3 11 5 -5 -6 8 -2 -9 -8 12 -3 -13
right_child=7 2 -4 4 6 -7 10 9 -10 -11 -12 13 -14 -15
leaf_value=-0.0098032802128611568 0.0060178863268206262 -0.010522291341640722 0.028577261966826674 -0.01252949555621964 -0.020847798283488112 0.028702019562561437 0.032698559887162533 0.0093296132634972245 0.029282707195042442 -0.04291770892811092 -0.015402640171512489 -0.021698745458839687 0.03023227945152257 0.016557460418706812
leaf_weight=100.42952323844656 88.927298972383142 6.703620941378178 5.2570047583430997 2.9951201025396594 5.3031585337594134 12.702758562285453 2.2500556157901888 1.8094286797568204 7.1052336879074565 1.610596515238284 1.5153473969548938 12.044882743153719 4.0431192042306066 2.3301407760009161
leaf_count=5921 1881 332 59 71 108 266 23 19 90 26 28 335 76 35
internal_value=1.51723e-10 -0.00442399 0.00537279 0.00241409 0.0108421 0.0205559 -0.00634429 0.00689565 0.00802324 -0.0194184 0.0141707 -0.0059917 0.00607873 -0.014824
internal_weight=255.027 155.575 55.1452 49.8882 24.7664 15.6979 9.06856 99.4526 96.0325 3.42003 3.7654 25.1218 10.7467 14.375
internal_count=9270 7254 1333 1274 496 337 159 2016 1971 45 51 778 408 370
is_linear=0
shrinkage=0.05


Tree=34
num_leaves=15
num_cat=0
split_feature=5 2 7 4 3 6 5 7 3 1 5 5 3 1
split_gain=2.99901 1.87436 2.12492 1.88884 1.72989 1.51763 1.44273 2.05084 2.15711 1.35058 1.2986 1.56253 2.07585 1.76599
threshold=0.010649446260398689 0.041688694334543371 0.21598335597797544 0.055507818566745477 0.035263396633898665 0.032176407521962803 0.02208106354372321 0.069701565558472858 -0.097396888616253272 0.000237535887856577 0.034822836431848934 0.018898318139131974 0.010297955166162278 0.041180979457110641
decision_type=2 2 2 2 2 2 2 2 2 2 2 2 2 2
left_child=-1 2 3 4 6 10 9 -8 -9 -2 11 12 -5 -13
right_child=1 -3 -4 5 -6 -7 7 8 -10 -11 -12 13 -14 -15
leaf_value=-0.012599456023121717 -0.0020234057603990903 0.01113922625583111 0.029082562053004746 -0.028654886887680725 -0.02366540263135769 -0.016638480383149062 -0.029958652009787274 -0.026559594400208855 0.012359798144946886 -0.01676551412255349 -0.024771581410277854 0.026718291559345908 0.010312909202194926 -0.021987593086797194
leaf_weight=38.871129307430238 48.482275005429983 46.153564262203872 5.0046966625377527 3.3224917845800546 9.7051037084311229 4.8476542830467215 2.8417536048218599 3.0295966975390902 33.364110862836242 22.096281196922064 1.5298403315246094 17.943789152428511 15.401280728168784 1.3162366151809681
leaf_count=2701 2437 878 59 93 304 67 78 114 781 1187 25 227 301 18
internal_value=-1.61577e-10 0.0023253 -0.000134795 -0.00119803 -0.0044646 0.00750722 -0.00256943 0.00503574 0.00849632 -0.00680852 0.0108071 0.0128387 0.00229593 0.0224687
internal_weight=253.91 215.039 168.885 163.88 119.519 44.3613 109.814 39.2355 36.3937 70.5786 39.5136 37.9838 18.7238 19.26
internal_count=9270 6569 5691 5632 4901 731 4597 973 895 3624 664 639 394 245
is_linear=0
shrinkage=0.05


Tree=35
num_leaves=15
num_cat=0
split_feature=9 3 5 8 7 9 10 3 6 1 4 7 7 1
split_gain=2.73419 3.33265 1.51094 1.27167 1.19121 1.03548 1.02511 1.01123 2.14656 0.990224 1.68715 1.54049 1.62141 2.84422
threshold=0.75842696629213491 -0.048171088577467595 0.023325141075638656 0.016853932584269666 0.066757675632158744 0.084269662921348326 -0.52247191011235938 -0.093979606306701421 0.022577653964419794 0.029600426647157344 0.043849757710266675 0.091506128649456966 0.036010819136743651 0.039172126070837539
decision_type=2 2 2 2 2 2 2 2 2 2 2 2 2 2
left_child=1 2 5 -2 6 -1 -3 -7 -9 10 -5 12 -11 -14
right_child=3 4 -4 9 -6 7 -8 8 -10 11 -12 -13 13 -15
leaf_value=0.012525588007632059 -0.026618074357073092 0.020422135538626627 0.016426436955492622 -0.006884239355548551 -0.0061864606321209775 -0.027331618820183576 -0.020515765191232389 -0.0090296429344977579 0.029570848161572523 0.022489172094572987 0.0080866396380459803 0.025796204294796361 0.023010870811475039 -0.016203154989618745
leaf_weight=8.8220716239884478 2.0727837970480314 0.83483275864273565 17.248131873086095 28.144224836025387 46.837965064682066 3.7772672967985264 30.802614669315517 18.030670107807971 3.4454952119849613 8.1018495187163371 52.403392617590725 13.196843774057923 5.9913664860650924 12.708180310204623
leaf_count=357 55 36 412 757 2389 208 2336 1156 110 111 846 172 100 225
internal_value=-8.00041e-12 -0.00503907 0.00481284 0.00533177 -0.0114618 -0.00136638 -0.0188429 -0.00651166 -0.00179671 0.00609562 0.00283538 0.0124317 0.00515998 -0.00310862
internal_weight=252.418 129.799 51.3236 122.619 78.4754 34.0755 31.6374 25.2534 21.4762 120.546 80.5476 39.9982 26.8014 18.6995
internal_count=9270 7004 2243 2266 4761 1831 2372 1474 1266 2211 1603 608 436 325
is_linear=0
shrinkage=0.05


Tree=36
num_leaves=15
num_cat=0
split_feature=5 4 6 3 2 7 4 2 9 4 7 7 1 10
split_gain=2.64635 1.70428 1.48264 2.59642 2.13518 2.10903 3.68119 2.49332 2.04902 1.48253 1.65354 1.451 1.62837 1.26757
threshold=0.009742464995408812 0.15112976239453493 0.025614282555239589 0.10189132635698729 -0.047332535639015398 0.14570192579227773 -0.11283922728455024 -0.062907797902648707 0.17415730337078653 0.063794651734372945 0.16348374253957551 0.11909083924733706 -0.027092602303611876 -0.64606741573033688
decision_type=2 2 2 2 2 2 2 2 2 2 2 2 2 2
left_child=-1 2 3 4 -2 8 7 -7 -4 10 -6 13 -13 -10
right_child=1 -3 5 -5 9 6 -8 -9 11 -11 -12 12 -14 -15
leaf_value=-0.013396612278530898 0.011173945260606142 0.014032181724885668 -0.030641112158421614 -0.040379941652673286 -0.0081765099353249462 0.040364241758751154 -0.044351489261160046 -0.021073167223686615 -0.019968622053228222 0.0063192377575168853 0.023148180460826923 -0.013138278541558272 0.036836830584383751 0.013091125590838613
leaf_weight=31.170316896867007 28.684260321315378 24.792586399242282 1.5146208284422744 3.2753517888486376 89.643549697939306 2.830501614138484 3.7494003288447839 2.0695492997765541 2.5059638507664159 27.197007434908301 3.4691860824823371 1.3859773976728327 10.398575400002297 18.000586067326374
leaf_count=2220 994 298 45 70 4299 32 127 44 49 532 97 37 131 295
internal_value=1.36367e-10 0.00195438 0.000352777 -0.00196033 -0.00085217 0.00850315 -0.0125098 0.0152423 0.0140844 -0.00378791 -0.00677586 0.0170397 0.0303913 0.00831048
internal_weight=250.687 219.517 194.725 152.269 148.994 42.4552 8.64945 4.90005 33.8057 120.31 93.1127 32.2911 11.7846 20.5065
internal_count=9270 7050 6752 5992 5922 760 203 76 557 4928 4396 512 168 344
is_linear=0
shrinkage=0.05


Tree=37
num_leaves=15
num_cat=0
split_feature=9 3 7 10 2 4 8 9 3 2 1 1 10 9
split_gain=2.39678 2.90169 1.492 1.32637 1.13147 1.67758 1.06115 0.902262 0.865905 0.845496 1.41871 1.1523 1.53486 1.52035
threshold=0.75842696629213491 -0.0084627382987682558 0.06514725497689218 -0.54494382022471899 -0.054996789601403022 -0.026153584544300165 0.016853932584269666 0.48876404494382025 -0.075202986840206751 -0.047904994370875968 -0.056606496031581958 0.029600426647157344 -1.0000000180025095e-35 0.98314606741573041
decision_type=2 2 2 2 2 2 2 2 2 2 2 2 2 2
left_child=1 2 -1 -4 -5 8 -2 -3 -6 10 -8 13 -13 -11
right_child=6 7 3 4 5 -7 9 -9 -10 11 -12 12 -14 -15
leaf_value=-0.017563370366616933 -0.024891626759055232 -0.022967541631273892 -0.028957388160128324 0.013491870521413707 -0.017420405272269467 0.018837181687615577 -0.01492093835087634 -0.0075831800480266123 -0.00042840357708536642 -0.0021305989671085621 0.029021600560165811 0.021894612627332201 0.0022009898532096691 0.019968562772680557
leaf_weight=9.2784739863127452 1.927547133527695 20.228924277238548 2.1965991323813787 21.166556857991964 8.3376426650211126 8.9164184827823174 1.6969719016924498 19.959881253074855 38.320129537023611 62.905548832379282 7.0851827971637231 17.268869732506573 22.130498122423887 7.8628530707210293
leaf_count=782 55 1368 79 707 430 386 55 1240 2012 1351 113 247 358 87
internal_value=2.71622e-10 -0.00473904 0.000372865 0.00267447 0.00394073 0.000128804 0.00503172 -0.0156965 -0.00376666 0.00572009 0.0198733 0.00442323 0.0111611 0.000568793
internal_weight=249.282 128.405 88.2158 78.9373 76.7407 55.5742 120.877 40.1888 46.6578 118.95 8.78215 110.168 39.3994 70.7684
internal_count=9270 7004 4396 3614 3535 2828 2266 2608 2442 2211 168 2043 605 1438
is_linear=0
shrinkage=0.05


Tree=38
num_leaves=15
num_cat=0
split_feature=5 9 2 7 7 3 7 5 8 6 2 7 5 2
split_gain=2.37601 1.22437 1.78654 0.934938 2.24651 1.70681 1.14181 1.37058 1.0544 1.07378 3.06379 2.68307 3.46893 1.8094
threshold=0.009742464995408812 0.79213483146067432 -0.054996789601403022 0.036010819136743651 0.046842032870664581 0.068798873093605009 0.052196525168809134 0.019066004270153411 0.99438202247191021 0.027166307926354629 -0.0068726358941044166 0.097465840674084273 0.034148860923551731 0.052332089796605759
decision_type=2 2 2 2 2 2 2 2 2 2 2 2 2 2
left_child=-1 2 -2 5 -5 -3 7 -6 9 11 -11 12 13 -8
right_child=1 3 -4 4 6 -7 8 -9 -10 10 -12 -13 -14 -15
leaf_value=-0.012816056750634065 0.010239614525113171 -0.0034281997377026809 -0.0049732179769173364 -0.018506106396980346 -0.0066724102708104124 0.029796084636379689 0.016002654393224722 0.035039872759647976 -0.018249407540904827 -0.0097168767843322061 0.026161645039308332 -0.023911657074528643 -0.047361322844831327 -0.013534842652483926
leaf_weight=30.591629882343113 23.548612631857395 6.0509785683825603 89.529521905817091 9.1784895844757539 2.3986427346244437 8.8547503948211652 28.538653443101794 5.6477117883041501 3.9090482285246244 8.4543532580137271 16.156854099594057 7.7428774982690802 1.7627799129113544 5.4875828921794882
leaf_count=2220 740 120 4559 187 48 108 520 61 56 141 175 188 37 110
internal_value=-1.17741e-10 0.00185503 -0.00174314 0.00573987 0.00370276 0.0169411 0.00644449 0.0232423 0.00427613 0.00581356 0.0139386 0.00101013 0.00690531 0.0109886
internal_weight=247.852 217.261 113.078 104.183 89.277 14.9057 80.0985 8.04635 72.0521 68.1431 24.6112 43.5319 35.789 34.0262
internal_count=9270 7050 5299 1751 1523 228 1336 109 1227 1171 316 855 667 630
is_linear=0
shrinkage=0.05


Tree=39
num_leaves=15
num_cat=0
split_feature=5 7 2 7 7 4 7 5 5 1 2 6 10 5
split_gain=2.11652 1.21084 1.20801 1.24119 2.37843 2.4074 1.81553 1.52631 1.47706 1.46667 1.2585 1.39598 1.52242 1.12102
threshold=0.010999566093273546 0.23411600798910373 0.041688694334543371 0.074556352515658966 0.052831062812136183 0.12475639281699015 0.12671966757926875 0.018196846844858585 0.019277048901360214 -0.011643441543469578 0.055213928772744898 0.027762022690278471 1.0000000180025095e-35 0.015628263474048533
decision_type=2 2 2 2 2 2 2 2 2 2 2 2 2 2
left_child=-1 2 -2 4 10 -6 8 -8 -5 -10 -4 12 -12 -14
right_child=1 -3 3 6 5 -7 7 -9 9 -11 11 -13 13 -15
leaf_value=-0.010166284736870486 -0.00056581032922311907 0.025848905699341312 -0.011328492536436113 0.00083555801120780782 -0.0009724980806381791 -0.054333842783659395 0.02588295611835903 -0.024056633074063607 -0.023481229362008388 0.036857188901221673 0.045117008007162694 -0.017016289712053056 -0.025497467552457215 0.02141957673119067
leaf_weight=41.448985570576042 157.94406023807824 4.2322935964912167 3.115282452665272 4.9521698793396416 6.2753193117678148 2.2161668511107564 1.3419195334427048 3.625606163404882 0.43178099952638582 11.648005636408918 4.7539758160710317 1.2592755109071729 1.232423694804311 1.9680465925484893
leaf_count=2923 5457 44 64 163 148 43 44 82 13 171 47 16 28 27
internal_value=-8.19184e-11 0.00209493 0.00146854 0.00881405 -2.89199e-05 -0.0191563 0.0168205 -0.0084894 0.0242638 0.0330701 0.0135937 0.0223044 0.0297344 0.00158391
internal_weight=246.445 204.996 200.764 42.82 20.8205 8.49149 21.9995 4.96753 17.032 12.0798 12.329 9.21372 7.95445 3.20047
internal_count=9270 6347 6303 846 373 191 473 126 347 184 182 118 102 55
is_linear=0
shrinkage=0.05


end of trees

feature_importances:
drawdown_20d=104
volatility_5d=94
rank_pct_20d=73
momentum_20d=61
volatility_20d=55
momentum_10d=48
momentum_5d=37
momentum_3d=35
rank_momentum_5d=27
rank_pct_5d=14
momentum_1d=12

parameters:
[boosting: gbdt]
[objective: lambdarank]
[metric: ndcg]
[tree_learner: serial]
[device_type: cpu]
[data_sample_strategy: bagging]
[data: ]
[valid: ]
[num_iterations: 40]
[learning_rate: 0.05]
[num_leaves: 15]
[num_threads: 1]
[seed: 20260720]
[deterministic: 1]
[force_col_wise: 1]
[force_row_wise: 0]
[histogram_pool_size: -1]
[max_depth: -1]
[min_data_in_leaf: 2]
[min_sum_hessian_in_leaf: 0.001]
[bagging_fraction: 1]
[pos_bagging_fraction: 1]
[neg_bagging_fraction: 1]
[bagging_freq: 0]
[bagging_seed: 843]
[bagging_by_query: 0]
[feature_fraction: 1]
[feature_fraction_bynode: 1]
[feature_fraction_seed: 57]
[extra_trees: 0]
[extra_seed: 8811]
[early_stopping_round: 0]
[early_stopping_min_delta: 0]
[first_metric_only: 0]
[max_delta_step: 0]
[lambda_l1: 0]
[lambda_l2: 1]
[linear_lambda: 0]
[min_gain_to_split: 0]
[drop_rate: 0.1]
[max_drop: 50]
[skip_drop: 0.5]
[xgboost_dart_mode: 0]
[uniform_drop: 0]
[drop_seed: 21666]
[top_rate: 0.2]
[other_rate: 0.1]
[min_data_per_group: 100]
[max_cat_threshold: 32]
[cat_l2: 10]
[cat_smooth: 10]
[max_cat_to_onehot: 4]
[top_k: 20]
[monotone_constraints: ]
[monotone_constraints_method: basic]
[monotone_penalty: 0]
[feature_contri: ]
[forcedsplits_filename: ]
[refit_decay_rate: 0.9]
[cegb_tradeoff: 1]
[cegb_penalty_split: 0]
[cegb_penalty_feature_lazy: ]
[cegb_penalty_feature_coupled: ]
[path_smooth: 0]
[interaction_constraints: ]
[verbosity: -1]
[saved_feature_importance_type: 0]
[use_quantized_grad: 0]
[num_grad_quant_bins: 4]
[quant_train_renew_leaf: 0]
[stochastic_rounding: 1]
[linear_tree: 0]
[max_bin: 255]
[max_bin_by_feature: ]
[min_data_in_bin: 3]
[bin_construct_sample_cnt: 200000]
[data_random_seed: 4432]
[is_enable_sparse: 1]
[enable_bundle: 1]
[use_missing: 1]
[zero_as_missing: 0]
[feature_pre_filter: 1]
[pre_partition: 0]
[two_round: 0]
[header: 0]
[label_column: ]
[weight_column: ]
[group_column: ]
[ignore_column: ]
[categorical_feature: ]
[forcedbins_filename: ]
[precise_float_parser: 0]
[parser_config_file: ]
[objective_seed: 7759]
[num_class: 1]
[is_unbalance: 0]
[scale_pos_weight: 1]
[sigmoid: 1]
[boost_from_average: 1]
[reg_sqrt: 0]
[alpha: 0.9]
[fair_c: 1]
[poisson_max_delta_step: 0.7]
[tweedie_variance_power: 1.5]
[lambdarank_truncation_level: 30]
[lambdarank_norm: 1]
[label_gain: 0,1,3,7,15]
[lambdarank_position_bias_regularization: 0]
[eval_at: 1,2,3,4,5]
[multi_error_top_k: 1]
[auc_mu_weights: ]
[num_machines: 1]
[local_listen_port: 12400]
[time_out: 120]
[machine_list_filename: ]
[machines: ]
[gpu_platform_id: -1]
[gpu_device_id: -1]
[gpu_use_dp: 0]
[num_gpu: 1]

end of parameters

pandas_categorical:null
