tree
version=v4
num_class=1
num_tree_per_iteration=1
label_index=0
max_feature_idx=4
objective=lambdarank
feature_names=market_return_1d market_return_5d market_breadth_1d market_dispersion_1d market_volatility_20d
feature_infos=[-0.049585464134470299:0.036012358476607553] [-0.10116671736988472:0.054726216916397064] [0.022222222222222223:0.98888888888888893] [0.0079151013248990945:0.029086357152055337] [0.0039238631080082331:0.060188323905258592]
tree_sizes=1756 1755 1741 1757 1742 1759 1741 1758 1736 1751 1746 1751 1739 1737 1742 1740 1759 1757 1762 1761 1767 1764 1758 1763 1741 1775 1770 1789 1738 1737 1730 1736 1733 1735 1742 1771 1739 1772 1757 1742

Tree=0
num_leaves=15
num_cat=0
split_feature=4 4 1 4 1 4 4 4 4 0 3 2 0 0
split_gain=9.21759 4.06005 3.35138 2.26365 1.78687 1.34673 1.7962 1.34186 1.21384 1.13738 1.04501 1.00526 1.10579 0.963597
threshold=0.025253299408496736 0.016602538940135355 -0.035833375522273836 0.0083628833437192508 0.019329746175432604 0.019815698661440152 0.021616686032077888 0.01795951711192775 0.0099536659198735007 -0.015037744648040202 0.01111560189795251 0.17222222222222225 -0.025805871524601877 0.010620710189756065
decision_type=2 2 2 2 2 2 2 2 2 2 2 2 2 2
left_child=1 3 9 -1 -4 7 -7 -3 -5 -2 -6 12 -9 -10
right_child=2 5 4 8 10 6 -8 11 13 -11 -12 -13 -14 -15
leaf_value=0.018797650307913083 0.015866970656404199 -0.00095279881765612936 0.042801968465968995 -0.030955587235549361 0.026586236094905204 -0.012140494935896348 0.0060488961847909826 0.026606238252359839 -0.0088497923060930472 -0.024822515503044221 -0.0069743456370286692 0.024572724021676588 -0.014784179166727682 -0.024515535216973673
leaf_weight=4.6941903606057158 2.0227164011448622 14.983718801755456 15.810735176783057 8.959801529068498 4.080540318042039 23.241961873602122 29.898075710050762 1.4596658661030231 58.984961402602494 3.2154726041480926 3.6556560299359262 15.300157306715844 3.6932623074390021 11.534305516630409
leaf_count=185 75 686 538 481 125 900 1260 52 3274 129 141 596 180 648
internal_value=3.06241e-10 -0.00440551 0.0256993 -0.0122035 0.0334924 0.00305834 -0.00198393 0.0104665 -0.0142453 -0.00908553 0.0117445 0.0184867 -0.000640927 -0.0117191
internal_weight=201.535 172.75 28.7851 84.1733 23.5469 88.5768 53.14 35.4368 79.4791 5.23819 7.7362 20.4531 5.15293 70.5193
internal_count=9270 8262 1008 4588 804 3674 2160 1514 4403 204 266 828 232 3922
is_linear=0
shrinkage=0.05


Tree=1
num_leaves=15
num_cat=0
split_feature=4 4 4 4 1 1 2 1 1 4 3 1 2 3
split_gain=39.4532 12.1971 8.18091 5.54971 4.3429 6.49718 3.70647 4.00221 4.16242 4.29255 3.32543 3.22803 2.81215 2.73735
threshold=0.01795951711192775 0.025442886829762756 0.0070573456000657892 0.019714428273593498 -0.035833375522273836 -0.025300996977612168 0.16111111111111112 -0.043531449693776002 0.019329746175432604 0.016602538940135355 0.014552244500331525 1.0000000180025095e-35 0.83888888888888902 0.014376143588034742
decision_type=2 2 2 2 2 2 2 2 2 2 2 2 2 2
left_child=2 3 -1 -2 -3 -6 -4 -8 9 10 13 12 -5 -9
right_child=1 4 6 11 5 -7 7 8 -10 -11 -12 -13 -14 -15
leaf_value=0.030943257508477373 0.012082190646262325 -0.0090406148285563509 -0.0085200020237994108 0.0081477836949113459 0.052430314957315594 0.019623599209927019 0.016456724110571457 -0.033760638220922207 -0.011341769380928263 -0.009276169808794919 -0.056020652320511094 -0.016201005708946413 -0.020746593919341989 0.01239557270996061
leaf_weight=6.7844653353095046 72.019824750721455 9.8563274042680842 39.443017879500985 40.547436068765819 17.371605470776558 104.77788057830185 4.582446106709539 44.272059104405344 28.462802599184215 15.28993370849639 21.403839507140219 42.874346605502069 9.5713719520717842 2.9638832639902821
leaf_count=74 792 198 1164 795 87 687 130 1621 934 376 878 1137 300 97
internal_value=1.4927e-10 0.0108431 -0.0196797 0.00175065 0.0221105 0.0246771 -0.022058 -0.026512 -0.0283936 -0.0339747 -0.0392643 -0.00629417 0.00233181 -0.0306676
internal_weight=460.221 297.019 163.202 165.013 132.006 122.149 156.418 116.975 112.393 83.9297 68.6398 92.9932 50.1188 47.2359
internal_count=9270 3996 5274 3024 972 774 5200 4036 3906 2972 2596 2232 1095 1718
is_linear=0
shrinkage=0.05


Tree=2
num_leaves=15
num_cat=0
split_feature=4 4 4 4 4 3 1 4 4 1 1 3 1 1
split_gain=24.1761 8.90863 6.50924 5.54253 5.13122 4.98388 5.34461 4.75734 4.40238 3.79806 3.2044 3.12403 4.53905 3.01191
threshold=0.018231543840972076 0.027166307926354629 0.0070573456000657892 0.02643804622114743 0.025614282555239589 0.01075488178717931 0.0065293223044177139 0.035481725254819206 0.013829987631713088 -0.043531449693776002 0.026276036172351084 0.0140521679336652 0.0065293223044177139 -0.0061639611974684027
decision_type=2 2 2 2 2 2 2 2 2 2 2 2 2 2
left_child=2 3 -1 4 -2 -6 -7 -3 9 -4 -10 12 -5 -9
right_child=1 7 8 11 5 6 -8 13 10 -11 -12 -13 -14 -15
leaf_value=0.019931389628926613 0.0012116438205414162 0.026633892982960556 0.016387436511509267 -0.064343472770876139 0.052592823670976854 0.025429870689512316 -0.038408249851242859 -0.030238202724913451 -0.014308945782844716 -0.031295952348058508 0.015354812139142207 0.011224257461426336 0.0055942860389462876 0.010927872063735154
leaf_weight=10.979918714612721 146.85939855547622 76.235785458702594 3.876162593252956 6.1315024094656092 9.2541001876816171 9.4064943809062225 3.8023480344563714 5.1924893548712161 68.000400637276471 61.23905274271965 9.651519129984079 3.2576033733785144 3.2165526114404202 14.733613133430479
leaf_count=74 2916 504 127 53 60 77 43 60 2308 2648 261 31 24 84
internal_value=3.10003e-10 0.00878899 -0.0158511 0.00224756 0.00468894 0.0264024 0.00564339 0.0210142 -0.0187226 -0.0282525 -0.0104736 -0.02848 -0.0420637 -0.000731853
internal_weight=431.837 278.09 153.747 181.928 169.322 22.4629 13.2088 96.1619 142.767 65.1152 77.6519 12.6057 9.34806 19.9261
internal_count=9270 3852 5418 3204 3096 180 120 648 5344 2775 2569 108 77 144
is_linear=0
shrinkage=0.05


Tree=3
num_leaves=15
num_cat=0
split_feature=4 4 4 1 1 1 0 0 3 1 0 3 0 3
split_gain=25.0974 8.23736 8.19274 5.78379 4.35144 4.23945 3.95715 3.5619 3.0725 2.91446 2.67104 2.11802 1.93623 3.18629
threshold=0.025614282555239589 0.016372589690195973 0.0070573456000657892 -0.043531449693776002 -0.035833375522273836 0.019329746175432604 -0.011258262280815086 -0.012350848500915971 0.014524858429656617 -0.030209269088451368 -0.025805871524601877 0.023980595796910083 -0.0066540654039541009 0.016875160575085896
decision_type=2 2 2 2 2 2 2 2 2 2 2 2 2 2
left_child=1 2 -1 10 8 6 7 -5 -2 -6 -4 -11 -3 -14
right_child=4 12 3 5 9 -7 -8 -9 -10 11 -12 -13 13 -15
leaf_value=0.021384850323841312 -0.031609756463455679 0.0048475047863068077 -0.033392687888750806 -0.021671780712053487 0.051017358195564022 -0.0083892980531825572 -0.040243419452267448 0.034564605039047361 0.016855756057192899 0.019857162119104169 0.026183495403649677 -0.023498118299561263 -0.0025769223543965374 -0.029216336479958173
leaf_weight=10.508845154196022 6.3243087874725443 69.910648477263749 1.508442443795502 12.156298364512621 6.9995970092713824 22.895750081166625 51.355823173187673 2.6317406250163904 5.0502640856429935 107.35866915993392 7.3564806850627047 2.0894690193235865 92.553038760088384 11.816689253784714
leaf_count=74 103 1388 61 572 41 916 2555 105 84 689 194 19 2187 282
internal_value=3.78002e-11 -0.00831065 -0.0190642 -0.0235783 0.0183018 -0.0273995 -0.0337569 -0.0101083 -0.0104681 0.0211772 0.0136887 0.0188242 -0.00155064 -0.00584167
internal_weight=410.516 282.694 108.413 97.9045 127.822 89.0396 66.1439 14.788 11.3746 116.448 8.86492 109.448 174.28 104.37
internal_count=9270 8334 4477 4403 936 4148 3232 677 187 749 255 708 3857 2469
is_linear=0
shrinkage=0.05


Tree=4
num_leaves=15
num_cat=0
split_feature=4 4 4 4 1 2 1 3 3 0 3 1 4 0
split_gain=21.1218 6.38581 5.91095 3.29731 4.3413 3.0778 3.69473 2.67721 2.48435 2.17728 1.51163 1.6029 1.76764 1.8314
threshold=0.025253299408496736 0.01616047864808939 0.0070573456000657892 0.012332264783393521 -0.043531449693776002 0.13888888888888892 0.019329746175432604 0.012399514937492122 0.018911739148065328 -0.025805871524601877 0.027667779864059008 0.019329746175432604 0.0263386941751023 0.015645544143102628
decision_type=2 2 2 2 2 2 2 2 2 2 2 2 2 2
left_child=1 2 8 -4 7 -6 -7 -5 -1 -9 11 -2 -13 -14
right_child=10 -3 3 4 5 6 -8 9 -10 -11 -12 12 13 -15
leaf_value=0.026623878371985446 0.020184543077117617 -0.0018942711591311838 -0.033173212772577773 -0.026068558858121028 0.0045625153403064493 -0.036886652567389808 -0.0030215005173327408 -0.029380371547453737 -0.033207775395593872 0.038490025709769296 -0.030105588768718768 0.027901243614022006 -0.0049706361490492327 0.027796275029970369
leaf_weight=8.9782680757343751 96.527452126145363 165.08096201857552 36.985105990897864 2.0435466831549984 9.9186483048833889 24.999632476363331 11.944649575278161 0.64234701730310906 1.2119927182793606 6.6710566449910402 0.8555404357612123 6.9654568992555133 22.470785757526759 4.212529879063367
leaf_count=68 732 3896 1739 43 394 1510 467 37 6 102 10 60 181 25
internal_value=1.55757e-10 -0.00802726 -0.0177073 -0.0216629 -0.0136433 -0.0198136 -0.0263057 0.0161887 0.0171761 0.0297118 0.0163836 0.0169163 0.00722884 0.00101954
internal_weight=399.508 268.476 103.395 93.205 56.2199 46.8629 36.9443 9.35695 10.1903 7.3134 131.032 130.176 33.6488 26.6833
internal_count=9270 8262 4366 4292 2553 2371 1977 182 74 139 1008 998 266 206
is_linear=0
shrinkage=0.05


Tree=5
num_leaves=15
num_cat=0
split_feature=4 4 4 4 1 1 0 4 1 4 1 2 3 2
split_gain=15.8722 5.03901 4.88682 5.05062 3.06036 3.274 3.83912 2.18821 1.6657 2.35343 3.91742 1.50276 1.45968 1.71141
threshold=0.018231543840972076 0.025442886829762756 0.0070573456000657892 0.012332264783393521 0.019329746175432604 -0.01734831545187519 0.0091616356335321846 0.019815698661440152 -0.026726228621261543 0.013129467016617479 -0.043531449693776002 0.88333333333333341 0.023980595796910083 0.17222222222222225
decision_type=2 2 2 2 2 2 2 2 2 2 2 2 2 2
left_child=2 7 -1 -4 5 6 8 12 9 10 -5 -9 13 -2
right_child=1 -3 3 4 -6 -7 -8 11 -10 -11 -12 -13 -14 -15
leaf_value=0.018045374772003443 -0.012206559374728745 0.013963231528974378 -0.034922117826130368 0.042463185354322044 0.0045390018715247941 -0.028392450696110339 -0.047636547658147371 -0.0018877001261118492 0.018927628385278561 -0.014448874255205892 -0.029800482443670513 -0.020212446317853634 0.042310017743340436 0.010796618953790119
leaf_weight=10.033424627035854 9.3364603705704194 131.48957154620439 28.895103637129068 4.3189457869157195 23.178344964049757 30.009003384504467 3.9217433868907383 68.857410948723555 7.5344919520430258 20.572099819779396 2.0354641452431705 12.421867454424499 2.007190926000475 37.613667332567275
leaf_count=74 183 972 1739 35 690 1544 194 1687 281 743 118 509 12 489
internal_value=-1.51161e-10 0.00709782 -0.014181 -0.0169916 -0.0110174 -0.016279 -0.00632786 0.000112774 -0.000416057 -0.00631269 0.0184109 -0.00489988 0.00836632 0.00606306
internal_weight=392.225 261.726 130.499 120.465 91.5701 68.3917 38.3827 130.237 34.461 26.9265 6.35441 81.2793 48.9573 46.9501
internal_count=9270 3852 5418 5344 3605 2915 1371 2880 1177 896 153 2196 684 672
is_linear=0
shrinkage=0.05


Tree=6
num_leaves=15
num_cat=0
split_feature=4 4 4 4 1 1 1 0 0 1 1 1 4 0
split_gain=12.0442 3.63624 4.54918 3.47014 2.95036 3.01758 2.12223 4.06537 2.1188 2.45086 2.16456 2.69252 2.2496 2.06295
threshold=0.01795951711192775 0.0070573456000657892 0.012332264783393521 0.027425769178128345 0.026276036172351084 -0.043531449693776002 -0.042178112301349553 -0.025805871524601877 -0.01704370523268384 0.022775675404863357 0.002360929140729722 -0.025300996977612168 0.033840345038530291 0.015645544143102628
decision_type=2 2 2 2 2 2 2 2 2 2 2 2 2 2
left_child=1 -1 -3 -2 5 -4 7 -5 -8 10 11 -10 -13 -11
right_child=3 2 4 6 -6 -7 8 -9 9 13 -12 12 -14 -15
leaf_value=0.013670558635539027 0.0015847693410035982 -0.033841925712741958 0.0087403248779001474 0.028776270895954244 0.010666801537059045 -0.018862810021260574 -0.016764927499222284 -0.044142044462646968 0.032386726279491726 -0.01111607393078367 0.031796822729638789 0.010734894718146206 -0.025050288428699548 0.028008183750327195
leaf_weight=10.671008579432963 169.35004146955907 26.007565106032416 11.342797740362583 2.4642612598836422 13.677368365228174 56.497791076544672 4.1086986102163783 3.4252938982099286 12.162971922662104 11.865613371133803 27.697389554232359 26.386044587939985 4.2588180135935536 3.5656332150101653
leaf_count=74 3384 1739 256 10 337 2868 38 61 79 92 144 127 43 18
internal_value=6.33897e-10 -0.0132098 -0.0159789 0.0059131 -0.0099388 -0.0141877 0.0134586 -0.0138838 0.0153798 0.0170918 0.0209921 0.013435 0.00512726 -0.000921416
internal_weight=383.481 118.197 107.526 265.285 81.518 67.8406 95.9347 5.88956 90.0452 85.9365 70.5052 42.8078 30.6449 15.4312
internal_count=9270 5274 5200 3996 3461 3124 612 71 541 503 393 249 170 110
is_linear=0
shrinkage=0.05


Tree=7
num_leaves=15
num_cat=0
split_feature=4 4 4 4 0 1 1 0 1 1 0 1 3 4
split_gain=10.2767 3.54175 4.05181 3.4277 3.09168 2.74679 3.47844 2.93295 2.02724 1.89942 5.20165 2.401 2.63599 4.73146
threshold=0.01795951711192775 0.0070573456000657892 0.012332264783393521 0.025614282555239589 -0.02479341295242083 0.019329746175432604 -0.01734831545187519 0.0091616356335321846 -0.0037726168101639449 -0.035833375522273836 -0.015037744648040202 -0.025300996977612168 0.01111560189795251 0.032888011009672126
decision_type=2 2 2 2 2 2 2 2 2 2 2 2 2 2
left_child=1 4 -3 8 -1 6 7 -4 -2 10 -5 -11 -13 -14
right_child=3 2 5 9 -6 -7 -8 -9 -10 11 -12 12 13 -15
leaf_value=-0.047098366902871946 0.0052911358765990908 -0.032920199755772463 0.00032488453421254286 0.019926310430182538 0.021923283963433998 0.0054740368368413374 -0.029726473165245945 -0.045331018715856909 -0.0068771833358701661 0.033615067334550323 -0.038963261180060951 0.023170761887760984 -0.0027135035005210308 0.026243160700336773
leaf_weight=0.9313432089984407 78.112319285050035 24.158199683530256 31.183184856083244 7.6695557730272412 10.586349524557589 21.370367170311511 23.339455078821629 2.9629191928543142 59.330253016203642 12.450149893760679 5.6379944356158358 28.963653028011322 50.589196759276092 18.479185279458761
leaf_count=4 1451 1739 1136 68 70 665 1475 185 1609 81 119 219 321 128
internal_value=-1.92153e-10 -0.0124245 -0.0153678 0.00547386 0.0130254 -0.00964559 -0.0152638 -0.00481383 2.66668e-05 0.0114731 -0.00600282 0.0136131 0.010759 0.00529779
internal_weight=375.764 114.532 103.014 261.232 11.5177 78.8559 57.4856 34.1461 137.443 123.79 13.3076 110.482 98.032 69.0684
internal_count=9270 5274 5200 3996 74 3461 2796 1321 3060 936 187 749 668 449
is_linear=0
shrinkage=0.05


Tree=8
num_leaves=15
num_cat=0
split_feature=4 4 4 3 1 4 4 3 4 1 1 4 3 4
split_gain=10.0617 2.84311 6.06268 1.59672 2.35313 2.2751 2.20191 3.91697 3.28426 2.19734 1.98211 1.90659 1.87648 1.82143
threshold=0.025614282555239589 0.0070573456000657892 0.012332264783393521 0.011200069106291776 0.020590065051952787 0.027762022690278471 0.035481725254819206 0.015054629445111621 0.032888011009672126 0.002360929140729722 -0.025300996977612168 0.04721680414887431 0.012974737472042147 0.037090819448020972
decision_type=2 2 2 2 2 2 2 2 2 2 2 2 2 2
left_child=1 -1 -3 -2 5 -5 7 -6 -9 10 12 -8 -7 -14
right_child=3 2 -4 4 6 9 11 8 -10 -11 -12 -13 13 -15
leaf_value=0.016965023713070362 0.020887460686975317 -0.030966096823041918 -0.0041639989677415582 -0.0063550863190080867 -0.038900600552324138 -0.022076688676597987 -0.054867028248558602 -0.0039347869465103623 0.061398301419286608 0.029897494011989191 -0.0022789748658942704 0.019054471266829912 0.031684045520234572 -0.026133940680070574
leaf_weight=12.378474872559307 35.781471053371206 22.406574070220813 219.74865288333967 13.173486623913048 2.8822250328958017 1.4747035996988369 2.7439091801643367 4.5254728216677904 2.2092981487512589 18.576065007597208 19.146164093166593 0.58849454671144474 13.233946130610999 0.76050021778792221
leaf_count=74 316 1739 6521 166 24 22 16 52 5 89 129 4 97 16
internal_value=-2.1969e-10 -0.00554542 -0.00676114 0.0122058 0.00807789 0.0118702 -0.0108152 0.00228718 0.0226644 0.0164179 0.00854785 -0.0404277 0.0212729 0.0270087
internal_weight=369.629 254.534 242.155 115.096 79.3143 66.3649 12.9494 9.617 6.73477 53.1914 34.6153 3.3324 15.4691 13.9944
internal_count=9270 8334 8260 936 620 519 101 81 57 353 264 20 135 113
is_linear=0
shrinkage=0.05


Tree=9
num_leaves=15
num_cat=0
split_feature=4 4 4 4 1 1 4 2 4 1 4 1 0 0
split_gain=9.8028 3.34029 5.77734 1.7563 1.79062 3.03638 2.29746 1.73145 1.42615 1.89855 2.43193 1.61741 1.27827 1.24653
threshold=0.025614282555239589 0.0070573456000657892 0.012332264783393521 0.017817768502999289 0.019329746175432604 -0.04312310034346753 0.01363019578450461 0.16111111111111112 0.019815698661440152 0.017210550320282552 0.021616686032077888 -0.035986502705812266 -0.012350848500915971 -0.025805871524601877
decision_type=2 2 2 2 2 2 2 2 2 2 2 2 2 2
left_child=1 -1 -3 4 5 6 13 12 -5 10 -10 -12 -7 -4
right_child=-2 2 3 8 -6 7 -8 -9 9 -11 11 -13 -14 -15
leaf_value=0.019130255009881521 0.012312568890187756 -0.031160478051313046 -0.02351312710239914 0.0050299814820184341 0.0014847320459848981 -0.016824185670489579 -0.013919905177939991 -0.027564775198628318 -0.014344929296575153 -0.018904101078371 -0.011828251721706082 0.01024583453119293 0.013893560825213487 0.032584717420801185
leaf_weight=12.244462121278046 111.43885716190562 20.988968963501975 0.42761655151844014 58.094972264952958 22.825891197659075 7.5443377536721528 6.3635343853384256 30.344059747643769 22.195572747848928 18.230121603235602 9.7604007897898537 36.428942274302244 4.6761018517427129 5.7450857846997661
leaf_count=74 936 1739 16 900 654 379 235 1884 651 707 188 686 173 48
internal_value=2.16775e-10 -0.00538954 -0.00669505 -0.00425956 -0.01026 -0.0150651 0.00618483 -0.021322 -0.000980073 -0.00502257 -0.0011029 0.00542949 -0.00490833 0.0259622
internal_weight=367.309 255.87 243.626 222.637 77.9266 55.1007 12.5362 42.5645 144.71 86.615 68.3849 46.1893 12.2204 6.1727
internal_count=9270 8334 8260 6521 3389 2735 299 2436 3132 2232 1525 874 552 64
is_linear=0
shrinkage=0.05


Tree=10
num_leaves=15
num_cat=0
split_feature=4 4 4 1 0 4 1 1 4 1 4 4 1 2
split_gain=7.81886 2.46635 5.18118 1.39162 3.10406 2.04776 1.90754 1.65925 1.41895 1.35429 1.7779 1.27225 2.67269 2.33571
threshold=0.025614282555239589 0.0070573456000657892 0.012720068484889937 -0.035833375522273836 -0.015037744648040202 0.029676518121829181 -0.045353003315025696 -0.031001064243380314 0.025951171680061395 -0.03558967540609654 0.013829987631713088 0.019214975279665546 -0.04312310034346753 0.2166666666666667
decision_type=2 2 2 2 2 2 2 2 2 2 2 2 2 2
left_child=1 -1 -3 4 5 8 -7 -5 -2 11 -11 13 -13 -4
right_child=3 2 9 7 -6 6 -8 -9 -10 10 -12 12 -14 -15
leaf_value=0.016036093879638232 -0.017662574517396484 -0.027146125630296974 -0.0057432481145645205 0.044430666441839163 -0.035226086251798204 0.019267383757282579 -0.043658265879682127 0.011287842606642418 0.039976586697882018 -0.023805042507339835 -0.0041255482555525606 -0.023133579108193525 0.01063556001130277 0.024484721612216893
leaf_weight=12.286062110215424 0.72071606665849497 25.14991209260188 10.690837364178153 3.0837088711559764 4.2133297477848819 1.4523347802460196 1.5816150698810814 98.210950568318367 4.4158682264387608 11.502230910584329 152.13062729174271 9.664991173893215 12.095907459035514 13.802108501084147
leaf_count=74 10 1961 375 26 119 12 18 723 28 706 4516 260 180 262
internal_value=4.18458e-11 -0.00498678 -0.00614899 0.0107983 -0.00470629 0.013157 -0.016227 0.0127213 0.0303289 -0.0035162 -0.00564507 0.00397523 -0.00472025 0.0115829
internal_weight=361.001 247.323 235.037 113.679 12.3839 8.17053 3.03395 101.295 5.13658 209.887 163.633 46.2538 21.7609 24.4929
internal_count=9270 8334 8260 936 187 68 30 749 38 6299 5222 1077 440 637
is_linear=0
shrinkage=0.05


Tree=11
num_leaves=15
num_cat=0
split_feature=4 4 4 1 4 3 3 0 1 0 0 1 1 1
split_gain=7.06983 1.85357 2.92946 2.77451 1.89125 1.61522 1.45186 1.38266 1.31512 1.28624 1.28373 1.66866 1.2077 1.12669
threshold=0.025442886829762756 0.01616047864808939 0.0070573456000657892 -0.04312310034346753 0.013829987631713088 0.015498743039595479 0.011200069106291776 -0.025805871524601877 0.0094319152920760898 0.011244172165533478 -0.0088988860104164558 0.028190889929218709 0.019329746175432604 0.04180037385220179
decision_type=2 2 2 2 2 2 2 2 2 2 2 2 2 2
left_child=1 2 5 7 12 6 -1 -4 -8 -7 -6 -12 -5 -3
right_child=-2 13 3 4 10 9 8 -9 -10 -11 11 -13 -14 -15
leaf_value=-0.012294269251347849 0.010207005271273547 -0.00068213135041820996 -0.030644439579224837 -0.031781581122093665 0.006655190968209497 -0.041367474696353566 0.038805291547212545 0.014436127257385453 -0.0031999217758259266 0.018376285666076617 -0.023121896618820886 0.0074991941640648683 -0.0078716236422102081 -0.022907148497744594
leaf_weight=2.3244471140205851 114.08719218336046 149.8003074019216 1.0500550572760392 25.245134884957224 8.7293107481673378 1.4408360943198197 5.9718603715300542 10.083071696106343 2.3468294739723206 0.70776882395148266 16.033353834878657 5.4710173793137065 7.6163381896913043 4.9316342319361857
leaf_count=20 972 3715 58 2043 337 7 25 214 18 4 925 119 596 217
internal_value=-8.2256e-11 -0.00483908 -0.0106334 -0.0144271 -0.0184492 0.0108308 0.0188063 0.00800897 0.0278833 -0.0221015 -0.00898279 -0.0153444 -0.0266361 -0.00153303
internal_weight=355.839 241.752 87.02 74.2283 63.0952 12.7917 10.6431 11.1331 8.31869 2.1486 30.2337 21.5044 32.8615 154.732
internal_count=9270 8298 4366 4292 4020 74 63 272 43 11 1381 1044 2639 3932
is_linear=0
shrinkage=0.05


Tree=12
num_leaves=15
num_cat=0
split_feature=4 4 4 3 3 3 1 4 4 4 4 1 4 3
split_gain=5.61528 3.22137 3.85285 2.18423 1.34728 2.0446 2.05823 1.87071 2.10268 1.73156 1.63235 1.57291 1.5539 1.33589
threshold=0.025442886829762756 0.0070573456000657892 0.012720068484889937 0.027667779864059008 0.011200069106291776 0.011841216472883703 0.02387710395870991 0.02643804622114743 0.029676518121829181 0.031535420825838587 0.027425769178128345 0.0065293223044177139 0.035481725254819206 0.027667779864059008
decision_type=2 2 2 2 2 2 2 2 2 2 2 2 2 2
left_child=1 -1 -3 4 7 -6 10 -2 -9 -8 11 -7 -11 -4
right_child=3 2 13 -5 5 6 9 8 -10 12 -12 -13 -14 -15
leaf_value=0.020027089887970296 0.030264695001899173 -0.024989072037027011 -0.0040656899105210578 -0.042104840084184844 -0.012791547396542561 0.0043646298929417484 -0.030054328824873883 -0.0055646199159419193 0.024347713410097387 0.033045429138684662 0.016195822843427053 -0.040086820823598122 -0.024807426515228125 0.027611854526519361
leaf_weight=11.786458801478146 15.475022774189709 22.472751953871921 199.60574253601953 1.0974452719092358 11.554320527240632 8.5445349933579546 4.7988337166607371 12.863515363540502 9.3814631123095733 2.1102084293961529 48.835702280513942 1.5361194219440211 0.96190816164016713 2.3973114024847737
leaf_count=74 90 1961 6205 10 89 120 39 152 86 9 332 33 12 58
internal_value=-3.57435e-10 -0.0044351 -0.00580265 0.00890563 0.00974353 0.00587791 0.00924881 0.017413 0.00755517 -0.0135467 0.0124694 -0.00541544 0.0132875 -0.00355559
internal_weight=353.421 236.262 224.476 117.159 116.062 78.3416 66.7873 37.72 22.245 7.87095 58.9164 10.0807 3.07212 202.003
internal_count=9270 8298 8224 972 962 634 545 328 238 60 485 153 21 6263
is_linear=0
shrinkage=0.05


Tree=13
num_leaves=15
num_cat=0
split_feature=4 4 4 3 1 3 0 3 3 4 1 4 4 4
split_gain=6.24326 1.56932 3.51471 1.45663 1.25238 1.01688 1.00656 0.923888 1.7331 1.31981 1.7923 1.17142 2.33547 2.13435
threshold=0.025442886829762756 0.0070573456000657892 0.012720068484889937 0.015498743039595479 0.0094319152920760898 0.011200069106291776 0.011244172165533478 0.011200069106291776 0.011841216472883703 0.027762022690278471 0.011607665470346052 0.032176407521962803 0.029676518121829181 0.039302166952345556
decision_type=2 2 2 2 2 2 2 2 2 2 2 2 2 2
left_child=1 3 -3 4 5 -1 -5 -2 11 10 -10 12 -9 -13
right_child=7 2 -4 6 -6 -7 -8 8 9 -11 -12 13 -14 -15
leaf_value=-0.0066258746166431154 0.016473665739991431 -0.024309102701895333 -0.0034179897973908367 -0.037065231077324241 -0.0055776793237850963 0.037291055154781143 0.016301852748248431 -0.014910368954692253 0.0061803590769909187 0.013064163515775055 -0.035196235507869773 -0.061101766942988793 0.038247793173596084 0.009447174106247673
leaf_weight=1.2861074358224849 34.928817316889763 21.38039310160093 206.47970672091469 1.3942367993295186 3.1885632760822773 6.0740583091974258 0.68397375568747509 6.4156038574874383 8.8402183093130571 52.28915954194963 2.5936200059950343 1.5420597847551101 1.8642861209809778 1.4517179643735287
leaf_count=13 328 1961 6263 7 25 25 4 57 136 370 49 11 9 12
internal_value=-4.71758e-10 -0.00451044 -0.00547588 0.0120348 0.0195077 0.0297424 -0.0199113 0.00981932 0.00654414 0.00974171 -0.00528122 -0.0108508 -0.000109567 -0.0330921
internal_weight=350.413 240.487 227.86 12.6269 10.5487 7.36017 2.07821 109.925 74.9967 63.723 11.4338 11.2737 8.27989 2.99378
internal_count=9270 8298 8224 74 63 38 11 972 644 555 185 89 66 23
is_linear=0
shrinkage=0.05


Tree=14
num_leaves=15
num_cat=0
split_feature=4 4 4 1 0 1 3 4 1 0 1 4 2 3
split_gain=4.3306 2.38384 3.58776 1.40569 2.3443 1.90589 1.21018 3.01809 1.78389 1.89201 1.85994 3.62796 2.10836 1.75196
threshold=0.025442886829762756 0.0070573456000657892 0.012720068484889937 -0.035833375522273836 -0.013812047815601181 -0.030227081454995006 0.011415995048462161 0.027166307926354629 0.022775675404863357 0.034097027733659198 -0.002909981490863581 0.028366774654564362 0.20000000000000004 0.015598499818314961
decision_type=2 2 2 2 2 2 2 2 2 2 2 2 2 2
left_child=1 -1 -3 4 -2 -5 -7 -8 10 -10 11 12 -9 -14
right_child=3 2 -4 5 -6 6 7 8 9 -11 -12 -13 13 -15
leaf_value=0.017998365129981521 0.0078061075573003531 -0.024379583433936005 -0.0028880735372744746 0.040528089619430732 -0.032738082204562279 0.016139525615395833 -0.024330347126565111 -0.022275226155473924 -0.032801030434931509 0.019071729545023404 0.019623414437786344 -0.014787093260396195 0.05816005546517751 -0.0037556890691893504
leaf_weight=10.963894687592981 9.5959963053464872 20.487650841008872 206.51333878049627 4.0116009414196006 4.425160131417214 32.700235629454255 7.1163497772067776 0.93621456623077293 3.9927146956324568 1.9083644635975359 28.131278621032838 13.175394190475343 3.3256295025348663 1.3955104760825632
leaf_count=74 91 1961 6263 40 107 267 126 6 36 14 165 102 11 7
internal_value=-4.89874e-10 -0.00379907 -0.00492618 0.00812646 -0.00631748 0.0102642 0.00853559 0.00419345 0.00841354 -0.015693 0.0117066 -0.000512306 0.0299597 0.042401
internal_weight=348.679 237.965 227.001 110.714 14.0212 96.6933 92.6817 59.9815 52.8651 5.90108 46.964 18.8327 5.65735 4.72114
internal_count=9270 8298 8224 972 198 774 734 467 341 50 291 126 24 18
is_linear=0
shrinkage=0.05


Tree=15
num_leaves=15
num_cat=0
split_feature=4 4 4 1 1 4 0 4 3 2 1 1 4 1
split_gain=4.91196 2.21013 3.37269 1.0858 1.74992 1.73686 1.80561 1.44977 3.70528 1.97788 1.53011 0.990907 1.5033 2.43201
threshold=0.025442886829762756 0.0070573456000657892 0.012720068484889937 -0.035833375522273836 -0.025300996977612168 0.029676518121829181 -0.026064348705057538 0.029676518121829181 0.01398900171548746 0.73888888888888904 -0.014286097955614255 0.019329746175432604 0.035481725254819206 0.017896972366020097
decision_type=2 2 2 2 2 2 2 2 2 2 2 2 2 2
left_child=1 -1 -3 5 -5 -2 -7 8 -6 -10 -9 12 -12 -14
right_child=3 2 -4 4 7 6 -8 10 9 -11 11 -13 13 -15
leaf_value=0.017100363568441187 0.0087984097630975314 -0.024198410093848655 -0.0030872967862179902 0.030100791996248405 0.0093388309519726528 0.019318485432075899 -0.040844000869929717 -0.011469340064269671 -0.045030094990006674 0.0013885035783905394 0.031853393622321619 0.0048150667051565753 -0.0047686638439012963 0.05103901655136666
leaf_weight=10.925175480544565 8.8966798111796361 19.845677713863552 210.41262149251997 9.6468317992985231 31.515955749899149 1.0404724180698393 3.5360829625278702 4.3525908216834059 4.641888424754141 3.7702427264302969 16.548950515687469 11.29026762396097 8.8419432006776315 1.4573839157819737
leaf_count=74 118 1961 6263 87 293 8 72 42 66 47 92 86 54 7
internal_value=-2.04501e-10 -0.00393586 -0.00500361 0.00894694 0.0108738 -0.00406114 -0.0261547 0.00828946 0.00137387 -0.0262885 0.0146069 0.0177999 0.0228913 0.00694639
internal_weight=346.723 241.183 230.258 105.539 92.0661 13.4732 4.57656 82.4192 39.9281 8.41213 42.4911 38.1385 26.8483 10.2993
internal_count=9270 8298 8224 972 774 198 80 687 406 113 281 239 153 61
is_linear=0
shrinkage=0.05


Tree=16
num_leaves=15
num_cat=0
split_feature=4 4 4 4 0 1 1 4 1 4 1 1 1 3
split_gain=6.22419 1.93776 3.21735 1.16193 1.77026 1.49606 3.305 1.25468 1.20345 1.18323 1.36335 0.806985 0.736763 0.686207
threshold=0.025442886829762756 0.0070573456000657892 0.012720068484889937 0.018007296224984131 0.010620710189756065 0.019329746175432604 -0.019200765530124071 0.015316211947268588 -0.025300996977612168 0.013129467016617479 -0.043531449693776002 0.027039914703761145 0.002360929140729722 0.011200069106291776
decision_type=2 2 2 2 2 2 2 2 2 2 2 2 2 2
left_child=1 12 -3 4 5 6 8 -7 9 10 -4 -5 13 -1
right_child=-2 2 3 11 -6 7 -8 -9 -10 -11 -12 -13 -14 -15
leaf_value=-0.0073666015269664882 0.010455811702721919 -0.024289951064604829 0.033416044232849988 0.00065711004809399897 -0.026014206675473064 -0.007746791136410568 -0.025942328098874375 0.015874422927518533 0.02068920882664696 -0.0089731498862103531 -0.0198668874090169 -0.01234211472815412 -0.00411980861785218 0.02856855750511865
leaf_weight=1.1784965805709342 99.907647180370986 19.350359433563426 2.834008371457458 122.3966033286415 10.945198552217333 9.0465831831097621 18.317395961843435 12.071922253817318 5.0386827606707767 20.66768663097173 0.96845356188715115 12.220587759278713 3.1579706147313118 6.6022410728037357
leaf_count=13 972 1961 16 2499 569 276 1153 223 195 773 70 489 27 34
internal_value=9.2817e-11 -0.00429246 -0.00527587 -0.00345589 -0.00819242 -0.00503168 -0.00986395 0.00586298 0.000639766 -0.00413885 0.0185343 -0.000605269 0.0154126 0.0229066
internal_weight=344.704 244.796 233.857 214.507 79.8899 68.9447 47.8262 21.1185 29.5088 24.4701 3.80246 134.617 10.9387 7.78074
internal_count=9270 8298 8224 6263 3275 2706 2207 499 1054 859 86 2988 74 47
is_linear=0
shrinkage=0.05


Tree=17
num_leaves=15
num_cat=0
split_feature=4 4 4 4 1 1 4 2 4 1 1 0 1 4
split_gain=4.7223 1.49299 2.99575 0.848558 1.52599 1.60754 1.38334 1.15317 1.17641 0.920689 0.886718 0.85838 0.833068 1.32776
threshold=0.025442886829762756 0.0070573456000657892 0.012720068484889937 0.01795951711192775 0.027736781837370026 -0.04312310034346753 0.01363019578450461 0.16111111111111112 0.01616047864808939 0.027039914703761145 0.021835482548911423 -0.01293435125306425 0.022775675404863357 0.02107577072921971
decision_type=2 2 2 2 2 2 2 2 2 2 2 2 2 2
left_child=1 -1 -3 4 5 6 -4 11 -9 12 -10 -7 -5 -14
right_child=-2 2 3 9 -6 7 -8 8 10 -11 -12 -13 13 -15
leaf_value=0.01344508088875768 0.0090439523566853332 -0.023208550593328225 0.02693215239850982 -0.00028494554891113382 0.0078117444170009223 -0.01232860780326997 -0.0066683842741104759 -0.024932717253708908 -0.013903657777044484 -0.013675292764250793 0.011473329855030053 0.011503971651243719 0.026133868022504787 -0.021076217538470172
leaf_weight=10.999666720628737 100.64005053415895 18.95068777911365 3.9373160153627378 117.08680061716586 13.360047508962451 7.0043649533763528 7.3025313215330243 23.985023675020784 10.22280492633581 11.114712059497831 4.089481313712894 6.1634801551699621 5.6308372663334003 1.1079757679253814
leaf_count=74 972 1961 42 2433 263 367 240 1550 492 490 83 202 65 36
internal_value=2.00796e-10 -0.00379916 -0.00467866 -0.00291284 -0.00709892 -0.0103486 0.00634061 -0.0140448 -0.0183369 -0.00051831 -0.00637689 -0.00114867 0.000762768 0.0166513
internal_weight=341.596 240.956 229.956 211.005 76.065 62.705 11.2398 51.4652 38.2973 134.94 14.3123 13.1678 123.826 6.73881
internal_count=9270 8298 8224 6263 3239 2976 282 2694 2125 3024 575 569 2534 101
is_linear=0
shrinkage=0.05


Tree=18
num_leaves=15
num_cat=0
split_feature=4 1 0 1 4 1 1 4 4 3 4 4 3 3
split_gain=4.24881 1.41806 2.43363 1.76611 1.53854 1.28623 1.85414 2.10564 2.01708 1.83555 1.23587 1.11318 1.5553 1.16787
threshold=0.021686267123913344 -0.035986502705812266 -0.013812047815601181 0.019329746175432604 0.023620242676318248 -0.035986502705812266 0.019329746175432604 0.0064221224706363022 0.013858472109881337 0.027667779864059008 0.015316211947268588 0.016602538940135355 0.01075488178717931 0.014423643524592173
decision_type=2 2 2 2 2 2 2 2 2 2 2 2 2 2
left_child=5 2 -2 -3 -4 -1 7 -7 -9 -10 -8 -12 -13 -14
right_child=1 3 4 -5 -6 6 10 8 9 -11 11 12 13 -15
leaf_value=0.0036450646180849668 0.0075551140735405434 0.011357964146311654 0.0069505698254504261 -0.0017252503092711237 -0.039566705275687175 0.020159293630495775 -0.009829985606698937 -0.024896116811245057 -0.0095467398425992181 0.030904777708675862 0.02259030418217646 -0.017021887698219051 0.023364482898295971 -0.0024157789388482426
leaf_weight=33.886352521833032 12.148569552227857 98.883935078978539 2.1102758841589084 34.451285834424198 5.2709329100325704 4.4049316458404055 15.503136042738332 23.199151470558718 75.703201798256487 1.9539943654090155 7.4531389242038157 6.9515995532274273 7.2223967025056508 9.0720444107428175
leaf_count=998 158 1212 54 668 140 26 816 1909 2578 35 146 206 136 188
internal_value=-3.01793e-10 0.00614924 -0.00619408 0.00798983 -0.027025 -0.00507729 -0.00703982 -0.0106763 -0.0122078 -0.00814894 0.00129575 0.00704712 0.0013375 0.0097014
internal_weight=338.215 152.865 19.5298 133.335 7.38121 185.35 151.464 105.261 100.856 77.6572 46.2023 30.6992 23.246 16.2944
internal_count=9270 2232 352 1880 194 7038 6040 4548 4522 2613 1492 676 530 324
is_linear=0
shrinkage=0.05


Tree=19
num_leaves=15
num_cat=0
split_feature=4 4 4 3 1 1 3 4 4 1 1 0 3 4
split_gain=4.9163 1.07779 2.38072 1.71351 1.12967 1.69092 1.24473 1.39215 1.12037 1.05855 1.40546 1.7327 1.29357 1.07624
threshold=0.021686267123913344 0.0070573456000657892 0.012720068484889937 0.015498743039595479 0.022775675404863357 -0.035986502705812266 0.027667779864059008 0.018366699708290152 0.020318472624127022 0.019329746175432604 -0.035833375522273836 -0.0076718381665754802 0.027667779864059008 0.025779579355048845
decision_type=2 2 2 2 2 2 2 2 2 2 2 2 2 2
left_child=1 3 -3 -1 5 8 -7 -8 -4 10 11 -2 -12 -11
right_child=9 2 4 -5 -6 6 7 -9 -10 13 12 -13 -14 -15
leaf_value=0.017454777916363275 0.005568037998003472 -0.023080627347635295 0.0067428668851975491 -0.02731065005918909 0.0042019492183124089 -0.010919355124881526 -0.018101900164457306 0.040838227006823768 -0.020713855913255783 -0.015416492223853238 0.012167396364901585 -0.025318931594267437 -0.029227707579096832 0.0041059062101002439
leaf_weight=9.5688651762902719 16.564911269582812 18.266592840664089 28.555140607990328 1.7375607788562764 30.115869763307273 89.712584461085498 0.91008701454847996 1.5503288879990575 3.2688341271132222 8.5925361700355989 95.022762298583984 5.1352808121591798 1.0037895943969477 25.778529457747936
leaf_count=63 228 1961 678 11 760 3414 36 11 104 427 1145 170 21 241
internal_value=2.15127e-10 -0.00549209 -0.00648303 0.00891507 -0.00437964 -0.00648084 -0.00988428 0.0201059 0.00337748 0.00662525 0.00886274 -0.00253463 0.0114379 -0.00107243
internal_weight=335.784 183.686 172.379 11.3064 154.113 123.997 92.173 2.46042 31.824 152.098 117.727 21.7002 96.0266 34.3711
internal_count=9270 7038 6964 74 5003 4243 3461 47 782 2232 1564 398 1166 668
is_linear=0
shrinkage=0.05


Tree=20
num_leaves=15
num_cat=0
split_feature=4 4 4 1 1 3 3 4 3 4 4 1 1 0
split_gain=4.04315 1.838 2.28161 1.03693 1.71402 1.27853 1.00348 0.923943 0.959139 0.990589 1.10333 0.89824 1.27781 1.68859
threshold=0.021686267123913344 0.0070573456000657892 0.012720068484889937 0.022775675404863357 -0.035986502705812266 0.027667779864059008 0.027667779864059008 0.015316211947268588 0.011494389844082171 0.016807348738413028 0.019214975279665546 0.019329746175432604 -0.035833375522273836 -0.013812047815601181
decision_type=2 2 2 2 2 2 2 2 2 2 2 2 2 2
left_child=1 -1 -3 4 -4 -6 11 -5 9 -9 -11 12 13 -2
right_child=6 2 3 7 5 -7 -8 8 -10 10 -12 -13 -14 -15
leaf_value=0.014216326298471055 0.0060142699614066861 -0.022821234609871267 0.0033839916718993489 -0.011588576323184704 -0.011115755959998577 0.020520495354600501 -0.030328833033005376 0.015420054637683657 0.017451674150224982 -0.028025585083103294 0.0077549931622172483 -0.0008698004015278045 0.010677801541275289 -0.023773882678003597
leaf_weight=10.59092693030834 15.444787568412723 17.901923608733341 32.14834036398679 6.5659401556476977 84.828135329764336 2.4240342583507291 0.91929482668638129 4.0294682923704404 12.452468168921767 3.8933328799903393 3.2314578630030155 33.922855237033218 98.934309509582818 5.7100480385124674
leaf_count=74 204 1961 782 253 3414 47 21 57 214 98 138 668 1145 194
internal_value=5.48358e-10 -0.00512589 -0.00642619 -0.00432539 -0.00640868 -0.0100143 0.00588639 0.00385981 0.00845294 -0.00220243 -0.0128402 0.00629682 0.00831171 -0.00273622
internal_weight=332.997 178.066 167.475 149.573 119.401 87.2522 154.931 30.1727 23.6067 11.1543 7.12479 154.012 120.089 21.1548
internal_count=9270 7038 6964 5003 4243 3461 2232 760 507 293 236 2211 1543 398
is_linear=0
shrinkage=0.05


Tree=21
num_leaves=15
num_cat=0
split_feature=4 4 4 1 4 1 2 4 1 4 4 0 3 4
split_gain=3.83476 1.32335 2.48835 0.84433 0.686141 1.73593 1.4391 0.757879 0.654733 0.856933 1.3965 0.596409 0.562825 0.55146
threshold=0.025036501992084174 0.0070573456000657892 0.012720068484889937 0.002360929140729722 0.015655661286840445 -0.043531449693776002 0.13888888888888892 0.013909678262689695 0.028190889929218709 0.015483435210844824 0.015366306667021703 -0.025805871524601877 0.012399514937492122 0.015124142618642826
decision_type=2 2 2 2 2 2 2 2 2 2 2 2 2 2
left_child=1 3 -3 -1 5 11 7 -7 -8 10 -10 -4 -13 -14
right_child=-2 2 4 -5 -6 6 8 -9 9 -11 -12 12 13 -15
leaf_value=0.021964137556479666 0.0080004643297420849 -0.021971225130069355 -0.019945184038203098 -0.0056597461925513024 -0.0012934261802127897 -0.016332041797515906 -0.022859020334740892 0.013593816273296467 -0.0082523933075640803 -0.028888565450731186 0.043711709669106896 -0.012019245298304237 0.025444102051720513 -0.0097389297946283739
leaf_weight=7.0520049147307855 102.30040930490941 17.593871206743643 0.49515982903540123 3.6907936707139015 158.29147860780358 2.1019711121916762 20.390853246441115 5.8861674405634403 3.4982964089140287 1.2040268927812574 0.85624435544013966 0.92011684272438099 5.8292782474309206 0.78476474434137333
leaf_count=47 1044 1961 23 27 4156 134 1446 176 123 14 4 32 70 13
internal_value=2.87586e-10 -0.0035996 -0.00446309 0.0127999 -0.00282337 -0.00842965 -0.0133289 0.00477827 -0.0188734 -0.00299658 0.00822067 0.0114608 0.0156201 0.0205388
internal_weight=330.895 228.595 217.852 10.7428 200.258 41.9669 33.9376 7.98814 25.9494 5.55857 4.35454 8.02932 7.53416 6.61404
internal_count=9270 8226 8152 74 6191 2035 1897 310 1587 141 127 138 115 83
is_linear=0
shrinkage=0.05


Tree=22
num_leaves=15
num_cat=0
split_feature=4 4 4 1 4 1 1 4 2 4 4 4 4 1
split_gain=3.3832 1.19053 2.3763 0.694554 0.647984 1.55208 1.24776 1.38408 1.03182 0.9666 0.936294 0.71321 0.919842 0.71273
threshold=0.025036501992084174 0.0070573456000657892 0.012720068484889937 0.002360929140729722 0.01795951711192775 0.027736781837370026 -0.043531449693776002 0.01363019578450461 0.16111111111111112 0.015316211947268588 0.01616047864808939 0.016807348738413028 0.017342025016155341 0.021835482548911423
decision_type=2 2 2 2 2 2 2 2 2 2 2 2 2 2
left_child=1 3 -3 -1 5 6 7 -4 -8 -7 -10 -11 -13 -12
right_child=-2 2 4 -5 -6 9 8 -9 10 11 13 12 -14 -15
leaf_value=0.02016972036386018 0.0074361023490692102 -0.021474017319612047 0.024434205777126679 -0.0048103497073815242 -0.00047396010581307428 -0.0089830069856385465 -0.0010424913670850019 -0.0096926416468920643 -0.023932280910985395 0.026693392449406578 -0.013236924293324698 -0.026456517823271061 0.018765037584280424 0.010104962641885436
leaf_weight=7.2042699605226499 103.51243902742863 17.409896326018497 4.3127478249371034 3.7164200767874718 124.75487641431391 4.2785175377503029 13.174165233969687 5.871579809114337 21.217090378748253 5.7859765812754613 10.469072834122924 1.1335940733551981 1.3957674456760285 3.7340208077803245
leaf_count=47 1044 1961 39 27 2952 137 569 198 1577 73 510 28 25 83
internal_value=-2.597e-10 -0.00344705 -0.00428809 0.0119784 -0.00266133 -0.00642534 -0.00982376 0.00565157 -0.0131156 0.00899178 -0.0174542 0.0182119 -0.00325577 -0.00683928
internal_weight=327.97 224.458 213.537 10.9207 196.127 71.3725 58.7787 10.1843 48.5943 12.5939 35.4202 8.31534 2.52936 14.2031
internal_count=9270 8226 8152 74 6191 3239 2976 237 2739 263 2170 126 53 593
is_linear=0
shrinkage=0.05


Tree=23
num_leaves=15
num_cat=0
split_feature=4 4 4 1 4 0 1 0 1 4 0 1 1 3
split_gain=2.92758 0.87883 2.13933 0.707887 1.34271 1.69122 1.26705 0.86398 0.668552 1.25205 0.653876 1.013 1.15362 0.644002
threshold=0.025442886829762756 0.0070573456000657892 0.012720068484889937 -0.035833375522273836 0.029676518121829181 -0.026064348705057538 -0.030227081454995006 -0.013812047815601181 -0.03558967540609654 0.013829987631713088 -0.0072571154743447204 -0.013897885051916425 -0.025300996977612168 0.015211574711071591
decision_type=2 2 2 2 2 2 2 2 2 2 2 2 2 2
left_child=1 -1 -3 4 7 -6 -5 13 -4 -10 11 12 -8 -2
right_child=3 2 8 6 5 -7 10 -9 9 -11 -12 -13 -14 -15
leaf_value=0.010022064617403553 -0.0013251574310719203 -0.020348961836640089 0.0030978078133475921 0.033871954882251219 0.01752993444351713 -0.043597128144210101 0.0096857134184409575 -0.016660769375239779 -0.021324895001375237 -0.0027188353850343995 0.0094495754348346492 0.0063329305100066598 -0.031955335817644537 0.027947186254220574
leaf_weight=11.042781203985212 3.1575567517429581 17.099129295209423 42.968049207702279 3.770978305488824 1.0104537196457388 2.5349582191556683 2.0550762228667736 1.9881887575611461 8.6870412316638959 145.28799053328112 65.291037991642952 13.751066043041645 3.4629379827529219 3.3459264077246189
leaf_count=74 36 1961 1066 40 8 72 17 63 706 4491 557 115 45 19
internal_value=-4.11705e-11 -0.00316566 -0.00388948 0.00706048 -0.00404304 -0.0261518 0.00860191 0.00697048 -0.00236484 -0.00389939 0.00709227 -0.000967316 -0.0173403 0.0154524
internal_weight=325.453 225.085 214.042 100.368 12.0371 3.54541 88.3311 8.49167 196.943 153.975 84.5601 19.2691 5.51801 6.50348
internal_count=9270 8298 8224 972 198 80 774 118 6263 5197 734 177 62 55
is_linear=0
shrinkage=0.05


Tree=24
num_leaves=15
num_cat=0
split_feature=4 4 4 4 1 2 4 3 4 4 1 4 4 3
split_gain=2.91617 0.786013 1.883 0.589597 0.583728 1.00359 2.85956 1.89348 1.1943 0.92001 0.839244 1.87126 1.56787 1.7311
threshold=0.025442886829762756 0.0070573456000657892 0.012720068484889937 0.012781708545707178 0.019329746175432604 0.82777777777777783 0.032888011009672126 0.01111560189795251 0.032176407521962803 0.039302166952345556 0.002360929140729722 0.026857966089033177 0.02643804622114743 0.0140521679336652
decision_type=2 2 2 2 2 2 2 2 2 2 2 2 2 2
left_child=1 -1 -3 -4 10 6 7 -6 -7 -10 12 -12 -2 -14
right_child=4 2 3 -5 5 8 -8 -9 9 -11 11 -13 13 -15
leaf_value=0.0093475537474757581 0.019896678368614952 -0.019487095105430806 0.024567651810631919 -0.0026823099748046471 0.0080834000726570272 0.015678392844874399 0.019530059643372847 -0.037390689638894102 -0.044263002344218781 0.01495375602970881 -0.020782189150363856 0.023752160546751479 -0.0096085409386048107 0.010868507611997395
leaf_weight=11.003627531230448 13.803149640560148 16.653201559558511 1.0132010276429344 196.20005686045624 2.8794374596327561 11.835758840665219 5.1528115905821315 6.3439950477331877 0.71178753301501163 0.43459254130721092 1.9359600581228757 16.783261775970459 19.379157696850598 19.918053459376097
leaf_count=74 123 1961 37 6226 28 108 32 75 8 4 33 110 256 195
internal_value=5.93037e-10 -0.00314914 -0.00383262 -0.00241907 0.00710034 0.000841181 -0.00800411 -0.0237922 0.0105082 -0.025306 0.00944036 0.018326 0.00602709 0.000782537
internal_weight=324.048 224.87 213.866 197.213 99.178 27.3584 14.3762 9.22343 12.9821 1.14638 71.8196 18.7192 53.1004 39.2972
internal_count=9270 8298 8224 6263 972 255 135 103 120 12 717 143 574 451
is_linear=0
shrinkage=0.05


Tree=25
num_leaves=15
num_cat=0
split_feature=4 4 4 1 1 4 1 1 1 4 0 4 3 1
split_gain=2.72943 0.807444 1.27803 1.343 1.57601 1.24941 0.762129 1.43536 1.05576 0.895605 0.835757 0.825449 0.746517 0.698762
threshold=0.025036501992084174 0.01795951711192775 0.0070573456000657892 0.019329746175432604 -0.0077310874839638987 0.015316211947268588 -0.043531449693776002 -0.025300996977612168 -0.024766233460214251 0.015124142618642826 -0.025805871524601877 0.013909678262689695 0.012399514937492122 0.022566823884922465
decision_type=2 2 2 2 2 2 2 2 2 2 2 2 2 2
left_child=1 2 -1 4 6 13 9 11 -9 10 -4 -8 -12 -5
right_child=-2 -3 3 5 -6 -7 7 8 -10 -11 12 -13 -14 -15
leaf_value=0.0090522658440656163 0.0068065342187391339 -0.00041847051768209988 -0.021838304684539785 0.013764618324092618 -0.025022829888006116 0.010456676232788687 -0.032680026371824857 0.028614956654686718 -0.004892801447526211 -0.017453586357190198 -0.015770095726938573 -0.010156490328946922 0.023069060950312973 -0.016375636388796043
leaf_weight=10.910710319876669 100.32673623319715 125.06992588564754 0.71247476059943338 1.567125969100746 16.997459715697914 14.479900038801132 6.8772118124179533 1.8058128100819875 13.505920424824582 2.5713526848703614 0.74944806843995948 11.356294740457086 6.6237414681818336 9.1703144584316743
leaf_count=74 1044 2952 48 137 1437 279 712 57 1100 124 37 505 106 658
internal_value=4.55992e-11 -0.00308725 -0.00647759 -0.00851946 -0.0124664 0.0011694 -0.00719117 -0.0108151 0.000570977 0.00416514 0.0122045 -0.0199092 0.0177093 -0.0111787
internal_weight=322.724 222.398 97.3278 86.4171 61.1997 25.2173 44.2023 33.5452 15.3117 10.657 8.08566 18.2335 7.37319 10.7374
internal_count=9270 8226 5274 5200 4126 1074 2689 2374 1157 315 191 1217 143 795
is_linear=0
shrinkage=0.05


Tree=26
num_leaves=15
num_cat=0
split_feature=4 4 4 1 1 1 4 4 0 1 4 1 3 1
split_gain=2.4721 0.726312 1.0462 1.13298 1.46368 0.751239 0.731853 0.888654 0.819899 0.675814 0.848309 0.632265 0.812232 0.621847
threshold=0.025442886829762756 0.01795951711192775 0.0070573456000657892 0.019329746175432604 -0.0077310874839638987 0.027039914703761145 0.015316211947268588 0.016602538940135355 1.0000000180025095e-35 0.022775675404863357 0.02107577072921971 0.022566823884922465 0.0099284244642983115 -0.043531449693776002
decision_type=2 2 2 2 2 2 2 2 2 2 2 2 2 2
left_child=1 2 -1 4 13 9 11 -8 -9 -3 -11 -5 -13 -4
right_child=-2 5 3 6 -6 -7 7 8 -10 10 -12 12 -14 -15
leaf_value=0.0078680762611241222 0.0066228842141930035 -0.00030301089967507509 0.003839366320841666 0.014046473000756394 -0.024010885624704 -0.013717686678499479 0.0175180289748872 0.020973436792177572 -0.01497244491141375 0.021341226240894795 -0.019732907974966605 0.005252536595511865 -0.024360259882086215 -0.0098779441208771534
leaf_weight=10.9506340585649 97.093742280267179 112.37018421944231 10.293334145098923 1.6359514091163898 16.465542130172253 8.8048328165896219 8.5231178645044547 1.2028985358774651 4.9998507294803858 6.0011222660541526 0.71111788507550944 3.1232720869593305 5.5093919665087014 33.196627215947956
leaf_count=74 972 2433 315 137 1437 490 146 23 110 65 36 208 450 2374
internal_value=2.00649e-10 -0.00289012 -0.00615536 -0.00803359 -0.0117101 -0.000412801 0.000896696 0.00783398 -0.00605742 0.000676992 0.0149953 -0.00886418 -0.0142134 -0.00661797
internal_weight=320.882 223.788 95.9006 84.95 59.9555 127.887 24.9945 14.7259 6.20275 119.082 6.71224 10.2686 8.63266 43.49
internal_count=9270 8298 5274 5200 4126 3024 1074 279 133 2534 101 795 658 2689
is_linear=0
shrinkage=0.05


Tree=27
num_leaves=15
num_cat=0
split_feature=4 4 4 1 1 4 1 1 4 3 0 4 0 1
split_gain=2.344 0.543416 0.851952 0.958195 1.39547 0.678442 0.610061 0.601711 0.597259 0.594869 0.581301 0.568597 0.660119 0.564126
threshold=0.025442886829762756 0.01795951711192775 0.0070573456000657892 0.019329746175432604 -0.0077310874839638987 0.015316211947268588 0.027039914703761145 0.022566823884922465 0.016602538940135355 0.0099284244642983115 1.0000000180025095e-35 0.016602538940135355 -0.0082072500416116856 -0.025300996977612168
decision_type=2 2 2 2 2 2 2 2 2 2 2 2 2 2
left_child=1 2 -1 4 13 7 -3 -5 -7 -9 -10 12 -6 -4
right_child=-2 6 3 5 11 8 -8 9 10 -11 -12 -13 -14 -15
leaf_value=0.0068868524159764917 0.0064392875219769653 0.00027768271433199109 -0.0099692997089709523 0.013663808376615641 0.00028998211732372912 0.015229922119776008 -0.012815858048946064 0.0027523856347932388 0.017682114415194738 -0.022742488529564165 -0.013070606303247707 -0.0038720816614483036 -0.032073214545396543 0.0018955133595209249
leaf_weight=11.061896106228231 97.140167735517025 119.18527221819386 27.711760417558249 1.6705024749971951 1.8008003684226412 8.7220468102022988 8.6104886331595463 3.2778601530008 1.2011902108788479 5.3222989870700985 4.3183036670088768 3.5075651085935524 10.678006406407802 14.957626206101851
leaf_count=74 972 2534 1532 137 134 146 490 208 23 450 110 194 1109 1157
internal_value=1.19768e-10 -0.00283354 -0.00569317 -0.00742834 -0.0108486 0.00086049 -0.000697176 -0.00847521 0.00770751 -0.0137509 -0.00469235 -0.0230298 -0.0277279 -0.00586196
internal_weight=319.166 222.026 94.2299 83.168 58.6558 24.5122 127.796 10.2707 14.2415 8.60016 5.51949 15.9864 12.4788 42.6694
internal_count=9270 8298 5274 5200 4126 1074 3024 795 279 658 133 1437 1243 2689
is_linear=0
shrinkage=0.05


Tree=28
num_leaves=15
num_cat=0
split_feature=4 4 4 3 1 3 4 0 3 3 3 3 0 0
split_gain=2.00934 1.43393 1.13625 2.88361 1.87378 1.11077 1.03176 1.53693 1.3835 1.80477 1.42538 3.0092 0.788579 0.739065
threshold=0.027425769178128345 0.026586954905017123 0.025442886829762756 0.01111560189795251 -0.019200765530124071 0.0091371843184370402 0.028110065585420618 -0.011258262280815086 0.010531095744079807 0.0091371843184370402 0.011494389844082171 0.011610829914814838 0.015645544143102628 0.0088366215328427606
decision_type=2 2 2 2 2 2 2 2 2 2 2 2 2 2
left_child=1 2 -1 5 -5 -4 7 -2 9 13 -10 -12 -7 -8
right_child=6 -3 3 4 -6 12 8 -9 10 -11 11 -13 -14 -15
leaf_value=-0.0026085333384234127 -0.022570730888278479 -0.025768002434556309 -0.001861146318731656 0.0099642211648118609 -0.030466513026070115 0.031807652642745904 0.020599220047547592 0.033321099723600762 0.030878350682870315 -0.029455819077020093 -0.04870626542710782 0.0080575323963733899 -0.013889252548503631 -0.023574201006577894
leaf_weight=220.56864947895519 0.76086251437664021 5.2263011373579493 3.6978625189512995 4.7074299892410636 5.0852011386305076 10.842824358493086 3.3648133203387247 5.9702590759843579 5.2770134527236214 5.0145326824858785 1.4686433356255282 45.141139597631991 0.47823648899793703 0.31986516248434771
leaf_count=8298 11 108 28 68 90 54 31 61 37 72 18 372 12 10
internal_value=3.17125e-11 -0.0020648 -0.00145741 0.00848041 -0.0119086 0.0216879 0.00760447 0.024901 0.0053097 -0.0122037 0.00842118 0.00528348 0.0289067 0.0125509
internal_weight=317.924 250.607 245.38 24.8116 9.79263 15.0189 67.3171 6.73112 60.586 8.69921 51.8868 46.6098 11.3211 3.68468
internal_count=9270 8658 8550 252 158 94 612 72 540 113 427 390 66 41
is_linear=0
shrinkage=0.05


Tree=29
num_leaves=15
num_cat=0
split_feature=4 4 4 4 3 1 1 0 3 3 3 3 1 4
split_gain=2.02265 1.7441 1.27669 0.98298 1.04238 2.46273 1.02532 0.945475 0.921591 1.84924 1.28706 1.75668 1.05207 0.945715
threshold=0.027425769178128345 0.028110065585420618 0.026586954905017123 0.025951171680061395 0.010301998629978368 -0.019375606103095952 -0.012406312813846927 -0.011258262280815086 0.010531095744079807 0.0091371843184370402 0.011494389844082171 0.011610829914814838 0.027736781837370026 0.035481725254819206
decision_type=2 2 2 2 2 2 2 2 2 2 2 2 2 2
left_child=2 7 3 -1 6 -6 -5 -2 9 12 -10 -12 13 -3
right_child=1 8 -4 4 5 -7 -8 -9 10 -11 11 -13 -14 -15
leaf_value=-0.0023113116566706414 -0.015034156999836266 0.035886025213779572 -0.025630674807977333 -0.018033455083350348 0.021657644921589076 -0.03217299196205288 0.028195467358960176 0.03270463989836081 0.028545139709512959 -0.029853250705760226 -0.040691726801127454 0.0059703804961071805 -0.023695319383193813 -0.015176587014504243
leaf_weight=231.8188962074928 0.59681864082813252 2.5491285696625701 4.6195181384682646 0.71234359778463829 3.6013653930276632 2.9616998918354511 6.9112794529646617 7.6060522459447366 5.1136269923299542 4.3163618603721261 1.1201057657599438 43.634242063388228 0.64203475043177594 0.59136659093201149
leaf_count=8406 11 27 108 10 46 55 33 61 37 72 18 372 6 8
internal_value=1.85303e-10 0.0077084 -0.00205771 -0.00151308 0.0108238 -0.00367642 0.0222856 0.0279751 0.00441469 -0.0103756 0.00697348 0.0039387 0.0134456 0.0249276
internal_weight=316.795 66.1697 250.625 246.006 14.1867 6.56307 7.62362 8.20287 57.9669 8.09889 49.868 44.7543 3.78253 3.1405
internal_count=9270 612 8658 8550 144 101 43 72 540 113 427 390 41 35
is_linear=0
shrinkage=0.05


Tree=30
num_leaves=15
num_cat=0
split_feature=4 4 1 1 0 1 4 4 4 4 3 4 1 3
split_gain=1.77596 1.394 1.06212 2.09413 1.93148 1.76427 1.27224 1.01952 0.913074 1.54092 3.44479 2.38511 2.64775 2.12043
threshold=0.027425769178128345 0.028110065585420618 0.022775675404863357 -0.00574188453913265 0.015645544143102628 0.04717300731338353 0.039302166952345556 0.026586954905017123 0.029676518121829181 0.032176407521962803 0.015054629445111621 0.032888011009672126 -0.0012708060995502114 0.014628786065523426
decision_type=2 2 2 2 2 2 2 2 2 2 2 2 2 2
left_child=7 -2 3 6 5 -4 -3 -1 -5 10 -10 12 -11 -13
right_child=1 2 4 8 -6 -7 -8 -9 9 11 -12 13 -14 -15
leaf_value=-0.0014564770010854911 0.025217014501588354 0.00051435848671637686 -0.033681553390443562 -0.0042904322573168972 0.02254434470867684 0.016424495876239922 -0.03579079020586614 -0.023277811477904392 0.050217762876274399 0.031093991519502897 -0.033779545316143342 -0.005777453325732481 -0.056159218148322435 0.034561237369301778
leaf_weight=244.95958271971904 8.3038603961467725 21.049745268188417 5.8893891591578704 3.9321845769882264 2.4987445212900639 1.6784457899630068 1.7216541878879059 4.4800205398350945 6.4081572555005577 0.55121132731437716 0.73745547980070103 4.997560288757084 1.5283014774322499 7.1785897351801395
leaf_count=8550 72 230 64 45 15 16 37 108 31 3 8 37 11 43
internal_value=4.28777e-10 0.00719963 0.00424499 0.00733854 -0.00986541 -0.0219487 -0.00362068 -0.00193978 0.0169528 0.0208733 0.0384662 0.0101115 -0.0304445 0.0188228
internal_weight=315.915 66.4753 58.1714 48.1049 10.0666 7.56783 22.7714 249.44 25.3335 21.4013 7.14561 14.2557 2.07951 12.1762
internal_count=9270 612 540 445 95 80 267 8658 178 133 39 94 14 80
is_linear=0
shrinkage=0.05


Tree=31
num_leaves=15
num_cat=0
split_feature=4 1 1 0 1 4 3 2 2 2 4 4 0 0
split_gain=1.96904 1.02545 1.82238 1.76485 1.50003 1.12198 1.53122 1.50332 1.19235 1.35155 0.936567 1.35277 0.797919 0.781941
threshold=0.027425769178128345 -0.002909981490863581 0.022775675404863357 0.015645544143102628 0.04717300731338353 0.031535420825838587 0.012974737472042147 0.90555555555555567 0.67222222222222239 0.25555555555555559 0.02643804622114743 0.025951171680061395 0.0091616356335321846 -0.0076718381665754802
decision_type=2 2 2 2 2 2 2 2 2 2 2 2 2 2
left_child=10 5 -3 4 -4 7 -7 8 9 -2 11 -1 13 -8
right_child=1 2 3 -5 -6 6 12 -9 -10 -11 -12 -13 -14 -15
leaf_value=-0.0022773262418508524 0.012242916113286768 0.020126273131903318 -0.029335467756189178 0.024232968037412161 0.014540693028106073 -0.038271643712281672 0.004110036984506185 -0.02785125501202726 0.03155512483748326 -0.025189326744528187 -0.019504230752781376 0.014864863028861053 0.026689075584745897 -0.030907125780126117
leaf_weight=234.7581747926306 8.6133561301976496 25.75626497156918 5.3477295804768783 2.8370065279304981 2.0897460915148258 2.7403010660782439 4.3369497377425432 1.6338075399398793 4.7564160265028468 2.2299530180171123 6.407709999009966 11.107291712425647 1.2730842158198354 1.3577558714896438
leaf_count=8406 71 199 71 18 21 56 49 25 30 31 144 108 11 30
internal_value=1.82726e-10 0.00783786 0.0132376 -0.00428441 -0.0167451 0.000401101 -0.0124595 0.0079318 0.0131315 0.00306799 -0.00197971 -0.00144583 0.00122118 -0.00760846
internal_weight=315.246 62.9724 36.0307 10.2745 7.43748 26.9416 9.70809 17.2335 15.5997 10.8433 252.273 245.865 6.96779 5.69471
internal_count=9270 612 309 110 92 303 146 157 132 102 8658 8514 90 79
is_linear=0
shrinkage=0.05


Tree=32
num_leaves=15
num_cat=0
split_feature=4 1 0 0 1 3 3 1 4 2 4 3 3 4
split_gain=2.12751 0.911683 1.35715 1.27836 1.23583 1.76941 1.21592 1.2085 0.808316 0.774667 0.773376 4.09986 3.72527 2.55042
threshold=0.027425769178128345 -0.03558967540609654 -0.015037744648040202 -0.016419210761970494 0.022775675404863357 0.0099284244642983115 0.015284095056766997 0.027039914703761145 0.02643804622114743 0.90555555555555567 0.032176407521962803 0.015054629445111621 0.014227480601754007 0.04721680414887431
decision_type=2 2 2 2 2 2 2 2 2 2 2 2 2 2
left_child=8 2 6 -3 9 -6 -2 -7 -1 10 11 -5 13 -12
right_child=1 3 -4 4 5 7 -8 -9 -10 -11 12 -13 -14 -15
leaf_value=-0.0015277251989891485 -0.018967430158637357 -0.027947547503550246 -0.0376741383386337 0.03439748302688924 -0.037916477929977939 -0.022445340845391494 0.024137419344648386 0.017042366555529976 -0.018441243684187685 -0.0041685466598330567 -0.033410714220485214 -0.015758080759031616 0.026522715140514609 0.029424576507229183
leaf_weight=247.32196473143995 1.9394935658201573 1.1764441598206747 1.6179414335638274 17.336469560861591 1.8487157560884941 1.6780318804085235 2.7804817147552967 6.4283811189234257 6.2858968535438171 4.1995276082307091 5.3337014075368669 4.5962551124393931 10.383493795990942 1.3122629448771475
leaf_count=8514 28 23 70 125 22 22 17 66 144 47 56 44 78 14
internal_value=1.74478e-10 0.00833553 -0.00860357 0.0104328 0.0117835 -0.0037905 0.0062057 0.00730121 -0.00201773 0.0153801 0.0175388 0.023658 0.00878257 -0.018778
internal_weight=314.239 60.6312 6.33792 54.2933 53.1168 9.95513 4.71998 8.10641 253.608 43.1617 38.9622 21.9327 17.0295 6.64596
internal_count=9270 612 115 497 474 110 45 88 8658 364 317 169 148 70
is_linear=0
shrinkage=0.05


Tree=33
num_leaves=15
num_cat=0
split_feature=4 1 3 1 3 0 1 2 0 4 4 3 3 4
split_gain=2.29176 0.899589 1.32453 1.13591 1.8934 1.34199 0.925964 0.826378 0.766712 0.730425 0.699843 2.52555 2.41469 2.15829
threshold=0.027425769178128345 -0.035833375522273836 0.015284095056766997 0.022775675404863357 0.0099284244642983115 -0.016419210761970494 0.027039914703761145 0.90555555555555567 -0.013812047815601181 0.029676518121829181 0.032176407521962803 0.015598499818314961 0.014227480601754007 0.04721680414887431
decision_type=2 2 2 2 2 2 2 2 2 2 2 2 2 2
left_child=-1 2 -2 5 -5 -3 -6 10 -4 -8 11 -7 13 -12
right_child=1 3 8 4 6 7 9 -9 -10 -11 12 -13 -14 -15
leaf_value=-0.0020447086209168068 -0.029818188835105636 -0.024583859123153789 0.022004856411034564 -0.040270470395637609 -0.019802321331186507 0.030482117658428062 -0.0054809265960953672 -0.0040425377746518753 -0.020984748850721584 0.026149930034389146 -0.032264593497590352 -0.018905437274506873 0.022921773491784377 0.026460163129261097
leaf_weight=255.84266153164208 2.64367458410561 1.2566322647035111 2.7342421784996991 1.7309748232364643 1.539390891790388 18.693678170442585 2.3651670888066292 4.1892740298062554 0.55125393997877825 4.1575212851166725 4.0628339480608728 2.2958078291267148 10.627757795155047 1.3928858526051042
leaf_count=8658 68 24 17 22 22 136 34 47 29 32 56 33 78 14
internal_value=5.75731e-10 0.00886494 -0.00851891 0.0109581 -0.00406177 0.0144314 0.00729841 0.0161731 0.0115783 0.0154765 0.0185037 0.0244661 0.00974595 -0.0154954
internal_weight=314.084 58.2411 5.92917 52.3119 9.79305 42.5189 8.06208 41.2622 3.2855 6.52269 37.073 20.9895 16.0835 5.45572
internal_count=9270 612 114 498 110 388 88 364 46 66 317 169 148 70
is_linear=0
shrinkage=0.05


Tree=34
num_leaves=15
num_cat=0
split_feature=4 1 1 3 4 3 1 4 4 3 3 4 4 3
split_gain=2.30309 0.87473 1.32987 1.6236 0.860382 0.920239 0.93503 0.951858 0.829841 1.06067 1.01524 0.878173 0.745529 1.13357
threshold=0.027425769178128345 -0.002909981490863581 0.022775675404863357 0.0099284244642983115 0.039302166952345556 0.011075172743415464 -0.049924411654255589 0.032888011009672126 0.031535420825838587 0.012974737472042147 0.015598499818314961 0.028366774654564362 0.014828531175450015 0.011200069106291776
decision_type=2 2 2 2 2 2 2 2 2 2 2 2 2 2
left_child=12 4 -3 -4 5 -2 7 -7 10 -10 -8 -12 13 -1
right_child=1 2 3 -5 -6 6 8 -9 9 -11 11 -13 -14 -15
leaf_value=-0.020654270121959573 -0.019121842593342247 0.020509205077165898 -0.037024885107555729 0.0086676342187191249 -0.026822393598949515 -0.041248021443306103 0.026413328186684654 0.01890355930360163 -0.035418725066027834 0.0070642211747948148 0.0200505952713157 -0.019818779833425303 -0.00062121240874160935 -0.0032536666221674158
leaf_weight=11.210567495785652 2.5943424347788158 23.052325947210193 1.5007128715515117 7.7586495969444513 1.4092983258888114 0.83974654972553853 9.1461627688258869 0.30840792087838054 0.926211167126893 5.2883157450705767 1.4181514177471393 2.253923018462956 203.41782782319933 42.37188460608013
leaf_count=778 51 199 22 88 37 13 71 5 20 66 10 30 5106 2774
internal_value=1.17959e-10 0.00904937 0.014308 -0.00162504 0.0017345 0.0045554 0.00835829 -0.0238122 0.0113908 -0.00329916 0.0182361 -0.00342533 -0.00201668 -0.00720594
internal_weight=313.497 56.4962 32.3117 9.25936 24.1846 22.7753 20.1809 1.14815 19.0328 6.21453 12.8182 3.67207 257 53.5825
internal_count=9270 612 309 110 303 266 215 18 197 86 111 40 8658 3552
is_linear=0
shrinkage=0.05


Tree=35
num_leaves=15
num_cat=0
split_feature=4 4 3 0 1 4 1 1 4 4 4 2 0 2
split_gain=2.69796 0.656709 1.21414 1.23485 1.59712 1.25166 0.742056 2.07763 1.05869 0.723126 0.700139 1.03866 0.696669 0.696223
threshold=0.027425769178128345 0.014902218570574105 0.011200069106291776 -0.026064348705057538 0.002360929140729722 0.0090157029373389621 -0.043531449693776002 -0.025300996977612168 0.013785674223669343 0.02643804622114743 0.025951171680061395 0.5722222222222223 -0.01293435125306425 0.20000000000000004
decision_type=2 2 2 2 2 2 2 2 2 2 2 2 2 2
left_child=1 2 -1 -4 5 -5 8 -8 -7 10 -3 -12 -11 -9
right_child=-2 9 3 4 -6 6 7 13 -10 12 11 -13 -14 -15
leaf_value=-0.021203100809566763 0.0099715781341251745 -0.0010226500916615741 -0.03415717542289811 0.024108416859521919 -0.014696179312526753 0.024174785349922925 -0.025163945094272222 0.026647896719742548 -0.015658531349614705 0.0098251438150130828 -0.0051380365125621918 0.023900357080668802 -0.02424223495250551 -0.00070443668222448016
leaf_weight=10.861086759716271 54.795319965109229 186.9997094143182 1.9658822962082911 6.1710934147704419 12.775291432859374 4.6511283898726097 6.6239046482369295 2.7636563240084815 1.5701657040044663 1.3985471995547412 4.9601978277787548 6.0170580260455608 4.8705248180776826 5.962624576408416
leaf_count=785 612 4817 142 115 966 83 646 183 37 28 55 53 116 632
internal_value=9.84197e-11 -0.00215154 -0.00703742 -0.0030116 -0.000714135 0.00601181 -3.93973e-06 -0.00589955 0.0133452 -0.000847373 -0.000277276 0.0114456 -0.0163361 0.00980732
internal_weight=312.386 257.591 53.3448 42.4837 40.5179 27.7426 21.5715 15.3502 6.22129 204.246 197.977 10.9773 6.26907 8.72628
internal_count=9270 8658 3589 2804 2662 1696 1581 1461 120 5069 4925 108 144 815
is_linear=0
shrinkage=0.05


Tree=36
num_leaves=15
num_cat=0
split_feature=4 1 1 0 1 4 3 1 1 0 2 4 3 0
split_gain=2.05702 0.639318 1.45114 1.27729 1.24482 1.05493 0.98531 0.661639 0.936075 1.04582 0.843454 0.651293 0.878938 0.706837
threshold=0.027425769178128345 0.022775675404863357 1.0000000180025095e-35 0.015645544143102628 0.04717300731338353 0.037090819448020972 0.011075172743415464 -0.025300996977612168 -0.03558967540609654 -0.013812047815601181 0.20000000000000004 0.030782352420441 0.015598499818314961 0.0050650012253572524
decision_type=2 2 2 2 2 2 2 2 2 2 2 2 2 2
left_child=-1 2 5 4 -3 6 -2 8 9 -8 -9 12 -12 -13
right_child=1 3 -4 -5 -6 -7 7 10 -10 -11 11 13 -14 -15
leaf_value=-0.0018825805212870656 -0.01894875112857114 -0.026524890305927307 0.020994337052985243 0.022127720551646496 0.014065374759791317 -0.023230709871339641 0.014503451482170714 -0.022735518493560626 0.032576274033744877 -0.029702915080640636 0.0068706487991593013 0.030752419536307037 -0.033377994135641367 -0.0065240486382871126
leaf_weight=256.75108998874202 2.3910851343534949 4.7418888732790929 19.690499220043421 2.5723462477326393 2.0562405586242676 2.3900102996267369 3.5437603993341362 1.7999026272445871 4.8757431283593196 0.89890851918607939 4.3557421378791314 3.1258672289550304 0.83123728819191445 1.4024108108133075
leaf_count=8658 48 71 170 18 21 55 37 23 44 40 35 19 16 15
internal_value=1.79301e-10 0.00871543 0.0111328 -0.00291866 -0.0140182 0.00304801 0.00659965 0.0102654 0.0194707 0.00174493 0.00185568 0.00810819 -0.00393174 0.020116
internal_weight=311.427 54.6756 45.3052 9.37048 6.79813 25.6147 23.2247 20.8336 9.31841 4.44267 11.5152 9.71526 5.18698 4.52828
internal_count=9270 612 502 110 92 332 277 229 121 77 108 85 51 34
is_linear=0
shrinkage=0.05


Tree=37
num_leaves=15
num_cat=0
split_feature=4 1 3 1 2 4 4 1 1 4 4 2 4 0
split_gain=2.32263 0.87865 0.724551 0.674653 0.723686 0.656653 0.815074 0.857404 1.05163 0.969722 1.44683 0.964128 0.856032 0.747521
threshold=0.027425769178128345 1.0000000180025095e-35 0.011075172743415464 0.019329746175432604 0.89444444444444449 0.01795951711192775 0.0070573456000657892 0.027736781837370026 -0.043531449693776002 0.015255313603844816 0.015838643392401174 0.16111111111111112 0.015124142618642826 -0.0076309555893895225
decision_type=2 2 2 2 2 2 2 2 2 2 2 2 2 2
left_child=5 2 -2 -3 -5 6 -1 8 12 -9 -11 -10 -8 -13
right_child=1 3 -4 4 -6 -7 7 9 11 10 -12 13 -14 -15
leaf_value=0.0074435598521700348 -0.018604967965773305 0.022557892443360206 0.0055212334869821147 -0.0020089140966125154 0.020222498497976638 -4.8556335606755948e-05 0.013333194802825533 -0.012810663571679471 -0.00080092392348303325 0.034089486414634371 -0.0025440035490023097 -0.027980952930777347 -0.016797296501188854 -0.011531786947433382
leaf_weight=10.361770637333391 2.6049026707187322 14.444846887141468 22.264294946100563 9.0322745740413648 4.9784522801637641 163.05640324950218 7.5971170300617796 4.8794957359787068 15.253889048239214 3.5257308715954405 6.3517511766403913 8.8883765395730645 2.3044750550761819 35.144102158956237
leaf_count=74 58 125 274 110 45 3384 191 374 901 34 99 702 124 2775
internal_value=3.24901e-10 0.00939768 0.00237265 0.0152483 0.00671155 -0.00197601 -0.00527309 -0.00691192 -0.00922366 0.00382413 0.012464 -0.0117192 0.00542313 -0.0153998
internal_weight=310.688 53.3248 24.8692 28.4556 14.0107 257.363 94.3067 83.9449 69.188 14.757 9.87748 59.2864 9.90159 44.0325
internal_count=9270 612 332 280 155 8658 5274 5200 4693 507 133 4378 315 3477
is_linear=0
shrinkage=0.05


Tree=38
num_leaves=15
num_cat=0
split_feature=4 1 3 1 1 0 3 3 4 4 4 1 1 4
split_gain=2.02342 0.846342 0.685795 0.666373 1.02456 0.985843 0.78375 0.65973 0.593639 0.539268 0.714862 0.801182 1.10953 0.904556
threshold=0.027425769178128345 -0.002909981490863581 0.011075172743415464 -0.025300996977612168 -0.03558967540609654 -0.025805871524601877 0.011595937999535936 0.021358615805823874 0.031535420825838587 0.01795951711192775 0.0070573456000657892 0.019329746175432604 0.002360929140729722 0.015316211947268588
decision_type=2 2 2 2 2 2 2 2 2 2 2 2 2 2
left_child=9 2 -2 4 5 -4 8 -7 -5 10 -1 12 -12 -13
right_child=1 -3 3 6 -6 7 -8 -9 -10 -11 11 13 -14 -15
leaf_value=0.006966450733073979 -0.019145050832312556 0.014012664289467281 0.015610503971391299 0.026370980107833359 0.027205442353841765 -0.034017180105736997 -0.012050365362628251 0.0113268535906773 -0.01730560308177035 -0.00011225059268371515 -0.0063485190845740313 -0.010358937364850601 -0.024892498997638263 0.0084554721395708483
leaf_weight=10.456333130598066 2.5485408036038306 30.905032807961106 2.5175732374191311 1.9266208074986901 4.9488102197647104 1.6936398437246682 7.4840388363227248 0.57160218805074681 0.2882525399327277 163.45162266166881 48.442321643233299 9.5685511182528007 9.0202808037865889 15.171316468156872
leaf_count=74 58 309 20 13 49 67 87 4 5 3384 3309 795 817 279
internal_value=-8.5424e-12 0.0088098 0.00120255 0.00467783 0.0133179 -0.00327135 -0.00442586 -0.0226105 0.0170719 -0.00184632 -0.00487139 -0.00644282 -0.00963548 0.00105895
internal_weight=308.995 52.8841 21.9791 19.4305 9.73163 4.78282 9.69891 2.26524 2.21487 256.11 92.6588 82.2025 57.4626 24.7399
internal_count=9270 612 303 245 140 91 105 71 18 8658 5274 5200 4126 1074
is_linear=0
shrinkage=0.05


Tree=39
num_leaves=15
num_cat=0
split_feature=4 1 1 1 3 1 3 4 2 4 2 1 0 4
split_gain=1.89837 0.67237 0.697841 0.885277 0.826921 0.67302 1.32338 0.838259 0.72247 0.613314 1.20637 0.605129 0.890387 0.517952
threshold=0.027425769178128345 -0.002909981490863581 0.022775675404863357 0.027039914703761145 0.0099284244642983115 -0.025300996977612168 0.012974737472042147 0.037090819448020972 0.20000000000000004 0.032888011009672126 0.90555555555555567 -0.03558967540609654 -0.013812047815601181 0.026586954905017123
decision_type=2 2 2 2 2 2 2 2 2 2 2 2 2 2
left_child=13 5 -3 -4 -5 6 -2 11 -7 10 -10 12 -8 -1
right_child=1 2 3 4 -6 8 7 -9 9 -11 -12 -13 -14 -15
leaf_value=-0.0014511059357865379 -0.022195738080080064 0.017808890285890524 -0.023799759142075813 -0.020586963068240073 0.015949964283025548 -0.024456921278101087 0.01781067419357682 -0.020624286391655929 0.018142483214391613 -0.018955794165201729 -0.024069661288643129 0.034657924986944595 -0.02536080668693267 -0.01684223466248581
leaf_weight=250.65703530749306 1.6146890842355812 21.910905515775088 1.6857744045555572 1.0389948971569536 6.5255621802061796 2.8224118547514072 3.1608001850545397 0.47228422760963429 5.7545371018350107 1.787476811558008 1.3196152579039333 4.0393154993653289 0.71025347989052567 4.6017396766692391
leaf_count=8550 52 199 23 21 66 41 23 16 48 25 20 38 40 108
internal_value=2.70594e-10 0.00853463 0.0131261 0.00137898 0.00911381 0.00164779 0.0106376 0.0186536 -0.00627651 0.00140675 0.00826238 0.0230502 0.00630936 -0.00179321
internal_weight=308.101 52.8426 31.1612 9.25033 7.56456 21.6814 9.99734 8.38265 11.684 8.86163 7.07415 7.91037 3.87105 255.259
internal_count=9270 612 309 110 87 303 169 117 134 93 68 101 63 8658
is_linear=0
shrinkage=0.05


end of trees

feature_importances:
market_volatility_20d=233
market_return_5d=160
market_dispersion_1d=82
market_return_1d=59
market_breadth_1d=26

parameters:
[boosting: gbdt]
[objective: lambdarank]
[metric: ndcg]
[tree_learner: serial]
[device_type: cpu]
[data_sample_strategy: bagging]
[data: ]
[valid: ]
[num_iterations: 40]
[learning_rate: 0.05]
[num_leaves: 15]
[num_threads: 1]
[seed: 20260720]
[deterministic: 1]
[force_col_wise: 1]
[force_row_wise: 0]
[histogram_pool_size: -1]
[max_depth: -1]
[min_data_in_leaf: 2]
[min_sum_hessian_in_leaf: 0.001]
[bagging_fraction: 1]
[pos_bagging_fraction: 1]
[neg_bagging_fraction: 1]
[bagging_freq: 0]
[bagging_seed: 843]
[bagging_by_query: 0]
[feature_fraction: 1]
[feature_fraction_bynode: 1]
[feature_fraction_seed: 57]
[extra_trees: 0]
[extra_seed: 8811]
[early_stopping_round: 0]
[early_stopping_min_delta: 0]
[first_metric_only: 0]
[max_delta_step: 0]
[lambda_l1: 0]
[lambda_l2: 1]
[linear_lambda: 0]
[min_gain_to_split: 0]
[drop_rate: 0.1]
[max_drop: 50]
[skip_drop: 0.5]
[xgboost_dart_mode: 0]
[uniform_drop: 0]
[drop_seed: 21666]
[top_rate: 0.2]
[other_rate: 0.1]
[min_data_per_group: 100]
[max_cat_threshold: 32]
[cat_l2: 10]
[cat_smooth: 10]
[max_cat_to_onehot: 4]
[top_k: 20]
[monotone_constraints: ]
[monotone_constraints_method: basic]
[monotone_penalty: 0]
[feature_contri: ]
[forcedsplits_filename: ]
[refit_decay_rate: 0.9]
[cegb_tradeoff: 1]
[cegb_penalty_split: 0]
[cegb_penalty_feature_lazy: ]
[cegb_penalty_feature_coupled: ]
[path_smooth: 0]
[interaction_constraints: ]
[verbosity: -1]
[saved_feature_importance_type: 0]
[use_quantized_grad: 0]
[num_grad_quant_bins: 4]
[quant_train_renew_leaf: 0]
[stochastic_rounding: 1]
[linear_tree: 0]
[max_bin: 255]
[max_bin_by_feature: ]
[min_data_in_bin: 3]
[bin_construct_sample_cnt: 200000]
[data_random_seed: 4432]
[is_enable_sparse: 1]
[enable_bundle: 1]
[use_missing: 1]
[zero_as_missing: 0]
[feature_pre_filter: 1]
[pre_partition: 0]
[two_round: 0]
[header: 0]
[label_column: ]
[weight_column: ]
[group_column: ]
[ignore_column: ]
[categorical_feature: ]
[forcedbins_filename: ]
[precise_float_parser: 0]
[parser_config_file: ]
[objective_seed: 7759]
[num_class: 1]
[is_unbalance: 0]
[scale_pos_weight: 1]
[sigmoid: 1]
[boost_from_average: 1]
[reg_sqrt: 0]
[alpha: 0.9]
[fair_c: 1]
[poisson_max_delta_step: 0.7]
[tweedie_variance_power: 1.5]
[lambdarank_truncation_level: 30]
[lambdarank_norm: 1]
[label_gain: 0,1,3,7,15]
[lambdarank_position_bias_regularization: 0]
[eval_at: 1,2,3,4,5]
[multi_error_top_k: 1]
[auc_mu_weights: ]
[num_machines: 1]
[local_listen_port: 12400]
[time_out: 120]
[machine_list_filename: ]
[machines: ]
[gpu_platform_id: -1]
[gpu_device_id: -1]
[gpu_use_dp: 0]
[num_gpu: 1]

end of parameters

pandas_categorical:null
