tree
version=v4
num_class=1
num_tree_per_iteration=1
label_index=0
max_feature_idx=12
objective=lambdarank
feature_names=momentum_1d momentum_3d momentum_5d momentum_10d momentum_20d volatility_5d volatility_20d drawdown_20d market_return_1d market_return_5d market_breadth_1d market_dispersion_1d market_volatility_20d
feature_infos=[-0.10813718513007242:0.12229216739576731] [-0.18234825421959322:0.27465397817296533] [-0.25743860440229616:0.28092117351019485] [-0.27022648853672249:0.40351170424303073] [-0.28062547585271636:0.58906651566951895] [0.0012453562741035964:0.088373331352552278] [0.0039238631080082331:0.060188323905258592] [0.0043877162311911633:0.28987731592235633] [-0.049585464134470299:0.036012358476607553] [-0.10116671736988472:0.054726216916397064] [0.022222222222222223:0.98888888888888893] [0.0079151013248990945:0.029086357152055337] [0.0039238631080082331:0.060188323905258592]
tree_sizes=1757 1731 1740 1730 1729 1752 1737 1728 1742 1737 1735 1743 1733 1746 1738 1742 1750 1747 1744 1738 1733 1740 1746 1739 1748 1728 1740 1746 1742 1740 1761 1752 1738 1738 1734 1747 1743 1760 1740 1740

Tree=0
num_leaves=15
num_cat=0
split_feature=4 7 5 6 7 6 5 6 4 6 4 4 6 2
split_gain=16.6982 8.53379 5.28834 3.07571 3.01192 4.38485 2.81363 2.71794 2.47526 2.52683 2.38892 1.84778 1.83281 1.73371
threshold=0.065487569921317448 0.068689610146064964 0.016545911580750378 0.0083628833437192508 0.12798707022747538 0.025614282555239589 0.021656161071158458 0.017056334415694371 0.0052317840191022933 0.017413974783175103 0.16706649897786965 -0.13066248337924688 0.020037308647815982 -0.017489284818133274
decision_type=2 2 2 2 2 2 2 2 2 2 2 2 2 2
left_child=1 3 8 -1 5 6 -4 -5 9 -3 -2 -6 -8 -9
right_child=10 2 4 7 11 -7 12 13 -10 -11 -12 -13 -14 -15
leaf_value=0.016507144702901665 0.022733934540001763 -0.0044511919576207919 -0.0040010226812779741 -0.032255700869651863 0.018788464461530895 0.047640998546348345 0.044341640707377769 0.014987654365584227 0.01748399624572964 -0.027947456958912289 0.054799322630107505 -0.0137292628299195 0.0084853433717629878 -0.019424275396682726
leaf_weight=4.0643444051966062 22.90449122199789 30.194727231748402 17.323370346799496 37.823444313369691 5.1807076130062368 9.2934635989367944 5.9586916575208297 5.3021366014145315 6.4973352514207354 17.902287558652461 8.5588340489193779 14.116146225947885 8.5478759729303402 7.8673651567660254
leaf_count=164 1008 1701 776 2074 224 252 194 159 272 846 252 649 367 332
internal_value=3.06241e-10 -0.00623867 0.00154469 -0.0222356 0.0116451 0.0191498 0.00963342 -0.0255816 -0.00964201 -0.0135879 0.0328759 -0.00450353 0.0251233 -0.00548981
internal_weight=201.535 170.072 115.015 55.0573 60.4203 41.1234 31.8299 50.9929 54.5944 48.097 31.4633 19.2969 14.5066 13.1695
internal_count=9270 8010 5281 2729 2462 1589 1337 2565 2819 2547 1260 873 561 491
is_linear=0
shrinkage=0.05


Tree=1
num_leaves=15
num_cat=0
split_feature=5 4 7 4 6 5 6 5 6 6 9 1 7 4
split_gain=62.1581 27.1718 16.0214 10.7943 6.75879 8.90926 6.58018 6.38536 6.13493 5.8561 9.8207 11.8619 11.2909 7.66318
threshold=0.01612148348897165 0.068897466118907694 0.051806047976251331 0.16706649897786965 0.028110065585420618 0.029233049867952384 0.020669014288625314 0.010649446260398689 0.021686267123913344 0.030180892941662905 -0.03558967540609654 -0.058693993568554308 0.071118913742055492 0.17941002759768557
decision_type=2 2 2 2 2 2 2 2 2 2 2 2 2 2
left_child=1 8 3 6 -5 -6 -2 -3 -1 13 -11 -12 -13 -4
right_child=2 7 9 4 5 -7 -8 -9 -10 10 11 12 -14 -15
leaf_value=-0.036062940245696111 -0.0099999472042425659 -0.014471798999707144 0.0079872426466678064 0.075778706228195686 -0.063487686553796427 0.048399329482608174 0.051592127183772873 0.02207097737198891 -0.0035931613522878015 -0.028803296314396362 -0.031802424651031246 -0.03096820848946439 0.055217754574635639 -0.048556532250279616
leaf_weight=126.31372359395027 11.781475313939156 17.230682270601392 156.07307709380984 20.798358485102657 1.6482680588960636 4.5505685731768608 5.6412239316850892 34.326785545796156 16.689950056374073 6.2694407235831013 5.0408078152686349 3.6647941581904879 30.987043520435691 5.2413093820214263
leaf_count=4524 246 276 2966 67 8 14 59 333 465 58 33 20 174 27
internal_value=2.0904e-10 -0.0211648 0.0163794 0.0433111 0.0625907 0.0139622 0.0116607 0.00981527 -0.0323247 0.0104276 0.0259847 0.0351336 0.0454897 0.00586223
internal_weight=446.258 194.561 251.696 44.4199 26.9972 6.19884 17.4227 51.5575 143.004 207.276 45.9621 39.6926 34.6518 161.314
internal_count=9270 5598 3672 394 89 22 305 609 4989 3278 285 227 194 2993
is_linear=0
shrinkage=0.05


Tree=2
num_leaves=15
num_cat=0
split_feature=4 5 4 9 4 1 5 5 2 5 6 7 9 3
split_gain=63.3243 42.68 13.3738 8.21127 6.98908 5.61023 4.6356 4.62572 4.04984 4.01183 4.03274 3.39519 3.35845 4.4786
threshold=0.14486942666840366 0.018001804448019555 0.043849757710266675 -0.04312310034346753 0.030556875292749756 0.066702132180194842 0.010999566093273546 0.046177153296566818 0.13626554625851331 0.015090917995118362 0.024768477087375496 0.12187786163556126 0.011607665470346052 0.0011631175202557744
decision_type=2 2 2 2 2 2 2 2 2 2 2 2 2 2
left_child=1 2 9 -2 5 12 -4 -6 -5 10 -1 -10 13 -3
right_child=3 4 6 8 7 -7 -8 -9 11 -11 -12 -13 -14 -15
leaf_value=-0.04044096743817191 -0.053464167858742473 0.0095703482414587621 -0.023398601032114611 0.055170517617340653 0.028786619887422257 0.047521459954745889 0.0081773967178297418 -0.049435543199113564 0.034009793085767903 -0.017646264150347483 0.0047033109607713562 -0.040002048722772139 -0.015862189121042477 -0.021265707096858301
leaf_weight=92.888830661773682 1.1575114037841547 81.565414428710938 16.546129651367664 51.687453348189592 46.763390930369496 5.8787802383303633 33.488915322348475 1.0858326870948065 2.780517626553773 35.243772172369063 5.0142940590158096 1.6339129805564878 22.573087627999485 12.772294754162429
leaf_count=4053 13 1416 493 324 555 58 518 14 16 1028 113 7 443 219
internal_value=1.28866e-10 -0.00793262 -0.024632 0.0483125 0.0100333 0.00363739 -0.00251837 0.0260359 0.0513119 -0.0328613 -0.0381046 0.00428719 0.0010464 0.00521622
internal_weight=411.08 353.821 183.182 57.2594 170.639 122.79 50.035 47.8492 56.1019 133.147 97.9031 4.41443 116.911 94.3377
internal_count=9270 8910 6205 360 2705 2136 1011 569 347 5194 4166 23 2078 1635
is_linear=0
shrinkage=0.05


Tree=3
num_leaves=15
num_cat=0
split_feature=6 4 4 5 5 1 4 1 6 4 7 4 3 7
split_gain=49.7387 22.537 14.0658 11.0863 8.33086 7.66461 6.83303 5.07287 5.5081 4.47701 3.79979 6.07174 4.96481 5.93713
threshold=0.017817768502999289 0.043849757710266675 0.10256734289101889 0.018001804448019555 0.011542986338608998 -0.060135989332393107 0.16706649897786965 0.04637628165874242 0.030782352420441 0.17941002759768557 0.12309636453756313 -0.13232192520414296 -0.08246298204804918 0.12027041534623396
decision_type=2 2 2 2 2 2 2 2 2 2 2 2 2 2
left_child=2 3 4 -2 -1 -3 7 -7 -9 -4 12 -12 -5 -14
right_child=1 5 9 10 -6 6 -8 8 -10 -11 11 -13 13 -15
leaf_value=-0.044701342225127706 -0.023617416213667156 -0.036930648332890441 0.0036735310614431633 -0.031274855721160476 -0.017930596761394794 0.027607983483027867 0.04825454290679581 -0.034877188260840762 0.036165648874360565 0.06310461874894005 0.023409404095030503 -0.019419637229996796 0.012468098426655631 0.058260252668227
leaf_weight=53.093166864477098 36.095428418368101 3.3414032133296123 11.820113274268804 4.5839027576148501 67.897557098884135 55.612080527469516 41.362741907127202 6.6609143875539285 3.2837611921131611 3.4000246785581103 11.445669524371622 23.825963309966028 59.729121998883784 7.2120144590735427
leaf_count=2508 1327 40 206 56 2463 647 202 91 23 25 155 628 851 48
internal_value=-2.06633e-10 0.013097 -0.0242594 -4.09245e-05 -0.0299483 0.0299705 0.0323841 0.0217961 -0.0102576 0.0200218 0.00807269 -0.00525936 0.0146291 0.0181865
internal_weight=389.364 253.153 136.211 142.892 120.991 110.261 106.919 65.5568 9.94468 15.2201 106.797 35.2716 71.525 66.9411
internal_count=9270 4068 5202 3065 4971 1003 963 761 114 231 1738 783 955 899
is_linear=0
shrinkage=0.05


Tree=4
num_leaves=15
num_cat=0
split_feature=5 4 4 9 5 4 1 7 11 6 5 8 4 6
split_gain=45.459 19.5468 16.0357 9.36199 6.13739 3.83257 3.72083 3.55212 3.40387 3.5162 8.86975 4.75339 3.95139 4.23536
threshold=0.01612148348897165 0.030556875292749756 0.044910881750625971 -0.043531449693776002 0.02208106354372321 0.15112976239453493 -0.060135989332393107 0.036010819136743651 0.023980595796910083 0.030782352420441 0.034822836431848934 0.014361166485571319 0.16706649897786965 0.02100539476822302
decision_type=2 2 2 2 2 2 2 2 2 2 2 2 2 2
left_child=2 4 -1 -3 -2 -4 -5 -7 9 10 11 12 13 -8
right_child=1 3 5 6 -6 7 8 -9 -10 -11 -12 -13 -14 -15
leaf_value=-0.034403238687874045 -0.010962977776778999 -0.043489779624620084 -0.006361842556695578 -0.029063868698466618 0.010947135602383072 0.048926323169045993 0.0068612186469599948 -0.007276841665534866 -0.022921685036341195 0.051821269326656261 -0.037801735538952497 -0.013397284988601411 0.054109909306412102 0.039201909659501058
leaf_weight=92.434571458026767 60.917706506326795 3.3965612668544045 37.536055393517017 1.6940008811652649 65.065915940329432 5.9709018133580667 17.134927935898304 4.3269296400249004 1.9505328908562649 24.459066119045019 3.8968291599303475 4.636713874526321 21.593886867165565 25.640101737342775
leaf_count=4585 1615 34 911 38 1127 58 293 44 15 125 38 63 91 233
internal_value=2.48319e-10 0.0136452 -0.0223498 0.0295333 0.000349888 0.00117003 0.0323911 0.0267571 0.0337187 0.0350749 0.0288312 0.0330803 0.036582 0.0266995
internal_weight=370.655 230.386 140.268 104.403 125.984 47.8339 101.006 10.2978 99.3121 97.3615 72.9025 69.0056 64.3689 42.775
internal_count=9270 3672 5598 930 2742 1013 896 102 858 843 718 680 617 526
is_linear=0
shrinkage=0.05


Tree=5
num_leaves=15
num_cat=0
split_feature=4 5 4 6 5 5 7 2 2 3 2 4 6 4
split_gain=39.2739 30.7461 7.46587 6.72435 6.35264 5.12932 4.53937 4.34613 3.95052 3.92123 6.38516 3.51747 3.42842 4.22765
threshold=0.063794651734372945 0.018001804448019555 0.16706649897786965 0.025253299408496736 0.019066004270153411 0.028032799905350351 0.12309636453756313 0.13626554625851331 -0.047332535639015398 -0.12608476339889416 -0.007177499457623914 -0.062124974011649785 0.016372589690195973 0.0028303915515282001
decision_type=2 2 2 2 2 2 2 2 2 2 2 2 2 2
left_child=1 12 4 8 -2 6 -5 -4 -3 -7 -11 -12 -1 -14
right_child=2 3 7 5 -6 9 -8 -9 -10 10 11 -13 13 -15
leaf_value=-0.036658916424119753 -0.00052491430769254887 0.014363024854931515 0.044851772418467911 0.04986732196401604 0.029760041303630237 0.053112582821129184 0.0031909399515059819 -0.0078522622140509458 -0.0091846604895982082 -0.034302780039464915 -0.033728465870994706 0.03799514137197197 -0.029575456943490688 0.0015582907092844243
leaf_weight=70.626425795257092 37.096889324486256 23.822107326239347 40.556719416752458 16.819172279909257 31.417466228827834 2.1621816083788898 7.5633967453613868 4.0165778230875722 62.211362795904279 9.0769859645515716 1.3574335612356661 6.7347590038552845 29.424792422913015 16.844361620955169
leaf_count=3747 741 451 230 130 303 19 137 22 1408 136 33 74 1333 506
internal_value=-1.53502e-10 -0.0111824 0.024273 0.00557196 0.0135907 0.0213037 0.0360846 0.0400344 -0.00257435 0.00180281 -0.00722641 0.0235774 -0.0296684 -0.018448
internal_weight=359.731 246.643 113.088 129.747 68.5144 43.7139 24.3826 44.5733 86.0335 19.3314 17.1692 8.09219 116.896 46.2692
internal_count=9270 7974 1296 2388 1044 529 267 252 1859 262 243 107 5586 1839
is_linear=0
shrinkage=0.05


Tree=6
num_leaves=15
num_cat=0
split_feature=5 4 4 7 9 1 5 7 11 1 9 2 11 4
split_gain=32.2338 14.5544 13.4485 10.3896 4.58457 4.11379 3.60386 3.21662 3.06394 2.95644 2.78133 3.20125 2.6836 2.64725
threshold=0.01612148348897165 0.030556875292749756 0.044910881750625971 0.23411600798910373 -0.043531449693776002 0.066702132180194842 0.010165105976008974 0.1331811153122239 0.023980595796910083 -0.060135989332393107 0.0084189758770523166 0.06398466160151596 0.015498743039595479 0.15112976239453493
decision_type=2 2 2 2 2 2 2 2 2 2 2 2 2 2
left_child=2 3 -1 5 -3 10 -4 -7 9 -6 -2 -12 13 -8
right_child=1 4 6 -5 8 7 12 -9 -10 -11 11 -13 -14 -15
leaf_value=-0.031209696878867745 -0.0012790749662267408 -0.035171652209645132 -0.019219115412100588 0.06536876901728203 -0.026075868765033434 0.050827028237787134 0.0070402894263857131 -0.027261814368465379 -0.026053715846719217 0.03014512783081276 -0.028528673153960901 0.017624620772830515 -0.026847742977205089 0.041067925955309934
leaf_weight=85.273309007752687 87.98816900793463 2.1815714910626403 12.262360332533715 4.7992166811600319 1.6738480040803541 4.6931524481624356 21.091780375689275 1.0225674249231813 1.8710670806467522 92.556220148690045 19.396567184478048 3.8908664882183066 3.103483364917337 7.1437803674489251
leaf_count=4585 2041 34 439 29 37 39 431 19 16 843 540 74 73 70
internal_value=-1.85275e-10 0.0116144 -0.0197702 3.09873e-05 0.0258236 -0.0031806 0.00280082 0.0348774 0.0275562 0.0288831 -0.00542869 -0.0204092 0.0117447 0.0167598
internal_weight=348.948 220.073 128.875 121.791 98.2827 116.991 43.6014 5.71572 96.1011 94.2301 111.276 23.2874 31.339 28.2356
internal_count=9270 3672 5598 2742 930 2713 1013 58 896 880 2655 614 574 501
is_linear=0
shrinkage=0.05


Tree=7
num_leaves=15
num_cat=0
split_feature=6 4 5 4 7 5 7 2 5 7 7 2 7 4
split_gain=28.8318 22.3794 9.71822 8.87755 7.09437 5.6457 4.60497 3.0996 3.26651 2.79642 8.38881 7.81918 4.08018 4.32761
threshold=0.025253299408496736 0.063794651734372945 0.01786779921613612 0.19398772866322536 0.047479250697007765 0.024492180768431633 0.052831062812136183 0.035083816705298927 0.01029999587751758 0.23411600798910373 0.14570192579227773 -0.060612533429444997 0.083314559113557132 -0.096302512750575206
decision_type=2 2 2 2 2 2 2 2 2 2 2 2 2 2
left_child=1 2 -1 7 -2 -5 -6 8 -3 10 11 -8 -13 -14
right_child=4 3 -4 5 6 -7 9 -9 -10 -11 -12 12 13 -15
leaf_value=-0.02812774414369178 -0.045569756280044865 -0.026647404522357157 -0.0049003401822634279 0.061168936437452852 0.060779315330920139 -0.025883324934677099 -0.028060300316377046 -0.0086032942543036797 0.021116272234469654 0.050599290673646657 -0.024272375333749267 0.0083155376376982792 -0.038767655718469379 0.041194698609687004
leaf_weight=101.12381749600172 2.6730399262160054 3.2027599578723303 81.451702062040567 12.217333946377037 8.1520218327641469 1.5989461801946152 5.5094142528250734 20.970987541601062 28.858942366205156 7.2340480694547287 9.0600489014759642 15.959129346534615 1.0083399321883835 41.821035178378231
leaf_count=5379 28 140 1892 64 36 10 79 372 405 46 208 178 26 407
internal_value=-3.0493e-10 -0.0088084 -0.0178485 0.0157809 0.0238683 0.0500275 0.0264443 0.00609805 0.0156833 0.0222689 0.0188323 0.0251847 0.0305605 0.0384706
internal_weight=340.842 249.424 182.576 66.849 91.4171 13.8163 88.744 53.0327 32.0617 80.592 73.358 64.2979 58.7885 42.8294
internal_count=9270 8262 7271 991 1008 74 980 917 545 944 898 690 611 433
is_linear=0
shrinkage=0.05


Tree=8
num_leaves=15
num_cat=0
split_feature=4 5 4 6 5 5 9 11 5 11 7 11 5 8
split_gain=25.3551 19.0276 7.62177 6.71903 5.09893 4.02018 3.8137 2.93605 3.23034 2.53986 2.3329 2.29691 2.20926 2.29081
threshold=0.043849757710266675 0.01786779921613612 0.16706649897786965 0.025253299408496736 0.018971034358525953 0.034822836431848934 -0.0019871056518531139 0.015211574711071591 0.022580985093899785 0.015894468872209837 0.12671966757926875 0.014837723992942427 0.046177153296566818 0.021629966209206302
decision_type=2 2 2 2 2 2 2 2 2 2 2 2 2 2
left_child=1 -1 4 9 -2 7 -7 -4 -9 -3 -8 -5 13 -6
right_child=2 3 5 11 12 6 10 8 -10 -11 -12 -13 -14 -15
leaf_value=-0.027191598391423894 -0.0024991536463727609 -0.010610918848930036 0.049030249393784635 0.027571417549271112 0.02518474809137838 -0.02968072708455062 0.047977914134393153 -0.051714809372842056 0.026081930044559151 0.010786034421212537 -0.022583655173556257 -0.00096126276217260015 -0.038789212311025861 -0.033983366811884658
leaf_weight=94.800448164809495 46.289303855970502 56.142638893797994 27.287189278751615 27.254277270287275 40.431149404495955 3.7513045389205217 3.4763580560684186 0.86512391269206901 3.7289227191358805 17.426443317905068 0.91775614023208607 9.3122820314019901 0.61442782357334991 0.86612145882099767
leaf_count=5161 1145 1402 164 357 415 35 18 9 22 383 4 131 11 13
internal_value=3.13521e-10 -0.0108939 0.0173605 0.00325287 0.00895966 0.0352027 0.00332781 0.0429976 0.00480598 -0.00546591 0.0317858 0.0204729 0.0213786 0.0231697
internal_weight=333.164 204.936 128.228 110.136 88.201 40.0267 8.14542 31.8812 4.59405 73.5691 4.39411 36.5666 41.9117 41.2973
internal_count=9270 7434 1836 2273 1584 252 57 195 31 1785 22 488 439 428
is_linear=0
shrinkage=0.05


Tree=9
num_leaves=15
num_cat=0
split_feature=4 5 4 6 9 4 0 3 7 2 4 5 6 1
split_gain=24.3343 19.7915 5.9439 4.86603 3.90156 2.81307 2.12598 2.12377 6.8196 5.34691 4.06813 2.88286 4.30995 3.01482
threshold=0.14486942666840366 0.018001804448019555 0.044910881750625971 0.025253299408496736 -0.035833375522273836 0.057063032645895413 -0.012823564067326597 -0.12608476339889416 0.14570192579227773 -0.046130828197599498 -0.11671593278786845 0.027565502928945239 0.029676518121829181 -0.029997137733806464
decision_type=2 2 2 2 2 2 2 2 2 2 2 2 2 2
left_child=1 2 -1 5 6 -3 -2 10 9 -9 -5 -11 -13 -14
right_child=4 3 -4 7 -6 -7 -8 8 -10 11 -12 12 13 -15
leaf_value=-0.026394533500655709 0.015210276925315017 -0.004477957468370132 -0.0026182789266043487 0.062668148152141334 0.036532284426318541 0.015392047990105807 -0.053225334491708569 -0.022063169071127913 -0.029947717645518471 0.040224773032459873 -0.031241086006353072 -0.017687397414784083 -0.026129268592613549 0.048860510151748804
leaf_weight=93.815842006355524 1.7201318442821505 75.621889166533947 36.696709402371198 4.6838370393961668 44.234870180487633 22.207663554698229 1.1281497534364451 5.1169481854885808 6.4042562283575526 21.906900761649013 0.79476404562592406 6.5405796375125629 1.0013828072696922 5.7006779760122299
leaf_count=5221 12 1831 984 30 330 246 18 84 137 195 21 108 11 42
internal_value=-9.35891e-11 -0.00561522 -0.01978 0.00676045 0.032873 0.000142709 -0.018683 0.0189387 0.0148195 0.0224927 0.0463256 0.0294099 0.00995115 0.0357182
internal_weight=327.575 280.491 130.513 149.979 47.0832 97.8296 2.84828 52.1493 46.6707 40.2665 5.4786 35.1495 13.2426 6.70206
internal_count=9270 8910 6205 2705 360 2077 30 628 577 440 51 356 161 53
is_linear=0
shrinkage=0.05


Tree=10
num_leaves=15
num_cat=0
split_feature=5 4 6 3 4 5 1 5 11 9 11 1 11 5
split_gain=20.9049 14.353 8.71077 4.30945 3.85483 3.22781 2.44222 2.08453 3.4419 2.4867 2.43275 2.43119 2.02492 2.00759
threshold=0.011663258451643543 0.16706649897786965 0.025253299408496736 0.056338248894417194 0.063794651734372945 0.02208106354372321 0.041180979457110641 0.034822836431848934 0.011762852665911287 -0.0019871056518531139 0.015894468872209837 0.040242601445627753 0.014724894424052429 0.018654439856641714
decision_type=2 2 2 2 2 2 2 2 2 2 2 2 2 2
left_child=3 2 4 -1 5 -2 -6 10 -9 -10 -3 -12 -7 -4
right_child=1 7 13 -5 6 12 -8 8 9 -11 11 -13 -14 -15
leaf_value=-0.030415134799266087 -0.014540296569723957 0.047153189074296664 -0.003476047127505516 0.0052614141703471 0.014640825798323352 -0.0059939549968886325 -0.019684142081832771 -0.050631140494932808 -0.010485200842393086 0.045380415620095357 0.029269761732638719 -0.038191641558231071 0.016134906631699499 0.021324098934291366
leaf_weight=55.315729312133044 81.04947984078899 24.27292813919485 9.3510499792173487 9.644967199303208 31.97563255392015 26.282500375062227 5.2516674175858489 0.92306023091077705 2.7533996272832155 4.0986963361501694 2.2855096273124214 1.2527300026267765 15.67616443056613 51.714468309655786
leaf_count=3040 3531 143 193 253 438 601 93 9 28 20 15 13 275 618
internal_value=1.07471e-10 0.00642468 0.00162102 -0.0251186 -0.00451361 -0.00876947 0.00941034 0.0354364 0.0107872 0.0244554 0.041714 0.00223228 0.00245674 0.0175316
internal_weight=321.848 256.887 221.301 64.9607 160.235 123.008 37.2273 35.5863 7.77516 6.8521 27.8112 3.53824 41.9587 61.0655
internal_count=9270 5977 5749 3293 4938 4407 531 228 57 48 171 28 876 811
is_linear=0
shrinkage=0.05


Tree=11
num_leaves=15
num_cat=0
split_feature=4 5 4 7 7 2 9 6 6 9 6 4 0 11
split_gain=19.652 13.653 6.98254 5.49095 4.74857 3.84959 3.18115 2.62155 3.39177 2.58224 2.9612 2.94827 2.41818 2.26645
threshold=0.043849757710266675 0.01786779921613612 0.24699773336960154 0.025622788400389344 0.23411600798910373 0.06398466160151596 0.013893148287003316 0.027762022690278471 0.032176407521962803 -0.043531449693776002 0.017342025016155341 0.10256734289101889 -0.0011257875806487958 0.023980595796910083
decision_type=2 2 2 2 2 2 2 2 2 2 2 2 2 2
left_child=1 -1 3 -2 5 6 -3 -4 -9 -5 11 -11 -7 -12
right_child=2 4 7 9 -6 12 -8 8 -10 10 13 -13 -14 -15
leaf_value=-0.024174279428470963 -0.029572684520584133 0.00077386715601898768 0.060178323728594753 -0.027481698323489706 0.049023984190294412 -0.029365702619532308 -0.024495524816936468 -0.032448509296693052 0.035183803268376265 -0.016061584233510087 0.020957822739317528 0.022409000841939464 0.037882772330295016 -0.031105864631596938
leaf_weight=88.837875396478921 6.9934527575969687 78.758786676451564 9.9358498379588145 2.7925482206046572 4.1778653897345057 0.81003166548907657 13.781968723982571 1.6525110462680448 5.9568947367370129 12.630918494891377 73.566278114914894 6.8544024294242254 8.1592281870543939 1.2998237721621979
leaf_count=5161 211 1752 57 38 27 17 379 16 35 439 883 136 98 21
internal_value=-3.52067e-11 -0.00984255 0.0156866 0.0105355 0.00231792 -6.38501e-05 -0.00321111 0.0440437 0.0184333 0.0136948 0.0151889 -0.00209539 0.029473 0.0196558
internal_weight=316.208 194.526 121.683 104.137 105.688 101.51 92.5408 17.5453 7.60941 97.144 94.3514 19.4853 8.96926 74.8661
internal_count=9270 7434 1836 1728 2273 2246 2131 108 51 1517 1479 575 115 904
is_linear=0
shrinkage=0.05


Tree=12
num_leaves=15
num_cat=0
split_feature=4 5 4 7 1 7 5 2 6 6 1 3 3 6
split_gain=20.2163 12.1496 6.33368 4.0254 3.97534 2.99392 2.4831 2.39156 4.29321 3.02313 2.26632 2.23562 3.48782 2.14451
threshold=0.043849757710266675 0.01786779921613612 0.24699773336960154 0.025622788400389344 0.052366696568980416 0.21598335597797544 0.019066004270153411 0.052332089796605759 0.033840345038530291 0.032888011009672126 -0.019303479962731903 0.062739305605315723 0.12846120861544688 0.029102977136750825
decision_type=2 2 2 2 2 2 2 2 2 2 2 2 2 2
left_child=1 -1 3 -2 5 -3 -5 8 13 11 -4 -9 -13 -8
right_child=2 4 10 6 -6 -7 7 9 -10 -11 -12 12 -14 -15
leaf_value=-0.023695858689898625 -0.026740738655351655 -0.0038770284906751371 -0.010336259915736742 0.0046553872336208574 0.030822226910038289 0.033537442680799452 0.02364327255778453 -0.052633862092818721 -0.020373076494614527 0.030922137201963931 0.047841967300442295 0.023482924100459032 -0.049300048303098205 0.05362837693693151
leaf_weight=87.271267875563353 5.7265639305114737 90.987865439616144 1.4983400702476526 44.312265414278954 9.3968380624428374 4.6792085543274871 27.654554285109043 1.9440995864570121 3.718518814072012 4.2269095666706562 16.460543691180646 4.2801994252949953 1.3918300233781336 8.3734950348734838
leaf_count=5161 211 2097 15 1001 131 45 294 31 38 32 93 47 19 55
internal_value=-7.34581e-11 -0.0100209 0.0160662 0.0109897 0.0014546 -0.00171903 0.0134954 0.0208556 0.0266045 0.000992372 0.0426989 -0.0172795 0.000910845 0.0318724
internal_weight=311.922 192.335 119.587 101.628 105.064 95.6671 95.9019 51.5896 39.7466 11.843 17.9589 7.61613 5.67203 36.028
internal_count=9270 7434 1836 1728 2273 2142 1517 516 387 129 108 97 66 349
is_linear=0
shrinkage=0.05


Tree=13
num_leaves=15
num_cat=0
split_feature=4 5 9 6 8 7 5 3 4 6 6 2 4 2
split_gain=16.7051 13.2461 5.1938 3.28542 3.23702 3.04101 3.93655 3.29353 3.23063 3.15674 2.71372 2.57589 2.18115 2.06576
threshold=0.10256734289101889 0.018001804448019555 -0.035833375522273836 0.025253299408496736 -0.015037744648040202 0.12309636453756313 0.027565502928945239 -0.12608476339889416 -0.11671593278786845 0.030782352420441 0.013829987631713088 -0.044749389017405765 0.044910881750625971 -0.047332535639015398
decision_type=2 2 2 2 2 2 2 2 2 2 2 2 2 2
left_child=1 10 4 13 -2 6 11 8 -7 -8 -1 -5 -12 -3
right_child=2 3 -4 5 -6 7 9 -9 -10 -11 12 -13 -14 -15
leaf_value=-0.028321032567782112 0.0073656519395837701 0.011730661864206359 0.027080241768709004 -0.021874564310674117 -0.065946748625779386 0.049868195610522179 -0.019480907084830679 -0.013197733646594587 -0.032139644281610265 0.032196279204637947 -0.017394172205136293 0.04411459999516016 0.0023667737920604133 -0.0055441333725443735
leaf_weight=42.771621512714773 3.2651834208518267 22.553951404057443 57.626429289579391 1.0249868556857133 1.5427969330921758 3.782501358538866 6.5578865576535446 13.483566991984842 0.84101408347487705 3.8530899398028851 50.662443764973432 16.516710121184591 18.835348270833492 64.285159852355719
leaf_count=2699 33 460 628 17 23 30 103 255 21 34 2809 131 472 1555
internal_value=-1.20655e-11 -0.00589574 0.0228795 0.00477967 -0.0234631 0.0154195 0.0254714 -0.000618885 0.0318884 0.0007902 -0.0184634 0.039287 -0.0120809 -0.000975035
internal_weight=307.603 245.168 62.4344 132.899 4.80798 46.0598 27.9527 18.1071 4.62352 10.411 112.269 17.5417 69.4978 86.8391
internal_count=9270 8586 684 2606 56 591 285 306 51 137 5980 148 3281 2015
is_linear=0
shrinkage=0.05


Tree=14
num_leaves=15
num_cat=0
split_feature=4 6 4 5 9 5 4 6 5 9 5 2 7 7
split_gain=15.6935 11.5932 3.36854 4.98801 2.98722 2.96364 2.55209 2.77641 2.53036 4.02309 2.49061 2.32858 2.18887 2.43485
threshold=0.098967927316163121 0.017817768502999289 0.0028303915515282001 0.02208106354372321 -0.035833375522273836 0.010999566093273546 0.24699773336960154 0.021686267123913344 0.034822836431848934 -0.0019871056518531139 0.034822836431848934 0.11389289153945716 0.23411600798910373 0.12940104046702969
decision_type=2 2 2 2 2 2 2 2 2 2 2 2 2 2
left_child=1 5 3 -3 -2 -1 7 -6 -8 -10 -4 -9 13 -5
right_child=4 2 10 12 6 -7 8 11 9 -11 -12 -13 -14 -15
leaf_value=-0.030758627357345386 -0.015201575121139455 -0.016279937327119919 0.014103508837177614 0.012018673573720391 0.0035610824571082056 -0.012052660169264068 0.05048943013220334 0.033649828071030494 -0.050223368265466431 0.037246459678780583 -0.028557727819809593 -0.017826028424947769 0.041229697780935416 -0.011812192353971162
leaf_weight=36.812740497291088 4.4173451522365204 40.403550093062222 57.275550712831318 30.181476784870028 19.853147302754223 53.348186486400664 13.194490976631643 21.260193185880784 1.213748060166836 2.2393495216965666 2.718703467398881 1.8190050199627865 3.329239670187234 15.393369765952228
leaf_count=2293 58 1564 1039 496 361 2665 73 182 15 9 49 22 24 420
internal_value=-3.90135e-11 -0.00589219 0.00266967 -0.00348183 0.0217986 -0.0199439 0.0247475 0.0175966 0.0411469 0.00212715 0.0117338 0.0290209 0.00720606 0.00388876
internal_weight=303.46 239.463 149.302 89.3076 63.9973 90.1609 59.5799 42.9323 16.6476 3.4531 59.9943 23.0792 48.9041 45.5748
internal_count=9270 8550 3592 2504 720 4958 662 565 97 24 1088 204 940 916
is_linear=0
shrinkage=0.05


Tree=15
num_leaves=15
num_cat=0
split_feature=4 5 4 5 1 8 9 1 6 6 5 6 0 3
split_gain=13.4148 8.82188 4.66602 3.02249 2.78754 2.57467 2.14344 2.27685 2.15016 2.72418 2.78871 2.14682 1.92526 1.90429
threshold=0.043849757710266675 0.01786779921613612 0.24699773336960154 0.019066004270153411 0.052366696568980416 -0.020426596862010264 -0.043531449693776002 0.04637628165874242 0.033840345038530291 0.029102977136750825 0.034148860923551731 0.037090819448020972 -0.021456324016805636 0.018180108531108522
decision_type=2 2 2 2 2 2 2 2 2 2 2 2 2 2
left_child=1 -1 3 -2 -3 -4 -5 8 9 10 13 -10 -7 -8
right_child=2 4 5 6 -6 12 7 -9 11 -11 -12 -13 -14 -15
leaf_value=-0.020348898167477099 8.3869173291515848e-06 -0.0011778525552910537 -0.029386529225358074 -0.028689727520951187 0.026309127580378677 -0.017381324006889066 0.0029085717634892792 -0.0037060477972220059 -0.043433013555201017 0.053345290829729733 -0.040115871688845076 0.018357400667302692 0.045174592805209253 0.031887657188635572
leaf_weight=82.701285214629024 48.133585722651333 92.645152953453362 0.70156110078096645 1.5527459047734726 9.235373671166597 0.82113149389625029 8.3377044033259207 8.3607463575899583 1.4422237016260617 7.7713147662580004 0.96029131300747295 2.4104730077087879 15.514458725228902 18.268323637545109
leaf_count=5161 1207 2142 5 23 131 10 112 99 18 50 18 20 93 181
internal_value=-1.10847e-10 -0.0083211 0.0133962 0.00895655 0.00154532 0.0368338 0.0175527 0.0196225 0.0245677 0.0283687 0.0197065 -0.00895702 0.0412089 0.0232406
internal_weight=298.856 184.582 114.275 97.2374 101.881 17.0372 49.1038 47.5511 39.1903 35.3376 27.5663 3.8527 16.3356 26.606
internal_count=9270 7434 1836 1728 2273 108 521 498 399 361 311 38 103 293
is_linear=0
shrinkage=0.05


Tree=16
num_leaves=15
num_cat=0
split_feature=4 6 7 6 5 4 11 9 9 0 6 7 7 4
split_gain=12.9309 9.25016 3.05446 4.27589 4.0927 2.82763 2.59238 2.47959 2.41441 2.25444 2.13152 2.01329 1.89386 3.72564
threshold=0.098967927316163121 0.017817768502999289 0.09661288028568156 0.025253299408496736 0.030514192761038252 -0.082384554844923782 0.015358624277638474 -0.035833375522273836 -0.035986502705812266 0.053025143866792142 0.028662146252268077 0.11909083924733706 0.14570192579227773 -0.11671593278786845
decision_type=2 2 2 2 2 2 2 2 2 2 2 2 2 2
left_child=1 8 -3 4 5 -4 12 10 -1 -8 -2 -6 -5 -14
right_child=7 2 3 6 11 -7 9 -9 -10 -11 -12 -13 13 -15
leaf_value=0.0021467486574578334 0.015389517982869772 0.010139053749051921 -0.0057122677725639009 0.022993449939450433 0.043419087184188881 -0.033167136941608465 -0.031218682359618555 0.022998037941964811 -0.021565079155183828 0.026217439032705809 -0.044270958526953154 -0.0058236311144043143 0.021966856442565508 -0.037165742832189569
leaf_weight=12.315713016781954 2.3818157250061622 66.468049999326468 17.698876627720892 20.380088760517541 3.1040739938616744 20.217555981595069 5.4902922827750436 57.075513148680329 74.479656726587564 1.4702247045934198 1.8415960967540739 3.7824911428615451 5.1432595681399107 3.7164378724992257
leaf_count=697 28 1442 595 281 34 795 115 662 4261 19 30 129 70 112
internal_value=-9.29853e-11 -0.00536356 0.00227163 -0.00422898 -0.0144138 -0.0208277 0.00842479 0.020255 -0.0182144 -0.0173174 -0.0141202 0.0190633 0.0149227 -0.00409159
internal_weight=295.566 234.267 147.471 81.0033 44.803 37.9164 36.2003 61.2989 86.7954 6.96052 4.22341 6.88657 29.2398 8.8597
internal_count=9270 8550 3592 2150 1553 1390 597 720 4958 134 58 163 463 182
is_linear=0
shrinkage=0.05


Tree=17
num_leaves=15
num_cat=0
split_feature=4 5 4 5 9 2 9 5 3 0 10 0 7 5
split_gain=11.457 8.05383 2.98027 2.89053 3.64264 2.42462 3.66078 2.24077 2.10291 2.98636 2.81898 2.05152 1.88345 1.86788
threshold=0.063794651734372945 0.018001804448019555 0.16706649897786965 0.034822836431848934 -0.0019871056518531139 0.06398466160151596 0.013893148287003316 0.019066004270153411 0.042002651949699106 0.014097875671101103 0.16111111111111112 -0.0011257875806487958 0.23411600798910373 0.039307114566529723
decision_type=2 2 2 2 2 2 2 2 2 2 2 2 2 2
left_child=1 -1 7 -4 -5 6 12 -2 9 -9 -10 -7 -3 -6
right_child=2 5 3 4 13 11 -8 8 10 -11 -12 -13 -14 -15
leaf_value=-0.017466541519655095 -0.0014394762899205306 0.0022339766881708046 0.034765086828185882 -0.036741508051159326 -0.021714298337900173 -0.027988116810112554 -0.023285477418951126 0.040823211889563664 -0.043921700925843812 -0.0083587692378640222 0.012504083373792888 0.032006315243608516 0.036399954947845467 0.042507154742954009
leaf_weight=92.042950313538313 31.245625999756157 82.397899989038706 24.330887202173475 3.0028776582330465 0.85376457497477432 0.87146527692675668 13.402696663513778 11.953860778361561 1.7111639790236939 3.6573254158720365 11.105934074148534 9.1841087564825976 3.2532263770699492 3.1578154489398003
leaf_count=5586 741 1846 195 35 7 20 388 101 28 50 124 110 24 15
internal_value=-2.68339e-11 -0.0066574 0.0146253 0.0268985 -0.00132112 0.00253684 5.74945e-05 0.00784137 0.0177443 0.0294915 0.0023373 0.0247456 0.00393678 0.0272337
internal_weight=292.172 201.152 91.0193 31.3453 7.01446 109.109 99.0538 59.6739 28.4283 15.6112 12.8171 10.0556 85.6511 4.01158
internal_count=9270 7974 1296 252 57 2388 2258 1044 303 151 152 130 1870 22
is_linear=0
shrinkage=0.05


Tree=18
num_leaves=15
num_cat=0
split_feature=4 5 4 7 6 7 5 6 2 3 5 8 1 6
split_gain=10.995 7.10792 3.05496 2.40128 2.08057 2.50924 2.20758 1.91635 2.13527 2.43992 1.85291 1.79022 1.83827 1.65274
threshold=0.063794651734372945 0.018001804448019555 0.24699773336960154 0.025622788400389344 0.027762022690278471 0.048692564160561287 0.037531677906596526 0.025614282555239589 -0.047332535639015398 -0.097396888616253272 0.022735546749179925 0.021629966209206302 0.078635096996199874 0.033840345038530291
decision_type=2 2 2 2 2 2 2 2 2 2 2 2 2 2
left_child=1 -1 3 -2 6 -6 -4 8 9 -3 -11 12 -5 -14
right_child=2 7 4 11 5 -7 -8 -9 -10 10 -12 -13 13 -15
leaf_value=-0.016752369735915106 -0.023408579763216007 -0.019248870799538069 0.053036535785098843 0.015240262253617121 -0.04697615091476165 0.022208413996044132 -0.027756735786074977 0.011758331899696455 -0.0078192096021874932 -0.0015523943190893866 0.030772605377279456 -0.041040186104485336 -0.039078714304273572 0.018344850596763489
leaf_weight=90.937873872928321 4.1498188572004429 4.6215652376413372 9.0422229580581153 65.372443323023617 0.65680557489395042 5.6808324139565229 0.3187432140111931 34.050926689989865 52.866520779207349 6.9797067791223553 10.726424613036214 0.60207842942327161 2.1976870149374004 1.2982367686927316
leaf_count=5586 150 129 52 983 11 40 5 485 1439 159 176 11 34 10
internal_value=9.13877e-11 -0.00650639 0.0144928 0.00994949 0.0339274 0.00961349 0.0478721 0.00209717 -0.00237469 0.0102992 0.0186284 0.012246 0.0132926 -0.0184168
internal_weight=289.502 200.183 89.3189 73.6203 15.6986 6.33764 9.36097 109.245 75.1942 22.3277 17.7061 69.4704 68.8684 3.49592
internal_count=9270 7974 1296 1188 108 51 57 2388 1903 464 335 1038 1027 44
is_linear=0
shrinkage=0.05


Tree=19
num_leaves=15
num_cat=0
split_feature=4 5 4 7 6 6 7 7 5 7 4 7 7 7
split_gain=10.2713 6.26252 3.38619 2.36479 2.17619 2.12595 2.23445 2.0671 1.96867 1.80011 3.16975 2.24734 1.91732 2.24976
threshold=0.043849757710266675 0.021656161071158458 0.24699773336960154 0.025622788400389344 0.021616686032077888 0.027762022690278471 0.048692564160561287 0.069701565558472858 0.034822836431848934 0.12309636453756313 -0.1201349252446287 0.17451816866950817 0.12027041534623396 0.11347144334716998
decision_type=2 2 2 2 2 2 2 2 2 2 2 2 2 2
left_child=1 4 3 -2 -1 8 -7 -3 -4 12 11 -11 13 -9
right_child=2 7 5 -5 -6 6 -8 9 -10 10 -12 -13 -14 -15
leaf_value=-0.018123147115313484 -0.022923278694715814 -0.027197855162136766 0.054900839074821385 0.010297288563135524 -0.0017488584154826644 -0.045022296141475779 0.020791151805187133 0.014685752594762137 -0.012495678232783511 -0.011555388176088564 -0.017536958438525697 0.036688483751856571 0.040543564119165737 -0.018221176623616407
leaf_weight=87.328464410733432 4.7727026860229662 3.6748978253453961 8.0774583034217322 87.580363674089313 26.639820897486061 0.62896749936044116 5.5701117739081383 27.945135312154889 0.85633447766304094 3.2763891443610209 14.397717619314788 5.3500444889068604 4.8387040328234425 5.4369857739657155
leaf_count=5279 211 97 47 1517 876 11 40 470 10 86 430 64 38 94
internal_value=3.64371e-11 -0.00732807 0.0121512 0.00835332 -0.0143442 0.0333744 0.00878728 0.00501966 0.0478331 0.00735871 -0.00359933 0.0190681 0.0138833 0.00895208
internal_weight=286.374 178.888 107.486 92.3531 113.968 15.1329 6.19908 64.9199 8.93379 61.245 23.0242 8.62643 38.2208 33.3821
internal_count=9270 7434 1836 1728 6155 108 51 1279 57 1182 580 150 602 564
is_linear=0
shrinkage=0.05


Tree=20
num_leaves=15
num_cat=0
split_feature=4 5 4 5 7 7 6 7 3 10 6 8 6 2
split_gain=9.11241 6.12906 2.97464 2.35593 2.10311 2.43196 1.94207 1.70047 1.64612 1.84901 1.73468 1.78169 1.59292 1.79921
threshold=0.043849757710266675 0.021656161071158458 0.16706649897786965 0.018971034358525953 0.036010819136743651 0.047479250697007765 0.021616686032077888 0.069701565558472858 0.09288746287406148 0.25555555555555559 0.016807348738413028 0.018224333734519798 0.025253299408496736 0.026265777264849025
decision_type=2 2 2 2 2 2 2 2 2 2 2 2 2 2
left_child=1 6 3 -2 -4 -6 -1 -3 10 -10 -5 -12 13 -7
right_child=2 7 4 8 5 12 -8 -9 9 -11 11 -13 -14 -15
leaf_value=-0.017648144097739755 -0.0020433939232726299 -0.025106615304365754 0.042998940454694712 -0.017757014892473208 -0.036387478761372945 0.025396082642102153 -0.002105492864363121 0.0074129820714815406 -0.044887289143390352 0.0098082529623240849 0.025554337880537011 -0.019891687067810877 0.024678917513170813 -0.041929919632502664
leaf_weight=85.326923400629312 41.301751391496509 3.3331752568483344 9.6578963063657302 2.1958697559312013 1.25909710954875 0.86795332282781901 26.58188147097826 60.167759014293551 1.3563474919646967 3.7274444568902254 28.136924825608734 1.6090900506824244 16.02786323800683 1.3107445631176231
leaf_count=5279 1145 97 83 46 21 8 876 1182 23 45 298 27 120 20
internal_value=-5.4069e-11 -0.00701174 0.0114055 0.00617801 0.024793 0.0141005 -0.0140076 0.00534324 0.0151615 -0.00976399 0.0193045 0.022529 0.0193048 -0.0155569
internal_weight=282.861 175.41 107.451 78.3274 29.1236 19.4657 111.909 63.5009 37.0257 5.08379 31.9419 29.746 18.2066 2.1787
internal_count=9270 7434 1836 1584 252 169 6155 1279 439 68 371 325 148 28
is_linear=0
shrinkage=0.05


Tree=21
num_leaves=15
num_cat=0
split_feature=4 5 6 8 4 1 0 7 4 9 4 3 7 4
split_gain=8.65857 4.99393 2.50868 2.03292 2.34809 2.04699 1.98086 2.10348 2.99374 2.24984 2.30003 1.98208 1.97927 1.95876
threshold=0.063794651734372945 0.010899567945764573 0.025614282555239589 0.021629966209206302 0.24699773336960154 -0.019303479962731903 -0.025184344879949135 0.14570192579227773 -0.11283922728455024 -0.044328331853691075 -0.089035183128254078 -0.10391447800353325 0.025622788400389344 -0.13666568045871411
decision_type=2 2 2 2 2 2 2 2 2 2 2 2 2 2
left_child=1 -1 -3 4 12 -6 13 9 11 -8 -11 -9 -2 -4
right_child=3 2 6 -5 5 -7 7 8 -10 10 -12 -13 -14 -15
leaf_value=-0.021831274411083387 -0.02182389246410002 -0.005461818815231903 0.027704804633102337 -0.04331141663276758 -0.017922916668469884 0.037870111425628836 -0.029642948805487918 0.040544321520905563 -0.041774003351325542 -0.03059934698367113 0.027992970113228446 -0.018089360377000607 0.012022998971687198 -0.029198525583285579
leaf_weight=38.214564643334597 3.7046463815495363 117.0980442520231 1.1736282370984552 0.63172887731343408 1.2724905014038093 12.864721730351445 1.2538950257003332 2.3631826089695096 2.8355260035023084 0.99609868600964802 22.809900531545281 1.7450461760163305 68.271226475946605 4.7541083274409166
leaf_count=2524 150 4843 12 13 15 91 21 23 92 27 309 32 1027 91
internal_value=-1.23727e-11 -0.00588863 -0.00184405 0.0130359 0.0139417 0.0319959 0.00917777 0.0140922 -0.0092555 0.0206685 0.0244066 0.016973 0.0100057 -0.0155594
internal_weight=279.989 193.244 155.029 86.7448 86.1131 14.1372 37.9314 32.0036 6.94375 25.0599 23.806 4.10823 71.9759 5.92774
internal_count=9270 7974 5450 1296 1283 106 607 504 147 357 336 55 1177 103
is_linear=0
shrinkage=0.05


Tree=22
num_leaves=15
num_cat=0
split_feature=4 5 5 5 4 5 7 11 6 6 3 1 1 3
split_gain=7.49787 5.18962 2.24094 2.13584 1.96353 1.99847 2.45975 1.90463 1.90461 1.85021 1.68847 2.81644 1.58689 1.49315
threshold=0.043849757710266675 0.02208106354372321 0.010649446260398689 0.046177153296566818 0.16706649897786965 0.023707031038974934 0.047479250697007765 0.015894468872209837 0.021616686032077888 0.025253299408496736 -0.050614262215332599 0.05031281160501911 -0.044535908958918784 0.029011680548316491
decision_type=2 2 2 2 2 2 2 2 2 2 2 2 2 2
left_child=1 8 -2 4 -4 7 -7 -6 12 -8 -3 -12 -1 -13
right_child=2 10 3 -5 5 6 9 -9 -10 -11 11 13 -14 -15
leaf_value=0.0034327723148031789 -0.0092519328927508169 0.015099248290617885 0.0095044304168013741 -0.028062033426498486 0.045450673444306977 -0.042366118418597963 -0.032678683413716762 -0.01470834871193475 -0.0011809803470139908 0.023916186164869194 -0.0091030148515428306 -0.0047452586162571378 -0.018642918969485296 0.03943864724956201
leaf_weight=8.7806398696266097 12.086962256114928 24.958973230794072 66.011455508880317 2.1739882677793494 11.271248215809466 0.96144116297364135 0.75760851986706157 1.003857947885989 27.433827914297581 11.454470114782451 27.40170484315604 2.6496900124475351 76.380095891654491 4.4298508409410715
leaf_count=471 491 516 1097 27 98 14 12 12 905 85 571 49 4869 53
internal_value=3.72367e-10 -0.00642847 0.010423 0.0130337 0.0143034 0.0259216 0.0111002 0.0397935 -0.0126995 0.0181975 0.00546403 -0.00173934 -0.0163533 0.0243612
internal_weight=277.756 172.035 105.721 93.6341 91.4601 25.4486 13.1735 12.2751 112.595 12.2121 59.4402 34.4812 85.1607 7.07954
internal_count=9270 7434 1836 1345 1318 221 111 110 6245 97 1189 673 5340 102
is_linear=0
shrinkage=0.05


Tree=23
num_leaves=15
num_cat=0
split_feature=4 7 2 7 11 4 6 5 6 1 7 9 9 3
split_gain=6.76629 4.3862 2.9549 2.48291 1.95838 1.93084 1.9789 1.94785 1.8925 1.51745 1.49115 1.54224 1.78276 1.8267
threshold=0.063794651734372945 0.069457363727385105 0.04068559509360737 0.23411600798910373 0.01075488178717931 0.24699773336960154 0.027762022690278471 0.037531677906596526 0.032176407521962803 -0.043738147376612017 0.025622788400389344 -0.042178112301349553 -0.019767899551877553 0.15060698387504715
decision_type=2 2 2 2 2 2 2 2 2 2 2 2 2 2
left_child=1 9 3 -3 -4 10 7 -7 -8 -1 -2 -12 13 -13
right_child=5 2 4 -5 -6 6 8 -9 -10 -11 11 12 -14 -15
leaf_value=0.0099041404719394464 -0.020054632022339154 -0.0051299953891350628 0.033146656960536203 0.034436387509179843 0.002366840181007749 0.049201515016480478 -0.033260519929961804 -0.027264551812136925 0.020213894224950804 -0.021238578439709967 -0.021459909207714251 0.030037483677267635 0.0067351092566302496 -0.033027456704513396
leaf_weight=3.7253194916993371 3.5372717836871734 120.24349059304222 8.5392942880280334 3.109218928962945 11.642518344335256 7.4115180931985361 1.3494542036205528 0.29571490734815586 4.6914912573993206 42.152463937643915 2.8589626196771851 14.335830146446821 50.833565548062325 0.43315564468503076
leaf_count=129 150 4659 179 35 319 52 16 5 35 2653 41 153 836 8
internal_value=1.74282e-10 -0.00527303 -0.000929559 -0.00386378 0.0163404 0.0115745 0.0281686 0.0434733 0.00524122 -0.0185524 0.00806335 0.00978395 0.0114473 0.0262107
internal_weight=275.159 189.412 143.535 123.353 20.1818 85.747 13.7482 7.70723 6.04095 45.8778 71.9988 68.4615 65.6026 14.769
internal_count=9270 7974 5192 4694 498 1296 108 57 51 2782 1188 1038 997 161
is_linear=0
shrinkage=0.05


Tree=24
num_leaves=15
num_cat=0
split_feature=5 4 9 5 11 7 4 7 2 8 10 11 4 7
split_gain=6.00122 4.5024 2.16179 2.12084 1.99188 1.86479 2.96699 2.44918 2.23969 1.58483 1.23634 1.2231 1.5553 2.22636
threshold=0.010649446260398689 0.10561600551101781 -0.035833375522273836 0.019066004270153411 0.027667779864059008 0.12309636453756313 -0.13066248337924688 0.12027041534623396 -0.024263636030550647 -0.015037744648040202 0.13888888888888892 0.021358615805823874 0.015723789572246075 0.057384054663742586
decision_type=2 2 2 2 2 2 2 2 2 2 2 2 2 2
left_child=-1 3 9 10 -4 7 -7 11 -9 -3 -2 12 -5 -14
right_child=1 2 4 5 -6 6 -8 8 -10 -11 -12 -13 13 -15
leaf_value=-0.016933094065078185 0.0048457077566162361 0.0058289550905281304 0.021621150768474352 -0.0030534277887419789 -0.038290506034011018 0.015537790145972334 -0.016665852638535209 -0.018128665104054229 0.047970663253323269 -0.051316661247408225 -0.010249734077397304 0.032163279997132553 -0.011029755573663685 0.019354062700838878
leaf_weight=42.955129638779908 16.991370609495789 2.7663077227771287 42.767384779639542 38.084374655969441 0.54944721236824889 9.7290856204926985 20.784248598851264 1.0496109519153831 5.2115525472909203 0.94400091189891 57.574285356327891 3.0190428104251614 7.3130804887041476 23.057912123389542
leaf_count=2701 826 31 474 880 5 165 629 19 38 23 2961 50 147 321
internal_value=2.32763e-11 0.00322427 0.0168481 -0.000352909 0.0200143 0.00410366 -0.00623059 0.00818775 0.0359193 -0.0165182 -0.00679131 0.00529637 0.00366546 0.0119195
internal_weight=272.797 229.842 47.0271 182.815 43.3168 108.249 30.5133 77.7356 6.26116 3.71031 74.5657 71.4744 68.4554 30.371
internal_count=9270 6569 533 6036 479 2249 794 1455 57 54 3787 1398 1348 468
is_linear=0
shrinkage=0.05


Tree=25
num_leaves=15
num_cat=0
split_feature=4 5 7 7 2 9 11 4 6 6 11 0 7 3
split_gain=5.60056 4.53529 1.72626 3.82456 2.34699 2.06889 2.14653 1.5971 1.51221 1.87155 1.45956 1.39382 1.39189 1.29387
threshold=0.10561600551101781 0.018001804448019555 0.052196525168809134 0.092505688077539075 0.020257623023249075 -0.03558967540609654 0.01075488178717931 0.22243687806385651 0.021616686032077888 0.018085479063104159 0.013190807800337528 -0.023136593044996153 0.026573269114125945 0.10581963769606585
decision_type=2 2 2 2 2 2 2 2 2 2 2 2 2 2
left_child=1 -1 7 4 -4 -5 -7 8 9 12 -11 -6 -2 -3
right_child=2 13 3 5 11 6 -8 -9 -10 10 -12 -13 -14 -15
leaf_value=-0.011272927351184351 -0.015375007450664913 0.003859694035493578 0.0098162243764558996 -0.032521428607967216 0.015931266097857437 -0.024999705087144879 0.03793420101260752 0.038132565042197676 0.033663867379015576 -0.037019642507598698 0.017140111286758044 -0.040660084600548568 0.025536822040296461 -0.030361293569337686
leaf_weight=99.896555117797107 2.0716562056914025 118.18127510417253 4.9333358369767684 0.64110838621854682 0.74342636391520489 0.86130077391862769 9.2089796327054483 10.111104466021059 4.9697722103446713 2.9852448608726254 1.111031102016568 5.8053991040214896 6.8609839836135507 1.8361499235033978
leaf_count=6005 72 2586 61 14 7 9 67 83 48 52 13 98 124 31
internal_value=8.05475e-11 -0.00345612 0.0148822 0.00416824 -0.015277 0.0245373 0.0307795 0.0229074 0.0127974 0.00300585 -0.0218491 -0.0329764 0.0154559 0.00308959
internal_weight=270.217 219.914 50.3033 22.1936 11.4822 10.7114 10.0703 28.1098 17.9987 13.0289 4.09628 6.54883 8.93264 120.017
internal_count=9270 8622 648 256 166 90 76 392 309 261 65 105 196 2617
is_linear=0
shrinkage=0.05


Tree=26
num_leaves=15
num_cat=0
split_feature=4 5 9 6 5 7 7 7 11 6 2 6 5 6
split_gain=5.53867 4.14106 1.42594 1.44678 1.32108 1.28786 2.26939 2.37553 2.224 1.85989 1.53279 2.2258 1.72982 1.72257
threshold=0.10561600551101781 0.018001804448019555 -0.035833375522273836 0.029676518121829181 0.0098341194405475087 0.23411600798910373 0.12309636453756313 0.11832430463843598 0.014227480601754007 0.024324034580949287 -0.047904994370875968 0.023620242676318248 0.023522768999179943 0.018304482697124293
decision_type=2 2 2 2 2 2 2 2 2 2 2 2 2 2
left_child=1 4 3 -2 -1 6 7 10 9 -9 11 12 -3 -12
right_child=2 5 -4 -5 -6 -7 -8 8 -10 -11 13 -13 -14 -15
leaf_value=-0.019229646227931829 0.0084974154105256668 0.004526906514774792 0.017360781174234372 -0.0454603337331944 -0.0068013531672030574 0.029162210161268656 -0.0098577615518273144 -0.011724182413065014 -0.015071266636185091 0.051441353476783615 -0.015557581687836754 -0.01377086845612344 0.042657479910229286 0.0038740360110515529
leaf_weight=31.752388434484601 2.6946627926081415 5.4446204612031561 45.793129480443895 0.97375210281461466 67.407610449008644 3.4706686045974484 30.008442928083241 1.0175295015796999 1.6795552382245658 5.6446413304656744 13.777890272438524 3.8974458230659357 6.3398376759141684 48.987479807808995
leaf_count=2160 31 121 594 23 3845 29 862 25 28 45 486 69 63 889
internal_value=-6.03821e-10 -0.00342077 0.0149427 -0.0124951 -0.0109333 0.00281235 0.00178844 0.00588169 0.0297345 0.0415229 0.00300295 0.0164748 0.0267726 -0.000568568
internal_weight=268.89 219.428 49.4615 3.66841 99.16 120.268 116.797 86.789 8.34173 6.66217 78.4473 15.6819 11.7845 62.7654
internal_count=9270 8622 648 54 6005 2617 2588 1726 98 70 1628 253 184 1375
is_linear=0
shrinkage=0.05


Tree=27
num_leaves=15
num_cat=0
split_feature=4 5 4 1 7 6 6 7 11 4 8 0 2 1
split_gain=4.94729 3.58324 1.58177 1.6373 2.22061 2.33051 2.16386 1.53815 1.70173 1.92653 1.53076 1.51998 1.48654 1.47754
threshold=0.043849757710266675 0.021656161071158458 0.14486942666840366 0.04637628165874242 0.046842032870664581 0.020669014288625314 0.033840345038530291 0.036010819136743651 0.011762852665911287 0.32617339111272775 0.014361166485571319 -0.0065506027065937436 0.045868694967116326 0.052366696568980416
decision_type=2 2 2 2 2 2 2 2 2 2 2 2 2 2
left_child=1 12 3 4 5 -2 10 11 -9 -10 -6 -4 -1 -3
right_child=2 13 7 -5 6 -7 -8 8 9 -11 -12 -13 -14 -15
leaf_value=-0.012439396104294171 -0.013200220881330403 0.0013196990178455078 -0.0072371369315183858 -0.018037235434644507 0.018922656796286692 0.027617353654301919 -0.038261031558053257 -0.0096020953987617872 0.024523303624823745 -0.025969103134780427 -0.01546693412437662 0.040713205644807633 0.0093824048291233572 0.024120464739860598
leaf_weight=98.254062353633344 18.059078866615895 53.699674532748759 1.668535578995942 6.4183744098991147 35.585056165233254 3.3130764383822671 0.99072567652910848 7.1874183034524348 13.714674366638061 1.3389797210693366 2.8080858727917066 8.5566655099391919 7.7553709726780644 7.2136764824390402
leaf_count=5844 656 1172 24 127 563 43 20 94 124 19 67 99 311 107
internal_value=-3.3622e-11 -0.00525366 0.00876593 0.00426765 0.0068779 -0.00592112 0.0137981 0.0176675 0.00953032 0.0186943 0.0160786 0.0329411 -0.0107702 0.00436586
internal_weight=266.563 166.923 99.6407 67.1744 60.756 21.3722 39.3839 32.4663 22.2411 15.0537 38.3931 10.2252 106.009 60.9134
internal_count=9270 7434 1836 1476 1349 699 650 360 237 143 630 123 6155 1279
is_linear=0
shrinkage=0.05


Tree=28
num_leaves=15
num_cat=0
split_feature=4 5 7 6 6 2 6 7 7 7 2 9 3 6
split_gain=5.01281 3.7519 1.56607 1.6933 2.42325 2.87177 2.01497 1.46803 2.09735 1.59695 1.33947 1.30736 1.28733 1.27975
threshold=0.11704880593582491 0.010899567945764573 0.23411600798910373 0.037090819448020972 0.027425769178128345 -0.037465340244953065 0.026586954905017123 0.083797876578534672 0.061221273596649146 0.14570192579227773 0.13626554625851331 -0.035833375522273836 -0.059895316623110699 0.024184488438056814
decision_type=2 2 2 2 2 2 2 2 2 2 2 2 2 2
left_child=1 13 3 4 6 -6 -3 8 -7 -9 11 -2 -4 -1
right_child=10 2 12 -5 5 7 -8 9 -10 -11 -12 -13 -14 -15
leaf_value=-0.018740158401647274 -0.01009357125976483 -0.0013993431724817868 0.039262363656321221 -0.043535345043665338 -0.017410030284855476 0.029177368553364003 -0.033745445052425153 0.033383183315110136 -0.038538774740836709 -0.013518789687265951 -0.01532635781457295 0.020385744686106252 -0.020962069645714718 0.015726403258743787
leaf_weight=38.467599584721029 3.2812997177243224 148.72985074948519 3.1615137206390505 1.2752495948225249 4.8302100319415358 1.1714461278170376 3.9807172939181319 14.674175120890142 1.4751282278448341 1.509586602449416 2.5621470846235743 37.053199858404696 0.45067563094198604 2.1523292544297865
leaf_count=2694 48 5456 28 35 99 13 93 170 30 42 29 463 5 65
internal_value=-2.30237e-11 -0.00304172 6.64978e-05 -0.000676543 -0.000122952 0.0144276 -0.00245656 0.0230604 -0.00878395 0.0284761 0.0154439 0.017722 0.0288327 -0.0165799
internal_weight=264.775 221.878 181.259 177.646 176.371 23.6605 152.711 18.8303 2.64657 16.1838 42.8966 40.3345 3.61219 40.6199
internal_count=9270 8730 5971 5938 5903 354 5549 255 43 212 540 511 33 2759
is_linear=0
shrinkage=0.05


Tree=29
num_leaves=15
num_cat=0
split_feature=5 4 4 9 1 0 4 6 2 5 2 6 6 7
split_gain=4.27816 3.40933 1.88958 1.88729 1.74458 1.34569 1.32767 2.05795 1.56237 1.33923 1.42558 2.75127 2.0545 2.63087
threshold=0.010649446260398689 0.030556875292749756 -0.15594719991433667 -0.043531449693776002 -0.060135989332393107 0.043933116274239133 0.24699773336960154 0.025951171680061395 -0.03867004999026296 0.029233049867952384 0.052332089796605759 0.020669014288625314 0.020669014288625314 0.052831062812136183
decision_type=2 2 2 2 2 2 2 2 2 2 2 2 2 2
left_child=-1 2 -2 -3 -5 -4 7 8 -6 10 12 -12 13 -10
right_child=1 3 5 4 6 -7 -8 -9 9 -11 11 -13 -14 -15
leaf_value=-0.014714679687061952 0.021433814147390356 -0.026904287334400718 -0.005177155515805637 -0.025153616746654974 0.030239913238490009 0.021058480652611872 0.027641225921450931 0.02134339954111673 -0.012377278875460205 -0.02670777166319915 0.012882241377794777 -0.038155792587213841 0.02166999387905668 0.02243289483949305
leaf_weight=40.642327235080302 6.7075323089957228 2.4577979538589707 116.48380777006969 2.315037189051508 4.1821541357785454 4.126388404518365 11.497931279242037 24.890409272164106 16.387221662793312 2.9366136249154797 4.4893069742247445 4.3293435024097562 14.93664474505931 6.8954377542249849
leaf_count=2701 156 44 4737 44 64 73 96 263 480 52 87 86 215 172
internal_value=1.36436e-10 0.00273996 -0.0026113 0.00984064 0.0110895 -0.00411378 0.0122808 0.0097291 0.00410099 0.00136321 0.00363519 -0.013508 0.00783436 -0.00156857
internal_weight=263.278 222.636 127.318 95.3179 92.8601 120.61 90.5451 79.0471 54.1567 49.9746 47.038 8.81865 38.2193 23.2827
internal_count=9270 6569 4966 1603 1559 4810 1515 1419 1156 1092 1040 173 867 652
is_linear=0
shrinkage=0.05


Tree=30
num_leaves=15
num_cat=0
split_feature=4 7 2 7 3 11 7 3 5 4 7 4 5 8
split_gain=3.99829 3.15632 2.20423 1.81527 1.63541 1.63392 1.38089 1.46041 1.92768 1.48506 1.39301 1.32054 1.28225 1.26539
threshold=0.063794651734372945 0.069457363727385105 0.04068559509360737 0.21598335597797544 -0.097396888616253272 0.01075488178717931 0.070172267518790313 0.0011631175202557744 0.02208106354372321 0.020429417082186489 0.075737735922137242 -0.12839065533686297 0.019277048901360214 0.021629966209206302
decision_type=2 2 2 2 2 2 2 2 2 2 2 2 2 2
left_child=1 -1 3 4 -3 12 -6 8 9 -8 -9 -5 -4 -2
right_child=13 2 5 11 6 -7 7 10 -10 -11 -12 -13 -14 -15
leaf_value=-0.015629470886058365 0.010144063027305786 -0.024033545625512215 -0.0036931659613295767 0.03762926048007581 0.028893613158640353 0.0019778135705489082 -0.0089693178755824287 -0.044366834739856816 0.0090975055311862795 0.018792560798798694 -0.0088694725088822399 -0.017567442558318012 0.040425335100398939 -0.036658671702006519
leaf_weight=43.570408789906651 77.848901330493391 8.5281048468314093 1.9337907908484355 3.435464478097856 2.4291302175261071 11.28388212667778 47.384287985507399 2.4525483702309456 32.100067586638033 4.4119871053844681 18.432983216363937 0.7793891653418531 6.1661170804873109 0.51230757962912221
leaf_count=2782 1283 358 90 38 87 319 2690 105 656 94 648 18 89 13
internal_value=-1.87764e-10 -0.00404772 -0.000340587 -0.00290152 -0.00416822 0.0148723 -0.00238053 -0.00337184 -0.000366811 -0.00629342 -0.0148746 0.0260111 0.030644 0.00938001
internal_weight=261.269 182.908 139.338 119.954 115.739 19.3838 107.211 104.782 83.8963 51.7963 20.8855 4.21485 8.09991 78.3612
internal_count=9270 7974 5192 4694 4638 498 4280 4193 3440 2784 753 56 179 1296
is_linear=0
shrinkage=0.05


Tree=31
num_leaves=15
num_cat=0
split_feature=5 4 1 8 4 3 9 9 10 6 0 5 9 6
split_gain=3.6964 2.4425 1.97582 1.49377 1.41298 1.26906 1.07192 1.04501 1.23672 1.20303 1.02916 1.02358 3.04876 1.13136
threshold=0.011663258451643543 0.030556875292749756 -0.060135989332393107 0.021629966209206302 -0.15594719991433667 0.056338248894417194 0.011607665470346052 0.014796334673949094 0.7055555555555556 0.0080530814583392295 -0.0089470008588166099 0.037531677906596526 -0.002909981490863581 0.024768477087375496
decision_type=2 2 2 2 2 2 2 2 2 2 2 2 2 2
left_child=5 4 -3 11 6 7 -2 9 10 -1 -9 13 -13 -4
right_child=1 2 3 -5 -6 -7 -8 8 -10 -11 -12 12 -14 -15
leaf_value=0.017293208568774518 0.02547420365189252 -0.030487228251858869 0.0079690928255222466 -0.035089300126221468 -0.0030687900970114189 0.0053812322432891272 -0.023580978963345364 -0.017315240279465485 -0.017473618548634214 -0.023255277009505301 0.020031533572312056 -0.041325129538155557 0.024244129872361339 0.020436868807029659
leaf_weight=1.25573649350554 6.1495046159252515 2.0959753012284628 51.058495054021478 0.82069671433418889 113.6077042799443 8.3042764971032721 0.51187154231593002 1.7159342109225688 7.2915553906932473 26.742476688697934 5.4242328945547325 2.4861667510122061 2.6738055730238548 29.48163135536015
leaf_count=99 128 45 1006 18 4388 253 16 122 522 1907 390 37 22 317
internal_value=-4.89193e-11 0.00295067 0.00920068 0.0104995 -0.00169236 -0.0119709 0.0191188 -0.0154127 -0.00409697 -0.020903 0.0100318 0.0113357 -0.0089283 0.0127276
internal_weight=259.62 208.886 88.6168 86.5208 120.269 50.7342 6.66138 42.4299 14.4317 27.9982 7.14017 85.7001 5.15997 80.5401
internal_count=9270 5977 1445 1400 4532 3293 144 3040 1034 2006 512 1382 59 1323
is_linear=0
shrinkage=0.05


Tree=32
num_leaves=15
num_cat=0
split_feature=5 4 5 3 1 1 8 9 7 11 3 3 7 7
split_gain=3.34203 2.54579 1.72996 1.89382 1.93323 1.47684 1.5041 1.41792 1.28529 1.24 1.3326 1.56837 1.29613 1.22793
threshold=0.0098341194405475087 0.030556875292749756 0.02208106354372321 -0.050614262215332599 0.05031281160501911 -0.060135989332393107 0.021629966209206302 0.011607665470346052 0.1331811153122239 0.01075488178717931 0.036651439281726324 -0.040179380109105371 0.071118913742055492 0.21598335597797544
decision_type=2 2 2 2 2 2 2 2 2 2 2 2 2 2
left_child=-1 2 -2 7 9 -3 -7 13 -6 -5 11 -11 -13 -4
right_child=1 5 3 4 8 6 -8 -9 -10 10 -12 12 -14 -15
leaf_value=-0.0147458975102614 -0.0071094766229072683 -0.02592841521505973 0.011551554530355446 -0.030087044585901557 0.029981817116609584 0.01017148791068263 -0.037338350347896503 -0.027124596135014192 -0.019136667885852547 -0.028129855172684643 -0.031348165566118635 -0.023632872849357809 0.015412419507672359 0.042301939798260274
leaf_weight=32.480847504921257 77.082933629862964 2.1129455864429465 19.93381966743619 5.0597476353868904 4.727764042094349 92.277115957345814 0.73638244438916345 1.0441668201237906 0.98642944451421488 2.4530847286805573 2.5802982132881871 1.6249095154926134 11.848177658393977 3.2842337358742943
leaf_count=2257 4177 47 454 146 64 1644 18 26 28 55 67 47 211 29
internal_value=4.19666e-10 0.00217729 -0.00235148 0.00450316 -0.00402861 0.00835587 0.0094022 0.0145515 0.0199153 -0.0104087 -0.00376199 0.00229541 0.00939588 0.0174684
internal_weight=258.233 225.752 130.626 53.5426 29.2804 95.1264 93.0135 24.2622 5.71419 23.5662 18.5065 15.9262 13.4731 23.2181
internal_count=9270 7013 5304 1127 618 1709 1662 509 92 526 380 313 258 483
is_linear=0
shrinkage=0.05


Tree=33
num_leaves=15
num_cat=0
split_feature=4 5 7 11 3 11 7 7 7 7 6 4 1 5
split_gain=3.0907 2.66543 1.77189 1.56177 1.62275 1.46119 1.35801 1.58141 1.0524 2.02084 1.69976 1.50993 1.39718 1.11815
threshold=0.14486942666840366 0.019066004270153411 0.036010819136743651 0.011762852665911287 0.17060225697883682 0.015777744436215897 0.075043230210451908 0.12187786163556126 0.23411600798910373 0.14570192579227773 0.030782352420441 -0.10664025017868155 -0.029997137733806464 0.034148860923551731
decision_type=2 2 2 2 2 2 2 2 2 2 2 2 2 2
left_child=1 -1 5 -4 -5 -2 -6 -8 9 10 13 -11 -12 -3
right_child=2 8 3 4 6 -7 7 -9 -10 11 12 -13 -14 -15
leaf_value=-0.0072271395345075602 0.035245343722903354 0.0045450157633442822 -0.012700349093360971 0.023124313764017222 -0.048494562584500731 -0.027077383268783357 0.034338738727446069 -0.029387271201674475 0.028773568227428877 -0.0024771242530238695 -0.013540648058765212 -0.037592509213524195 0.034153325638316502 -0.016770229927725585
leaf_weight=117.58898268546909 9.6144359298050404 79.224628945812583 6.8121687602251795 11.194427061825989 0.72993103321641628 0.31120382808148939 1.2574915774166586 0.7545874286442994 3.0088814813643685 8.4765672003850323 1.3354542739689348 3.9335674280300728 6.7980870455503446 5.6856981916353098
leaf_count=6589 117 1702 94 109 15 6 9 10 27 223 27 151 67 124
internal_value=9.60033e-11 -0.00204112 0.0146315 0.00573991 0.0150004 0.0309918 -0.0154824 0.00861759 0.00359591 0.00261398 0.00518065 -0.0155807 0.0256973 0.00293913
internal_weight=256.726 226.052 30.6742 20.7486 13.9364 9.92564 2.74201 2.01208 108.463 105.454 93.0439 12.4101 8.13354 84.9103
internal_count=9270 8910 360 237 143 123 34 19 2321 2294 1920 374 94 1826
is_linear=0
shrinkage=0.05


Tree=34
num_leaves=15
num_cat=0
split_feature=5 4 7 7 9 9 4 5 10 6 1 9 7 7
split_gain=2.84956 2.19193 1.64503 2.8209 1.64959 1.92801 2.19179 1.35268 1.32005 1.1439 2.17643 2.25133 1.79302 1.72518
threshold=0.010649446260398689 0.12967663446259928 0.052831062812136183 0.071118913742055492 -0.034551129919515353 0.020590065051952787 0.27597081720500521 0.039307114566529723 0.05000000000000001 0.027425769178128345 -0.025690162958627468 -0.020740661406079514 0.18806106137364223 0.097465840674084273
decision_type=2 2 2 2 2 2 2 2 2 2 2 2 2 2
left_child=-1 9 -3 8 -5 6 -6 -7 -4 12 11 -11 13 -2
right_child=1 2 3 4 5 7 -8 -9 -10 10 -12 -13 -14 -15
leaf_value=-0.012359847375755255 0.0017214126836198466 0.023842081398651401 0.018936100205764621 -0.030168160560952673 0.045418673160182089 -0.033708142120695048 -0.015970760094199628 0.023282864226613145 -0.040673564210644074 0.0064519168680736193 0.017141148201133306 -0.048137263041357028 0.026972615909705677 -0.0091104617461405593
leaf_weight=38.470091665163636 93.211869040504098 17.750424045138061 0.54415389150381033 0.90897601842880149 5.8080356642603856 1.6032682545483115 1.3023586198687551 0.84919538348913182 3.4129747627303004 4.5993435932323337 20.766382791101933 1.9883831469342137 4.3324579428881398 59.4240154735744
leaf_count=2701 3304 209 4 18 48 19 14 5 60 79 298 56 83 2372
internal_value=1.12404e-11 0.00224294 0.0140736 0.00129 0.0148324 0.0215609 0.0335917 -0.0129463 -0.0303101 0.000112733 0.0093593 -0.0141974 -0.00154767 -0.00252749
internal_weight=254.972 216.502 32.1794 14.429 10.4718 9.56286 7.11039 2.45246 3.95713 184.322 27.3541 6.58773 156.968 152.636
internal_count=9270 6569 377 168 104 86 62 24 64 6192 433 135 5759 5676
is_linear=0
shrinkage=0.05


Tree=35
num_leaves=15
num_cat=0
split_feature=5 4 5 3 1 8 7 9 5 11 4 6 6 7
split_gain=2.6626 1.99971 1.45051 1.51578 1.74366 1.37792 1.31856 1.30306 1.16973 1.81929 1.81829 1.53778 1.58824 1.21381
threshold=0.0098341194405475087 0.030556875292749756 0.02208106354372321 -0.050614262215332599 0.05031281160501911 0.021629966209206302 0.1331811153122239 0.011607665470346052 0.034822836431848934 0.015054629445111621 0.24699773336960154 0.027762022690278471 0.035481725254819206 0.092505688077539075
decision_type=2 2 2 2 2 2 2 2 2 2 2 2 2 2
left_child=-1 2 -2 7 -5 8 -6 -4 10 13 -3 -12 -13 -10
right_child=1 5 3 4 6 -7 -8 -9 9 -11 11 12 -14 -15
leaf_value=-0.013389035214474602 -0.0064448293049256854 0.0073330859474454307 0.016097451529490416 -0.0097590180843638158 0.029485870947905186 -0.037026279142371131 -0.020185408900790448 -0.026870387693054183 -0.047611218464831018 0.014631229958948697 0.044885672658183988 -0.031264319389737477 0.026094716158245202 0.00038985128472781888
leaf_weight=31.423426043707877 76.516204758081585 76.265886950772256 22.946059930138293 22.729125923477117 4.699006423354148 0.74119662493467231 0.97399970330297936 1.0122861489653576 2.2253947770223004 3.7529655937105417 5.3257957361638528 1.1802238626405597 1.7036415934562683 2.1986695770174265
leaf_count=2257 4177 1505 483 526 64 18 28 26 40 47 46 17 13 23
internal_value=-6.19441e-12 0.00194436 -0.00209089 0.00427322 -0.00351603 0.00747588 0.0192109 0.0132781 0.00822344 -0.00901994 0.00997856 0.0310896 0.000614734 -0.0280819
internal_weight=253.694 222.27 128.877 52.3605 28.4021 93.3938 5.67301 23.9583 92.6526 8.17703 84.4755 8.20966 2.88387 4.42406
internal_count=9270 7013 5304 1127 618 1709 92 509 1691 110 1581 76 30 63
is_linear=0
shrinkage=0.05


Tree=36
num_leaves=15
num_cat=0
split_feature=4 6 3 7 4 9 2 4 5 7 9 5 7 1
split_gain=2.40163 2.26589 1.66301 1.66257 2.91174 2.35867 2.25192 1.61192 1.60188 1.54258 1.62324 1.48999 1.79634 1.40739
threshold=0.15112976239453493 0.025614282555239589 0.10189132635698729 0.14570192579227773 -0.11283922728455024 -0.044328331853691075 -0.062907797902648707 -0.09003795283924558 0.010899567945764573 0.11909083924733706 -0.025300996977612168 0.023707031038974934 0.047479250697007765 -0.027092602303611876
decision_type=2 2 2 2 2 2 2 2 2 2 2 2 2 2
left_child=1 2 8 5 6 -3 -5 -7 -1 10 -9 -2 -13 -11
right_child=11 3 -4 4 -6 7 -8 9 -10 13 -12 12 -14 -15
leaf_value=-0.012622374858052324 0.024800449783533147 -0.026638548928697981 -0.033556170451185134 0.038227855258889776 -0.039787487123324361 -0.029080841150013133 -0.018749998463251229 0.030711422056147127 -0.0009532302194752752 -0.010186470952836214 0.0014707460700348219 -0.044569036535744656 0.0078948799398273935 0.039043521813122303
leaf_weight=36.267478056950495 13.721859079785647 2.5942203281447282 3.7148776054382315 2.7659900253638625 3.6143487528897804 0.99565292894840141 2.3748539099469781 5.7773258127272085 140.41048757685348 1.2568700993433584 16.202669110149152 0.86847708746790786 11.906951976008711 9.9087604451924545
leaf_count=2744 183 44 89 32 133 33 47 62 5323 30 281 15 126 128
internal_value=1.0009e-10 -0.00169131 -0.00420862 0.00816686 -0.0105489 0.0127887 0.0131394 0.0164574 -0.00340617 0.0186369 0.0101585 0.0139552 0.00135187 0.0331201
internal_weight=252.381 225.884 180.393 45.4907 8.75519 36.7355 5.14084 34.1413 176.678 33.1456 21.98 26.4973 12.7754 11.1656
internal_count=9270 8946 8156 790 212 578 79 534 8067 501 343 324 141 158
is_linear=0
shrinkage=0.05


Tree=37
num_leaves=15
num_cat=0
split_feature=4 7 5 2 1 4 6 7 9 2 7 6 6 6
split_gain=2.20244 2.27977 1.32966 1.49617 1.26387 1.15336 1.59258 1.6694 1.44251 1.27361 1.19122 1.08678 1.08108 1.0233
threshold=0.043849757710266675 0.069457363727385105 0.021656161071158458 0.016340376810355498 -0.011643441543469578 0.24699773336960154 0.02643804622114743 0.048692564160561287 -0.0019871056518531139 0.11389289153945716 0.025622788400389344 0.0085592929422303732 0.015029893918561845 0.023117542895165225
decision_type=2 2 2 2 2 2 2 2 2 2 2 2 2 2
left_child=1 11 3 4 -3 9 -7 -8 -9 10 -2 -1 -5 -14
right_child=5 2 -4 12 -6 6 7 8 -10 -11 -12 -13 13 -15
leaf_value=0.015236414452700634 -0.018635713471260782 -0.0029864185518820095 0.0052558472160869601 0.033464829301672078 -0.018542056013278969 0.037903899453642094 -0.044005158576728438 -0.020501800270595602 0.029061623027027562 -0.027116352114335208 0.0066540969905489709 -0.017767600725630182 -0.0091065140969438848 0.015910159511318307
leaf_weight=1.9638516744598771 4.0063304263167074 35.034732295200229 55.32552311103791 2.3216742314398315 20.283953638747334 5.3016182594001275 0.63430318888276804 1.3800007849931715 3.2824516706168652 2.1943684406578532 75.114920623134822 29.765656470321119 8.5268839513882977 6.1738312877714625
leaf_count=174 211 1930 1183 129 1159 51 12 21 24 37 1480 2202 489 168
internal_value=-1.76476e-10 -0.00354846 -0.000526052 -0.00495934 -0.00891823 0.00612565 0.0209166 0.000594421 0.0133618 0.00396717 0.00515693 -0.0153218 0.00768707 0.00174388
internal_weight=251.31 159.396 127.667 72.3411 55.3187 91.914 10.5984 5.29676 4.66245 81.3156 79.1213 31.7295 17.0224 14.7007
internal_count=9270 7434 5058 3875 3089 1836 108 57 45 1728 1691 2376 786 657
is_linear=0
shrinkage=0.05


Tree=38
num_leaves=15
num_cat=0
split_feature=4 6 7 4 5 6 2 7 7 3 7 3 6 7
split_gain=2.1017 1.94896 1.25303 1.39668 1.90101 1.93845 1.65652 2.47718 1.61455 1.51849 1.61929 1.45458 1.52813 1.77528
threshold=0.24699773336960154 0.025614282555239589 0.18806106137364223 0.057063032645895413 0.030514192761038252 0.02394234027058419 0.023891721526266178 0.036434325303553013 0.025622788400389344 0.096754432333361576 0.071761495326357408 0.010297955166162278 0.020318472624127022 0.053318226151777455
decision_type=2 2 2 2 2 2 2 2 2 2 2 2 2 2
left_child=1 2 3 4 -1 -6 11 8 -8 -9 -11 -5 13 -13
right_child=-2 -3 -4 6 5 -7 7 9 -10 10 -12 12 -14 -15
leaf_value=-0.0081606698898393209 0.021139313324881975 0.0073717874531500447 0.025645682384870406 -0.0083924162309949018 0.024173482395148292 -0.027425875942013331 -0.016169860883999129 -0.0073663638863942296 0.027247746410777429 -0.056626335488824509 0.0104454600579815 -0.0054655971743089822 0.034292204756289177 0.036916184875335149
leaf_weight=126.44029335281812 10.233236753381787 53.159104694612324 2.6593320136889806 5.9905324191786375 7.7975708097219449 1.4083361756056545 2.3127699624747056 11.305554212071 5.9583381935954094 2.7724411748349662 0.81996013410389412 8.7891666861251014 7.7799411676824084 2.3355158781632772
leaf_count=6922 108 873 59 129 186 42 105 260 119 65 14 265 87 36
internal_value=-2.61863e-11 -0.000987253 -0.00339816 -0.00395516 -0.00653791 0.0143659 0.00331856 -0.00617419 0.0146727 -0.017943 -0.0423763 0.0120504 0.0186245 0.0057429
internal_weight=249.762 239.529 186.37 183.71 135.646 9.20591 48.0642 23.1691 8.27111 14.898 3.5924 24.8952 18.9046 11.1247
internal_count=9270 9162 8289 8230 7150 228 1080 563 224 339 79 517 388 301
is_linear=0
shrinkage=0.05


Tree=39
num_leaves=15
num_cat=0
split_feature=4 7 4 5 8 7 7 2 9 11 9 3 5 3
split_gain=1.84699 2.1082 1.88458 1.38093 1.43097 1.34304 2.53433 1.76398 1.53367 1.30971 1.27784 1.40896 1.25807 1.2978
threshold=0.10561600551101781 0.055319768755990768 0.030556875292749756 0.035506235527237563 0.014361166485571319 0.052196525168809134 0.092505688077539075 0.020257623023249075 -0.03558967540609654 0.01075488178717931 0.019329746175432604 0.044152131180230876 0.02208106354372321 -0.050614262215332599
decision_type=2 2 2 2 2 2 2 2 2 2 2 2 2 2
left_child=1 -1 12 4 10 -2 7 -7 -8 -10 -4 -12 -3 -14
right_child=5 2 3 -5 -6 6 8 -9 9 -11 11 -13 13 -15
leaf_value=-0.012786741432285996 0.016786825403676525 -0.0061624123646979063 0.020655444670550204 -0.028271176885305678 -0.016591650393178527 0.0056106024651632882 -0.031037089466133389 -0.033911761110695181 -0.021977585616984496 0.030278571116037625 -0.033269785883772642 0.011436834213701808 0.012028848474853859 -0.0036307603499614819
leaf_weight=36.083438175963238 24.358631197363138 82.136859470047057 25.199745439924303 1.2583467429503787 2.9701033793389788 4.5464081093668955 0.58346514217555423 5.516293867956847 0.6614091992378216 7.5845243725925684 1.6999524761922646 4.1496104025281966 23.888011689297855 27.503959188237786
leaf_count=2100 392 4726 448 30 74 61 14 105 9 67 52 77 509 606
internal_value=2.36204e-10 -0.00199183 0.000377362 0.010489 0.0126891 0.00926759 -0.000783884 -0.0171622 0.0177292 0.0241634 0.0159203 -0.00451585 -0.00235221 0.0037388
internal_weight=248.141 204.89 168.807 35.2778 34.0194 43.2507 18.8921 10.0627 8.8294 8.24593 31.0493 5.84956 133.529 51.392
internal_count=9270 8622 6522 681 651 648 256 166 90 76 577 129 5841 1115
is_linear=0
shrinkage=0.05


end of trees

feature_importances:
momentum_20d=105
drawdown_20d=95
volatility_5d=92
volatility_20d=80
market_return_5d=40
momentum_5d=32
momentum_10d=31
momentum_3d=30
market_dispersion_1d=25
market_return_1d=14
momentum_1d=11
market_breadth_1d=5

parameters:
[boosting: gbdt]
[objective: lambdarank]
[metric: ndcg]
[tree_learner: serial]
[device_type: cpu]
[data_sample_strategy: bagging]
[data: ]
[valid: ]
[num_iterations: 40]
[learning_rate: 0.05]
[num_leaves: 15]
[num_threads: 1]
[seed: 20260720]
[deterministic: 1]
[force_col_wise: 1]
[force_row_wise: 0]
[histogram_pool_size: -1]
[max_depth: -1]
[min_data_in_leaf: 2]
[min_sum_hessian_in_leaf: 0.001]
[bagging_fraction: 1]
[pos_bagging_fraction: 1]
[neg_bagging_fraction: 1]
[bagging_freq: 0]
[bagging_seed: 843]
[bagging_by_query: 0]
[feature_fraction: 1]
[feature_fraction_bynode: 1]
[feature_fraction_seed: 57]
[extra_trees: 0]
[extra_seed: 8811]
[early_stopping_round: 0]
[early_stopping_min_delta: 0]
[first_metric_only: 0]
[max_delta_step: 0]
[lambda_l1: 0]
[lambda_l2: 1]
[linear_lambda: 0]
[min_gain_to_split: 0]
[drop_rate: 0.1]
[max_drop: 50]
[skip_drop: 0.5]
[xgboost_dart_mode: 0]
[uniform_drop: 0]
[drop_seed: 21666]
[top_rate: 0.2]
[other_rate: 0.1]
[min_data_per_group: 100]
[max_cat_threshold: 32]
[cat_l2: 10]
[cat_smooth: 10]
[max_cat_to_onehot: 4]
[top_k: 20]
[monotone_constraints: ]
[monotone_constraints_method: basic]
[monotone_penalty: 0]
[feature_contri: ]
[forcedsplits_filename: ]
[refit_decay_rate: 0.9]
[cegb_tradeoff: 1]
[cegb_penalty_split: 0]
[cegb_penalty_feature_lazy: ]
[cegb_penalty_feature_coupled: ]
[path_smooth: 0]
[interaction_constraints: ]
[verbosity: -1]
[saved_feature_importance_type: 0]
[use_quantized_grad: 0]
[num_grad_quant_bins: 4]
[quant_train_renew_leaf: 0]
[stochastic_rounding: 1]
[linear_tree: 0]
[max_bin: 255]
[max_bin_by_feature: ]
[min_data_in_bin: 3]
[bin_construct_sample_cnt: 200000]
[data_random_seed: 4432]
[is_enable_sparse: 1]
[enable_bundle: 1]
[use_missing: 1]
[zero_as_missing: 0]
[feature_pre_filter: 1]
[pre_partition: 0]
[two_round: 0]
[header: 0]
[label_column: ]
[weight_column: ]
[group_column: ]
[ignore_column: ]
[categorical_feature: ]
[forcedbins_filename: ]
[precise_float_parser: 0]
[parser_config_file: ]
[objective_seed: 7759]
[num_class: 1]
[is_unbalance: 0]
[scale_pos_weight: 1]
[sigmoid: 1]
[boost_from_average: 1]
[reg_sqrt: 0]
[alpha: 0.9]
[fair_c: 1]
[poisson_max_delta_step: 0.7]
[tweedie_variance_power: 1.5]
[lambdarank_truncation_level: 30]
[lambdarank_norm: 1]
[label_gain: 0,1,3,7,15]
[lambdarank_position_bias_regularization: 0]
[eval_at: 1,2,3,4,5]
[multi_error_top_k: 1]
[auc_mu_weights: ]
[num_machines: 1]
[local_listen_port: 12400]
[time_out: 120]
[machine_list_filename: ]
[machines: ]
[gpu_platform_id: -1]
[gpu_device_id: -1]
[gpu_use_dp: 0]
[num_gpu: 1]

end of parameters

pandas_categorical:null
