tree
version=v4
num_class=1
num_tree_per_iteration=1
label_index=0
max_feature_idx=4
objective=lambdarank
feature_names=rank_pct_5d rank_pct_20d rank_momentum_5d momentum_5d momentum_20d
feature_infos=[0:1] [0:1] [-1:0.97752808988764039] [-0.25743860440229616:0.28092117351019485] [-0.28062547585271636:0.58906651566951895]
tree_sizes=1757 1743 1746 1734 1739 1739 1726 1732 1737 1739 1742 1733 1734 1740 1745 1734 1750 1756 1747 1743 1738 1745 1756 1763 1754 1741 1747 1749 1744 1740 1746 1744 1754 1780 1750 1759 1778 1768 1756 1756

Tree=0
num_leaves=15
num_cat=0
split_feature=1 4 4 2 3 3 4 3 0 2 2 0 2 4
split_gain=22.13 3.40018 3.06871 2.60985 1.5981 1.39888 1.57337 2.80684 1.3301 1.19331 1.15016 1.65342 1.109 0.97417
threshold=0.76966292134831471 0.043849757710266675 -0.036355178634626166 0.41011235955056186 0.047103103352375338 0.04068559509360737 -0.0022111322464469225 -0.023036985423729058 0.039325842696629219 0.022471910112359567 -0.011235955056179759 0.18539325842696633 -0.21348314606741572 -0.034565724572210292
decision_type=2 2 2 2 2 2 2 2 2 2 2 2 2 2
left_child=2 4 10 5 -2 6 -4 12 -3 -10 -1 -12 -8 -5
right_child=1 8 3 13 -6 -7 7 -9 9 -11 11 -13 -14 -15
leaf_value=-0.011143627341101586 0.0033734711751832709 -0.010731015528617972 -0.027168561780099999 0.011877590333762397 0.036238105851022981 0.008212754807185944 0.027605182127160934 -0.016753087541817077 0.043796440578917857 0.011814946360438068 0.022158204194457558 -0.0023719354898602053 -0.0098503351679521019 -0.054272734624177123
leaf_weight=28.030484938528389 16.287999179679904 0.96383917471394198 21.195873663760722 0.26206723088398565 3.8840904068201771 5.7203266099095336 5.0997566408477724 28.934997257776558 26.237311391159896 4.2764626410789779 7.0328110167756668 46.544755048118532 2.3030291046015909 4.7614168999716631
leaf_count=1328 752 56 1109 10 139 236 185 1378 1013 203 291 2235 117 218
internal_value=3.06241e-10 0.0279104 -0.00973901 -0.0174832 0.0111142 -0.0142169 -0.0165492 -0.00979315 0.0380005 0.0398314 -0.00312664 0.00119499 0.0161671 -0.0494228
internal_weight=201.535 51.6497 149.886 68.2775 20.1721 63.254 57.5337 36.3378 31.4776 30.5138 81.6081 53.5776 7.40279 5.02348
internal_count=9270 2163 7107 3253 891 3025 2789 1680 1272 1216 3854 2526 302 228
is_linear=0
shrinkage=0.05


Tree=1
num_leaves=15
num_cat=0
split_feature=1 4 3 3 2 4 3 4 4 4 1 4 4 1
split_gain=53.4816 14.3113 11.0176 5.70842 5.31792 3.8416 3.83372 5.63984 4.89948 3.83203 5.1695 3.37733 3.30231 2.76233
threshold=0.79213483146067432 0.19398772866322536 -0.047904994370875968 -0.019082322983991536 1.0000000180025095e-35 -0.071064877904003551 0.06398466160151596 0.054181642789412073 0.063794651734372945 -0.038685755644664248 0.75842696629213491 0.10561600551101781 0.090327180827336387 0.97191011235955072
decision_type=2 2 2 2 2 2 2 2 2 2 2 2 2 2
left_child=2 6 5 -3 -5 -1 8 -8 13 -4 -11 -9 -10 -2
right_child=1 3 9 4 -6 -7 7 11 12 10 -12 -13 -14 -15
leaf_value=0.015652173502786117 0.0004953393030733954 -0.032924650607588923 -0.016269888861348756 0.05755802590145509 -0.0017323515383831001 -0.016590382942800956 0.050554320839634848 -0.017618152977513825 0.027096233198794922 -0.036927940189936261 -0.0025311401314605225 0.024164046598659922 0.0080810285811143273 -0.044754237953021275
leaf_weight=27.700861925259233 71.883830537088215 1.5410369606688608 93.268564560450613 28.775486163794994 4.2663971558213225 12.682505059987305 13.228486191481354 7.0411274675279882 36.436833310872316 68.079008339904249 13.157522159628568 11.36312549561262 61.950145049020648 2.5378062427043906
leaf_count=712 838 25 2844 125 30 432 94 55 262 3096 229 103 401 24
internal_value=2.51032e-10 0.0162412 -0.0180569 0.0455565 0.0500764 0.0053701 0.0110847 0.026856 0.00805984 -0.0234781 -0.0314554 0.00809479 0.0153249 -0.00162062
internal_weight=453.913 239.024 214.888 34.5829 33.0419 40.3834 204.441 31.6327 172.809 174.505 81.2365 18.4043 98.387 74.4216
internal_count=9270 1957 7313 180 155 1144 1777 252 1525 6169 3325 158 663 862
is_linear=0
shrinkage=0.05


Tree=2
num_leaves=15
num_cat=0
split_feature=1 4 4 1 3 4 2 3 0 0 2 3 2 1
split_gain=66.3377 15.5167 7.62861 11.3068 5.61945 5.25941 3.80318 3.26708 2.53438 2.37997 2.20542 1.97279 2.81334 2.05899
threshold=0.8370786516853933 0.16706649897786965 -0.06903849886320633 0.75842696629213491 0.13626554625851331 -0.037984494217955349 1.0000000180025095e-35 -0.047904994370875968 0.65730337078651691 0.039325842696629219 0.24157303370786518 -0.033626924451793154 -0.74719101123595488 0.97191011235955072
decision_type=2 2 2 2 2 2 2 2 2 2 2 2 2 2
left_child=2 9 7 5 6 8 -3 10 -4 -2 -1 13 -13 -11
right_child=1 4 3 -5 -6 -7 -8 -9 -10 11 -12 12 -14 -15
leaf_value=0.0083504562414129131 -0.026225955523906604 0.056595549990842868 -0.024769370016540004 -0.00097007486533588403 -0.0014318768059141701 -0.040460822629544591 -0.0017092305548747897 -0.013904546153104672 0.0032181412731601511 0.039473833139764623 -0.024126868152827777 -0.031717458722174824 0.014035523763760063 -0.019024968187098819
leaf_weight=39.23584224563092 2.7077364753931752 41.47580333892256 26.448460010811687 39.502165348269045 5.2816670686006537 69.005991849116981 2.9323038291186085 54.828765021637082 11.169425044208763 11.51313025318086 5.0294312499463549 2.5524259116500607 103.46144742053002 1.1108882687985886
leaf_count=645 55 188 937 698 22 3236 42 1784 340 128 85 34 1068 8
internal_value=-1.63121e-11 0.0238222 -0.0166447 -0.0238741 0.0471145 -0.0322718 0.0527928 -0.00585207 -0.0165912 0.0139771 0.00420889 0.0151062 0.0126479 0.0333075
internal_weight=416.255 171.035 245.22 146.126 49.6898 106.624 44.4081 99.094 37.6179 121.346 44.2653 118.638 106.014 12.624
internal_count=9270 1545 7725 5211 252 4513 230 2514 1277 1293 730 1238 1102 136
is_linear=0
shrinkage=0.05


Tree=3
num_leaves=15
num_cat=0
split_feature=1 1 3 3 1 4 4 4 3 4 2 3 4 3
split_gain=60.0982 8.91193 7.76449 6.39163 5.66354 6.32041 4.76079 2.84923 2.68298 2.56629 3.75007 2.67871 2.54004 2.49064
threshold=0.8370786516853933 0.94943820224719111 -0.047904994370875968 0.13626554625851331 0.75842696629213491 -0.038685755644664248 0.030556875292749756 -0.098375520116531986 -0.060612533429444997 0.16706649897786965 -0.10112359550561791 0.021670161690373283 0.13637821671503039 0.076330032551700691
decision_type=2 2 2 2 2 2 2 2 2 2 2 2 2 2
left_child=2 13 7 6 5 -4 -3 -1 -8 10 -10 -12 -13 -2
right_child=1 3 4 -5 -6 -7 8 -9 9 -11 11 12 -14 -15
leaf_value=0.010746871171504673 0.0079666209412072343 -0.018886112552488434 -0.017180640211549855 -0.024093695290859026 -0.0037783199260295734 -0.039307723100700909 -0.0069966655255741476 -0.013071375746225048 0.048480444126130243 0.04987792126263451 -0.0268859679181092 0.033407989959377181 -0.010937622695746996 0.031863192495183601
leaf_weight=26.631149731576443 84.601485411636531 3.078233082778751 74.807451602071524 3.8584381230175486 32.177669723518193 59.921672460623085 2.6869738930836311 22.01358603220433 12.136028224602343 41.337195489555597 2.7677768003195551 9.9134566243737918 4.0114880315959445 11.781105240806935
leaf_count=486 933 44 2793 31 643 3096 32 707 86 185 25 73 39 97
internal_value=1.75025e-10 0.0215967 -0.0176694 0.0338798 -0.0227654 -0.0272389 0.0371007 -7.79705e-05 0.0396899 0.041551 0.0283392 0.0117835 0.020756 0.0111848
internal_weight=391.724 176.172 215.552 79.7896 166.907 134.729 75.9312 48.6447 72.8529 70.1659 28.8287 16.6927 13.9249 96.3826
internal_count=9270 1545 7725 515 6532 5889 484 1193 440 408 223 137 112 1030
is_linear=0
shrinkage=0.05


Tree=4
num_leaves=15
num_cat=0
split_feature=1 1 3 1 4 1 4 3 0 3 3 3 0 3
split_gain=50.9954 9.19638 7.27163 3.50284 5.36996 3.04645 2.94396 2.8612 3.00108 2.28373 2.13056 2.10776 6.54825 3.12102
threshold=0.8370786516853933 0.94943820224719111 -0.047904994370875968 0.75842696629213491 -0.038685755644664248 0.028089887640449441 0.030556875292749756 -0.069303435507977282 0.98314606741573041 0.073981412264700244 -0.066423772139186307 -0.0059975828100943254 0.78089887640449451 -0.01343600540539258
decision_type=2 2 2 2 2 2 2 2 2 2 2 2 2 2
left_child=2 -2 5 4 -4 10 -3 -8 11 -10 -1 12 13 -9
right_child=1 6 3 -5 -6 -7 7 8 9 -11 -12 -13 -14 -15
leaf_value=0.049499147763902379 0.0089523467314916016 -0.014026665965055404 -0.015816899613362519 -0.0058788607779087163 -0.03663187647670528 -0.0045006889654558291 -0.020916467931314485 0.047028195431445846 -0.014169183400234301 0.025679252160175827 -0.0085341718224774023 0.046608383214862083 -0.041104800133808184 -0.015528748967391258
leaf_weight=3.8456566948443651 88.802589025348425 2.7919281916692844 71.510170713998377 29.031844387762249 57.750927171204239 41.677943767048419 1.6897836383432139 10.577373690903185 4.0935194008052376 13.188823297619818 1.9629444824531663 44.260374946519732 2.4664574302732936 1.901970613747834
leaf_count=43 1030 44 2793 643 3096 1108 29 56 33 90 42 228 22 13
internal_value=-2.92416e-10 0.0202205 -0.0166995 -0.0218189 -0.0253264 0.000463829 0.0323186 0.0341299 0.0356003 0.0159819 0.0315145 0.0409663 0.0223828 0.0370492
internal_weight=375.552 169.773 205.779 158.293 129.261 47.4865 80.9702 78.1783 76.4885 17.2823 5.8086 59.2062 14.9458 12.4793
internal_count=9270 1545 7725 6532 5889 1193 515 471 442 123 85 319 91 69
is_linear=0
shrinkage=0.05


Tree=5
num_leaves=15
num_cat=0
split_feature=1 4 3 1 3 3 2 1 4 3 0 0 1 1
split_gain=41.0909 7.5962 7.21289 4.64705 3.21535 3.15439 2.97448 2.62063 4.45837 2.49257 2.26916 2.08097 1.72415 1.56545
threshold=0.8370786516853933 0.16706649897786965 -0.05672824382348262 0.028089887640449441 -0.019082322983991536 -0.047332535639015398 1.0000000180025095e-35 0.78089887640449451 -0.037984494217955349 0.13626554625851331 0.039325842696629219 0.21910112359550563 0.50000000000000011 0.89325842696629221
decision_type=2 2 2 2 2 2 2 2 2 2 2 2 2 2
left_child=2 10 3 -1 5 -3 9 8 -4 -6 -2 -5 -10 -12
right_child=1 4 7 11 6 -7 -8 -9 12 -11 13 -13 -14 -15
leaf_value=0.041958536993876028 -0.029723691991274632 0.032833369677038447 -0.013892377959104869 -0.012438385850655324 0.048204345170599017 -0.037836062402316351 0.0016741277933181036 -0.0027423804773623623 -0.040399351889472281 -0.010369660091870523 0.004656348261281338 0.017402696053359284 -0.022307511805977426 0.016936159875514552
leaf_weight=6.1868273336440351 2.294469845481216 2.091467309743166 83.131772858090699 18.143613112159077 33.262289587408304 2.2385941520333281 4.4656196348369113 21.024799787439406 31.196263807360083 1.5796290598809708 40.05391020141542 7.4346666326746336 31.636167412623763 78.210106546059251
leaf_count=64 55 20 3163 503 154 14 47 476 1676 17 489 220 1623 749
internal_value=1.95254e-10 0.0184491 -0.0152573 0.00641594 0.0361345 -0.00394599 0.0405381 -0.0193937 -0.0217572 0.0453335 0.011803 -0.00343625 -0.0317823 0.0128511
internal_weight=362.95 164.196 198.754 31.7651 43.6376 4.33006 39.3075 166.989 145.964 34.8419 120.558 25.5783 62.8324 118.264
internal_count=9270 1545 7725 787 252 34 218 6938 6462 171 1293 723 3299 1238
is_linear=0
shrinkage=0.05


Tree=6
num_leaves=15
num_cat=0
split_feature=1 3 1 4 4 1 0 0 2 0 0 1 4 4
split_gain=38.7596 6.64755 6.2716 4.42643 3.96524 3.03601 2.5555 2.06662 1.93476 1.91979 2.08118 2.2373 2.32876 2.52607
threshold=0.89325842696629221 -0.055925464018999942 0.78089887640449451 0.16706649897786965 -0.038685755644664248 0.028089887640449441 0.18539325842696633 0.26404494382022475 1.0000000180025095e-35 0.039325842696629219 0.97191011235955072 0.94943820224719111 0.030556875292749756 0.13637821671503039
decision_type=2 2 2 2 2 2 2 2 2 2 2 2 2 2
left_child=1 5 4 9 -3 6 -1 -7 -5 -2 11 -11 -13 -14
right_child=3 2 -4 8 -6 7 -8 -9 -10 10 -12 12 13 -15
leaf_value=0.045188655846031697 -0.030398436665947649 -0.013703434887192415 -0.0011014222565619374 0.039454145157024847 -0.030918095942422535 -0.0084550710815437229 -0.020293468855252152 0.020624196078121215 0.001647788928526316 0.012120015552609541 -0.0016078388031575842 -0.02175500586565611 0.042020833085296624 0.0041578421146424207
leaf_weight=6.3854771275073281 1.3361162394285191 80.15342400688678 53.11826859228313 36.666650339961052 60.440459916368127 21.133660372346643 1.246950479224324 7.4400404244661322 3.8162349835038176 40.327872144058347 12.912121763452886 1.3351986277848507 20.8262855084613 5.8139581307768813
leaf_count=53 36 3107 951 200 3325 596 14 194 45 427 125 30 121 46
internal_value=3.7689e-10 -0.0121092 -0.0157736 0.0225441 -0.02127 0.0073931 0.0333789 -0.000442035 0.0360159 0.0155856 0.0167026 0.0201373 0.0308775 0.034207
internal_weight=352.953 229.918 193.712 123.034 140.594 36.2061 7.63243 28.5737 40.4829 82.5516 81.2154 68.3033 27.9754 26.6402
internal_count=9270 8240 7383 1030 6432 857 67 790 245 785 749 624 197 167
is_linear=0
shrinkage=0.05


Tree=7
num_leaves=15
num_cat=0
split_feature=1 3 1 3 4 4 4 3 0 0 3 1 2 4
split_gain=30.2727 5.93963 5.18302 4.66078 4.06081 3.6064 2.80576 2.10583 2.06636 2.03124 1.96782 1.94986 1.86678 1.55064
threshold=0.89325842696629221 -0.055925464018999942 0.75842696629213491 -0.069303435507977282 -0.037984494217955349 0.16706649897786965 -0.098375520116531986 0.13626554625851331 0.26404494382022475 0.97191011235955072 0.044801356611327343 0.97191011235955072 0.14606741573033707 0.32617339111272775
decision_type=2 2 2 2 2 2 2 2 2 2 2 2 2 2
left_child=1 6 4 -2 10 9 12 11 -8 -5 -3 -7 -1 -13
right_child=3 2 -4 5 -6 7 8 -9 -10 -11 -12 13 -14 -15
leaf_value=0.026516981562592551 -0.031045882639240931 -0.014496571583748404 -0.0015531710198343858 0.018615956019324083 -0.030400241467102625 0.008950138736962425 -0.016928269201700263 -0.01090110671403989 0.02364511190773207 -0.0041486314404124676 0.014837195924283928 0.046327446055563014 -0.010378869360465634 0.0099668022207682026
leaf_weight=16.439287527464334 3.4660430382937184 74.076712191104889 55.639393802732229 67.440356864593923 53.048951197881252 5.9113965276628724 12.626085407566277 2.0113343931734553 3.1379677420482031 11.056623333133755 5.3940638964995733 26.61713241785765 3.6918668029829851 3.9930586367845526
leaf_count=285 51 2948 1146 622 3139 56 410 22 83 125 150 128 79 26
internal_value=-1.89668e-10 -0.010858 -0.0144035 0.0201129 -0.0197468 0.0218783 0.00761393 0.0343569 -0.0079231 0.0153976 -0.0123459 0.0370734 0.0195797 0.0420496
internal_weight=344.55 224.054 188.159 120.496 132.52 117.03 35.8952 38.5329 15.7641 78.497 79.4708 36.5216 20.1312 30.6102
internal_count=9270 8240 7383 1030 6237 979 857 232 493 747 3098 210 364 154
is_linear=0
shrinkage=0.05


Tree=8
num_leaves=15
num_cat=0
split_feature=1 3 1 4 4 1 0 3 3 2 3 4 2 0
split_gain=27.5355 5.63463 4.41833 3.7403 3.58532 3.34478 2.36519 2.33561 2.35957 1.82604 1.80651 1.48771 1.39948 1.37653
threshold=0.89325842696629221 -0.054996789601403022 0.75842696629213491 0.16706649897786965 -0.038685755644664248 0.028089887640449441 0.25280898876404501 -0.019082322983991536 -0.047332535639015398 -0.016853932584269645 0.045868694967116326 -0.13066248337924688 0.12921348314606745 0.039325842696629219
decision_type=2 2 2 2 2 2 2 2 2 2 2 2 2 2
left_child=1 5 4 13 10 -1 -7 8 -5 -9 -3 -8 -13 -2
right_child=3 2 -4 7 -6 6 11 9 -10 -11 -12 12 -14 -15
leaf_value=0.03580236771212094 -0.028183881211632109 -0.013998791396949978 -0.0019531659376663636 0.027339064921290009 -0.028924225339838253 -0.010584398109081865 -0.020944430520443338 0.046158676141048363 -0.03644273259344729 0.020353579667688082 0.013736140686926537 0.032339845808798555 -0.01236855932013043 0.013953032800984392
leaf_weight=6.9973732363432637 1.0862813922576595 69.471673095598817 53.63235102314502 2.0349495653063063 53.303003561217338 19.925358688458804 1.3905345071107138 19.961028218269348 1.7878331467509259 14.122997898608444 5.6169563001021734 7.9356088489294034 1.6116662789136169 78.096787006594241
leaf_count=68 36 2897 1145 20 3163 605 43 98 14 113 142 134 43 749
internal_value=3.55186e-10 -0.0104197 -0.0140583 0.0194899 -0.0190607 0.00698518 -0.000466904 0.0323007 -0.00386158 0.036351 -0.0117708 0.0173068 0.0243355 0.0130307
internal_weight=336.974 219.885 182.024 117.09 128.392 37.8605 30.8632 37.9068 3.82278 34.084 75.0886 10.9378 9.54728 79.1831
internal_count=9270 8240 7347 1030 6202 893 825 245 34 211 3039 220 177 785
is_linear=0
shrinkage=0.05


Tree=9
num_leaves=15
num_cat=0
split_feature=1 3 1 1 4 4 2 0 2 1 3 3 3 4
split_gain=25.0374 5.17283 3.68552 3.53991 3.16609 2.73297 2.17299 1.95775 1.67561 1.58466 1.56826 1.58268 2.28008 1.6984
threshold=0.89325842696629221 -0.055925464018999942 0.78089887640449451 1.0000000180025095e-35 0.16706649897786965 -0.038685755644664248 1.0000000180025095e-35 0.028089887640449441 0.016853932584269652 0.26404494382022475 0.13626554625851331 0.058702299650153396 0.052332089796605759 0.27597081720500521
decision_type=2 2 2 2 2 2 2 2 2 2 2 2 2 2
left_child=1 3 5 -1 -2 -3 10 -5 -8 -7 11 12 13 -6
right_child=4 2 -4 7 6 9 8 -9 -10 -11 -12 -13 -14 -15
leaf_value=0.049315435424308808 0.012741916565572423 -0.01116420574187414 -0.0011842362496786427 -0.022056909407652626 0.036872338918779911 -0.041781792341168543 -0.026256502625374351 0.0071963827312430369 0.02563905660796852 -0.020695771180093983 -0.0087632267592683138 0.052406851462233853 -0.029120080411981771 -0.0024234010984839046
leaf_weight=3.3511619530618182 77.059271915350109 75.307005499489605 45.419845871627331 6.1661460511386386 15.817749671638021 12.349220391362904 2.3405954390764228 27.378582749050111 1.9173055551946161 45.737788361497223 1.5979310125112522 11.581035841256378 0.96328013390302558 3.1453942209482184
leaf_count=25 785 3107 951 160 94 698 24 672 21 2627 17 61 5 23
internal_value=-1.54594e-10 -0.0100188 -0.0135246 0.00688042 0.0188106 -0.0176863 0.0306685 0.00133624 -0.00245638 -0.0258099 0.034876 0.0372907 0.0264208 0.0305595
internal_weight=330.132 215.71 178.814 36.8959 114.423 133.394 37.3633 33.5447 4.2579 58.087 33.1054 31.5075 19.9264 18.9631
internal_count=9270 8240 7383 857 1030 6432 245 832 45 3325 200 183 122 117
is_linear=0
shrinkage=0.05


Tree=10
num_leaves=15
num_cat=0
split_feature=1 3 4 1 4 1 0 0 3 2 3 2 0 0
split_gain=21.1291 4.96968 3.62713 3.39628 2.96037 2.80311 2.53193 1.60678 1.42774 1.4059 1.52773 1.52456 1.38717 2.4144
threshold=0.89325842696629221 -0.055925464018999942 0.16706649897786965 0.75842696629213491 -0.038685755644664248 0.028089887640449441 0.26404494382022475 0.039325842696629219 0.045868694967116326 1.0000000180025095e-35 -0.058497451245078318 0.016853932584269652 0.89325842696629221 0.93820224719101131
decision_type=2 2 2 2 2 2 2 2 2 2 2 2 2 2
left_child=1 5 7 4 8 -1 -7 -2 -3 10 -4 -11 -9 -14
right_child=2 3 9 -5 -6 6 -8 12 -10 11 -12 -13 13 -15
leaf_value=0.033284571158983742 -0.03189358263261044 -0.012507726195291483 -0.015669142123185154 -0.0017745633827026396 -0.026300033766100319 -0.010510512993616446 0.019045333208230361 0.018006149664176959 0.012263802531786314 -0.025503585188382302 0.035994751347793078 0.025755809478783909 -0.014428396850933986 0.013427020334616452
leaf_weight=7.1481417454779139 1.1894281948916603 68.228312533348799 0.96617919951677578 50.581396864727139 51.42332672374323 19.112639586906884 10.326963449828325 43.282392682507634 5.562357476912438 1.7836262620985501 30.349835325032473 2.0319776833057404 10.667825276032088 22.552620522677898
leaf_count=67 36 2925 15 1146 3170 596 194 402 142 24 185 21 108 239
internal_value=-1.45448e-10 -0.00927974 0.0173965 -0.0127587 -0.0171466 0.00733056 0.000142303 0.0111246 -0.0105014 0.0305749 0.0339652 0.00147408 0.0121963 0.00432179
internal_weight=325.207 212.383 112.824 175.795 125.214 36.5877 29.4396 77.6923 73.7907 35.1316 31.316 3.8156 76.5028 33.2204
internal_count=9270 8240 1030 7383 6237 857 790 785 3067 245 200 45 749 347
is_linear=0
shrinkage=0.05


Tree=11
num_leaves=15
num_cat=0
split_feature=1 3 1 4 1 0 4 3 0 3 2 3 0 1
split_gain=22.553 4.6737 2.67457 2.27921 2.21988 2.47661 1.91252 1.66901 1.52919 2.40806 2.40484 2.14275 2.98138 2.01935
threshold=0.89325842696629221 -0.055925464018999942 0.79213483146067432 0.16706649897786965 0.028089887640449441 0.26404494382022475 -0.037984494217955349 0.13626554625851331 0.97191011235955072 0.0074129245068399472 1.0000000180025095e-35 -0.018232689677132926 0.79213483146067432 0.96067415730337091
decision_type=2 2 2 2 2 2 2 2 2 2 2 2 2 2
left_child=1 4 6 8 -1 -6 -3 -5 9 11 -10 12 -2 -11
right_child=3 2 -4 7 5 -7 -8 -9 10 13 -12 -13 -14 -15
leaf_value=0.029037379868425608 0.025008621632160218 -0.010809542958099045 -0.0016018669246189747 0.031601205325329812 -0.010988174014537845 0.0183433628039202 -0.023084991363116758 -0.011805463142873399 -0.039540337521805129 0.015427433579422037 0.01015283406436121 -0.0087954385146984514 -0.038366273681654572 0.041397437129450078
leaf_weight=7.5159828737378112 13.470156440511344 75.029818593990058 40.211065140552819 32.358656508848071 18.254684546962384 10.491769967600701 58.84971018275246 1.8754529561847437 2.4643750730901939 25.573887340724468 7.2927082702517509 14.154945203103127 1.224932963028549 11.135004337877033
leaf_count=67 145 3153 859 223 596 194 3371 22 28 262 97 166 19 68
internal_value=-2.49721e-10 -0.0095716 -0.0129618 0.0182993 0.00661539 -2.60911e-05 -0.0163366 0.0289557 0.0131396 0.0158588 -0.00490728 0.00479805 0.017618 0.0241939
internal_weight=319.903 210.353 174.091 109.55 36.2624 28.7465 133.88 34.2341 75.316 65.5589 9.75708 28.85 14.6951 36.7089
internal_count=9270 8240 7383 1030 857 790 6524 245 785 660 125 330 164 330
is_linear=0
shrinkage=0.05


Tree=12
num_leaves=15
num_cat=0
split_feature=1 3 3 3 1 2 3 4 3 2 2 4 0 4
split_gain=20.2032 4.10023 2.75935 2.30793 1.99191 2.53948 2.02179 2.71565 1.85639 1.82729 1.92147 1.71848 1.90081 1.66331
threshold=0.89325842696629221 -0.055925464018999942 0.044801356611327343 -0.061615500166245889 0.97191011235955072 -0.016853932584269645 -0.007177499457623914 0.098967927316163121 0.073981412264700244 -0.016853932584269645 0.12921348314606745 -0.0082835252488876448 0.91573033707865181 1.0000000180025095e-35
decision_type=2 2 2 2 2 2 2 2 2 2 2 2 2 2
left_child=1 9 -3 -2 11 6 7 -6 -7 -1 -11 12 -5 -13
right_child=3 2 -4 4 5 8 -8 -9 -10 10 -12 13 -14 -15
leaf_value=-0.0041220801344066926 -0.020726983301914789 -0.014546873686448764 0.0045635893078537658 0.05602727900112088 -0.043905137543572753 -0.015223263318292303 0.043589493492751902 0.024193332100929821 0.021252273846338515 0.02668878482616235 -0.011379914615084006 -0.028237811890117273 -0.0024656495954519298 0.011795826483021916
leaf_weight=19.619800109416246 3.0046533038839689 151.80571061884984 21.08251831959933 3.426619339734315 0.9249464944005038 4.4577687848359338 20.696088672615588 5.4357501566410065 9.1226368695497495 12.789379156194629 3.7345132268965235 1.7883070446550835 1.9053701162338255 55.364211502484977
leaf_count=582 59 6781 602 21 12 48 109 38 82 176 99 18 21 622
internal_value=1.16014e-10 -0.00901255 -0.0122036 0.01767 0.0189771 0.0275944 0.0362447 0.00967126 0.00905626 0.0061692 0.0179266 0.0130264 0.0380367 0.0100791
internal_weight=315.158 209.032 172.888 106.126 103.122 40.6372 27.0568 6.3607 13.5804 36.1437 16.5239 62.4845 5.33199 57.1525
internal_count=9270 8240 7383 1030 971 289 159 50 130 857 275 682 42 640
is_linear=0
shrinkage=0.05


Tree=13
num_leaves=15
num_cat=0
split_feature=1 3 1 2 4 3 2 0 4 3 3 2 3 3
split_gain=17.8006 3.87466 2.55717 2.14745 2.04702 1.7028 1.67031 1.58845 1.55329 1.91471 2.52324 1.99018 3.04224 1.46332
threshold=0.89325842696629221 -0.05672824382348262 0.75842696629213491 -0.016853932584269645 -0.038685755644664248 -0.061615500166245889 0.12921348314606745 0.26404494382022475 0.19398772866322536 -0.019082322983991536 -0.047332535639015398 -0.016853932584269645 0.073981412264700244 0.045868694967116326
decision_type=2 2 2 2 2 2 2 2 2 2 2 2 2 2
left_child=1 3 4 7 13 -2 -5 -1 -7 10 -10 -11 -13 -3
right_child=5 2 -4 6 -6 8 -8 -9 9 11 -12 12 -14 -15
leaf_value=-0.012900865371223211 -0.017346320295639029 -0.01182048498441865 -0.0016694807710001065 0.027161756507160014 -0.022973455987025201 0.014104381366619468 -0.010933555896673247 0.018745144064347474 0.034978252730148339 0.044767869744850593 -0.046503040223866365 -0.033309565527767052 0.027137274272549597 0.012677955503709152
leaf_weight=14.113788060378285 2.7730570789426556 68.492922753095627 48.436473703943193 12.855966380797325 50.392526356037706 75.868352512829006 3.0413111289963117 4.4157192483544341 0.75735181570053089 13.395124793052677 1.1670268252491975 1.8372199423611126 7.4563205819576979 5.86952603701502
leaf_count=486 59 2950 1150 169 3175 804 90 78 2 69 10 17 69 142
internal_value=-1.63412e-10 -0.00843091 -0.0114675 0.00673795 -0.0152281 0.0168707 0.019658 -0.00478571 0.0179766 0.0288958 -0.0134402 0.0329024 0.0131126 -0.00974422
internal_weight=310.873 207.618 173.191 34.4268 124.755 103.254 15.8973 18.5295 100.481 24.613 1.92438 22.6887 9.29354 74.3624
internal_count=9270 8240 7417 823 6267 1030 259 564 971 167 12 155 86 3092
is_linear=0
shrinkage=0.05


Tree=14
num_leaves=15
num_cat=0
split_feature=1 3 1 3 3 4 2 3 0 1 4 1 4 3
split_gain=16.0994 3.12604 2.35781 2.35325 1.69571 1.58333 1.51198 2.58923 1.46808 1.39344 1.54097 1.32907 1.2122 1.14221
threshold=0.89325842696629221 -0.054996789601403022 0.028089887640449441 0.044801356611327343 -0.061615500166245889 0.19398772866322536 -0.016853932584269645 0.073981412264700244 0.26404494382022475 0.79213483146067432 -0.056501016418926679 0.26404494382022475 -0.12839065533686297 0.13626554625851331
decision_type=2 2 2 2 2 2 2 2 2 2 2 2 2 2
left_child=1 2 -1 9 -2 -6 -7 -8 -4 10 -3 -12 -10 -9
right_child=4 3 8 -5 5 6 7 13 12 -11 11 -13 -14 -15
leaf_value=0.029101286855718202 -0.018880186247669292 -0.0087674400245523754 -0.0097683067979689991 0.0044625944423196621 0.013409070543765148 0.038458908960631089 -0.032655543940276706 0.032817681726287171 -0.023355989922683253 -0.0032739780829578974 -0.032941519113412886 -0.015971776062711902 0.018693009371991736 -0.0085847760106163556
leaf_weight=7.0479013435542575 2.5656226724386206 51.164518759120256 18.550399304833267 21.259096287190914 75.401072278618813 14.206660047173502 1.718868326395748 6.0330273658037186 1.1615006076171983 29.415615384466946 16.356803596951067 50.519455948378891 9.6347554232925159 1.7175790593028066
leaf_count=68 59 2300 616 602 804 81 17 49 45 677 876 2892 164 20
internal_value=-3.62361e-10 -0.00805721 0.00512218 -0.0109136 0.0161791 0.0172666 0.0285103 0.0113369 -0.00140585 -0.0131456 -0.0155574 -0.0205465 0.0125728 0.0237101
internal_weight=306.753 205.11 36.3946 168.715 101.643 99.0772 23.6761 9.46947 29.3467 147.456 118.041 66.8763 10.7963 7.75061
internal_count=9270 8240 893 7347 1030 971 167 86 825 6745 6068 3768 209 69
is_linear=0
shrinkage=0.05


Tree=15
num_leaves=15
num_cat=0
split_feature=1 4 3 1 4 0 4 3 0 4 4 3 2 0
split_gain=15.2843 2.5471 1.99228 1.67684 3.9625 1.89943 1.68068 1.65797 2.5751 1.52577 1.47756 1.43704 1.37319 1.34598
threshold=0.89325842696629221 -0.15594719991433667 0.041688694334543371 0.94943820224719111 0.030556875292749756 0.97191011235955072 -0.0082835252488876448 -0.047904994370875968 0.028089887640449441 0.24699773336960154 0.32617339111272775 0.073981412264700244 0.039325842696629261 0.91573033707865181
decision_type=2 2 2 2 2 2 2 2 2 2 2 2 2 2
left_child=1 -1 7 6 -5 -6 13 8 -3 -7 11 -11 -8 -2
right_child=3 2 -4 4 5 9 12 -9 -10 10 -12 -13 -14 -15
leaf_value=0.018045457272260573 0.047232244210382301 -0.028466725896584257 0.0044621438150514994 -0.033048948089313371 0.029612109064727485 -0.0052572333799627098 -0.0002421215100983385 -0.013471082267894612 0.004420632852262095 -0.010180239250873543 -0.010473351921641616 0.049050524014021969 0.027443965379003274 -0.004609709817868006
leaf_weight=8.1948293331079167 3.2957792375236741 6.2786926818080238 23.588043909985572 2.3509359853342167 41.360259462147951 8.7815458746626955 31.448831133544445 133.90687597263604 31.730305418372154 0.91974411532282729 1.7091537993401287 3.7568805553019047 4.2190958317369214 1.5338043756783006
leaf_count=185 26 172 690 44 307 108 415 6222 971 9 19 28 53 21
internal_value=1.51978e-10 -0.00783695 -0.00900816 0.015982 0.0213368 0.0241339 0.00787024 -0.0108715 -0.0016025 0.00828747 0.0251037 0.0376604 0.00369195 0.0328015
internal_weight=303.075 203.699 195.504 99.376 58.8785 56.5276 40.4975 171.916 38.009 15.1673 6.38578 4.67662 35.6679 4.82958
internal_count=9270 8240 8055 1030 515 471 515 7365 1143 164 56 37 468 47
is_linear=0
shrinkage=0.05


Tree=16
num_leaves=15
num_cat=0
split_feature=1 4 3 3 0 3 4 1 1 1 4 0 4 0
split_gain=13.749 3.08469 1.80319 2.11457 1.76268 1.72322 1.43149 1.42888 1.33526 1.28422 1.19148 1.34866 1.13637 1.09823
threshold=0.89325842696629221 -0.17464603571011653 0.041688694334543371 -0.047904994370875968 0.028089887640449441 -0.077538478924902718 0.19398772866322536 0.016853932584269666 0.80337078651685401 0.53370786516853941 -0.0082835252488876448 0.050561797752808994 0.027558060507553831 0.91573033707865181
decision_type=2 2 2 2 2 2 2 2 2 2 2 2 2 2
left_child=1 -1 3 4 7 -2 10 -3 -5 -6 13 -12 -10 -7
right_child=5 2 -4 8 9 6 -8 -9 12 -11 11 -13 -14 -15
leaf_value=0.027535755222365121 -0.025017113669783597 0.016153407114103385 0.0041348685010670619 -0.01565010082350559 -0.0019016907939664923 0.047672729921256318 0.027216499346990688 -0.032844998035302428 -0.013823756565392982 0.018731703253401035 -0.033099559526054277 0.011531500076461469 0.0071064426455952128 -0.00065458457398645542
leaf_weight=5.173056758940219 1.7349403481930483 1.2868728376924981 24.282647432759404 108.39446510048583 23.887801845557988 3.3047227449715129 22.698514780029655 5.1872132956050336 10.964020940475168 9.9155712584033591 0.79339866526424785 67.523958340287209 13.229265459813176 1.5803440641611812
leaf_count=74 42 17 693 5716 726 23 169 165 264 295 20 755 290 21
internal_value=3.72566e-10 -0.00743122 -0.00848307 -0.0102691 -0.000221426 0.0153182 0.0162985 -0.0222473 -0.0132969 0.00451503 0.0125919 0.0105432 -0.00255101 0.0345839
internal_weight=299.957 202.321 197.148 172.865 40.2775 97.6359 95.9009 6.47409 132.588 33.8034 73.2024 68.3174 24.1933 4.88507
internal_count=9270 8240 8166 7473 1203 1030 988 182 6270 1021 819 775 554 44
is_linear=0
shrinkage=0.05


Tree=17
num_leaves=15
num_cat=0
split_feature=1 3 1 4 4 3 3 2 0 4 4 0 1 4
split_gain=11.4055 2.92792 2.0708 2.00005 1.89963 1.18813 1.10017 1.06862 0.921843 0.895968 1.1462 1.08258 0.950728 0.93527
threshold=0.89325842696629221 -0.05941047516980346 0.75842696629213491 -0.098375520116531986 -0.037984494217955349 0.04068559509360737 -0.077538478924902718 -0.25280898876404484 0.016853932584269666 0.24699773336960154 0.32617339111272775 0.97191011235955072 0.98314606741573041 -0.0082835252488876448
decision_type=2 2 2 2 2 2 2 2 2 2 2 2 2 2
left_child=1 3 4 -1 5 -3 -2 -6 -5 11 -11 13 -12 -8
right_child=6 2 -4 8 7 -7 9 -9 -10 10 12 -13 -14 -15
leaf_value=0.019850418935010657 -0.019452485131965801 -0.0096819923412919343 -0.00034001598190186894 -0.030393590726401028 -0.0028731227822970896 0.0097632771408955737 0.035161159495438465 -0.023444515910907585 0.00061396211977039522 0.034634917186441412 0.034339024412132088 -0.0010808169767337042 -0.0093210117538153579 0.012860868910313742
leaf_weight=15.000157327391209 1.5878153545781959 67.871661400422454 47.327042839489877 2.0932044927030793 7.7916434351354829 8.0554445935413224 4.5783002646639934 40.837964572943747 10.481349553912876 10.118365596979855 0.73019173741340537 12.472353824414311 3.5251365751028061 64.062801933847368
leaf_count=314 42 3013 1157 69 448 190 40 2716 333 69 2 166 30 681
internal_value=5.05041e-12 -0.00683593 -0.00926036 0.00807166 -0.0126201 -0.00751886 0.0139722 -0.0202728 -0.00640643 0.0147238 0.0261692 0.0124017 0.00327939 0.0148318
internal_weight=296.533 199.458 171.884 27.5747 124.557 75.9271 97.075 48.6296 12.5746 95.4871 14.3737 81.1135 4.25533 68.6411
internal_count=9270 8240 7524 716 6367 3203 1030 3164 402 988 101 887 32 721
is_linear=0
shrinkage=0.05


Tree=18
num_leaves=15
num_cat=0
split_feature=1 3 3 2 2 1 4 3 2 3 4 4 0 3
split_gain=10.4796 2.31471 1.92115 1.84574 1.59062 1.35007 1.67262 1.19749 1.95261 1.9325 1.8361 3.86479 1.24674 1.17327
threshold=0.89325842696629221 -0.05672824382348262 0.04068559509360737 -0.016853932584269645 0.12921348314606745 0.79213483146067432 -0.056501016418926679 0.058702299650153396 -0.016853932584269645 0.073981412264700244 0.048335491698715101 -0.0082835252488876448 0.27528089887640456 -0.019082322983991536
decision_type=2 2 2 2 2 2 2 2 2 2 2 2 2 2
left_child=1 3 5 -1 -5 6 -3 10 -9 -10 11 -2 -13 -7
right_child=7 2 -4 4 -6 13 -8 8 9 -11 -12 12 -14 -15
leaf_value=-0.0056780819085574426 0.029417274687727864 -0.0067729630817844836 0.003591305507520156 0.024518082501073596 -0.013543415441238289 0.014270789503180076 -0.019266670659546532 0.040097054568439844 -0.021891570054575676 0.018429845200947852 0.013913451600759972 -0.048684534963950782 -0.010057895019826936 -0.0076461290109470703
leaf_weight=17.487393846735358 4.4229858322069058 49.97113782633096 25.113592369947582 12.784847265109418 2.7398289144039145 7.5705467704683569 61.082177896983922 9.1179015822708624 2.7099933866411474 16.274041045457125 53.067476542666554 2.2384618856012795 8.0793835362419468 20.28571739885956
leaf_count=564 42 2322 728 169 90 190 3707 64 43 172 542 43 124 470
internal_value=3.18502e-10 -0.00659302 -0.00901695 0.00536148 0.0173878 -0.0113058 -0.0137554 0.0134728 0.0220892 0.0118665 0.00963273 -0.00568287 -0.0219991 -0.0014016
internal_weight=292.945 197.035 164.023 33.0121 15.5247 138.91 111.053 95.9102 28.1019 18.984 67.8083 14.7408 10.3178 27.8563
internal_count=9270 8240 7417 823 259 6689 6029 1030 279 215 751 209 167 660
is_linear=0
shrinkage=0.05


Tree=19
num_leaves=15
num_cat=0
split_feature=1 4 3 3 0 1 1 3 4 3 3 3 4 4
split_gain=9.48849 2.13138 1.33934 1.7428 1.05474 1.15675 1.0476 1.03033 1.0002 1.40892 1.51718 1.43865 1.02693 0.967838
threshold=0.89325842696629221 -0.17464603571011653 0.044801356611327343 -0.047904994370875968 0.028089887640449441 0.016853932584269666 0.80337078651685401 -0.077538478924902718 0.19398772866322536 0.13626554625851331 -0.019082322983991536 -0.047332535639015398 0.32617339111272775 -0.06903849886320633
decision_type=2 2 2 2 2 2 2 2 2 2 2 2 2 2
left_child=1 -1 3 4 5 -3 13 -2 -9 10 11 -10 -12 -5
right_child=7 2 -4 6 -6 -7 -8 8 9 -11 12 -13 -14 -15
leaf_value=0.023278394177190714 -0.019601072538905494 0.016913275122989423 0.0043642240914790829 -0.006621997318585305 0.0041523978887765397 -0.028297698483797706 -0.001930063504560577 0.010487080895235139 0.025020850005878434 -0.015384934680559893 0.035233544997089208 -0.037911419192373404 0.0029037202078645769 -0.016961938256117276
leaf_weight=4.969789936207234 1.5437689218670119 1.1676549650728691 21.685607428662479 36.011919109616429 33.146819872315973 4.4147203131578863 24.163913171738386 70.653939876705408 0.72707804292440403 1.586792580783366 15.908388875424864 1.0464800149202407 3.095617923885583 70.017004707362503
leaf_count=74 42 17 599 1684 1021 165 569 819 4 20 111 10 24 4111
internal_value=3.99445e-11 -0.00628274 -0.00717097 -0.00866879 0.000635029 -0.0177082 -0.0114202 0.012924 0.0136666 0.0228324 0.0263236 -0.0123927 0.0303757 -0.0135447
internal_weight=290.139 195.577 190.608 168.922 38.7292 5.58238 130.193 94.5621 93.0183 22.3644 20.7776 1.77356 19.004 106.029
internal_count=9270 8240 8166 7567 1203 182 6364 1030 988 169 149 14 135 5795
is_linear=0
shrinkage=0.05


Tree=20
num_leaves=15
num_cat=0
split_feature=1 4 1 4 3 2 3 4 4 3 4 1 4 3
split_gain=8.10024 2.42786 1.16541 2.38393 0.942828 2.08913 1.62392 1.01255 2.6651 1.00523 1.23882 1.42472 1.62389 1.40028
threshold=0.89325842696629221 -0.17464603571011653 0.75842696629213491 -0.037984494217955349 0.058702299650153396 -0.016853932584269645 0.073981412264700244 0.048335491698715101 -0.0082835252488876448 0.052332089796605759 0.27597081720500521 0.98314606741573041 0.088163373190838681 0.039194803307934241
decision_type=2 2 2 2 2 2 2 2 2 2 2 2 2 2
left_child=1 -1 3 -3 7 -6 -7 8 -2 10 11 12 -9 -12
right_child=4 2 -4 -5 5 6 -8 9 -10 -11 13 -13 -14 -15
leaf_value=0.024872818738165103 0.025889205248356958 -0.0042853525466817833 -0.00013367657861533007 -0.017984529186800224 0.038292533486014468 -0.021871274139438412 0.01536857838110923 0.022523615350427441 -0.017582627176535606 -0.015995423203678676 -0.032416312158215131 0.03159302545683583 0.0015242162396998406 0.026443859442580764
leaf_weight=5.2900128131732336 4.3058457784354696 92.0084721413441 48.917163223493844 48.238492514472455 9.0279827006161231 2.6329493410885361 15.743419440463184 14.870313907042144 9.5544950123876298 2.2847143355756989 2.1032338254153724 9.6972173228859884 22.30128321191296 0.62163740396499623
leaf_count=74 42 3694 1236 3236 64 43 172 157 167 30 20 72 260 3
internal_value=6.56135e-11 -0.00580355 -0.0067877 -0.00909121 0.012049 0.0197808 0.0091795 0.00857771 -0.00324431 0.0117378 0.0133064 0.0152695 0.0102949 -0.015494
internal_weight=287.597 194.454 189.164 140.247 93.1431 27.4044 18.3764 65.7387 13.8603 51.8784 49.5937 46.8688 37.1716 2.72487
internal_count=9270 8240 8166 6930 1030 279 215 751 209 542 512 489 417 23
is_linear=0
shrinkage=0.05


Tree=21
num_leaves=15
num_cat=0
split_feature=1 3 4 3 2 4 4 0 0 1 4 2 1 4
split_gain=7.27602 2.56016 1.77728 1.50666 1.17921 1.1684 1.39918 1.38412 1.27942 1.02007 1.2811 1.11228 0.984243 2.14501
threshold=0.89325842696629221 -0.05941047516980346 -0.098375520116531986 0.04068559509360737 0.14606741573033707 0.24699773336960154 0.32617339111272775 0.016853932584269666 0.97191011235955072 0.79213483146067432 -0.056501016418926679 -0.15168539325842689 0.96067415730337091 0.090327180827336387
decision_type=2 2 2 2 2 2 2 2 2 2 2 2 2 2
left_child=1 2 4 9 -1 7 -7 -2 12 10 -3 -11 13 -9
right_child=5 3 -4 -5 -6 6 -8 8 -10 11 -12 -13 -14 -15
leaf_value=0.024114272542078208 -0.035132728557394209 -0.006183603467365054 -0.0059550588955306662 0.00327596017689092 -0.012267852687007119 0.033971474538171877 -0.0014810792831663454 0.015876066997241832 -0.0048181521912748103 0.0077335167810693925 -0.016975315462525949 -0.011715493962463443 0.020452509095213782 -0.0073169579321151956
leaf_weight=13.632018169388177 0.78838413860648771 53.876901824958622 11.814263443462549 25.36778750596568 1.9931169413030136 9.6750988923013193 3.6548065021634093 26.642312970478088 12.015732640400527 15.114974493160846 59.222357868682593 12.529708435758947 24.240644947625697 14.85043655708432
leaf_count=253 24 2393 402 728 61 72 36 331 166 344 3736 323 201 200
internal_value=1.48992e-10 -0.00549635 0.00843237 -0.00783388 0.0190147 0.0115145 0.024826 0.00897144 0.00985912 -0.0098453 -0.0119337 -0.00118283 0.012574 0.00759834
internal_weight=285.419 193.551 27.4394 166.112 15.6251 91.8674 13.3299 78.5375 77.7491 140.744 113.099 27.6447 65.7334 41.4927
internal_count=9270 8240 716 7524 314 1030 108 922 898 6796 6129 667 732 531
is_linear=0
shrinkage=0.05


Tree=22
num_leaves=15
num_cat=0
split_feature=1 4 1 4 2 3 4 3 4 0 3 0 1 4
split_gain=6.92115 1.93617 1.01193 2.02155 1.05089 1.21076 0.987071 1.18211 1.52785 1.01214 1.00477 0.997743 0.812915 1.82503
threshold=0.89325842696629221 -0.17464603571011653 0.75842696629213491 -0.037984494217955349 -0.016853932584269645 -0.066423772139186307 0.24699773336960154 0.039194803307934241 0.27597081720500521 0.016853932584269666 0.13626554625851331 0.97191011235955072 0.96067415730337091 0.090327180827336387
decision_type=2 2 2 2 2 2 2 2 2 2 2 2 2 2
left_child=1 -1 3 4 -3 -6 9 8 -8 -2 -9 12 13 -11
right_child=6 2 -4 -5 5 -7 7 10 -10 11 -12 -13 -14 -15
leaf_value=0.022038453866591156 -0.029863209619244435 -0.011847062411466609 -2.8318827077832392e-05 -0.016726665404473279 0.018892692628604213 -0.0027759105371644131 0.026243399538945857 0.037579386094835104 -0.026028859583853564 0.015051879122140305 -0.0069135622378322416 -0.0035012083263909542 0.019263987958836427 -0.0065350736256039668
leaf_weight=5.2848200583830467 0.70540989749133487 28.19481776561588 48.414622535929084 47.119436699897051 6.2538989577442399 56.957234850153327 1.7121760584413999 8.3996913805603945 1.8857247941195963 26.673436160199344 1.1419226266443736 11.726406881585715 24.06300488486886 14.435810870490966
leaf_count=74 24 1240 1236 3236 108 2346 13 60 20 331 15 166 201 200
internal_value=-1.15024e-10 -0.00536929 -0.00625725 -0.00841846 -0.00400095 -0.000371251 0.0113085 0.0236565 -0.000855914 0.00894343 0.0321038 0.0096782 0.0120666 0.00749629
internal_weight=282.968 192.225 186.94 138.525 91.406 63.2111 90.7436 13.1395 3.5979 77.6041 9.54161 76.8987 65.1723 41.1092
internal_count=9270 8240 8166 6930 3694 2454 1030 108 33 922 75 898 732 531
is_linear=0
shrinkage=0.05


Tree=23
num_leaves=15
num_cat=0
split_feature=1 3 1 3 4 4 1 4 1 0 3 4 1 2
split_gain=6.09337 1.96142 1.78592 1.29184 0.981092 1.31427 0.895588 1.04138 1.17132 0.860116 0.765838 0.842972 1.13419 0.706854
threshold=0.89325842696629221 -0.05941047516980346 1.0000000180025095e-35 0.044801356611327343 0.24699773336960154 0.32617339111272775 0.80337078651685401 -0.056501016418926679 0.26404494382022475 0.028089887640449441 -0.019082322983991536 0.083231372243094751 0.84831460674157311 -0.011235955056179759
decision_type=2 2 2 2 2 2 2 2 2 2 2 2 2 2
left_child=1 2 -1 6 -2 -6 7 13 -9 -4 -8 12 -12 -3
right_child=4 3 9 -5 5 -7 10 8 -10 -11 11 -13 -14 -15
leaf_value=0.037851680804444961 0.0083542311269850771 -0.014931247832305122 -0.016878869868332879 0.0040314700476630997 0.032001569086486367 -0.0031077409981464968 0.012931019083004003 -0.027321906719309369 -0.010904756048070091 0.0062447855106975668 0.0017345740837403506 0.013074851555261011 -0.025081942414840321 -0.0020644619336008412
leaf_weight=3.0648983381688621 76.720296742394567 13.65508672967553 3.9678083597682443 21.924017655663192 9.3750145249068719 3.3638169765472403 6.8173834476619986 14.410850279964505 47.540403211954981 20.299529645591974 8.0919264834374207 3.8168813511729232 6.4737064857035866 40.840292135253549
leaf_count=23 922 672 151 602 72 36 165 886 3008 542 198 81 160 1752
internal_value=-8.007e-11 -0.00504291 0.0071658 -0.0071141 0.0106982 0.0231792 -0.00885538 -0.0106906 -0.015097 0.00194559 -0.000290754 -0.00560838 -0.0110297 -0.00549949
internal_weight=280.362 190.903 27.3322 163.571 89.4591 12.7388 141.647 116.447 61.9513 24.2673 25.1999 18.3825 14.5656 54.4954
internal_count=9270 8240 716 7524 1030 108 6922 6318 3894 693 604 439 358 2424
is_linear=0
shrinkage=0.05


Tree=24
num_leaves=15
num_cat=0
split_feature=1 3 4 1 4 2 2 3 4 4 2 2 2 3
split_gain=5.41306 1.82489 1.28858 1.20676 1.09643 1.0585 1.00055 1.00055 0.917703 1.98348 1.01937 0.941718 1.23674 1.10318
threshold=0.89325842696629221 -0.05941047516980346 -0.098375520116531986 0.75842696629213491 -0.038685755644664248 -0.011235955056179759 0.14606741573033707 0.0041176380651564157 0.048335491698715101 -0.0069774034789918385 -0.022471910112359519 -0.43258426966292124 -0.37640449438202234 -0.069303435507977282
decision_type=2 2 2 2 2 2 2 2 2 2 2 2 2 2
left_child=1 2 6 4 5 -3 -1 8 9 10 -2 13 -13 -10
right_child=7 3 -4 -5 -6 -7 -8 -9 11 -11 -12 12 -14 -15
leaf_value=0.020760907333141902 0.032969434543980679 -0.016137850245557139 -0.0054339899304440787 0.00012628300918360536 -0.015564858977362223 -0.0020514280141823147 -0.012661332244747379 0.013554551337389696 -0.01731755183765623 -0.030017945539212162 -0.018771004014363161 -0.039754663478780927 0.0038593487932834106 0.022060367382433967
leaf_weight=13.558489021845164 1.9297434780746701 16.773864669725299 11.430538327898828 45.27370452368632 44.715787428431213 54.93224968155846 1.9549628486856807 61.862598411738873 1.3511225017718995 4.5335953412577537 0.63938311859965313 0.9989274963736533 7.9821953196078503 10.048482798039913
leaf_count=253 19 897 402 1157 3195 2275 61 665 34 94 10 14 95 99
internal_value=5.03669e-11 -0.00479859 0.00706006 -0.00680589 -0.00947977 -0.00552323 0.0160375 0.0100724 0.00203376 -0.0123771 0.0184412 0.00739996 -0.0044886 0.0163729
internal_weight=277.986 188.64 26.944 161.696 116.422 71.7061 15.5135 89.346 27.4835 7.10272 2.56913 20.3807 8.98112 11.3996
internal_count=9270 8240 716 7524 6367 3172 314 1030 365 123 29 242 109 133
is_linear=0
shrinkage=0.05


Tree=25
num_leaves=15
num_cat=0
split_feature=1 3 1 0 3 3 3 2 4 2 4 4 3 4
split_gain=5.10527 1.78747 1.39084 1.13041 1.08587 0.746841 1.27586 1.68698 1.00144 2.33367 1.51905 0.99845 0.966408 0.955637
threshold=0.89325842696629221 -0.055925464018999942 1.0000000180025095e-35 0.30898876404494385 0.044801356611327343 0.13626554625851331 0.058702299650153396 -0.016853932584269645 0.22243687806385651 -1.0000000180025095e-35 0.052751036152599136 0.12084292800891995 0.052332089796605759 0.048335491698715101
decision_type=2 2 2 2 2 2 2 2 2 2 2 2 2 2
left_child=1 2 -1 -4 -3 6 12 -8 10 -10 -9 -12 13 -2
right_child=5 4 3 -5 -6 -7 7 8 9 -11 11 -13 -14 -15
leaf_value=0.033367066005683114 -0.0035439179795685666 -0.00858533783380502 -0.0034337222784013945 0.018712444619183644 0.0033054167011347863 -0.013681315057364994 0.036967232071042994 0.02417216344507489 -0.035157769926008491 0.03698856477733848 -0.033167256179597336 0.0023188680680334647 -0.020863677504704907 0.011323502910693506
leaf_weight=3.0487980842590323 13.445285768248139 133.14628172805533 22.720387083943937 6.6249162843450895 21.863771074451506 2.44515162333846 8.5581277608871478 3.0630876049399358 0.5592580921947955 4.6799537856131783 2.5418734513223171 4.2286514826118946 2.1023674253374329 46.809223460964859
leaf_count=25 206 6781 678 154 602 36 63 33 6 40 45 56 33 512
internal_value=2.7922e-11 -0.00466969 0.00587913 0.00201783 -0.00689774 0.00983741 0.0106558 0.0203595 0.00921663 0.0248867 -0.000658696 -0.0135576 0.00671511 0.00800227
internal_weight=275.837 187.404 32.3941 29.3453 155.01 88.433 85.9878 23.631 15.0728 5.23921 9.83361 6.77052 62.3569 60.2545
internal_count=9270 8240 857 832 7383 1030 994 243 180 46 134 101 751 718
is_linear=0
shrinkage=0.05


Tree=26
num_leaves=15
num_cat=0
split_feature=1 3 1 3 4 3 4 0 2 1 0 3 0 3
split_gain=4.4862 1.38054 1.23595 1.06848 0.97954 1.20572 1.25289 0.811985 0.880525 0.842104 0.747254 0.846784 1.69261 0.925156
threshold=0.89325842696629221 -0.048628167789238612 1.0000000180025095e-35 0.04068559509360737 0.24699773336960154 0.039194803307934241 0.27597081720500521 0.25280898876404501 0.12921348314606745 0.87078651685393271 0.016853932584269666 -0.035123688517348144 0.23033707865168543 -0.028698398254171194
decision_type=2 2 2 2 2 2 2 2 2 2 2 2 2 2
left_child=1 2 -1 -3 10 6 -6 9 -9 -4 -2 -12 -13 -14
right_child=4 3 7 -5 5 -7 -8 8 -10 -11 11 12 13 -15
leaf_value=0.029580341466014799 -0.02691660105394075 -0.0084932037912841107 -0.0064754498950962943 0.0027122415234361649 0.02259899445481274 0.03079876020829584 -0.025812345466229725 0.018268029120553583 -0.010753730507604357 0.029970813828567824 0.022714355604660459 -0.027512542946363724 -0.025062336550064984 0.0084477639925707795
leaf_weight=3.1899869870394459 0.63993352465331454 122.27969985781237 23.872667465358976 25.211450291331857 1.5883155055344098 8.8897049780935031 1.7768614348024128 9.038762968964873 2.7872425699606529 0.70800927560776372 7.3977358913980416 2.6858590580523005 1.1806681733578361 62.598130853846676
leaf_count=31 24 6302 797 728 13 75 20 232 137 13 83 41 18 756
internal_value=-1.43788e-10 -0.0043555 0.0038607 -0.00657243 0.00933503 0.0219849 -0.00302026 0.000876585 0.0111228 -0.00429509 0.00699064 0.00764003 0.0056504 0.00745011
internal_weight=273.845 187.088 39.5967 147.491 86.7572 12.2549 3.36518 36.4067 11.826 24.5807 74.5023 73.8624 66.4647 63.7788
internal_count=9270 8240 1210 7030 1030 108 33 1179 369 810 922 898 815 774
is_linear=0
shrinkage=0.05


Tree=27
num_leaves=15
num_cat=0
split_feature=1 3 1 3 3 2 3 4 3 4 4 0 2 1
split_gain=3.91302 1.355 1.25193 1.02499 0.858433 1.49847 1.29692 0.868853 0.907874 1.07121 2.27276 1.15084 2.58213 1.11738
threshold=0.89325842696629221 -0.048628167789238612 1.0000000180025095e-35 0.044801356611327343 0.058702299650153396 -0.016853932584269645 0.073981412264700244 0.32617339111272775 0.052332089796605759 0.048335491698715101 -0.0082835252488876448 0.93820224719101131 -0.10674157303370783 0.93820224719101131
decision_type=2 2 2 2 2 2 2 2 2 2 2 2 2 2
left_child=1 2 -1 -3 7 -6 -7 8 9 10 -2 12 13 -11
right_child=4 3 -4 -5 5 6 -8 -9 -10 11 -12 -13 -14 -15
leaf_value=0.029449836940072378 0.02222705913086066 -0.0080088945527500132 0.0010057141356033033 0.0035560597915845525 0.032331752922161949 -0.021820349544512355 0.012733000091317415 -0.031607825271001748 -0.020950223665183582 -0.00089079043228325805 -0.018604317414818227 0.025296326833386125 -0.014620051603279456 0.021385698265187346
leaf_weight=3.3439197912812224 4.2333934288471928 125.0385132948868 36.094593210145831 21.999936826061457 8.5097055584192294 2.3595419134944704 14.247728377580641 0.57401246391236682 1.9895869400352229 7.9665971640497402 8.8770509511232358 10.059259114786981 9.6011184398084932 17.569953016005456
leaf_count=31 42 6428 1179 602 64 43 172 9 33 111 164 102 119 171
internal_value=-4.24409e-11 -0.00406666 0.00408606 -0.00626621 0.0087645 0.0163996 0.00686324 0.0053999 0.00626211 0.00752825 -0.00477893 0.0111244 0.00647953 0.0146645
internal_weight=272.465 186.477 39.4385 147.038 85.9879 25.117 16.6073 60.871 60.297 58.3074 13.1104 45.1969 35.1377 25.5366
internal_count=9270 8240 1210 7030 1030 279 215 751 742 709 206 503 401 282
is_linear=0
shrinkage=0.05


Tree=28
num_leaves=15
num_cat=0
split_feature=1 4 3 2 0 3 4 4 3 2 3 1 4 0
split_gain=3.70537 1.38309 1.08234 1.33806 1.05699 0.921507 0.933984 1.29583 0.930388 1.01684 1.67697 1.12843 1.49769 1.03645
threshold=0.8370786516853933 -0.15594719991433667 0.058702299650153396 -0.016853932584269645 0.061797752808988769 0.052332089796605759 0.050809555728425611 -0.0082835252488876448 -0.069303435507977282 -0.24157303370786509 -0.0064805905358337737 0.97191011235955072 0.32617339111272775 0.78089887640449451
decision_type=2 2 2 2 2 2 2 2 2 2 2 2 2 2
left_child=1 4 5 -4 -1 6 7 -2 -8 -10 13 -12 -13 -11
right_child=2 -3 3 -5 -6 -7 8 -9 9 10 11 12 -14 -15
leaf_value=0.034287306202220716 0.011979624529045094 -0.0058713920886701715 0.030125756478391635 0.0072757953569310549 0.0010498815267933083 -0.020225676592199034 -0.021380060809059874 -0.011709260219544897 0.018930294004488694 0.0062834415590408855 0.0011074244480209284 0.026828662280075379 -0.033196770398424412 -0.044010066276218451
leaf_weight=2.7312486702576262 8.1572513300925511 154.49394344026223 9.2203907258808631 19.699262907728553 6.8486359557136893 2.7676613926887503 1.5333541901782144 14.74342891667038 19.238004541024562 1.2915646303445094 18.991141742095362 8.9321662653237546 0.31199271231889802 1.7098545003682373
leaf_count=33 145 7540 84 277 152 52 39 306 231 18 296 68 3 26
internal_value=-1.41493e-10 -0.00470572 0.00721951 0.0153244 0.0128711 0.00404557 0.00519695 -0.00312307 0.0088503 0.0101662 0.00434875 0.00838204 0.02176 -0.0262062
internal_weight=270.67 164.074 106.596 28.9197 9.57988 77.6764 74.9088 22.9007 52.0081 50.4747 31.2367 28.2353 9.24416 3.00142
internal_count=9270 7725 1545 361 185 1184 1132 451 681 642 411 367 71 44
is_linear=0
shrinkage=0.05


Tree=29
num_leaves=15
num_cat=0
split_feature=1 3 1 3 4 4 0 3 4 3 2 4 4 4
split_gain=3.37949 1.23063 1.0028 0.881364 1.33552 2.76376 2.08891 1.12612 1.12607 1.13116 1.30332 0.815231 1.12723 0.867083
threshold=0.8370786516853933 -0.05941047516980346 1.0000000180025095e-35 0.058702299650153396 0.052751036152599136 0.24699773336960154 0.89325842696629221 0.052332089796605759 0.15112976239453493 0.11389289153945716 1.0000000180025095e-35 0.050809555728425611 -0.0082835252488876448 0.32617339111272775
decision_type=2 2 2 2 2 2 2 2 2 2 2 2 2 2
left_child=1 2 -1 7 -5 6 -6 11 -8 10 -10 12 -2 -13
right_child=3 -3 -4 4 5 -7 8 -9 9 -11 -12 13 -14 -15
leaf_value=0.028574597139939064 0.011550541071542129 -0.0063364146851709706 0.0013016377086624486 0.031517037721329348 0.028897920708374516 0.030614499187970892 -0.028572880375081322 -0.022704379383314918 0.032186099565038595 -0.02798081195354446 -0.013863427218582584 0.0097539188578933782 -0.010513575584544479 -0.028632044173077232
leaf_weight=2.997653346508744 8.2150203157216328 138.48079688474536 22.189746228978038 7.2557390369474914 2.5162234157323864 7.1210321076214305 5.8315080441534501 2.7794646229594937 2.5558456629514694 1.3588669188320635 1.9368495531380174 50.8036182327196 14.653392917476593 0.56871242262422939
leaf_count=23 145 7040 662 87 33 66 102 52 22 18 33 672 306 9
internal_value=1.62089e-10 -0.00449019 0.00551471 0.00693638 0.0143009 0.00729237 -0.00564851 0.00405572 -0.0147807 0.00112835 0.013424 0.00534602 -0.00243563 0.00879038
internal_weight=269.264 163.668 25.1874 105.596 28.5761 21.3203 14.1993 77.0202 11.6831 5.85156 4.4927 74.2407 22.8684 51.3723
internal_count=9270 7725 685 1545 361 274 208 1184 175 73 55 1132 451 681
is_linear=0
shrinkage=0.05


Tree=30
num_leaves=15
num_cat=0
split_feature=1 3 4 2 4 3 4 0 3 3 1 0 3 1
split_gain=3.03663 1.18254 1.07776 0.996701 0.868246 1.21951 0.878051 0.790679 1.53554 1.1609 1.22566 0.815488 0.891269 0.762651
threshold=0.89325842696629221 -0.077538478924902718 -0.098375520116531986 0.2303370786516854 0.24699773336960154 0.039194803307934241 0.27597081720500521 0.89325842696629221 0.055213928772744898 -0.0048820616313132162 0.9269662921348315 0.016853932584269666 0.043690650716938791 0.45505617977528096
decision_type=2 2 2 2 2 2 2 2 2 2 2 2 2 2
left_child=1 2 3 -1 7 6 -6 8 11 -9 -11 -2 -13 -3
right_child=4 13 -4 -5 5 -7 -8 9 -10 10 -12 12 -14 -15
leaf_value=0.027217919479561037 -0.027908879188708414 -0.0079425104626795872 -0.0091855185194583567 -0.021324423628303283 0.017803799209269187 0.029065687559505393 -0.023770771944744046 -0.036626748340267481 0.039139785744417989 0.01960601055171679 -0.0032135130694146566 0.010347703740732687 -0.018665973802951066 -0.0013422519711214565
leaf_weight=6.8135719355195761 0.67006308119743963 84.320492794271559 3.5233360598795098 0.47209810186177481 1.4136113822460168 8.5205450393259508 1.7401991151273248 1.0503871645778442 3.2067733593285075 6.6906242333352592 24.216021623462439 32.75979492906481 1.9645068421959866 90.875775785185397
leaf_count=121 24 4047 150 20 13 75 20 22 27 99 313 406 31 3902
internal_value=-6.1355e-11 -0.003536 0.0118324 0.0218784 0.00794462 0.0200843 -0.00533611 0.00568342 0.0104048 -0.000162289 0.00218608 0.00679752 0.00822972 -0.00454595
internal_weight=268.238 186.005 10.809 7.28567 82.2325 11.6744 3.15381 70.5582 38.6011 31.957 30.9066 35.3944 34.7243 175.196
internal_count=9270 8240 291 141 1030 108 33 922 488 434 412 461 437 7949
is_linear=0
shrinkage=0.05


Tree=31
num_leaves=15
num_cat=0
split_feature=1 3 1 0 0 3 2 2 3 2 3 4 3 0
split_gain=3.08767 1.1653 0.804467 0.812797 0.738301 0.72216 1.20079 0.820095 1.67101 1.25634 1.15339 1.67422 1.76352 1.50396
threshold=0.8370786516853933 -0.05941047516980346 0.028089887640449441 0.25280898876404501 0.46629213483146076 0.058702299650153396 -0.016853932584269645 -0.24157303370786509 -0.0068726358941044166 -0.16853932584269662 0.035083816705298927 0.27597081720500521 0.028988300433339335 0.96067415730337091
decision_type=2 2 2 2 2 2 2 2 2 2 2 2 2 2
left_child=1 2 4 -4 -1 7 -7 -2 9 -9 11 12 13 -10
right_child=5 -3 3 -5 -6 6 -8 8 10 -11 -12 -13 -14 -15
leaf_value=0.025380818281001069 0.010323321755991101 -0.0061145766511184335 -0.0063519716110409857 0.014577856100779463 -0.019199207661997036 0.028062563653964187 0.0059258710685534573 0.0097834947009469413 0.010191805032747086 -0.034592117940013128 -0.0076611696105402726 -0.035818451700588408 0.03696815799048337 -0.028769613828928856
leaf_weight=5.4114876501262215 30.294554454274476 137.31893553864211 13.734189872629942 5.7702601952478281 0.34107779711484898 8.524746188893916 19.297313135117292 1.7390959616750477 18.817711669951688 4.4191049030050626 13.764450883492826 0.95127637684345145 4.8670029342174521 1.8558444594964374
leaf_count=55 452 7040 486 141 3 84 277 30 289 102 216 8 52 35
internal_value=-2.62874e-10 -0.00430183 0.00541135 0.000248957 0.0202858 0.00666795 0.0134469 0.00406784 -0.000146707 -0.0224442 0.0037256 0.00970533 0.0126866 0.00552824
internal_weight=267.107 162.576 25.257 19.5045 5.75257 104.531 27.8221 76.709 46.4145 6.1582 40.2563 26.4918 25.5406 20.6736
internal_count=9270 7725 685 627 58 1545 361 1184 732 132 600 384 376 324
is_linear=0
shrinkage=0.05


Tree=32
num_leaves=15
num_cat=0
split_feature=1 4 1 4 3 3 0 4 0 3 0 0 4 2
split_gain=2.8052 1.09931 0.861985 1.54713 0.79056 0.925222 1.03357 0.86041 0.709118 0.956864 0.952107 1.868 0.918311 0.690305
threshold=0.89325842696629221 -0.17464603571011653 0.45505617977528096 -0.082384554844923782 -0.069303435507977282 -0.047904994370875968 0.23033707865168543 -0.0069774034789918385 0.43258426966292141 0.0056113068724054091 0.91573033707865181 0.93820224719101131 0.072236778818732375 0.21910112359550565
decision_type=2 2 2 2 2 2 2 2 2 2 2 2 2 2
left_child=1 -1 3 -3 -2 -6 7 -7 12 -10 -11 -12 -8 -4
right_child=4 2 13 -5 5 6 8 -9 9 10 11 -13 -14 -15
leaf_value=0.017960975167012637 -0.018276211237712638 -0.00059034125785298688 -0.002123507767229168 -0.014012885259549078 0.029790598381679925 0.022555434849171482 -0.0063478021335079508 -0.023819454718983314 -0.0047588722568917864 0.018544886302158715 -0.022918473000113623 0.0092279695955332138 0.03693475390614611 0.012413733678080009
leaf_weight=4.8632720820605746 1.9360100720077742 40.693725122138858 86.386642305646092 44.658595133107156 3.9071502229198805 0.43371683359146151 1.3422678522765625 3.5543126156553617 13.394846738316117 19.156674921512604 4.316265705972909 30.069654734805226 3.3625194057822227 8.0113263251259905
leaf_count=74 51 1576 3653 2573 37 2 19 56 195 211 60 368 31 364
internal_value=1.21275e-10 -0.00340931 -0.00408367 -0.00769432 0.00767295 0.00852366 0.00705056 -0.0152652 0.00848583 0.00692062 0.00987618 0.00465917 0.0256382 -0.000772574
internal_weight=266.087 184.614 179.75 85.3523 81.4734 79.5374 75.6303 3.98803 71.6422 66.9374 53.5426 34.3859 4.70479 94.398
internal_count=9270 8240 8166 4149 1030 979 942 58 884 834 639 428 50 4017
is_linear=0
shrinkage=0.05


Tree=33
num_leaves=15
num_cat=0
split_feature=1 4 1 4 2 4 3 3 4 0 2 1 4 3
split_gain=2.74057 1.02171 0.779783 1.34821 0.685386 0.991104 0.957554 1.12252 0.758072 0.733016 0.709462 0.703076 0.666356 0.633281
threshold=0.89325842696629221 -0.17464603571011653 0.45505617977528096 -0.082384554844923782 0.21910112359550565 0.012775343863955515 -0.019082322983991536 1.0000000180025095e-35 -0.11098395808244425 0.073033707865168551 -0.44382022471910104 0.73595505617977541 0.085419661064740096 0.043690650716938791
decision_type=2 2 2 2 2 2 2 2 2 2 2 2 2 2
left_child=1 -1 3 -3 6 -6 8 12 -4 -10 -9 -12 -8 -5
right_child=-2 2 4 13 5 -7 7 10 9 -11 11 -13 -14 -15
leaf_value=0.016901395307622719 0.0076306250191575725 -0.00091310400309860197 -0.026845647464225211 -0.015274141832854332 0.021569299614302456 -0.0125015211500144 -0.021066405317097775 -0.028534002469332305 -0.0094868776277688104 0.0099579877270183585 -0.0096151676395956551 0.0042072033302633476 0.012080924179776685 0.0056539509163645802
leaf_weight=5.0502649387344709 80.614657285623252 40.811543336603791 0.83419603016227739 40.041190789546818 6.1063735829666239 2.2832885775715113 12.887591240461914 1.3558890484273423 5.1295457701198783 24.788610494229943 12.627400276251135 27.319259133655578 1.0549088059924532 3.4600854422897092
leaf_count=74 1030 1576 43 2461 255 109 694 51 186 1094 842 718 25 112
internal_value=7.18599e-11 -0.00337088 -0.00403466 -0.00749981 -0.000893188 0.0119529 -0.0022694 -0.00616666 0.00470555 0.00642511 -0.00187005 -0.000290252 -0.0179178 -0.0135199
internal_weight=264.365 183.75 178.7 84.3128 94.3871 8.38966 85.9974 55.245 30.7524 29.9182 41.3025 39.9467 13.9425 43.5013
internal_count=9270 8240 8166 4149 4017 364 3653 2330 1323 1280 1611 1560 719 2573
is_linear=0
shrinkage=0.05


Tree=34
num_leaves=15
num_cat=0
split_feature=1 3 3 4 3 0 0 3 3 3 2 0 2 3
split_gain=2.47037 0.990278 0.780344 0.75576 0.855433 0.976145 0.822664 0.99248 1.73822 1.09027 1.07592 1.15184 0.910238 0.873022
threshold=0.8370786516853933 -0.05941047516980346 0.02563209011979695 0.16706649897786965 0.11389289153945716 0.99438202247191021 0.90449438202247201 0.020805488454536007 -0.018232689677132926 0.0056113068724054091 -0.16853932584269662 0.028089887640449441 1.0000000180025095e-35 0.028988300433339335
decision_type=2 2 2 2 2 2 2 2 2 2 2 2 2 2
left_child=1 -1 -3 6 -5 -6 7 8 10 -10 11 -2 13 -8
right_child=3 2 -4 4 5 -7 12 -9 9 -11 -12 -13 -14 -15
leaf_value=0.0050924822326928933 -0.020744751472289658 -0.0075795009877565132 0.0015844901467054419 0.01698507749424465 0.017823124552662207 -0.02639783569035475 -0.031033199207942026 0.017268942605799319 -0.017269514403625723 0.0066929198232251481 -0.01779629035095253 0.021362337010953622 0.0039864516336466224 -0.002706934414595991
leaf_weight=25.051159517839551 1.0187087878584886 105.19274369347841 29.341729952488095 21.501889210194353 1.2823386564850798 1.9070231728255749 3.6345339221879858 15.652323713526128 11.225165671668949 7.0584596879780284 1.6550571992993344 14.632634219713507 16.203987702727318 7.1084650252014399
leaf_count=685 39 5831 1209 214 14 24 61 227 225 108 47 207 293 86
internal_value=4.16073e-11 -0.00388669 -0.00558391 0.00600831 0.0134729 -0.00860769 0.00351071 0.00718195 0.00239502 -0.00815137 0.0133736 0.0175404 -0.00347768 -0.0141168
internal_weight=262.466 159.586 134.534 102.881 24.6913 3.18936 78.1893 51.2423 35.59 18.2836 17.3064 15.6513 26.947 10.743
internal_count=9270 7725 7040 1545 252 38 1293 853 626 333 293 246 440 147
is_linear=0
shrinkage=0.05


Tree=35
num_leaves=15
num_cat=0
split_feature=1 3 3 4 1 0 1 0 3 3 0 4 2 4
split_gain=2.44836 0.90638 0.992338 0.692631 0.643425 0.796063 0.753283 0.930678 0.572995 0.713613 0.850159 0.722697 0.68701 0.592813
threshold=0.89325842696629221 -0.048628167789238612 0.02563209011979695 0.083231372243094751 1.0000000180025095e-35 0.46629213483146076 0.27528089887640456 0.016853932584269666 -0.061615500166245889 -0.047904994370875968 0.050561797752808994 0.048335491698715101 -0.56741573033707848 0.24699773336960154
decision_type=2 2 2 2 2 2 2 2 2 2 2 2 2 2
left_child=1 4 3 -3 5 -1 -6 -8 -2 11 -11 -10 -13 -12
right_child=8 2 -4 -5 6 -7 7 -9 9 10 13 12 -14 -15
leaf_value=0.029574771449554019 -0.013827257283755716 -0.0083783406515486377 0.0018513106468553654 0.011182586188254224 -0.0063948685996062351 -0.018916078396828236 -0.023908562835543531 0.011131382212349614 -0.0083792741775116503 -0.030179840769196432 0.005363669316199365 0.045778537788003185 -0.0060419745059367043 0.0177259977255179
leaf_weight=3.061081007122993 2.2440872676670542 100.63681880384684 37.776440248358995 3.8982429220341137 16.449193447828293 0.33925765007734288 1.1689008157700325 17.644239106215537 0.73572916910052244 0.56830373965203662 62.917977977544069 2.2296612374484548 0.53174397721886579 10.927169665694235
leaf_count=29 59 5524 1392 114 509 2 54 616 10 15 830 15 4 97
internal_value=4.34534e-10 -0.00322089 -0.00505881 -0.00754984 0.00350122 0.0215374 0.00121602 0.00785745 0.00722224 0.00799608 0.00672194 0.0275843 0.0368464 0.00740537
internal_weight=261.129 180.974 142.312 104.535 38.6627 3.40034 35.2623 18.8131 80.1547 77.9106 74.4135 3.49713 2.76141 73.8451
internal_count=9270 8240 7030 5638 1210 31 1179 670 1030 971 942 29 19 927
is_linear=0
shrinkage=0.05


Tree=36
num_leaves=15
num_cat=0
split_feature=1 4 1 4 2 4 3 3 0 4 4 1 2 4
split_gain=2.29375 0.88232 0.775356 1.22243 0.661202 0.689376 0.66889 0.798919 0.765038 0.622768 0.614855 0.591526 0.731864 0.56501
threshold=0.89325842696629221 -0.17464603571011653 0.45505617977528096 -0.098375520116531986 0.21910112359550565 0.012775343863955515 -0.019082322983991536 1.0000000180025095e-35 0.084269662921348326 -0.11098395808244425 0.085419661064740096 0.72471910112359561 -0.44382022471910104 -0.12839065533686297
decision_type=2 2 2 2 2 2 2 2 2 2 2 2 2 2
left_child=1 -1 3 13 6 -6 8 10 -4 -10 -8 -9 -13 -3
right_child=-2 2 4 -5 5 -7 7 11 9 -11 -12 12 -14 -15
leaf_value=0.015959847621687638 0.0070043163054698925 -0.0069718813397206415 -0.011778023601347044 -0.011945416529568218 0.018826507626778916 -0.0094734313382815044 -0.018519036303775344 -0.010814967527747575 -0.022373933242531577 0.0091782734567764142 0.01290540770082492 -0.02615448238748487 0.0041314936709154438 0.0064529580957531267
leaf_weight=4.8956578811630598 79.814912808127701 12.742812961339952 5.4948113379068699 50.948518713004887 6.7834666422568244 2.2687891013920307 12.582978358957915 11.529813004657624 0.72697949782014504 24.555486552417275 1.0496382825076569 1.1470488924533153 28.090723576955497 17.254081816412508
leaf_count=74 1030 476 211 2973 255 109 694 809 40 1072 25 41 761 700
internal_value=8.32683e-11 -0.00312614 -0.00374711 -0.00730446 -0.000646645 0.0114968 -0.00205563 -0.0053532 0.00375803 0.00745424 -0.0153829 -0.00171129 0.00211766 0.000709089
internal_weight=259.886 180.071 175.175 80.9454 94.2297 9.05226 85.1775 54.4002 30.7773 25.2825 13.6326 40.7676 29.2378 29.9969
internal_count=9270 8240 8166 4149 4017 364 3653 2330 1323 1112 719 1611 802 1176
is_linear=0
shrinkage=0.05


Tree=37
num_leaves=15
num_cat=0
split_feature=1 4 1 3 2 2 3 3 3 3 0 4 4 4
split_gain=2.08356 0.931768 1.73367 0.934802 0.737497 0.731361 0.674666 0.73387 0.544681 0.784324 0.771655 0.824831 0.738038 0.563494
threshold=0.89325842696629221 -0.098375520116531986 0.25280898876404501 -0.077538478924902718 0.011235955056179763 0.11235955056179774 -0.066423772139186307 -0.055925464018999942 -0.061615500166245889 -0.047904994370875968 0.23033707865168543 -0.0069774034789918385 0.048335491698715101 -0.0028168819106027527
decision_type=2 2 2 2 2 2 2 2 2 2 2 2 2 2
left_child=1 3 -3 5 -5 -1 -4 -8 -2 12 11 -11 13 -10
right_child=8 2 6 4 -6 -7 7 -9 9 10 -12 -13 -14 -15
leaf_value=0.024503315973093954 -0.014009711147700221 -0.01630850545271367 -0.019075709099694457 -0.013257589393313358 0.004070309301456511 -0.012339049288426843 0.013964718434344162 -0.0023671158777449682 0.018135997956167198 0.022684008742154746 0.0073359633067916659 -0.022364442600885825 0.037418046727827281 -0.027959628879013671
leaf_weight=6.379878217354416 2.1871521398425093 25.950747116934508 4.6229928084649137 7.1307611437514451 24.088365243282169 1.0028580613434313 6.3739911681041113 102.74909639684483 0.3441888689994812 0.45064719021320376 70.450617598369718 3.3907806724309912 2.7227715812623501 0.39258031919598524
leaf_count=111 59 1440 202 294 934 30 168 5061 2 2 884 56 19 8
internal_value=4.15185e-11 -0.00300592 -0.00489989 0.00379884 -0.000176196 0.0186238 -0.00217762 -0.00129501 0.00665884 0.00741076 0.00609451 -0.0134859 0.0279717 -0.00838213
internal_weight=258.237 178.299 139.697 38.6019 31.2191 7.38274 113.746 109.123 79.9387 77.7516 74.292 3.84143 3.45954 0.736769
internal_count=9270 8240 6871 1369 1228 141 5431 5229 1030 971 942 58 29 10
is_linear=0
shrinkage=0.05


Tree=38
num_leaves=15
num_cat=0
split_feature=1 4 1 3 2 2 4 4 4 4 3 1 1 2
split_gain=1.88634 1.13034 1.45395 0.895244 0.737884 0.707035 1.25575 0.687173 0.78099 0.742193 0.73645 0.870199 0.692077 0.679126
threshold=0.8370786516853933 -0.098375520116531986 0.35393258426966295 -0.077538478924902718 0.11235955056179774 0.1853932584269663 -0.0075519237186820179 0.16706649897786965 0.32617339111272775 0.12475639281699015 0.13626554625851331 0.97191011235955072 0.93820224719101131 -0.044943820224719065
decision_type=2 2 2 2 2 2 2 2 2 2 2 2 2 2
left_child=1 3 -3 4 -1 -4 -7 9 10 -2 11 13 -11 -9
right_child=7 2 5 -5 -6 6 -8 8 -10 12 -12 -13 -14 -15
leaf_value=0.023527541320684055 0.0048745848190543742 -0.013902910071393763 -0.0042238611150416487 -2.8473114898749037e-05 -0.014886893059563856 0.01778761529596801 -0.011210507740578331 -0.021760492452106563 -0.0089967882521482471 0.0081890223202422917 -0.014060056371716144 0.023216687197141178 -0.016926160244309481 0.012267767758488729
leaf_weight=6.7477020099759093 66.425091067329049 37.210344130173326 65.796543276868761 31.260816961992532 0.78677973989397276 9.4130010385997576 4.9815407465212038 1.4955192543566225 3.0354063790291539 3.3907053079456073 1.2083234526216973 15.891166962683199 7.1835925001651049 2.5732028391212323
leaf_count=111 1121 2179 3485 1228 30 408 284 25 36 67 16 136 105 39
internal_value=-1.6012e-10 -0.003438 -0.00587162 0.00388906 0.0182419 -0.00201959 0.00767586 0.00528792 0.0124718 0.00289884 0.0158172 0.0182104 -0.00886112 -0.00206531
internal_weight=257.4 156.197 117.401 38.7953 7.53448 80.1911 14.3945 101.203 24.2036 76.9994 21.1682 19.9599 10.5743 4.06872
internal_count=9270 7725 6356 1369 141 4177 692 1545 252 1293 216 200 172 64
is_linear=0
shrinkage=0.05


Tree=39
num_leaves=15
num_cat=0
split_feature=1 4 1 3 2 4 1 2 3 3 1 4 3 2
split_gain=1.55692 0.858489 1.51458 0.816283 0.690111 0.61806 0.770231 0.594409 0.519206 0.833429 0.650598 0.514428 1.26744 1.0107
threshold=0.89325842696629221 -0.098375520116531986 0.25280898876404501 -0.077538478924902718 -0.02247191011235956 -0.12666050089121347 0.050561797752808994 0.11235955056179774 -0.066423772139186307 -0.051220124263351145 0.53370786516853941 0.24699773336960154 0.039194803307934241 -0.61235955056179758
decision_type=2 2 2 2 2 2 2 2 2 2 2 2 2 2
left_child=1 3 -3 7 -5 -6 -7 -1 -4 10 -10 -2 13 -13
right_child=11 2 8 4 5 6 -8 -9 9 -11 -12 12 -14 -15
leaf_value=0.0222165124297211 0.0040152903919454053 -0.015340402642891266 -0.017104241548220326 -0.015263737236017297 -0.0044476136121610384 0.027866665886816445 0.0026572748791522365 -0.012985243754228016 -0.0037651289287355715 -0.0025193299393074012 0.022102129847721648 0.016083714084091025 0.024641276312615881 -0.0298277761484959
leaf_weight=6.7812630282714954 68.016224072314799 24.970578706823289 4.3759543923661104 4.9550661342218545 12.225121689494701 3.4666091185063115 10.196815999690442 0.7424142314121126 3.4879664084874076 99.828526782337576 5.4605908677913249 1.3413146100938322 8.2286102175712568 1.6303834281861771
leaf_count=111 922 1440 202 225 443 90 470 30 130 4947 152 16 75 17
internal_value=1.8449e-11 -0.00261266 -0.00444551 0.00393099 0.000141495 0.00354806 0.0105175 0.017627 -0.00192791 -0.00116714 0.0126546 0.0057809 0.015295 -0.0102731
internal_weight=255.707 176.491 138.124 38.3673 30.8436 25.8885 13.6634 7.52368 113.153 108.777 8.94856 79.2165 11.2003 2.9717
internal_count=9270 8240 6871 1369 1228 1003 560 141 5431 5229 282 1030 108 33
is_linear=0
shrinkage=0.05


end of trees

feature_importances:
momentum_5d=158
momentum_20d=148
rank_pct_20d=117
rank_momentum_5d=69
rank_pct_5d=68

parameters:
[boosting: gbdt]
[objective: lambdarank]
[metric: ndcg]
[tree_learner: serial]
[device_type: cpu]
[data_sample_strategy: bagging]
[data: ]
[valid: ]
[num_iterations: 40]
[learning_rate: 0.05]
[num_leaves: 15]
[num_threads: 1]
[seed: 20260720]
[deterministic: 1]
[force_col_wise: 1]
[force_row_wise: 0]
[histogram_pool_size: -1]
[max_depth: -1]
[min_data_in_leaf: 2]
[min_sum_hessian_in_leaf: 0.001]
[bagging_fraction: 1]
[pos_bagging_fraction: 1]
[neg_bagging_fraction: 1]
[bagging_freq: 0]
[bagging_seed: 843]
[bagging_by_query: 0]
[feature_fraction: 1]
[feature_fraction_bynode: 1]
[feature_fraction_seed: 57]
[extra_trees: 0]
[extra_seed: 8811]
[early_stopping_round: 0]
[early_stopping_min_delta: 0]
[first_metric_only: 0]
[max_delta_step: 0]
[lambda_l1: 0]
[lambda_l2: 1]
[linear_lambda: 0]
[min_gain_to_split: 0]
[drop_rate: 0.1]
[max_drop: 50]
[skip_drop: 0.5]
[xgboost_dart_mode: 0]
[uniform_drop: 0]
[drop_seed: 21666]
[top_rate: 0.2]
[other_rate: 0.1]
[min_data_per_group: 100]
[max_cat_threshold: 32]
[cat_l2: 10]
[cat_smooth: 10]
[max_cat_to_onehot: 4]
[top_k: 20]
[monotone_constraints: ]
[monotone_constraints_method: basic]
[monotone_penalty: 0]
[feature_contri: ]
[forcedsplits_filename: ]
[refit_decay_rate: 0.9]
[cegb_tradeoff: 1]
[cegb_penalty_split: 0]
[cegb_penalty_feature_lazy: ]
[cegb_penalty_feature_coupled: ]
[path_smooth: 0]
[interaction_constraints: ]
[verbosity: -1]
[saved_feature_importance_type: 0]
[use_quantized_grad: 0]
[num_grad_quant_bins: 4]
[quant_train_renew_leaf: 0]
[stochastic_rounding: 1]
[linear_tree: 0]
[max_bin: 255]
[max_bin_by_feature: ]
[min_data_in_bin: 3]
[bin_construct_sample_cnt: 200000]
[data_random_seed: 4432]
[is_enable_sparse: 1]
[enable_bundle: 1]
[use_missing: 1]
[zero_as_missing: 0]
[feature_pre_filter: 1]
[pre_partition: 0]
[two_round: 0]
[header: 0]
[label_column: ]
[weight_column: ]
[group_column: ]
[ignore_column: ]
[categorical_feature: ]
[forcedbins_filename: ]
[precise_float_parser: 0]
[parser_config_file: ]
[objective_seed: 7759]
[num_class: 1]
[is_unbalance: 0]
[scale_pos_weight: 1]
[sigmoid: 1]
[boost_from_average: 1]
[reg_sqrt: 0]
[alpha: 0.9]
[fair_c: 1]
[poisson_max_delta_step: 0.7]
[tweedie_variance_power: 1.5]
[lambdarank_truncation_level: 30]
[lambdarank_norm: 1]
[label_gain: 0,1,3,7,15]
[lambdarank_position_bias_regularization: 0]
[eval_at: 1,2,3,4,5]
[multi_error_top_k: 1]
[auc_mu_weights: ]
[num_machines: 1]
[local_listen_port: 12400]
[time_out: 120]
[machine_list_filename: ]
[machines: ]
[gpu_platform_id: -1]
[gpu_device_id: -1]
[gpu_use_dp: 0]
[num_gpu: 1]

end of parameters

pandas_categorical:null
