tree
version=v4
num_class=1
num_tree_per_iteration=1
label_index=0
max_feature_idx=21
objective=lambdarank
feature_names=momentum_1d momentum_3d momentum_5d momentum_10d momentum_20d volatility_5d volatility_20d drawdown_20d volume_change_5d amount_change_5d rank_pct_5d rank_pct_20d rank_momentum_5d market_return_1d market_return_5d market_breadth_1d market_dispersion_1d market_volatility_20d rule_time_series_score rule_cross_section_score rule_rank_momentum_score rule_direction_score
feature_infos=[-0.10813718513007242:0.12229216739576731] [-0.18234825421959322:0.27465397817296533] [-0.25743860440229616:0.28092117351019485] [-0.27022648853672249:0.40351170424303073] [-0.28062547585271636:0.58906651566951895] [0.0012453562741035964:0.088373331352552278] [0.0039238631080082331:0.060188323905258592] [0.0043877162311911633:0.28987731592235633] [-0.70556637982934856:1] [-0.70850366100994711:1] [0:1] [0:1] [-1:0.97752808988764039] [-0.049585464134470299:0.036012358476607553] [-0.10116671736988472:0.054726216916397064] [0.022222222222222223:0.98888888888888893] [0.0079151013248990945:0.029086357152055337] [0.0039238631080082331:0.060188323905258592] [0:100] [0:100] [0:100] [0:100]
tree_sizes=1752 1738 1732 1733 1740 1731 1733 1730 1733 1731 1736 1746 1747 1735 1749 1734 1753 1745 1741 1740 1733 1748 1734 1749 1747 1725 1740 1733 1749 1740 1745 1754 1750 1754 1763 1758 1748 1749 1745 1744

Tree=0
num_leaves=15
num_cat=0
split_feature=11 7 3 6 14 11 5 7 6 8 10 16 14 4
split_gain=22.13 5.76484 3.69143 3.25643 2.98414 2.81393 2.80144 2.53044 2.38192 1.7388 1.66677 1.55371 1.34745 1.48187
threshold=0.76966292134831471 0.066272481937293917 0.02204332624525818 0.01795951711192775 -0.043531449693776002 0.26404494382022475 0.015711013352119722 0.055319768755990768 0.018085479063104159 0.68454896444599556 0.23033707865168543 0.01075488178717931 0.013257522763930864 0.010877816846936674
decision_type=2 2 2 2 2 2 2 2 2 2 2 2 2 2
left_child=1 5 3 -2 -4 -1 8 12 -3 10 -6 -5 13 -7
right_child=2 6 4 11 9 7 -8 -9 -10 -11 -12 -13 -14 -15
leaf_value=-0.04498062473094197 -0.019158567474573673 -0.0035706925525507438 -0.031218903867239481 -0.011791955197161683 -0.0051497945684693368 0.0029351613510523525 0.0052484907473494798 -0.034076514323705689 -0.027809033186894195 0.0011830604135150242 0.048045314614025683 0.028755893506764291 0.0051286652394156706 -0.027436069653810985
leaf_weight=10.854793191421775 5.6174835921265212 31.66358625004068 0.77575071016326802 2.2523539797402909 1.3644325947389067 6.0519755198620322 52.6470892210491 12.645001898985354 14.163870834279804 2.4889456876553586 25.686534675303847 13.464201553724704 11.878869786392896 9.9803317091427726
leaf_count=598 330 1772 40 121 70 262 2219 546 641 115 948 539 579 490
internal_value=3.06241e-10 -0.00973901 0.0279104 0.0112294 0.0389159 -0.0231386 -0.00258114 -0.0163509 -0.0114959 0.0417196 0.0452743 0.0225872 -0.00741952 -0.0164721
internal_weight=201.535 149.886 51.6497 21.334 30.3157 51.411 98.4745 40.5562 45.8275 29.5399 27.051 15.7166 27.9112 16.0323
internal_count=9270 7107 2163 990 1173 2475 4632 1877 2413 1133 1018 660 1331 752
is_linear=0
shrinkage=0.05


Tree=1
num_leaves=15
num_cat=0
split_feature=6 11 11 7 11 5 5 8 10 6 7 11 7 3
split_gain=67.8198 25.4785 13.1525 10.8955 11.1266 8.48762 7.20225 5.02448 5.16011 5.97877 10.7057 7.79915 5.73033 5.38735
threshold=0.017817768502999289 0.75842696629213491 0.94943820224719111 0.049942202885870431 0.96067415730337091 0.016545911580750378 0.015017599558670451 -0.23696439301107955 0.30898876404494385 0.029102977136750825 0.071118913742055492 0.94943820224719111 0.14570192579227773 0.11204182192468339
decision_type=2 2 2 2 2 2 2 2 2 2 2 2 2 2
left_child=2 5 6 4 -3 -2 -1 -5 -9 11 -11 13 -12 -10
right_child=1 3 -4 7 -6 -7 -8 8 9 10 12 -13 -14 -15
leaf_value=-0.034016614890765351 -0.032716336264446158 0.013694847058660826 0.040050831011594984 0.039729802978201306 0.064461532472527228 0.0023365144195655568 -0.011077147104904693 -0.020531983091573267 0.02044199610542476 -0.038670202526459557 0.061013537708560245 -0.02398105139748569 -0.028277993397455143 -0.03884893080278267
leaf_weight=117.61696089571342 21.167133746668696 17.545786574482918 6.7208342421799889 22.644369892776012 30.060451103374362 77.651021066121757 49.914745812304318 9.0526796672493202 67.939756109379232 3.0006775669753578 17.768701715394858 12.687518263235686 1.4117436055093993 3.1510683000087729
leaf_count=3892 962 144 64 225 128 1544 1246 147 612 16 122 121 19 28
internal_value=-1.09138e-10 0.0150473 -0.0244773 0.0259374 0.0464176 -0.00542445 -0.0272883 0.018571 0.0140985 0.0172215 0.039784 0.010849 0.0533658 0.0173115
internal_weight=458.333 284.081 174.253 185.263 47.6062 98.8182 167.532 137.657 115.012 105.959 22.1811 83.7783 19.1804 71.0908
internal_count=9270 4068 5202 1562 272 2506 5138 1290 1065 918 157 761 141 640
is_linear=0
shrinkage=0.05


Tree=2
num_leaves=15
num_cat=0
split_feature=11 5 4 15 6 10 14 7 5 5 9 3 15 14
split_gain=75.1562 26.8074 13.5921 10.5501 12.2088 13.066 6.7415 6.53468 6.329 6.24017 5.89716 9.45475 4.27461 4.1085
threshold=0.75842696629213491 0.015090917995118362 0.16706649897786965 0.9833333333333335 0.025614282555239589 0.050561797752808994 -0.043531449693776002 0.097465840674084273 0.014740557502135401 0.046177153296566818 0.21419073737179165 0.17060225697883682 0.90555555555555567 -0.035833375522273836
decision_type=2 2 2 2 2 2 2 2 2 2 2 2 2 2
left_child=1 -1 3 4 7 -6 -3 8 -2 -7 13 12 -12 -4
right_child=2 6 10 -5 5 9 -8 -9 -10 -11 11 -13 -14 -15
leaf_value=-0.039961302011940189 -0.0049769483452000215 0.025706469849892128 -0.011859298110349276 -0.060711728726130003 -0.047434064451397584 0.047235797665982543 -0.0091045379236669721 -0.023448122297596852 0.021617007627886473 -0.049088740707724871 0.047914930668591114 -0.051442138871561974 -0.036396826326372617 0.061762941712222512
leaf_weight=98.563238547183573 35.049272323958576 15.333527812734244 1.708590055815878 3.5925761261023572 3.4377159215509883 44.578732633031905 93.251025380566716 14.310513322241603 59.339206075761467 0.9687994234263887 10.114796467125412 2.9691160423681131 0.99423799524083811 29.120290150865912
leaf_count=4276 638 338 15 43 45 331 2390 203 744 10 59 24 7 147
internal_value=1.20888e-10 -0.0212201 0.0213188 0.0143761 0.0164587 0.036927 -0.00399906 0.00698215 0.0117932 0.0441764 0.045396 0.016965 0.0379866 0.0574383
internal_weight=413.332 207.148 206.184 161.277 157.684 48.9852 108.585 108.699 94.3885 45.5475 44.907 14.0782 11.109 30.8289
internal_count=9270 7004 2266 2014 1971 386 2728 1585 1382 341 252 90 66 162
is_linear=0
shrinkage=0.05


Tree=3
num_leaves=15
num_cat=0
split_feature=11 5 4 6 7 9 4 6 21 21 15 12 7 6
split_gain=74.2249 23.8048 16.8193 10.1803 7.10733 5.14849 4.18825 4.63312 4.03379 4.54183 4.18448 3.93327 3.81651 3.21118
threshold=0.75842696629213491 0.015090917995118362 0.16706649897786965 0.025614282555239589 0.15392114634640039 0.66283055167577387 0.043849757710266675 0.01795951711192775 58.895472742509533 49.547371373339978 0.81111111111111123 -0.16853932584269662 0.068004487455105081 0.014962734303915775
decision_type=2 2 2 2 2 2 2 2 2 2 2 2 2 2
left_child=1 -1 3 6 5 8 7 -2 9 10 -5 -8 13 -13
right_child=2 -3 -4 4 -6 -7 11 -9 -10 -11 -12 12 -14 -15
leaf_value=-0.040473678363857679 -0.038262375258745519 -0.0059904125801110994 0.049504368979104436 0.04657599373275375 -0.050689889099303193 -0.012263876226563447 0.030383297451463055 0.0015949781348517961 0.05692897376042183 -0.016231219910859278 -0.0218485275663351 0.018862233299094765 0.031000958850325961 -0.016967199090381049
leaf_weight=87.016317208297551 8.4434064179658872 116.98901620972902 43.677129358053207 13.318474878557028 1.5999022256582964 4.4189378675073376 20.405876718461514 31.671475280309096 21.692641131114215 4.73690380482003 2.0372668663039795 8.1135681588202733 8.2318843752145749 19.207990235649049
leaf_count=4276 294 2728 252 108 33 49 288 480 145 36 31 164 105 281
internal_value=3.56786e-10 -0.0208246 0.0226413 0.0142011 0.0328055 0.0367093 0.00470146 -0.0075208 0.0420539 0.0240567 0.0367172 0.0134413 0.00315228 -0.00603677
internal_weight=391.561 204.005 187.555 143.878 47.8041 46.2042 96.0742 40.1149 41.7853 20.0926 15.3557 55.9593 35.5534 27.3216
internal_count=9270 7004 2266 2014 402 369 1612 774 320 175 139 838 550 445
is_linear=0
shrinkage=0.05


Tree=4
num_leaves=15
num_cat=0
split_feature=11 5 11 14 9 5 21 7 14 4 7 4 5 6
split_gain=60.6172 21.1328 9.36485 9.4658 5.69965 5.8686 4.73867 3.27534 3.02656 2.21438 4.3618 4.25683 4.12638 3.39231
threshold=0.79213483146067432 0.015628263474048533 0.91573033707865181 -0.043531449693776002 0.80556449530367757 0.010649446260398689 10.092943654500223 0.069035078621313486 0.011607665470346052 -0.15594719991433667 0.13853737455434464 -0.096302512750575206 0.02208106354372321 0.025036501992084174
decision_type=2 2 2 2 2 2 2 2 2 2 2 2 2 2
left_child=1 -1 -2 -4 5 -5 -7 -3 -6 -9 12 -12 13 -11
right_child=2 7 3 4 8 6 -8 9 -10 10 11 -13 -14 -15
leaf_value=-0.035709072782115978 0.0084444435667488712 -0.026739065821971848 -0.035891652010034088 -0.021698675872490386 -0.047740901441691769 -0.017376913822971331 0.043622446627736955 0.028483144242330973 0.02157019880859876 -0.01165963041570434 -0.0042535230992833233 -0.04536356532140743 0.016823714438052008 0.028949481729805174
leaf_weight=91.291936598252505 69.584327452583238 12.83160808868706 4.0405068336985996 3.2617991417646399 2.2844699556007972 2.8075384525582185 81.326433597132564 5.0698713641613713 2.1975036486983299 38.452063530683517 17.127216080203656 9.1806615274399501 32.254076144658029 4.9464833736419669
leaf_count=4628 1133 424 64 52 42 35 598 98 33 955 356 197 584 71
internal_value=2.99372e-10 -0.0177227 0.0225819 0.032645 0.036013 0.0388326 0.0414067 -0.00384143 -0.0160221 -0.000874184 -0.00259641 -0.0197355 0.00354336 -0.00648329
internal_weight=376.656 211.154 165.503 95.9183 91.8777 87.3958 84.134 119.862 4.48197 107.03 101.961 26.3079 75.6526 43.3985
internal_count=9270 7313 1957 824 760 685 633 2685 75 2261 2163 553 1610 1026
is_linear=0
shrinkage=0.05


Tree=5
num_leaves=15
num_cat=0
split_feature=11 5 11 7 14 5 8 2 7 18 7 3 3 14
split_gain=58.4005 16.2851 9.97803 7.19551 6.10077 4.36682 4.31175 4.27237 5.47316 3.08796 3.00532 2.77512 2.96407 2.66998
threshold=0.79213483146067432 0.016545911580750378 0.91573033707865181 0.21598335597797544 -0.043531449693776002 0.013292678867215319 0.39434465358089005 0.057296835900012895 0.026573269114125945 18.85845774415461 0.035112692042205303 0.13884063195531995 0.059636258454700115 0.038909747882340862
decision_type=2 2 2 2 2 2 2 2 2 2 2 2 2 2
left_child=1 -1 -2 -3 -4 10 7 8 -7 -10 -6 12 -8 -11
right_child=2 3 4 -5 5 6 11 -9 9 13 -12 -13 -14 -15
leaf_value=-0.033100338746372998 0.0069584912581281827 -0.0072917214073255493 -0.034548358263264994 0.051474351686705146 0.032377351283809308 -0.046251926640901046 -0.022780619415244362 0.05997284172075884 -0.015866034574231833 0.039630029027793202 -0.018302713240206461 -0.035829741371699989 0.036810861782304576 -0.035313649470848106
leaf_weight=96.935130885336548 69.950188516173512 90.152334208134562 2.5948684508912256 4.5297201182693234 3.9478768557310087 1.3037973791360844 2.2196510937064868 23.037094879895449 2.2713846666738382 47.565962178632617 6.1701892409473658 2.0330162458121768 5.7905790815129876 0.48677833750843902
leaf_count=4946 1133 2313 64 54 45 14 31 129 36 319 94 24 64 4
internal_value=2.49678e-10 -0.0188026 0.0215102 -0.00397168 0.0317818 0.0339384 0.037607 0.0417007 0.0325627 0.035466 0.00260524 0.00615301 0.0196023 0.0381664
internal_weight=358.989 191.617 167.371 94.6821 97.4212 94.8263 84.7083 74.665 51.6279 50.3241 10.1181 10.0432 8.01023 48.0527
internal_count=9270 7313 1957 2367 824 760 621 502 373 359 139 119 95 323
is_linear=0
shrinkage=0.05


Tree=6
num_leaves=15
num_cat=0
split_feature=11 5 11 1 5 7 3 14 6 7 5 14 3 1
split_gain=53.5978 13.8348 8.25865 7.45982 5.89011 5.8236 3.79304 3.45639 2.35341 5.5351 4.45649 3.60476 3.14484 3.4264
threshold=0.89325842696629221 0.018001804448019555 0.75842696629213491 -0.060135989332393107 0.013292678867215319 0.21598335597797544 0.082054056327812055 -0.043531449693776002 0.030782352420441 0.071118913742055492 0.034822836431848934 -0.03558967540609654 0.066560879772961004 0.036200444438660224
decision_type=2 2 2 2 2 2 2 2 2 2 2 2 2 2
left_child=1 2 -1 -2 6 -3 -5 -6 10 -10 12 -11 13 -9
right_child=3 5 -4 4 7 -7 -8 8 9 11 -12 -13 -14 -15
leaf_value=-0.030701134142423536 -0.038817638197589682 -0.0024502701080392855 -0.0020010000255406314 -0.024941332551306011 -0.017875310866106341 0.047247890656899633 0.027006037414889245 0.028033179805312364 -0.0058591982559957206 -0.027746042510762559 -0.026080218820383194 0.065213997098861706 0.044819420399980374 -0.016975141106374804
leaf_weight=102.09875739505515 3.1246330607682458 98.909839459229261 33.310220228508115 6.7291261069476587 2.4041364453732958 5.2642307467758647 5.4458034057170153 28.20606916025281 3.4096392393112209 0.57165977358818665 2.5355935916304579 19.078244406729933 33.476003600284457 4.2586964480578891
leaf_count=5194 41 2261 736 134 56 49 69 273 30 7 27 98 233 62
internal_value=1.65412e-10 -0.0132293 -0.0237074 0.0288711 0.031208 0.000486485 -0.00141929 0.035407 0.0369845 0.0515362 0.0314129 0.0612969 0.0339803 0.0217982
internal_weight=348.823 239.583 135.409 109.24 106.115 104.174 12.1749 93.94 91.5359 23.0595 68.4764 19.6499 65.9408 32.4648
internal_count=9270 8240 5930 1030 989 2310 203 786 730 135 595 105 568 335
is_linear=0
shrinkage=0.05


Tree=7
num_leaves=15
num_cat=0
split_feature=11 5 11 1 5 7 8 11 5 15 7 7 3 3
split_gain=49.7678 13.1718 6.86047 5.3285 4.84076 4.49873 3.42056 3.31119 3.11828 2.48558 2.4763 3.76904 2.4696 2.00533
threshold=0.89325842696629221 0.018001804448019555 0.75842696629213491 -0.060135989332393107 0.010649446260398689 0.23411600798910373 0.9073933762733285 0.97191011235955072 0.018898318139131974 0.88333333333333341 0.12868977586868649 0.039531499830438528 -0.080452338892074801 0.17060225697883682
decision_type=2 2 2 2 2 2 2 2 2 2 2 2 2 2
left_child=1 2 -1 -2 -5 -3 7 8 10 -9 11 -6 -10 -14
right_child=3 5 -4 4 6 -7 -8 9 12 -11 -12 -13 13 -15
leaf_value=-0.029886612786987055 -0.037067971800893926 -0.0017190493687083428 -0.0032413097433342483 -0.020848378675950602 0.030892495132663584 0.049581731790760995 -0.012253554912243331 0.048592635644166035 -0.034643259853004434 -0.00056194503280780617 0.053712639254930208 -0.010968163785267561 0.039009894400545822 -0.026039472934494941
leaf_weight=98.14122252073139 2.2305573746561995 100.57840953860432 32.288174151442945 3.8418068643659344 7.4849026761949125 3.461249951273202 3.6918945703655472 37.031515955924988 0.4940670458599915 2.7339741047471753 1.9462063834071148 13.764377968385814 32.089672513306141 0.57253812253475089
leaf_count=5194 41 2283 736 92 81 27 53 225 8 29 11 190 295 5
internal_value=-2.68689e-10 -0.0128438 -0.0233653 0.028296 0.0300433 0.000443434 0.0321896 0.0340053 0.0253967 0.0452823 0.0106809 0.00450269 0.0350775 0.03713
internal_weight=340.351 234.469 130.429 105.882 103.651 104.04 99.8091 96.1173 56.3518 39.7655 23.1955 21.2493 33.1563 32.6622
internal_count=9270 8240 5930 1030 989 2310 897 844 590 254 282 271 308 300
is_linear=0
shrinkage=0.05


Tree=8
num_leaves=15
num_cat=0
split_feature=11 5 14 11 7 5 1 8 21 6 3 4 8 3
split_gain=42.5287 12.0632 5.96234 5.83976 4.28583 3.6199 3.17049 3.31842 3.25928 2.83586 6.90923 2.86838 2.59394 2.45042
threshold=0.89325842696629221 0.018001804448019555 -0.043531449693776002 0.75842696629213491 0.23411600798910373 0.010649446260398689 -0.060135989332393107 0.31347635647795197 58.124733886365952 0.020508832548869843 0.085957630082607719 0.32617339111272775 0.068446339622618271 0.12846120861544688
decision_type=2 2 2 2 2 2 2 2 2 2 2 2 2 2
left_child=1 3 -2 -1 -3 -4 -7 8 12 10 -10 -11 -8 -9
right_child=2 4 5 -5 -6 6 7 13 9 11 -12 -13 -14 -15
leaf_value=-0.028409193609744882 -0.033528442726421297 -0.0016033067295024878 -0.017232778983613226 -0.0035549793971438887 0.044683758767764765 -0.027294198510139502 0.026412452788199994 0.020759143919838009 -0.024942158626996981 0.053257273095766694 0.049699927785083205 -0.0092492652159206247 -0.019837854364460585 -0.021551597897768643
leaf_weight=94.642442961689085 3.1798959933221331 99.894048950169235 3.5017857430502763 31.807205595076084 4.2620510533452025 1.5943305380642403 25.328184682875875 13.260252457112076 4.5436678733676654 37.069736439734697 6.3527199178934097 1.6420133002102364 2.6937012169510117 3.6138736847788087
leaf_count=5194 80 2283 84 736 27 31 245 155 66 230 51 10 36 42
internal_value=6.82569e-11 -0.0119185 0.0265984 -0.0222343 0.000697669 0.0288323 0.0306711 0.0319245 0.0362753 0.0440683 0.0190948 0.0504398 0.0214361 0.0109988
internal_weight=333.386 230.606 102.78 126.45 104.156 99.6003 96.0985 94.5041 77.63 49.6081 10.8964 38.7117 28.0219 16.8741
internal_count=9270 8240 1030 5930 2310 950 866 835 638 357 117 240 281 197
is_linear=0
shrinkage=0.05


Tree=9
num_leaves=15
num_cat=0
split_feature=11 5 11 14 5 3 4 7 8 18 3 6 10 10
split_gain=40.0858 10.581 5.2134 4.00345 3.38043 4.14587 3.22749 2.78789 2.7748 3.06181 2.91837 2.45505 2.99548 2.55871
threshold=0.89325842696629221 0.018001804448019555 0.75842696629213491 -0.043531449693776002 0.014740557502135401 0.10581963769606585 -0.15594719991433667 0.13555944937877071 0.31347635647795197 68.943062440088553 0.12846120861544688 0.020037308647815982 0.50000000000000011 0.016853932584269666
decision_type=2 2 2 2 2 2 2 2 2 2 2 2 2 2
left_child=1 2 -1 -2 5 -5 -3 -8 9 11 -10 12 -6 -13
right_child=3 6 -4 4 8 -7 7 -9 10 -11 -12 13 -14 -15
leaf_value=-0.027283298330124734 -0.027384227725748923 0.03059984689680123 -0.0034984297773990587 -0.011313021620964769 0.036927578427562294 0.037563175681125438 0.0018368168978686852 -0.019298258250507495 0.021525604975799282 0.049985606639626409 -0.031086905461614522 -0.020009789535678443 -0.023863164603331839 0.035402985869975874
leaf_weight=92.530952564440668 2.6073438171297303 7.0604801792651406 30.997347102500498 10.810535623691978 2.2514953836798659 5.9082102850079528 79.05485852342099 18.398543249350041 12.40139728784561 26.682606730610132 2.3533296203240743 1.6092225164175058 4.3804217576980591 30.350814061239362
leaf_count=5194 80 75 736 193 26 61 1717 518 130 165 37 26 69 243
internal_value=3.07306e-10 -0.0115456 -0.0213909 0.0263507 0.0280642 0.00710442 0.00018327 -0.00230883 0.0323011 0.0367126 0.0116935 0.0265048 -0.00109069 0.0320905
internal_weight=327.398 228.042 123.528 99.3554 96.748 16.7187 104.514 97.4534 80.0293 65.2746 14.7547 38.592 6.63192 31.96
internal_count=9270 8240 5930 1030 950 254 2310 2235 696 529 167 364 95 269
is_linear=0
shrinkage=0.05


Tree=10
num_leaves=15
num_cat=0
split_feature=11 5 11 7 14 8 5 10 4 14 10 5 3 8
split_gain=35.3034 10.095 4.57851 3.5856 3.40388 2.83674 2.7416 2.41893 2.28586 3.57102 2.93206 2.82623 2.00358 1.92779
threshold=0.89325842696629221 0.018001804448019555 0.75842696629213491 0.23411600798910373 -0.043531449693776002 0.9073933762733285 0.010649446260398689 0.80337078651685401 0.055507818566745477 -0.030209269088451368 0.78089887640449451 0.037531677906596526 0.0056780142066746872 0.31347635647795197
decision_type=2 2 2 2 2 2 2 2 2 2 2 2 2 2
left_child=1 2 -1 -3 -2 6 -6 8 9 -8 11 -10 -4 -9
right_child=4 3 12 -5 5 -7 7 13 10 -11 -12 -13 -14 -15
leaf_value=-0.026137277753272604 -0.02611120676024491 -0.0014679486389299215 -0.019429244145827543 0.040857922461085688 -0.014170497339507327 -0.015012338713054086 0.034904776640657269 0.040941430009612631 0.034583919102639471 -0.030059345367185519 -0.033525616845982285 -0.028876775847538373 0.0060932795572713619 0.016800894268483049
leaf_weight=90.706653852947056 2.3785997293889514 99.78750370349735 11.425611357204618 4.2653297521173945 3.076842804439365 3.3147101122885934 2.3871134221553802 45.589740505442023 19.602368964813657 4.6988685782998827 1.1737734377384175 1.173167947679757 19.31568082049489 12.506758133880792
leaf_count=5194 80 2283 300 27 78 58 21 355 196 70 14 16 436 142
internal_value=-1.89524e-10 -0.0108053 -0.020536 0.000639484 0.0252566 0.0268255 0.0285105 0.0301614 0.0174395 -0.00656418 0.0251371 0.0298388 -0.00370593 0.0361168
internal_weight=321.403 225.501 121.448 104.053 95.9019 93.5233 90.2086 87.1318 29.0353 7.08598 21.9493 20.7755 30.7413 58.0965
internal_count=9270 8240 5930 2310 1030 950 892 814 317 91 226 212 736 497
is_linear=0
shrinkage=0.05


Tree=11
num_leaves=15
num_cat=0
split_feature=11 5 11 4 5 15 4 7 10 3 9 14 16 3
split_gain=32.4045 8.48584 3.89134 3.43194 3.79783 3.03027 2.99431 2.68218 2.43578 2.20496 2.10343 2.77805 2.05604 2.01282
threshold=0.89325842696629221 0.018001804448019555 0.75842696629213491 0.16706649897786965 0.014740557502135401 0.15000000000000002 -0.15594719991433667 0.13555944937877071 0.039325842696629219 0.059636258454700115 0.21419073737179165 -0.030579894156827585 0.015894468872209837 -0.051097105772761935
decision_type=2 2 2 2 2 2 2 2 2 2 2 2 2 2
left_child=1 2 -1 4 -2 9 -3 13 -7 -6 11 -5 -12 -8
right_child=3 6 -4 10 5 8 7 -9 -10 -11 12 -13 -14 -15
leaf_value=-0.024645190802854686 -0.0084781191006972467 0.028794089901581374 -0.003750625716531902 -0.012429629783581286 0.01225777278916278 -0.029970959809424914 0.012953562684808913 -0.020078688298091379 0.031097579575237927 -0.035108534513295923 0.02307807549729695 0.049847054658672299 -0.036671927525164578 -0.003834977435702431
leaf_weight=88.612356526777148 11.173971734941004 7.3613084554672232 30.193208783864975 1.5571684148162663 7.5050530787557346 0.94152912404388089 25.043280229903758 16.575003416277468 39.601625937968493 2.4570686817169189 7.1127624232321969 21.979331066831946 0.81870776508003462 55.847369973547757
leaf_count=5194 222 75 736 18 91 21 487 518 413 38 70 143 14 1230
internal_value=3.18351e-11 -0.0103204 -0.0194107 0.0246241 0.0172958 0.0230521 6.82069e-05 -0.00237177 0.0289921 -0.00156171 0.0380128 0.0453882 0.0134951 0.00145737
internal_weight=316.78 223.633 118.806 93.1472 61.6792 50.5053 104.827 97.4657 40.5432 9.96212 31.468 23.5365 7.93147 80.8907
internal_count=9270 8240 5930 1030 785 563 2310 2235 434 129 245 161 84 1717
is_linear=0
shrinkage=0.05


Tree=12
num_leaves=15
num_cat=0
split_feature=11 5 11 14 7 5 1 3 3 8 11 6 10 5
split_gain=28.5014 7.60961 3.41911 3.28645 2.85085 2.65002 2.62433 2.40715 2.38316 2.31026 2.25369 2.37622 3.31353 2.52473
threshold=0.89325842696629221 0.018001804448019555 0.72471910112359561 -0.043531449693776002 0.23411600798910373 0.011424331283871535 -0.060135989332393107 -0.095774229776504446 0.0063814344996543379 0.35236760766731196 0.98314606741573041 0.020037308647815982 0.039325842696629219 0.015471984880269166
decision_type=2 2 2 2 2 2 2 2 2 2 2 2 2 2
left_child=1 2 -1 -2 -3 -5 -7 -6 -4 10 11 -8 -13 -14
right_child=3 4 8 5 7 6 9 -9 -10 -11 -12 12 13 -15
leaf_value=-0.023761097628520158 -0.028508304277057618 -0.0017410241896547033 -0.021414002267119186 -0.0095812362315087409 0.051939886979524078 -0.026973238463899863 0.0041612963171601923 -0.018784216591391192 0.0053254649630676415 0.0077267741932310454 0.045883407055758649 -0.033244808777465072 0.00073489789699183929 0.03859570808430475
leaf_weight=83.644280017353594 2.1793158347718409 97.995086094364524 12.334874839056281 4.7981859520077697 3.4939660094678402 1.4619602505117644 11.113930389285086 1.0580182895064343 21.435470963828266 12.60184116847813 20.679058868438005 1.1790437977761019 5.1194930896162978 32.299949984997511
leaf_count=4982 80 2283 415 110 20 31 168 7 533 168 127 22 67 257
internal_value=2.38787e-10 -0.00975241 -0.0183872 0.0233133 0.000216375 0.0248804 0.0269275 0.035079 -0.0047763 0.0281869 0.0316902 0.0249978 0.0307408 0.0335698
internal_weight=311.394 219.962 117.415 91.4328 102.547 89.2535 84.4553 4.55198 33.7703 82.9933 70.3915 49.7124 38.5985 37.4194
internal_count=9270 8240 5930 1030 2310 950 840 27 948 809 641 514 346 324
is_linear=0
shrinkage=0.05


Tree=13
num_leaves=15
num_cat=0
split_feature=11 6 5 1 4 4 6 2 9 5 3 9 8 7
split_gain=24.5599 7.33503 3.42057 3.02073 2.85159 2.77736 3.2015 3.405 2.6362 2.61603 2.40283 2.16591 1.86074 1.84618
threshold=0.89325842696629221 0.013829987631713088 0.02208106354372321 -0.060135989332393107 0.10256734289101889 0.16706649897786965 0.027166307926354629 -0.0064805905358337737 -0.2524237607860238 0.032747714673989681 -0.050614262215332599 0.21419073737179165 0.34420732505656343 0.092936800700336678
decision_type=2 2 2 2 2 2 2 2 2 2 2 2 2 2
left_child=1 4 -3 -2 -1 6 8 9 -5 -8 -4 -7 -9 -10
right_child=3 2 10 5 -6 11 7 12 13 -11 -12 -13 -14 -15
leaf_value=-0.02878789689591444 -0.033304794603774661 -0.0092798374172430795 0.016713389622731816 0.036188372591851856 0.021015963718004852 0.043688154841003961 -0.032448594659104352 0.05084898717341696 0.0070141689140572356 0.032212504294347848 -0.0033374456387722444 0.010971242750773463 0.0032720436637250086 -0.024032373560691822
leaf_weight=46.239618172869086 1.5800665607675899 109.46261081611738 25.797298740595579 5.8433526856824747 2.3647665698081246 21.617108413949612 2.6222657235339311 12.429666627198456 28.591924284119159 1.7703409418463705 33.162402374669909 7.5797901758924118 2.5958781754598013 4.7187739731743923
leaf_count=2739 41 4233 510 64 63 147 43 88 442 16 695 82 36 71
internal_value=-9.28918e-11 -0.00908344 -0.00407984 0.0219198 -0.0259899 0.0232779 0.01652 0.0326353 0.00791394 -0.00524752 0.00556805 0.0358391 0.0433465 0.00204388
internal_weight=306.376 217.027 168.422 89.3492 48.6044 87.7691 58.5722 19.4182 39.1541 4.39261 58.9597 29.1969 15.0255 33.3107
internal_count=9270 8240 5438 1030 2802 989 760 183 577 59 1205 229 124 513
is_linear=0
shrinkage=0.05


Tree=14
num_leaves=15
num_cat=0
split_feature=11 6 7 4 14 5 3 1 4 8 18 3 14 5
split_gain=21.3876 6.59057 3.06388 2.63369 2.56904 2.49371 2.38347 2.13423 2.06656 1.90119 1.78959 2.59412 2.47535 2.06966
threshold=0.89325842696629221 0.013829987631713088 0.23411600798910373 0.10256734289101889 -0.043531449693776002 0.013292678867215319 0.082054056327812055 -0.060135989332393107 -0.10801419642008729 0.9073933762733285 70.523118279640059 0.10189132635698729 0.011607665470346052 0.0094511908232289919
decision_type=2 2 2 2 2 2 2 2 2 2 2 2 2 2
left_child=1 3 10 -1 -2 6 -6 -7 -4 -9 12 -12 13 -3
right_child=4 2 8 -5 5 7 -8 9 -10 -11 11 -13 -14 -15
leaf_value=-0.027618306544744509 -0.026191656357380508 -0.027729098186380582 0.046230628694448779 0.019773206406747113 -0.022194458407464819 -0.025593956771424828 0.022785207029881887 0.027901098596729457 -0.029335611200632536 -0.010979489133975302 0.013453012849041469 -0.037462299765018595 -0.019581554715424151 -0.0015971570445651954
leaf_weight=44.725857337005436 2.0404307041317216 7.1892683687619856 3.6839770311489701 2.4407966313883653 5.353513917885719 1.2775575732812274 4.4936053622514009 71.680633272975683 0.40175006818026204 2.7836621496826401 20.749525196850303 1.8560897652059782 29.871175206732005 103.66256892681122
leaf_count=2739 80 371 29 63 120 31 69 689 9 41 560 45 1221 3203
internal_value=-1.64791e-10 -0.00850057 -0.00378665 -0.0248063 0.0206767 0.0220836 -0.00146028 0.0251236 0.034493 0.0263214 -0.00494831 0.00786258 -0.00704719 -0.00352469
internal_weight=302.21 214.581 167.414 47.1667 87.6294 85.589 9.84712 75.7419 4.08573 74.4643 163.329 22.6056 140.723 110.852
internal_count=9270 8240 5438 2802 1030 950 189 761 38 730 5400 605 4795 3574
is_linear=0
shrinkage=0.05


Tree=15
num_leaves=15
num_cat=0
split_feature=11 5 11 4 21 14 1 8 18 5 9 7 18 9
split_gain=19.4218 6.04274 3.73679 2.52205 2.49877 3.013 2.40404 2.33749 2.56248 2.47881 2.02823 3.60078 1.9646 1.91877
threshold=0.89325842696629221 0.018001804448019555 0.72471910112359561 -0.017657132658285165 39.455550701723404 0.022566823884922465 0.052366696568980416 0.9073933762733285 86.68411394591422 0.010165105976008974 -0.12230502496215338 0.097465840674084273 31.160736408668111 0.48276852480985449
decision_type=2 2 2 2 2 2 2 2 2 2 2 2 2 2
left_child=1 2 -1 -4 5 10 -6 8 9 -2 11 -3 -13 -10
right_child=7 4 3 -5 6 -7 -8 -9 13 -11 -12 12 -14 -15
leaf_value=-0.022264692648534628 -0.029298503734046844 0.022302643819073674 -0.0291030268771807 0.0044592056115875635 -0.010269470651879928 -0.039727560708972154 0.020323570330205647 -0.017673103259176783 0.04593063658341813 0.018149694443534412 0.023570362368021992 -0.024961821672814882 0.017473808713513155 0.0078377381377680404
leaf_weight=76.452203577850014 2.0049866377376011 10.901634351350369 5.9721697592176488 27.496904041618109 49.127449283376336 2.0079685347154728 6.4222385110333553 3.2664322247728697 14.48891903832555 61.835845763795078 20.034508573822677 10.144223179668186 2.8223348930478087 4.7999263107776633
leaf_count=4982 70 225 233 715 1206 60 124 61 108 730 394 236 65 61
internal_value=3.99373e-11 -0.008164 -0.0162303 -0.00220017 0.000648098 0.00917361 -0.00643569 0.0198394 0.0215059 0.0162307 0.0122451 0.0021734 -0.0151354 0.0373049
internal_weight=297.778 211.382 109.921 33.4691 101.46 45.9107 55.5497 86.3961 83.1297 63.8408 43.9027 23.8682 12.9666 19.2888
internal_count=9270 8240 5930 948 2310 980 1330 1030 969 800 920 526 301 169
is_linear=0
shrinkage=0.05


Tree=16
num_leaves=15
num_cat=0
split_feature=11 5 11 7 14 3 4 5 14 6 10 5 5 12
split_gain=16.7456 6.01977 3.25759 3.25421 2.75637 2.26235 1.97707 3.16318 3.43335 2.93248 2.69365 1.72657 1.68686 1.62433
threshold=0.89325842696629221 0.018001804448019555 0.72471910112359561 0.23411600798910373 -0.043531449693776002 0.0045841633172497573 0.16706649897786965 0.034822836431848934 -0.0019871056518531139 0.021686267123913344 0.039325842696629219 0.039307114566529723 0.010101872693372852 -0.44382022471910104
decision_type=2 2 2 2 2 2 2 2 2 2 2 2 2 2
left_child=1 2 12 11 -2 -4 9 -8 -9 13 -11 -3 -1 -6
right_child=4 3 5 -5 6 -7 7 8 -10 10 -12 -13 -14 -15
leaf_value=-0.03048426340473763 -0.029755765319430597 0.00036813875634108097 -0.020527896077446445 0.041799626627328897 0.022274101487816712 0.0062978011049057807 0.038276675124414322 -0.034229689917234372 0.031233551812746688 -0.036918954224388748 0.024825160504003279 -0.037941246669940074 -0.014623631232359805 -0.0096556237417341536
leaf_weight=31.348006787244231 2.0409986507147542 93.554743587039411 10.837278905790297 3.6946076899766913 4.3013175046071437 22.481253231875598 23.407744849100713 3.0275488840416074 2.9872614815831176 0.99743838049471278 34.687208727002144 2.0360506605356923 42.777680978644639 15.069040036760269
leaf_count=2042 80 2239 405 27 61 543 179 35 22 25 369 44 2940 259
internal_value=2.4103e-10 -0.00772907 -0.0158737 0.00115521 0.0183453 -0.00277151 0.019842 0.030271 -0.00189961 0.0138279 0.02214 -0.000832194 -0.0216476 -0.00182002
internal_weight=293.248 206.73 107.444 99.2854 86.5186 33.3185 84.4776 29.4226 6.01481 55.055 35.6846 95.5908 74.1257 19.3704
internal_count=9270 8240 5930 2310 1030 948 950 236 57 714 394 2283 4982 320
is_linear=0
shrinkage=0.05


Tree=17
num_leaves=15
num_cat=0
split_feature=11 6 7 11 9 5 4 7 5 4 6 7 5 7
split_gain=15.137 5.35093 2.61626 2.36555 2.9453 2.86078 2.33802 2.38198 2.29967 2.00226 1.9645 2.57883 3.42973 2.52321
threshold=0.89325842696629221 0.01795951711192775 0.23411600798910373 0.98314606741573041 0.48276852480985449 0.014740557502135401 0.10256734289101889 0.084398168434956525 0.041695868009044255 -0.10801419642008729 0.019815698661440152 0.076467526338932237 0.021377054308990947 0.046842032870664581
decision_type=2 2 2 2 2 2 2 2 2 2 2 2 2 2
left_child=1 6 10 5 -5 -2 7 -1 -7 -4 11 13 -13 -3
right_child=3 2 9 4 -6 8 -8 -9 -10 -11 -12 12 -14 -15
leaf_value=-0.023852181036594491 -0.0096191202637563571 -0.015885350711527076 0.048012807468047182 0.036455179600527465 -0.017335823521576435 0.019255360055356802 0.015113351509197943 -0.0060243922433156124 -0.034897769237993218 -0.028086623290377939 -0.0052242316299583556 -0.023447896876017397 0.022443802718198229 0.040125576348395524
leaf_weight=58.512337950058281 11.588554101064799 1.9877788061276103 3.4139165319502358 21.588014396838847 2.2754998728632918 47.904600414447486 4.8919531963765612 28.581401763018221 1.1513129658997048 0.37926475144922633 84.610462775919586 8.1213922081515175 6.3677564207464448 8.1345336092635971
leaf_count=3297 235 62 29 170 36 573 134 1644 16 9 2417 349 123 176
internal_value=-3.97199e-10 -0.00734063 -3.08181e-05 0.0176846 0.030835 0.0120937 -0.0162247 -0.0181365 0.0173126 0.0361317 -0.00160312 0.0105636 -0.00313232 0.0286871
internal_weight=289.509 205.001 113.015 84.508 23.8635 60.6445 91.9857 87.0937 49.0559 3.79318 109.222 24.6115 14.4891 10.1223
internal_count=9270 8240 3165 1030 206 824 5075 4941 589 38 3127 710 472 238
is_linear=0
shrinkage=0.05


Tree=18
num_leaves=15
num_cat=0
split_feature=11 6 7 6 7 5 7 7 6 10 9 6 9 3
split_gain=13.1237 5.44037 2.45078 2.4084 2.7976 3.33605 2.19952 4.12719 4.66147 2.71926 2.56019 2.44264 2.41156 2.29329
threshold=0.88202247191011252 0.01795951711192775 0.23411600798910373 0.019815698661440152 0.073421478996252468 0.021377054308990947 0.036010819136743651 0.045523530815892173 0.025253299408496736 0.28651685393258436 -0.28657506161887841 0.023620242676318248 0.80556449530367757 0.054638902103604566
decision_type=2 2 2 2 2 2 2 2 2 2 2 2 2 2
left_child=1 -1 3 4 -3 -6 13 10 11 -10 -8 -9 -11 -2
right_child=6 2 -4 -5 5 -7 7 8 9 12 -12 -13 -14 -15
leaf_value=-0.016312283552504445 -0.0063363398808205813 0.032511694035493623 0.035409272138467583 -0.0054574258360397185 -0.022175239598336199 0.021760138093619534 0.032382150048070525 0.0062267745025052423 -0.0030249226704563217 0.03566549863219573 -0.036925541685725621 -0.031441937485357292 -0.011703389263710359 0.039767412968130085
leaf_weight=88.716340716462582 2.9882693728432086 9.1623882781714219 3.7643232867121688 80.035132757388055 8.0403153155930323 7.2785854171961537 0.85590142384171475 22.573711489327255 6.4889289373531929 30.427172063849866 5.4504744540899983 4.2652653297409406 2.4718903722241512 13.873852791264651
leaf_count=5050 60 202 38 2355 366 126 5 362 88 267 90 80 38 143
internal_value=-4.88317e-11 -0.00720693 0.000334244 -0.00125265 0.0121685 -0.00124567 0.0157857 0.0117053 0.0154524 0.0261855 -0.0243745 -0.000673946 0.0318662 0.0316997
internal_weight=286.393 196.997 108.281 104.516 24.4813 15.3189 89.3955 72.5333 66.227 39.388 6.30638 26.839 32.8991 16.8621
internal_count=9270 8137 3087 3049 694 492 1133 930 835 393 95 442 305 203
is_linear=0
shrinkage=0.05


Tree=19
num_leaves=15
num_cat=0
split_feature=11 7 4 6 12 7 4 8 5 14 1 8 7 0
split_gain=11.9706 5.32209 3.23728 2.66936 3.37215 2.8182 2.4364 2.27858 2.24186 2.64182 2.20464 2.19199 2.02092 1.92595
threshold=0.78089887640449451 0.066757675632158744 0.16706649897786965 0.025951171680061395 -0.47752808988764034 0.097465840674084273 -0.15594719991433667 0.35236760766731196 0.034822836431848934 -0.0019871056518531139 0.030962041449900449 -0.32402582500922833 0.18806106137364223 0.035923657500036461
decision_type=2 2 2 2 2 2 2 2 2 2 2 2 2 2
left_child=1 -1 3 5 11 -2 12 -6 -4 -10 -7 -5 -3 -14
right_child=2 6 8 4 7 10 -8 -9 9 -11 -12 -13 13 -15
leaf_value=-0.024281923724007986 0.005091790301226592 -0.012505051792952844 0.032714954422892503 0.020555576650702911 0.034010789105416425 -0.041681437431652611 -0.0058206992119126119 -0.0060238087198869385 -0.033952934430696045 0.026213492795823773 0.011411899878825515 -0.033859605375020252 0.042372445184372165 -0.029553556254074426
leaf_weight=42.350671748165041 64.552747019566596 2.7324023749679309 22.360634025186304 2.2357414355501533 19.86780913639814 5.1072207037359467 102.29316495684907 3.9547888366505495 2.4798204377293587 2.8432901576161376 2.3488696645945311 3.6093677440658238 5.7541005276143551 0.36163040995597828
leaf_count=2549 1260 111 195 30 195 136 4476 66 35 22 48 73 72 2
internal_value=-3.38907e-10 -0.0094154 0.0111583 0.00689315 0.0192491 0.00160857 -0.00358446 0.0273897 0.026037 -0.00275245 -0.025584 -0.0130836 0.0202346 0.0345638
internal_weight=282.852 153.492 129.36 101.677 29.6677 72.0088 111.141 23.8226 27.6837 5.32311 7.45609 5.84511 8.84813 6.11573
internal_count=9270 7210 2060 1808 364 1444 4661 261 252 57 184 103 185 74
is_linear=0
shrinkage=0.05


Tree=20
num_leaves=15
num_cat=0
split_feature=11 7 11 7 9 2 1 14 5 3 5 6 10 5
split_gain=9.97345 4.9508 3.15475 2.74978 2.48114 2.24077 3.48034 2.59086 1.99724 2.56483 2.39231 2.15755 2.34053 1.85454
threshold=0.79213483146067432 0.069457363727385105 0.98314606741573041 0.23411600798910373 0.48276852480985449 0.037519786096258174 0.014763046659738046 0.022196329129065367 0.034822836431848934 0.027372389651667665 0.0166296768446705 0.017413974783175103 0.039325842696629219 0.01786779921613612
decision_type=2 2 2 2 2 2 2 2 2 2 2 2 2 2
left_child=1 -1 8 13 5 6 7 -4 10 -10 -2 -12 -13 -3
right_child=2 3 4 -5 -6 -7 -8 -9 9 -11 11 12 -14 -15
leaf_value=-0.022079024462501633 -0.0017348497545088691 -0.012454380229995754 0.035851277755825459 0.034099993605564413 -0.018008378612834323 0.045855335109120952 -0.04253059016582833 -0.033261628187540263 0.012211631691262308 -0.048981414865043441 -0.014685929891665167 -0.032699581663000042 0.019193514755184 0.0010135693261623467
leaf_weight=45.613209767267108 36.793361662887037 40.957215233705938 6.8870512470603042 3.8907416798174372 2.1438808050006619 11.695501883514224 1.4391260044649241 0.81941763125360001 2.6616371907293788 2.5943510122597218 5.0658503882586947 1.3827375713735808 53.073113542981446 65.059469128027558
leaf_count=2752 795 2855 59 38 36 80 20 11 42 48 115 36 715 1668
internal_value=-2.89918e-11 -0.00842058 0.0104973 -0.00260416 0.0268521 0.03208 0.0116806 0.0255263 0.00657055 -0.0209946 0.00827508 0.0143892 0.01731 -0.00425724
internal_weight=280.077 155.521 124.556 109.907 22.985 20.8411 9.14559 7.70647 101.571 5.25599 96.3151 59.5217 54.4559 106.017
internal_count=9270 7313 1957 4561 206 170 90 70 1751 90 1661 866 751 4523
is_linear=0
shrinkage=0.05


Tree=21
num_leaves=15
num_cat=0
split_feature=11 6 14 4 6 4 7 8 18 5 7 5 7 8
split_gain=9.27926 4.33998 2.81928 2.28906 2.52462 2.21752 2.43202 2.07512 1.89284 1.92558 1.71195 3.04432 2.40424 1.6649
threshold=0.89325842696629221 0.01795951711192775 -0.043531449693776002 -0.15139921737048304 0.019815698661440152 0.065487569921317448 0.066757675632158744 0.9073933762733285 86.68411394591422 0.010165105976008974 0.075737735922137242 0.021377054308990947 0.046842032870664581 -0.16830776235247211
decision_type=2 2 2 2 2 2 2 2 2 2 2 2 2 2
left_child=1 5 -2 -3 10 6 -1 8 9 -4 12 -12 -5 -13
right_child=2 3 7 4 -6 -7 -8 -9 -10 -11 11 13 -14 -15
leaf_value=-0.026677992232382819 -0.030207922931280065 0.025989718257288092 -0.028125753270648181 -0.017178733321914861 -0.0057069711731865085 0.0067548375100145901 -0.0085394610278634198 -0.020481449612163503 0.032197387212098465 0.014855355145559621 -0.021634595524280605 -0.025367448644332258 0.036850796625870354 0.030401792118945586
leaf_weight=34.913698027376086 2.5369037808850399 7.3151797703467301 1.8305679131299246 1.9680306864902402 78.047002560924739 10.591313900426028 40.999485787935555 2.9161096680909386 16.931899789720774 55.825959424488246 6.9307559272274357 0.83682768419384945 8.8056881078518909 6.4474707655608654
leaf_count=2227 80 119 60 62 2356 367 2481 58 165 667 338 18 170 102
internal_value=8.15671e-11 -0.00583693 0.0142503 0.000750714 -0.00127376 -0.0141531 -0.0171201 0.0160718 0.017753 0.0130345 0.0122592 0.000541709 0.0263604 0.0217062
internal_weight=276.897 196.855 80.0414 110.351 103.036 86.5045 75.9132 77.5045 74.5884 57.6565 24.9888 14.2151 10.7737 7.2843
internal_count=9270 8240 1030 3165 3046 5075 4708 950 892 727 690 458 232 120
is_linear=0
shrinkage=0.05


Tree=22
num_leaves=15
num_cat=0
split_feature=11 7 11 7 21 4 10 2 1 9 14 3 6 3
split_gain=8.25436 4.5197 2.94434 2.64718 2.38912 1.74067 1.71314 1.70748 2.86163 2.29091 1.7019 2.30242 1.64875 2.45626
threshold=0.75842696629213491 0.066757675632158744 0.98314606741573041 0.23411600798910373 89.814349396264618 -0.10801419642008729 0.039325842696629219 0.037519786096258174 0.014763046659738046 0.63513491321906257 -0.043531449693776002 -0.081339420471999088 0.017342025016155341 0.0266554237431933
decision_type=2 2 2 2 2 2 2 2 2 2 2 2 2 2
left_child=1 -1 6 -3 7 -5 -2 8 -4 -9 11 -8 13 -12
right_child=2 3 4 5 -6 -7 10 9 -10 -11 12 -13 -14 -15
leaf_value=-0.0231097640612902 -0.025971640533381021 -0.0046599015635336643 0.024972800571959108 0.043156622554033137 -0.017607743339371856 -0.027468581281169982 0.026407037027006711 0.049570238559816904 -0.03764818130565814 -0.020463291870469458 -0.023089949520330541 -0.03259468203515694 0.011627864299477028 0.010088541267933526
leaf_weight=36.954331958200783 3.1973308455198994 101.39354577939957 7.5402280474081689 3.6437559779733419 2.255507316440343 0.35715179890394111 1.4666140191256998 10.160052442923185 1.3785681296139953 0.76190541498363096 8.6168129350990075 4.7466556895524255 78.637752121314406 12.361297123134134
leaf_count=2443 86 4523 71 29 29 9 25 70 20 16 319 128 1241 261
internal_value=3.94087e-10 -0.00830931 0.00901533 -0.00295141 0.0252662 0.03262 0.00552208 0.0307511 0.0124738 0.0433781 0.00670778 -0.0169375 0.00833627 -0.00397012
internal_weight=273.472 142.349 131.123 105.394 22.0963 4.00091 109.026 19.8408 8.9188 10.922 105.829 6.21327 99.6159 20.9781
internal_count=9270 7004 2266 4561 206 38 2060 177 91 86 1974 153 1821 580
is_linear=0
shrinkage=0.05


Tree=23
num_leaves=15
num_cat=0
split_feature=11 6 14 8 4 7 4 6 14 21 7 5 7 6
split_gain=7.56278 3.70352 2.23457 1.99254 1.87153 1.87022 1.82078 2.70232 1.94381 1.71946 1.50464 2.9966 2.25561 1.41323
threshold=0.89325842696629221 0.01795951711192775 -0.043531449693776002 0.9073933762733285 0.083231372243094751 0.084398168434956525 -0.15139921737048304 0.019815698661440152 0.017896972366020097 72.197437168313471 0.073421478996252468 0.021377054308990947 0.046842032870664581 0.020037308647815982
decision_type=2 2 2 2 2 2 2 2 2 2 2 2 2 2
left_child=1 4 -2 9 5 -1 8 10 -3 13 12 -12 -8 -4
right_child=2 6 3 -5 -6 -7 7 -9 -10 -11 11 -13 -14 -15
leaf_value=-0.021008355306075262 -0.028060410733042385 0.031085653966302806 -0.0055958186092896264 -0.022041493257436064 0.010832910682514445 -0.0045812186292848792 -0.015993024978209005 -0.005781225268509339 -0.030577320913966866 0.025446921992991152 -0.01973759836647393 0.02240726662176663 0.037292691114960988 0.014696168616104625
leaf_weight=50.008058009203523 2.2934817150235167 7.0423957402817896 10.924567972309886 2.7157403612509361 6.7798687256872645 27.267229130957276 1.9153342563658977 76.295461695175618 0.69431693665683258 29.596462327055633 7.1289908457547408 7.7778577525168657 8.2524238070473057 32.565024103969336
leaf_count=3215 80 104 198 58 216 1644 62 2356 15 323 351 125 152 371
internal_value=2.31922e-10 -0.00530907 0.0130326 0.0146251 -0.0131305 -0.0153445 0.000781031 -0.00109601 0.0226854 0.0162667 0.0128349 0.00227833 0.0267218 0.00958763
internal_weight=271.257 193.162 78.0953 75.8018 84.0552 77.2753 109.107 101.37 7.73671 73.0861 25.0746 14.9068 10.1678 43.4896
internal_count=9270 8240 1030 950 5075 4859 3165 3046 119 892 690 476 214 569
is_linear=0
shrinkage=0.05


Tree=24
num_leaves=15
num_cat=0
split_feature=11 7 7 11 8 2 10 5 5 4 3 11 11 4
split_gain=6.83925 3.3986 2.6102 2.2727 2.09422 1.73017 1.66246 1.53736 1.98029 2.35533 1.51231 1.43903 1.35023 1.26586
threshold=0.79213483146067432 0.066757675632158744 0.23411600798910373 0.98314606741573041 0.39434465358089005 -0.058497451245078318 0.039325842696629219 0.014740557502135401 0.034822836431848934 0.050809555728425611 -0.097396888616253272 0.70224719101123612 1.0000000180025095e-35 0.085419661064740096
decision_type=2 2 2 2 2 2 2 2 2 2 2 2 2 2
left_child=1 11 10 6 5 -5 -2 -8 -9 -10 12 -1 -3 -7
right_child=3 2 -4 4 -6 13 7 8 9 -11 -12 -13 -14 -15
leaf_value=-0.024227259498781559 -0.02790205887685053 0.020346915091612548 0.03233558679481336 -0.022718545809197299 -0.019414883129230818 -0.015721321696395833 -0.0037564567272301581 0.01288018754602676 0.011833196629528281 -0.049804521630606224 -0.0021973465236740505 -0.0010990868212803005 -0.02922389708476893 0.034664816729209499
leaf_weight=31.277599568013102 2.6095750275999299 0.89214627165347238 4.150184121914207 0.87645550072193756 1.8825020538642991 0.78136686142534273 24.88603082858026 64.841372451744974 2.6435987986624232 1.9369159108027814 96.977538390550762 8.6194996554404479 8.0374054550193232 17.65281209629029
leaf_count=2201 72 14 38 14 38 14 598 997 47 37 4332 400 328 140
internal_value=9.04385e-11 -0.00706793 -0.00247048 0.00895752 0.0234305 0.0283576 0.00558571 0.00679538 0.0105776 -0.0184851 -0.00412414 -0.0193796 -0.022721 0.03183
internal_weight=268.065 149.954 110.057 118.111 21.1931 19.3106 96.9175 94.3079 69.4219 4.58051 105.907 39.8971 8.92955 18.4342
internal_count=9270 7313 4712 1957 206 168 1751 1679 1081 84 4674 2601 342 154
is_linear=0
shrinkage=0.05


Tree=25
num_leaves=15
num_cat=0
split_feature=5 11 7 14 7 8 7 21 4 6 7 1 7 8
split_gain=6.7958 4.07844 2.2584 2.14146 1.73251 2.12478 2.27138 2.23809 2.17295 1.97393 2.45957 2.01061 1.98514 1.86304
threshold=0.010649446260398689 0.89325842696629221 0.23411600798910373 -0.043531449693776002 0.021844861954281928 0.31347635647795197 0.026573269114125945 58.409991887119091 0.32617339111272775 0.027166307926354629 0.048692564160561287 -0.015132088964438626 0.068004487455105081 -0.14066727146517086
decision_type=2 2 2 2 2 2 2 2 2 2 2 2 2 2
left_child=-1 2 -2 -3 -5 6 -6 13 9 10 -9 -11 -12 -8
right_child=1 3 -4 4 5 -7 7 8 -10 11 12 -13 -14 -15
leaf_value=-0.017646790189256665 -0.0022884969388837365 -0.02873246982217504 0.03193546750133585 0.041636479509302243 -0.034735645350488766 -0.0064195988209286214 0.016291643811939191 0.035767167105025664 -0.030360988257626609 -0.015046395092352597 -0.027901958244855807 0.047788043407094472 0.015452492195693543 -0.01253327331988642
leaf_weight=44.3267812714912 144.82364396983758 2.0395378568209699 3.986400566995143 4.7289532199501982 1.2057244740426529 11.897857167758046 13.999479363672437 7.1644240133464434 0.82662414759397407 0.94639908149838525 3.3748066537082178 12.879707142710682 5.670868830755353 8.0461294790729863
leaf_count=2701 5601 70 32 37 20 192 174 80 11 9 52 96 69 126
internal_value=-1.77445e-10 0.00359347 -0.00116463 0.013206 0.0147988 0.0122836 0.0164376 0.0182265 0.0267262 0.029225 0.0158648 0.0427623 -0.00188978 0.00568388
internal_weight=265.917 221.591 148.81 72.7805 70.741 66.012 54.1142 52.9084 30.8628 30.0362 16.2101 13.8261 9.04568 22.0456
internal_count=9270 6569 5633 936 866 829 637 617 317 306 201 105 121 300
is_linear=0
shrinkage=0.05


Tree=26
num_leaves=15
num_cat=0
split_feature=5 11 1 4 7 8 7 21 8 16 4 6 2 3
split_gain=6.04496 3.57765 1.90503 1.6719 1.52628 1.97483 1.77502 1.55603 1.89687 1.8917 1.84925 1.93133 1.48327 1.47654
threshold=0.010950463128555989 0.89325842696629221 -0.060135989332393107 -0.15594719991433667 0.021844861954281928 0.31347635647795197 0.026573269114125945 58.409991887119091 -0.14066727146517086 0.011918388181000593 0.32617339111272775 0.020747846471402594 0.047103103352375338 0.050650559077776165
decision_type=2 2 2 2 2 2 2 2 2 2 2 2 2 2
left_child=12 3 -3 -2 -4 6 -6 8 9 -8 11 -9 -1 -11
right_child=1 2 4 -5 5 -7 7 10 -10 13 -12 -13 -14 -15
leaf_value=-0.019075673696474102 0.020219843748945227 -0.032621259818561926 0.040398550696489212 -0.0022454101570090943 -0.031134916254780404 -0.0062426168621053232 -0.005614778849011604 -0.0011263943463155903 -0.011581902691483745 0.037873798149559101 -0.029071336429948677 0.032448948021681329 0.0072344358407539656 -0.017269787844169115
leaf_weight=42.166069124825299 7.8079364495351902 1.3337586186826218 4.2745924182236186 138.11493392894045 1.0690062157809723 11.908335789572446 5.1663996316492584 5.071405438706285 8.1005194876342994 7.5125325014814717 0.76237021572887798 24.433286535553634 5.5875479038804761 0.8242107369005679
leaf_count=2721 150 39 34 5312 18 202 72 86 135 79 13 231 165 13
internal_value=4.50752e-11 0.00356871 0.0127356 -0.000913915 0.0140635 0.0117404 0.0158263 0.0173647 0.00667475 0.0176703 0.0245373 0.0268301 -0.0159119 0.0311563
internal_weight=264.133 216.379 70.4564 145.923 69.1227 64.8481 52.9397 51.8707 21.6037 13.5031 30.2671 29.5047 47.7536 8.33674
internal_count=9270 6384 922 5462 883 849 647 629 299 164 330 317 2886 92
is_linear=0
shrinkage=0.05


Tree=27
num_leaves=15
num_cat=0
split_feature=5 4 6 20 12 2 9 3 14 7 4 21 6 2
split_gain=5.39088 3.44122 2.35852 2.24451 2.74982 2.56879 1.6987 2.45024 1.94895 1.58817 1.81312 2.59419 1.73175 1.49343
threshold=0.010649446260398689 0.16706649897786965 0.025614282555239589 1.685393258426968 0.12921348314606745 0.058702299650153396 0.21419073737179165 0.17060225697883682 -0.030579894156827585 0.18806106137364223 0.063794651734372945 76.449891816802918 0.01878761891395064 0.09596393384856973
decision_type=2 2 2 2 2 2 2 2 2 2 2 2 2 2
left_child=-1 2 9 -4 -5 -6 8 -8 -3 10 -2 -12 -13 -7
right_child=1 6 3 4 5 13 7 -9 -10 -11 11 12 -14 -15
leaf_value=-0.015919738423581832 -0.0055557077293594149 -0.018317916381709012 -0.01383007575604939 0.022425637148444949 -0.032734598266340259 0.038189585401099055 0.015104710623099402 -0.047335265193467528 0.034464551599094666 0.028707806943298577 0.014105488246884464 0.014561718317421099 -0.039281361402829555 -0.027526793959498138
leaf_weight=43.268431783188134 118.47722669132054 1.3394734989851755 6.7469026064500204 29.869349017739296 4.2025572611019006 2.1258397353813057 5.1774347750470033 1.1074013281613586 14.978943347930908 3.1321690836921325 26.413570514414463 1.6209408855065692 3.3880371302366257 0.38717742264270771
leaf_count=2701 4914 18 141 462 122 30 59 24 136 56 497 32 70 8
internal_value=-1.53759e-10 0.00320385 0.00103026 0.0111886 0.0160477 -0.0115498 0.0212431 -0.000884857 0.0293244 -0.0019001 -0.00272566 0.00778715 -0.0223337 0.0231112
internal_weight=262.235 218.967 196.364 43.3318 36.5849 6.71557 22.6033 6.28484 16.3184 153.032 149.9 31.4225 5.00898 2.51302
internal_count=9270 6569 6332 763 622 160 237 83 154 5569 5513 599 102 38
is_linear=0
shrinkage=0.05


Tree=28
num_leaves=15
num_cat=0
split_feature=5 11 14 7 4 11 10 8 14 4 14 3 2 8
split_gain=4.98927 2.77726 1.64185 1.56246 1.73439 1.38335 1.3545 1.6475 1.28588 1.66882 1.34604 0.998381 1.30233 2.42625
threshold=0.010999566093273546 0.89325842696629221 -0.043531449693776002 0.23411600798910373 -0.10201851370653979 0.71348314606741581 0.27528089887640456 0.9073933762733285 -0.010329171654805883 0.083231372243094751 -0.032409215220653889 -0.097396888616253272 -0.054996789601403022 -0.20128945463807554
decision_type=2 2 2 2 2 2 2 2 2 2 2 2 2 2
left_child=5 3 -3 11 -5 -1 8 -8 10 -10 -4 -2 13 -13
right_child=1 2 6 4 -6 -7 7 -9 9 -11 -12 12 -14 -15
leaf_value=-0.020308012857890804 -0.016923162938580004 -0.026123341501555004 -0.028215511313530558 0.039751850447354541 -0.029621098933705022 -0.0019476217269957696 0.017327714609731055 -0.020777746116633009 -0.048187868069571385 0.0032677490740321102 0.03112136471286785 -0.013027751869348601 -0.0023527890788583149 0.025187927761357032
leaf_weight=31.921827177982777 8.8831014172174019 1.8930495618842531 0.44566663540899787 3.2708276174962525 0.3644361849874248 15.235751619096844 56.119975132867694 2.1674493849277487 1.7771608410403112 3.372794097289443 2.5044803898781538 5.596531298011544 115.51502148387954 10.952538968995212
leaf_count=2426 327 69 11 24 7 497 679 49 37 45 31 181 4576 311
internal_value=3.37905e-10 0.00327405 0.0115055 -0.000665669 0.0279072 -0.0145397 0.0129502 0.0155842 -0.00563315 -0.0194369 0.0172839 -0.00159402 -0.000443497 0.0122583
internal_weight=260.021 212.863 68.2806 144.582 3.63526 47.1576 66.3875 58.2874 8.1001 5.14995 2.95015 140.947 132.064 16.5491
internal_count=9270 6347 921 5426 31 2923 852 728 124 82 42 5395 5068 492
is_linear=0
shrinkage=0.05


Tree=29
num_leaves=15
num_cat=0
split_feature=5 4 6 5 7 16 12 12 2 7 18 11 9 3
split_gain=4.53457 3.01402 1.86045 1.8542 2.60818 1.93004 1.83847 2.6424 2.0933 1.66759 1.51703 1.4715 1.46813 1.44413
threshold=0.010649446260398689 0.16706649897786965 0.025614282555239589 0.023707031038974934 0.047479250697007765 0.015894468872209837 0.1404494382022472 -0.37640449438202234 0.058702299650153396 0.18806106137364223 94.077780841274858 0.97191011235955072 -0.45213240989182624 -0.097396888616253272
decision_type=2 2 2 2 2 2 2 2 2 2 2 2 2 2
left_child=-1 2 9 5 -5 -3 7 -4 -8 13 -10 -6 -9 -2
right_child=1 3 6 4 11 -7 8 12 10 -11 -12 -13 -14 -15
leaf_value=-0.014841921132326836 -0.026031443545401014 0.040939682807056767 -0.0090524531531254206 -0.048787220578752122 -0.035593884907877953 -0.019628052878396415 -0.035657738078765176 -0.024229109434333346 0.035669741135888076 0.029045697278725885 -0.029404579819510602 0.019300186305141308 0.023814702048843867 -0.0015167289316424188
leaf_weight=41.962024128530174 5.2801382727921 9.510859988629818 8.7550243390724045 0.93909779936075111 0.44961575791239639 0.90437923185527402 3.3979064347222439 0.90435910876840253 1.8440731484442952 3.2973783956840625 0.4367323052138089 10.012537541799245 27.050310417078439 143.33635481121019
leaf_count=2701 247 98 180 14 9 12 118 23 27 56 10 104 405 5266
internal_value=-3.92288e-11 0.00293682 0.000913269 0.0201291 0.00534973 0.0344217 0.0100475 0.0141492 -0.0146164 -0.00168448 0.0180446 0.0140416 0.0214773 -0.00255587
internal_weight=258.081 216.119 194.302 21.8165 11.4013 10.4152 42.3884 36.7097 5.67871 151.914 2.28081 10.4622 27.9547 148.616
internal_count=9270 6569 6332 237 127 110 763 608 155 5569 37 113 428 5513
is_linear=0
shrinkage=0.05


Tree=30
num_leaves=15
num_cat=0
split_feature=5 11 21 1 2 1 9 12 7 4 3 5 2 6
split_gain=4.24606 2.6149 2.03631 1.64338 1.35659 2.09127 1.5639 1.23217 1.86046 2.17206 1.4286 1.20807 1.26897 2.13757
threshold=0.010649446260398689 0.98314606741573041 89.814349396264618 0.054163132279685063 0.037519786096258174 0.014763046659738046 0.63513491321906257 0.42134831460674166 0.21598335597797544 -0.10201851370653979 -0.097396888616253272 0.039307114566529723 -0.047904994370875968 0.025614282555239589
decision_type=2 2 2 2 2 2 2 2 2 2 2 2 2 2
left_child=-1 3 4 7 5 -3 -6 8 10 -10 -2 12 -12 -14
right_child=1 2 -4 -5 6 -7 -8 -9 9 -11 11 -13 13 -15
leaf_value=-0.014452045606814113 -0.020334052850632205 0.020348988958409794 -0.022196770260395592 0.017315264221119963 0.043985587695178546 -0.03647646856076258 -0.017103889593598553 -0.015316702652783627 0.046431196455040673 -0.02686513175668083 0.011623429916322481 -0.028966134655764572 -0.0031880651019243174 0.013423229768953222
leaf_weight=41.472639953251928 7.1751529485918573 6.3195084426552119 1.7312830425798882 13.518307910300789 8.2942362520843709 1.1122223753482101 0.65371104702353555 11.502371547278015 3.2075031735002999 0.60998868569731612 25.803019780665636 2.2789311092346898 110.35697911819443 22.444326104596257
leaf_count=2701 311 67 28 243 68 18 15 494 26 13 793 49 4069 375
internal_value=-1.19028e-10 0.00284164 0.0205013 0.00112188 0.0260319 0.0085271 0.0382519 -0.000159302 0.000937801 0.0315739 5.92478e-05 0.00108875 0.00169938 -0.000301303
internal_weight=256.48 215.008 18.111 196.897 16.3797 7.43173 8.94795 183.378 171.876 3.81749 168.058 160.883 158.604 132.801
internal_count=9270 6569 196 6373 168 85 83 6130 5636 39 5597 5286 5237 4444
is_linear=0
shrinkage=0.05


Tree=31
num_leaves=15
num_cat=0
split_feature=5 18 14 8 12 6 6 10 15 4 2 7 16 10
split_gain=3.57896 2.28929 2.75882 2.12364 2.02876 2.00089 1.91834 1.61328 1.6076 1.48964 2.48121 1.30323 1.29877 1.25391
threshold=0.010649446260398689 70.523118279640059 0.022566823884922465 0.9073933762733285 0.11797752808988766 0.022577653964419794 0.016807348738413028 0.89325842696629221 0.90555555555555567 -0.13666568045871411 -0.066423772139186307 0.071761495326357408 0.015777744436215897 0.67977528089887651
decision_type=2 2 2 2 2 2 2 2 2 2 2 2 2 2
left_child=-1 2 4 8 6 -4 -2 -5 13 -8 -11 -10 -6 -3
right_child=1 3 5 7 12 -7 9 -9 11 10 -12 -13 -14 -15
leaf_value=-0.013410019321388984 -0.0072120365432652919 -0.014983526424990635 -0.0041994726289567288 0.022546849820850492 -0.014610740670276325 -0.040942090538132969 0.033000531851923941 -0.037908136742701742 -0.038800730025877909 -0.014998023018030297 0.0095257322004202796 0.0090882725069842251 0.0077511755545724165 0.020698669622577159
leaf_weight=40.681864337064326 25.152063578367233 1.9385123373940576 8.9264867482706887 0.82028011325746719 24.465769058093429 5.6682635033503166 4.7104808511212459 2.5801452081650496 1.4515623375773419 10.907456647139041 80.075024464167655 2.6904095588251948 8.003084456548093 36.813052607234567
leaf_count=2701 1376 90 439 16 1183 188 91 64 41 320 1744 56 333 628
internal_value=-6.12054e-13 0.00259734 -0.000138761 0.0123143 0.00188746 -0.0201798 0.00487135 -0.021515 0.0154252 0.00808911 0.00645461 -0.0119765 -0.00903196 0.0185817
internal_weight=254.884 214.203 167.909 46.294 153.314 14.5948 120.845 3.40043 42.8935 95.693 90.9825 4.14197 32.4689 38.7516
internal_count=9270 6569 5674 895 5047 627 3531 80 815 2155 2064 97 1516 718
is_linear=0
shrinkage=0.05


Tree=32
num_leaves=15
num_cat=0
split_feature=5 18 14 6 9 6 0 7 3 6 12 6 4 2
split_gain=3.34575 2.1095 2.16758 1.9788 1.87136 2.02357 2.03876 1.82544 1.61407 1.51261 1.45567 2.24102 1.40642 2.4124
threshold=0.010649446260398689 70.523118279640059 0.022566823884922465 0.017817768502999289 0.19621760236827016 0.01863613856457676 -0.0023647137255491941 0.085178881240688245 0.08886055151039042 0.022577653964419794 0.11797752808988766 0.019060235194896576 -0.13666568045871411 -0.066423772139186307
decision_type=2 2 2 2 2 2 2 2 2 2 2 2 2 2
left_child=-1 2 3 8 -3 -6 -7 -8 -2 -4 12 -12 -5 -14
right_child=1 4 9 10 5 6 7 -9 -10 -11 11 -13 13 -15
leaf_value=-0.013002987082093652 -0.0089075518239075443 0.02389560995567569 -0.004310473196952022 0.032409804897932326 0.028166512262499728 -0.032155472931293332 -0.013784853613646132 0.016289411098303005 0.03296803901883185 -0.036994005874324221 0.023460488171179041 -0.01669307794407662 -0.015542678930512397 0.0094434383424071566
leaf_weight=40.436029945034534 44.566906899213791 18.178265423048288 8.8099800734780711 4.5858024931512764 5.4821949191391495 3.9029719228856328 7.7014271924272171 11.100603150669484 1.453125737607478 5.2857622192241243 3.6024750447832075 13.756646412424741 10.168820420280097 74.09771954221651
leaf_count=2701 2495 345 439 81 120 84 140 206 18 188 104 513 299 1537
internal_value=-2.57193e-10 0.00252134 -0.000128918 0.00165273 0.0118306 0.00349767 -0.00339564 0.00389676 -0.00691226 -0.0182052 0.00539368 -0.00753617 0.00797555 0.00628133
internal_weight=253.129 212.693 166.327 152.231 46.3655 28.1872 22.705 18.802 46.02 14.0957 106.211 17.3591 88.8523 84.2665
internal_count=9270 6569 5674 5047 895 550 430 346 2513 627 2534 617 1917 1836
is_linear=0
shrinkage=0.05


Tree=33
num_leaves=15
num_cat=0
split_feature=5 4 5 14 6 6 4 12 8 7 16 7 4 21
split_gain=3.02981 2.11422 1.65044 1.62351 1.49431 1.70996 1.99021 1.41348 1.62396 1.34778 1.31118 1.2641 2.58956 2.01431
threshold=0.010649446260398689 0.16706649897786965 0.034822836431848934 -0.0019871056518531139 0.025614282555239589 0.037090819448020972 -0.12839065533686297 -0.37640449438202234 0.35236760766731196 0.17451816866950817 0.015894468872209837 0.097465840674084273 -0.044670018413547778 33.403066182283425
decision_type=2 2 2 2 2 2 2 2 2 2 2 2 2 2
left_child=-1 4 10 -4 9 7 -7 -6 -9 11 -3 13 -13 -2
right_child=1 2 3 -5 5 6 -8 8 -10 -11 -12 12 -14 -15
leaf_value=-0.012460357843542682 0.013417536702241162 0.029667630639014477 -0.032942537016429276 0.018053947492299421 -0.0060534248807533348 0.025848410382978734 -0.043607503037116385 0.022163581506382927 -0.005987022973430141 0.02273435945565927 -0.0082405312754761338 -0.0030465563841451135 -0.031170997836167044 -0.0032719555544974306
leaf_weight=39.909068264998496 22.916016816627234 13.991010845638817 2.148935099132359 2.1907354369759551 8.1502865664660913 0.75496743619442019 2.1018062885850659 24.700295194983486 5.9392254995182148 4.479550356976687 2.2454485427588216 39.300574098248035 9.4292051582597178 73.117945472244173
leaf_count=2701 745 151 35 22 168 6 48 420 121 111 29 1814 317 2582
internal_value=-1.57022e-10 0.00239917 0.0172355 -0.00863884 0.000718467 0.00897553 -0.0233094 0.0118793 0.0166901 -0.00163008 0.0242511 -0.00253481 -0.00900601 0.000807794
internal_weight=251.375 211.466 20.5761 4.33967 190.89 41.6466 2.85677 38.7898 30.6395 149.243 16.2365 144.764 48.7298 96.034
internal_count=9270 6569 237 57 6332 763 54 709 541 5569 180 5458 2131 3327
is_linear=0
shrinkage=0.05


Tree=34
num_leaves=15
num_cat=0
split_feature=11 7 14 1 3 0 11 9 5 14 14 16 3 21
split_gain=2.9657 3.04919 1.98244 1.98018 1.75042 1.696 1.68968 1.75619 1.57841 1.62427 1.50324 1.38275 1.28772 1.2731
threshold=0.75842696629213491 0.066757675632158744 -0.043531449693776002 -0.060135989332393107 -0.0084627382987682558 -0.020640061702851983 0.98314606741573041 0.48276852480985449 0.02208106354372321 -0.025300996977612168 -0.042178112301349553 0.018976010360108216 0.0069019702430889182 71.853428740482443
decision_type=2 2 2 2 2 2 2 2 2 2 2 2 2 2
left_child=1 -1 5 -4 8 12 -5 -8 9 10 -3 -11 -2 -6
right_child=2 4 3 6 13 -7 7 -9 -10 11 -12 -13 -14 -15
leaf_value=-0.018112560204909034 0.026647062590782412 0.0040073903354466414 -0.031877300572311681 0.0056720045410111079 -0.020622296521848969 -0.038045430794705744 0.028678449500487081 -0.016780695294809207 0.012257954446298118 0.0091984992005006306 -0.021415391270882062 -0.028271079651566999 -0.029595172604248311 0.0044679640543333794
leaf_weight=32.746276265475899 2.0319265760481362 8.9361378983594495 2.1758100977167478 93.58011802425608 15.026718213222923 3.6585157979279748 14.267051365226509 1.7976818606257428 27.447961430996656 25.119406051468108 14.30149520235136 1.7470342982560385 0.58209797274321307 6.9347034841775885
leaf_count=2443 46 431 61 1855 745 115 141 33 671 1502 837 116 15 259
internal_value=-2.75386e-10 -0.00512417 0.0057337 0.00732234 -0.000712479 -0.0196995 0.0083813 0.0229062 0.00284451 -0.00245131 -0.011877 0.00583489 0.00939935 -0.0128501
internal_weight=250.353 132.26 118.093 111.821 99.5135 6.27254 109.645 16.0647 77.552 50.1041 23.2376 26.8664 2.61402 21.9614
internal_count=9270 7004 2266 2090 4561 176 2029 174 3557 2886 1268 1618 61 1004
is_linear=0
shrinkage=0.05


Tree=35
num_leaves=15
num_cat=0
split_feature=11 7 13 3 14 5 14 12 4 1 10 6 8 7
split_gain=2.78315 2.75258 1.85719 1.55733 1.37485 1.7132 1.53975 1.35887 1.35719 1.42326 1.40488 1.54142 1.65782 1.34896
threshold=0.75842696629213491 0.066757675632158744 0.018224333734519798 -0.0084627382987682558 -0.019767899551877553 0.030073748772573562 0.011607665470346052 0.1404494382022472 0.24699773336960154 -0.015885841114868401 0.016853932584269666 0.025614282555239589 0.40497681491841614 0.10024035658047727
decision_type=2 2 2 2 2 2 2 2 2 2 2 2 2 2
left_child=1 -1 8 4 5 -3 -6 -7 10 -10 -2 13 -13 -12
right_child=2 3 -4 -5 6 7 -8 -9 9 -11 11 12 -14 -15
leaf_value=-0.017470682872389325 -0.034536535401731301 -0.0087096779676706024 -0.02457227889176776 -0.012483066688936317 0.016281366558247856 0.027255439920314251 -0.0048072421074486296 -0.016018297210972084 -0.018861864847134986 0.030488409340406822 0.0037631029861157628 0.01983889291143244 -0.01189272553251587 -0.021177476913919052
leaf_weight=32.090487962588668 1.217685411684214 33.31145717902109 3.9464540397748342 21.270973017439246 24.855556855443865 5.7122539216652504 12.444615743122993 1.7358117271214721 1.0307599119842041 8.5825406517833454 67.786694260314107 25.779319090768698 4.1760929841548196 4.8916688677854827
leaf_count=2443 45 1566 110 1004 1116 111 695 69 16 89 1460 330 73 143
internal_value=2.65194e-10 -0.0049804 0.00556966 -0.000811289 0.00248689 -0.00382474 0.00930367 0.016468 0.00682355 0.0239183 0.0050281 0.00582624 0.0151739 0.00181981
internal_weight=248.832 131.421 117.411 99.3307 78.0597 40.7595 37.3002 7.44807 113.465 9.6133 103.851 102.634 29.9554 72.6784
internal_count=9270 7004 2266 4561 3557 1746 1811 180 2156 105 2051 2006 403 1603
is_linear=0
shrinkage=0.05


Tree=36
num_leaves=15
num_cat=0
split_feature=5 7 7 4 11 5 9 3 5 7 7 6 7 6
split_gain=2.4447 1.60403 1.29711 1.42922 1.48437 1.34912 1.25305 1.13948 1.27166 1.44439 1.79305 1.72759 1.98879 1.86026
threshold=0.010999566093273546 0.021844861954281928 0.23411600798910373 0.32617339111272775 0.98314606741573041 0.039307114566529723 0.66283055167577387 -0.097396888616253272 0.020674522415802424 0.083797876578534672 0.097465840674084273 0.029676518121829181 0.14570192579227773 0.019148936491937416
decision_type=2 2 2 2 2 2 2 2 2 2 2 2 2 2
left_child=-1 -2 3 4 5 7 -6 -3 -9 -10 -11 13 -13 -12
right_child=1 2 -4 -5 6 -7 -8 8 9 10 11 12 -14 -15
leaf_value=-0.010696853216520736 0.030140144517014161 -0.016784613639683147 0.026238704825693918 -0.040626981387933248 0.021500199753243816 -0.028720091508895641 -0.024573816727358647 -0.0020628463121232826 -0.0018665118377190399 0.030510601461845272 0.025410633748390744 0.037563046145341318 -0.0223301642912518 -0.005869343938771328
leaf_weight=42.984392294194549 4.0472109364345661 7.7912300229072562 4.1978656575083724 1.0490637402981509 12.188915025442835 2.9610707350075236 0.82513500936329442 97.630576389143243 29.819098949432373 9.4447137927636486 4.9724597651511457 5.9294296689331523 1.0250222980976103 22.288316773250699
leaf_count=2923 63 333 44 21 126 68 21 4045 608 173 103 80 28 634
internal_value=-2.14223e-10 0.00229319 0.00158297 0.000924136 0.00135409 0.000145023 0.0170339 0.000779771 0.00167242 0.00659647 0.0122889 0.00653548 0.0270379 0.00053349
internal_weight=247.155 204.17 200.123 195.925 194.876 181.862 13.0141 178.901 171.11 73.479 43.6599 34.2152 6.95445 27.2608
internal_count=9270 6347 6284 6240 6219 6072 147 6004 5671 1626 1018 845 108 737
is_linear=0
shrinkage=0.05


Tree=37
num_leaves=15
num_cat=0
split_feature=5 18 14 9 3 6 6 3 15 3 10 12 6 4
split_gain=2.2662 1.50376 1.80874 1.74376 1.98176 1.59589 1.46971 1.45482 1.44968 1.40991 1.24818 1.22566 1.5041 1.16397
threshold=0.010649446260398689 70.523118279640059 0.022566823884922465 0.19621760236827016 0.17060225697883682 0.017733776502749276 0.017817768502999289 0.008111490272862289 0.97222222222222232 0.08886055151039042 0.44382022471910115 0.15168539325842698 0.019060235194896576 -0.13232192520414296
decision_type=2 2 2 2 2 2 2 2 2 2 2 2 2 2
left_child=-1 2 6 -3 7 -4 9 -5 -7 10 -2 -8 -13 -14
right_child=1 3 5 4 -6 8 11 -9 -10 -11 -12 12 13 -15
leaf_value=-0.011001852604419908 0.0020829410187116286 0.022046570339210442 0.0078129371873659429 -0.025440190973309542 -0.041212152988677614 -0.033759748589162461 0.0069007818291134523 0.0098472473985444803 0.018519554251692823 0.031712580715807348 -0.014817811635561444 0.01826602264167115 0.0064693603180518066 -0.026310146827007302
leaf_weight=38.372000837232918 18.216858426108956 17.295430638827384 4.0791670992039135 2.3446976942941609 1.438145825639366 8.5331064895726705 89.497380637563765 23.819528952706605 0.89200737141072828 1.3919802904129017 25.490544399945065 3.1848830450326195 3.4055062094703308 7.92062266729772
leaf_count=2701 1087 345 262 71 32 349 1988 447 16 18 1408 94 87 365
internal_value=-4.55705e-11 0.00207743 -0.000177368 0.0100699 0.00205693 -0.0170372 0.00145291 0.00586486 -0.0275101 -0.00600113 -0.0078847 0.00471145 -0.00836573 -0.0167289
internal_weight=245.882 207.51 162.612 44.8978 27.6024 13.5043 149.108 26.1642 9.42511 45.0994 43.7074 104.008 14.511 11.3261
internal_count=9270 6569 5674 895 550 627 5047 518 365 2513 2495 2534 546 452
is_linear=0
shrinkage=0.05


Tree=38
num_leaves=15
num_cat=0
split_feature=5 4 4 7 4 6 7 5 12 6 7 2 11 6
split_gain=2.09296 2.22307 1.08135 2.3442 1.46864 1.42413 3.0584 1.40728 1.70152 1.23508 1.46555 1.39563 1.04631 1.24969
threshold=0.016545911580750378 0.044910881750625971 -0.14190571270525246 0.14570192579227773 -0.095383837967183846 0.030782352420441 0.071118913742055492 0.034148860923551731 0.022471910112359567 0.017817768502999289 0.12982512624846446 0.061887760723280512 0.98314606741573041 0.022577653964419794
decision_type=2 2 2 2 2 2 2 2 2 2 2 2 2 2
left_child=1 -1 -2 5 -5 7 -7 9 -9 11 -11 -4 13 -3
right_child=2 12 3 4 -6 6 -8 8 -10 10 -12 -13 -14 -15
leaf_value=-0.01077692401196983 0.019928308618173296 0.0058523334347382093 -0.010262865489887349 -0.00011588517495407078 -0.0358882494598773 -0.028120435644999948 0.030401921568248575 -0.037948799363832983 0.01076392461593666 0.0088181481926297781 -0.013413574838517487 0.031810769818330552 0.028282793278644938 -0.020525330346160973
leaf_weight=66.432759646326303 8.7770684733986837 26.33398539014161 19.800464238040153 5.4585884902626276 5.0636508632451278 1.9327314421534527 10.599335047416387 3.4453590083867303 2.4080326915718615 78.23536716401577 7.2904886668547979 1.2053367644548405 3.1829862538725129 4.3777415463700882
leaf_count=4733 166 906 809 207 174 35 137 78 63 1575 233 15 40 99
internal_value=9.6797e-11 -0.00551502 0.00384821 0.00266773 -0.0189514 0.00462483 0.0199653 0.00275321 -0.0192623 0.00413074 0.00678993 -0.00651278 0.00481145 0.0015637
internal_weight=244.544 100.327 144.216 135.439 10.5222 124.917 12.5321 112.385 5.85339 106.532 85.5259 21.0058 33.8947 30.7117
internal_count=9270 5778 3492 3326 381 2945 172 2773 141 2632 1808 824 1045 1005
is_linear=0
shrinkage=0.05


Tree=39
num_leaves=15
num_cat=0
split_feature=5 4 21 9 7 0 16 3 6 12 4 0 2 21
split_gain=1.91358 2.01496 1.08209 1.98719 1.94669 1.89937 1.49995 1.25994 1.24886 1.15009 1.41935 1.36557 1.14782 1.09288
threshold=0.016545911580750378 0.044910881750625971 72.5686852103197 0.27362543827233404 0.23411600798910373 -0.0011257875806487958 0.010141157987983944 -0.10183996338009309 0.01795951711192775 0.57865168539325862 0.055507818566745477 0.034292752983209669 -0.049255611012926519 61.763068316366244
decision_type=2 2 2 2 2 2 2 2 2 2 2 2 2 2
left_child=1 -1 4 -4 6 -5 12 -8 -9 10 -7 -12 -2 -14
right_child=2 -3 3 5 -6 9 7 8 -10 -11 11 -13 13 -15
leaf_value=-0.010360194469458668 0.010877304420976938 0.0045042361581274035 0.025636252664595596 -0.025935044067351629 0.035732177356882514 0.027969142459764042 -0.01918544068508754 -0.0074483547785574441 0.0068632620110209838 -0.030332803384662599 0.012508430745868325 -0.028652936205206866 -0.031226813163711828 0.001391084167763033
leaf_weight=65.602964898804203 2.8487572995945802 33.956084452103823 13.34039647318423 4.033943851012741 2.9688668865710488 6.8572680810466355 5.3557215370237818 18.446690876036882 71.091446992009878 0.71942211408168155 4.4908841177821159 2.194632263854146 7.5590728437527996 3.5509267589077353
leaf_count=4733 72 1045 228 91 31 128 205 759 1482 23 63 42 274 94
internal_value=4.78383e-12 -0.00529608 0.00368667 0.0116995 0.00133607 0.000735761 8.12141e-05 0.00237762 0.00386507 0.0094844 0.0135399 -0.00297355 -0.0146455 -0.0215476
internal_weight=243.017 99.559 143.458 31.6365 111.821 18.2962 108.853 94.8939 89.5381 14.2622 13.5428 6.68552 13.9588 11.11
internal_count=9270 5778 3492 575 2917 347 2886 2446 2241 256 233 105 440 368
is_linear=0
shrinkage=0.05


end of trees

feature_importances:
drawdown_20d=78
volatility_5d=74
rank_pct_20d=59
volatility_20d=55
momentum_20d=50
momentum_10d=41
market_return_5d=41
volume_change_5d=28
amount_change_5d=21
rank_pct_5d=19
momentum_3d=17
momentum_5d=16
rule_direction_score=15
rank_momentum_5d=14
rule_time_series_score=10
market_dispersion_1d=8
market_breadth_1d=7
momentum_1d=5
market_return_1d=1
rule_rank_momentum_score=1

parameters:
[boosting: gbdt]
[objective: lambdarank]
[metric: ndcg]
[tree_learner: serial]
[device_type: cpu]
[data_sample_strategy: bagging]
[data: ]
[valid: ]
[num_iterations: 40]
[learning_rate: 0.05]
[num_leaves: 15]
[num_threads: 1]
[seed: 20260720]
[deterministic: 1]
[force_col_wise: 1]
[force_row_wise: 0]
[histogram_pool_size: -1]
[max_depth: -1]
[min_data_in_leaf: 2]
[min_sum_hessian_in_leaf: 0.001]
[bagging_fraction: 1]
[pos_bagging_fraction: 1]
[neg_bagging_fraction: 1]
[bagging_freq: 0]
[bagging_seed: 843]
[bagging_by_query: 0]
[feature_fraction: 1]
[feature_fraction_bynode: 1]
[feature_fraction_seed: 57]
[extra_trees: 0]
[extra_seed: 8811]
[early_stopping_round: 0]
[early_stopping_min_delta: 0]
[first_metric_only: 0]
[max_delta_step: 0]
[lambda_l1: 0]
[lambda_l2: 1]
[linear_lambda: 0]
[min_gain_to_split: 0]
[drop_rate: 0.1]
[max_drop: 50]
[skip_drop: 0.5]
[xgboost_dart_mode: 0]
[uniform_drop: 0]
[drop_seed: 21666]
[top_rate: 0.2]
[other_rate: 0.1]
[min_data_per_group: 100]
[max_cat_threshold: 32]
[cat_l2: 10]
[cat_smooth: 10]
[max_cat_to_onehot: 4]
[top_k: 20]
[monotone_constraints: ]
[monotone_constraints_method: basic]
[monotone_penalty: 0]
[feature_contri: ]
[forcedsplits_filename: ]
[refit_decay_rate: 0.9]
[cegb_tradeoff: 1]
[cegb_penalty_split: 0]
[cegb_penalty_feature_lazy: ]
[cegb_penalty_feature_coupled: ]
[path_smooth: 0]
[interaction_constraints: ]
[verbosity: -1]
[saved_feature_importance_type: 0]
[use_quantized_grad: 0]
[num_grad_quant_bins: 4]
[quant_train_renew_leaf: 0]
[stochastic_rounding: 1]
[linear_tree: 0]
[max_bin: 255]
[max_bin_by_feature: ]
[min_data_in_bin: 3]
[bin_construct_sample_cnt: 200000]
[data_random_seed: 4432]
[is_enable_sparse: 1]
[enable_bundle: 1]
[use_missing: 1]
[zero_as_missing: 0]
[feature_pre_filter: 1]
[pre_partition: 0]
[two_round: 0]
[header: 0]
[label_column: ]
[weight_column: ]
[group_column: ]
[ignore_column: ]
[categorical_feature: ]
[forcedbins_filename: ]
[precise_float_parser: 0]
[parser_config_file: ]
[objective_seed: 7759]
[num_class: 1]
[is_unbalance: 0]
[scale_pos_weight: 1]
[sigmoid: 1]
[boost_from_average: 1]
[reg_sqrt: 0]
[alpha: 0.9]
[fair_c: 1]
[poisson_max_delta_step: 0.7]
[tweedie_variance_power: 1.5]
[lambdarank_truncation_level: 30]
[lambdarank_norm: 1]
[label_gain: 0,1,3,7,15]
[lambdarank_position_bias_regularization: 0]
[eval_at: 1,2,3,4,5]
[multi_error_top_k: 1]
[auc_mu_weights: ]
[num_machines: 1]
[local_listen_port: 12400]
[time_out: 120]
[machine_list_filename: ]
[machines: ]
[gpu_platform_id: -1]
[gpu_device_id: -1]
[gpu_use_dp: 0]
[num_gpu: 1]

end of parameters

pandas_categorical:null
