tree
version=v4
num_class=1
num_tree_per_iteration=1
label_index=0
max_feature_idx=4
objective=lambdarank
feature_names=momentum_5d momentum_20d rank_pct_5d rank_momentum_5d market_return_1d
feature_infos=[-0.25743860440229616:0.28092117351019485] [-0.28062547585271636:0.58906651566951895] [0:1] [-1:0.97752808988764039] [-0.049585464134470299:0.036012358476607553]
tree_sizes=1763 1732 1737 1752 1738 1752 1749 1747 1740 1743 1733 1752 1743 1738 1744 1740 1742 1739 1742 1746 1747 1731 1732 1736 1750 1745 1749 1745 1743 1748 1749 1755 1754 1748 1743 1744 1774 1748 1759 1743

Tree=0
num_leaves=15
num_cat=0
split_feature=1 0 1 3 1 2 0 2 3 0 0 1 1 3
split_gain=16.6982 3.68683 2.38892 1.90353 2.82215 1.74499 1.7653 1.68615 1.40426 1.32623 1.29426 1.23328 2.04909 1.85102
threshold=0.065487569921317448 0.071343344508892473 0.16706649897786965 0.39887640449438216 -0.034565724572210292 0.88202247191011252 -0.017885300122616795 0.33146067415730346 0.022471910112359526 -0.0048820616313132162 -0.021121423178699746 0.006649099454715258 -0.063866747768792073 -0.21348314606741572
decision_type=2 2 2 2 2 2 2 2 2 2 2 2 2 2
left_child=1 3 8 5 -5 6 10 -8 -2 -9 11 12 -1 -13
right_child=2 -3 -4 4 -6 -7 7 9 -10 -11 -12 13 -14 -15
leaf_value=0.0017786856816089406 0.029346094826652659 0.03638434276951482 0.054799322630107505 -0.0079979061701807245 -0.050937894305790592 0.014865355024231209 -0.024822080952033518 -0.02135251084570286 0.00044122834105118783 -0.0025145364937414903 0.017976311404243255 0.022658244467620523 -0.017256715037233101 -0.022236135290394875
leaf_weight=31.702295227441933 17.420931699220098 3.9564404101110986 8.5588340489193779 11.803728468250485 5.0251347846351555 8.862554536201058 19.45545192155987 11.708395286928861 5.4835595227777949 36.55702041182667 6.667208324186503 7.8416721816174686 24.276870730798695 2.2151236501522344
leaf_count=1506 772 141 252 576 232 395 981 552 236 1833 254 293 1132 115
internal_value=3.06241e-10 -0.00623867 0.0328759 -0.00746548 -0.0229578 -0.00557792 -0.00696414 -0.0127114 0.0227339 -0.00742498 -0.00151087 -0.00371717 -0.00663451 0.011653
internal_weight=201.535 170.072 31.4633 166.115 16.8289 149.287 140.424 67.7209 22.9045 48.2654 72.7032 66.036 55.9792 10.0568
internal_count=9270 8010 1260 7869 808 7061 6666 3366 1008 2385 3300 3046 2638 408
is_linear=0
shrinkage=0.05


Tree=1
num_leaves=15
num_cat=0
split_feature=1 0 1 1 4 3 0 4 0 3 2 4 3 1
split_gain=57.3094 15.3086 13.1046 7.19455 6.45375 6.03294 6.84973 5.88351 5.80847 4.55497 4.2995 4.25693 4.1021 4.94994
threshold=0.065487569921317448 0.06398466160151596 0.16706649897786965 -0.068066816294148 0.013235622525277652 1.0000000180025095e-35 -0.019082322983991536 0.018224333734519798 0.13626554625851331 0.022471910112359526 0.88202247191011252 -0.0097504614721783348 0.016853932584269652 0.22243687806385651
decision_type=2 2 2 2 2 2 2 2 2 2 2 2 2 2
left_child=1 3 7 4 -1 6 11 9 -8 -2 -5 -4 -7 -14
right_child=2 -3 5 10 -6 12 8 -9 -10 -11 -12 -13 13 -15
leaf_value=-0.011338304964550005 0.017957675485297774 0.024659628329923446 -0.046277535301908895 -0.02538024699362328 0.020584972466148922 -0.025177662833162581 0.060445532037611861 -0.048315301982873524 0.0035800786354001839 -0.021766181136270227 -0.0034533613712986102 0.025008680154898922 -0.016863668263484503 0.065346267168648109
leaf_weight=81.932708501815796 75.981825774535537 24.332761639729142 1.9796036034822462 149.41363688884303 18.609019219875336 4.8450751453638059 43.281714484095573 2.9595158696174613 5.142536833882331 7.1199046745896331 26.66401625610888 6.0858220458030683 2.6106823533773422 3.2968303859233856
leaf_count=2117 746 202 11 4836 419 24 154 30 17 232 436 23 14 9
internal_value=7.45149e-10 -0.0126677 0.0247891 -0.0160282 -0.00528517 0.0411866 0.0476249 0.0116512 0.0546012 0.0143359 -0.022098 0.00433718 0.00618818 0.0318338
internal_weight=454.256 300.952 153.304 276.619 100.542 67.2423 56.4897 86.0612 48.4243 83.1017 176.078 8.06543 10.7526 5.90751
internal_count=9270 8010 1260 7808 2536 252 205 1008 171 978 5272 34 47 23
is_linear=0
shrinkage=0.05


Tree=2
num_leaves=15
num_cat=0
split_feature=1 2 1 3 0 0 0 0 3 4 2 1 3 1
split_gain=40.6633 12.5455 11.3021 7.48673 7.46037 6.32548 5.68816 4.05601 3.28049 5.07739 3.25819 2.49787 2.29518 2.23332
threshold=0.063794651734372945 0.84831460674157311 0.16706649897786965 0.33146067415730346 0.13626554625851331 -0.017885300122616795 -0.0078326955844690276 -0.092994518064081363 0.067415730337078678 -0.01293435125306425 0.94943820224719111 -0.023668480877371053 0.022471910112359526 -0.037984494217955349
decision_type=2 2 2 2 2 2 2 2 2 2 2 2 2 2
left_child=1 5 12 6 7 -1 -3 -4 9 -8 -10 -12 -2 -5
right_child=2 3 4 13 -6 -7 8 -9 10 -11 11 -13 -14 -15
leaf_value=-0.0086108294536411407 0.014092429478699424 -0.040852499113673058 -0.026826922598737098 -0.006971962087617474 -0.024031487916951942 -0.025437365336007864 -0.0080490998054695128 0.050133057881098335 -0.0080087199184540724 0.045446904830137178 0.050240055109983452 0.0064696048261662729 -0.015456157271162358 -0.051784737534096292
leaf_weight=134.61154425423592 77.033087447285652 3.1168370982632032 1.1880714558064926 6.7340781502425671 3.360540932044386 96.503452187404037 5.3581186188384917 43.479197273030877 14.221459638327362 18.908964383415878 4.940587230026722 7.9987973142415267 6.3607546752318731 4.2259638486430031
leaf_count=3426 805 70 8 144 22 3669 52 222 208 161 31 80 239 133
internal_value=1.41068e-10 -0.0102557 0.0230498 0.0089567 0.0421473 -0.0157162 0.016567 0.0475434 0.0207598 0.033784 0.00833674 0.0255875 0.0116822 -0.0271359
internal_weight=428.041 296.62 131.422 65.5048 48.0278 231.115 54.5448 44.6673 51.4279 24.2671 27.1608 12.9394 83.3938 10.96
internal_count=9270 7974 1296 879 252 7095 602 230 532 213 319 111 1044 277
is_linear=0
shrinkage=0.05


Tree=3
num_leaves=15
num_cat=0
split_feature=1 1 2 1 3 3 4 0 1 4 3 3 1 2
split_gain=33.7351 9.66861 7.01786 6.3369 4.85551 2.79754 3.21853 2.53332 3.64802 3.56118 2.87548 2.35038 2.11227 2.67907
threshold=0.14486942666840366 0.031505322004064647 0.88202247191011252 -0.06903849886320633 0.14606741573033707 0.32022471910112366 -0.020426596862010264 0.04810165084762142 0.052751036152599136 -0.013673871013370576 -1.0000000180025095e-35 1.0000000180025095e-35 0.0052317840191022933 0.51123595505617991
decision_type=2 2 2 2 2 2 2 2 2 2 2 2 2 2
left_child=1 2 3 -1 7 6 -4 9 -9 -3 -10 -12 13 -5
right_child=-2 4 5 12 -6 -7 -8 8 10 -11 11 -13 -14 -15
leaf_value=-0.0056431165615566442 0.036994708437702757 0.028867376112559268 -0.022826024100249392 -0.035336595217560711 -0.036175800708753959 -0.0168430497068933 0.021698607160087108 0.056612036870831488 0.033589568680297922 0.0005718955695638517 -0.036169545993544883 0.010277824427248408 -0.011430033249900842 -0.015441193431032008
leaf_weight=101.03211390413344 52.604879516176879 12.146952469367532 3.9294035891070989 45.373079049866647 5.3121691588312379 7.7230704687535754 26.237196624279022 5.2308639930561212 6.9490808360278651 72.398701916448772 3.1556353345513308 7.0368826268240809 30.163081644102931 30.682284526526928
leaf_count=2436 360 149 45 1887 178 187 259 40 63 1299 24 129 997 1217
internal_value=2.67562e-10 -0.00553365 -0.0110843 -0.0146931 0.00658118 0.00852585 0.0153527 0.00902107 0.0236193 0.00492713 0.0109858 -0.0060492 -0.0231683 -0.0276149
internal_weight=409.975 357.371 245.14 207.251 112.23 37.8897 30.1666 106.918 22.3725 84.5457 17.1416 10.1925 106.218 76.0554
internal_count=9270 8910 7028 6537 1882 491 304 1704 256 1448 216 153 4101 3104
is_linear=0
shrinkage=0.05


Tree=4
num_leaves=15
num_cat=0
split_feature=1 1 0 1 0 2 3 4 2 2 3 2 1 4
split_gain=29.1369 8.57953 6.64502 6.25707 5.10361 4.50864 3.50735 2.47501 2.28641 2.26489 2.31671 4.9825 2.13517 2.11522
threshold=0.043849757710266675 0.17941002759768557 0.06907415663948159 -0.068066816294148 -0.019082322983991536 0.82584269662921361 0.067415730337078636 -0.0079947941464673881 0.96067415730337091 0.016853932584269666 -0.24157303370786509 0.80337078651685401 0.32617339111272775 -0.013812047815601181
decision_type=2 2 2 2 2 2 2 2 2 2 2 2 2 2
left_child=2 6 3 -1 7 -5 9 -3 -4 -2 -11 -12 -6 -7
right_child=1 4 8 5 12 13 -8 -9 -10 10 11 -13 -14 -15
leaf_value=-0.003358289882723073 -0.031441564115496 -0.042712643237868025 0.00012679483298397155 -0.025078941530366407 0.048707912086036011 -0.02723492712372777 -0.024496881252597139 0.018046289579494081 0.040172563499112884 0.024966816300386829 -0.0097795103168801054 0.018558971581884746 0.0081461262382498869 0.0030084346438650697
leaf_weight=109.28405632637441 1.9344302071258415 1.8928623758256433 6.3175968285649997 95.653157938737422 30.332248743623495 6.3493413981050244 5.9192133396863928 3.0779859051108351 7.1977154854685068 30.432879915460944 23.737895626574755 41.183661480434239 4.119601570069789 26.386562212370336
leaf_count=2542 30 13 85 4120 155 114 226 18 50 395 497 472 30 523
internal_value=-2.63726e-10 0.0179755 -0.0102377 -0.0122012 0.0375498 -0.0196441 0.0102101 -0.00836888 0.0227519 0.0125495 0.013759 0.00820613 0.0442243 -0.00349088
internal_weight=393.819 142.631 251.188 237.673 39.4227 128.389 103.208 4.97085 13.5153 97.2889 95.3544 64.9216 34.4519 32.7359
internal_count=9270 1836 7434 7299 216 4757 1620 31 135 1394 1364 969 185 637
is_linear=0
shrinkage=0.05


Tree=5
num_leaves=15
num_cat=0
split_feature=1 1 2 1 0 4 3 3 4 4 4 0 4 0
split_gain=27.1527 7.84906 7.17999 8.50111 4.94311 3.26961 3.09835 3.06659 2.53739 2.55624 2.44611 2.29039 2.23863 2.85529
threshold=0.14486942666840366 0.043849757710266675 0.88202247191011252 -0.06903849886320633 0.13626554625851331 0.018224333734519798 0.41011235955056186 0.067415730337078636 0.014037390756562556 -0.020426596862010264 0.013235622525277652 -0.11064141444757596 -0.012350848500915971 0.031650753413732143
decision_type=2 2 2 2 2 2 2 2 2 2 2 2 2 2
left_child=1 2 3 10 8 7 12 -3 9 -2 11 -1 -4 -14
right_child=4 5 6 -5 -6 -7 -8 -9 -10 -11 -12 -13 13 -15
leaf_value=0.029744350780910866 -0.014091596951721047 0.012344541642052119 -0.010472243088203695 -0.024584853286961451 -0.02538506038561817 -0.038184727045679379 -0.023356643420774748 -0.024617149935694249 -0.00091001171195686853 0.041430320281516275 0.011829915985648651 -0.0091895976219342097 -0.00090737648579923287 0.032307452691513965
leaf_weight=2.9882950801402322 1.7095166984945525 75.456467339769006 6.3848680472001424 95.357331790728495 2.8193702250719062 2.7530057141557327 5.2888062251731744 5.1357633322477332 4.248966719955205 45.689684410579503 18.836831809952855 86.739527892321348 9.7458693645894545 17.942176144570112
leaf_count=45 15 1215 103 4439 24 48 148 213 28 293 402 1989 133 175
internal_value=-2.87299e-11 -0.0054771 -0.0100044 -0.0137707 0.0323515 0.00770011 0.00936534 0.00971631 0.0359255 0.0391781 -0.00413449 -0.00757939 0.0149656 0.0209921
internal_weight=381.096 326.629 243.284 203.922 54.4675 83.3452 39.3617 80.5922 51.6482 47.3992 108.565 89.7278 34.0729 27.688
internal_count=9270 8910 7434 6875 360 1476 559 1428 336 308 2436 2034 411 308
is_linear=0
shrinkage=0.05


Tree=6
num_leaves=15
num_cat=0
split_feature=1 1 0 1 2 3 3 3 0 1 2 0 3 0
split_gain=26.7399 7.60701 7.47554 4.74746 3.2182 3.40494 3.08148 2.35677 2.31879 2.26527 2.58736 2.17455 2.16357 1.88486
threshold=0.063794651734372945 0.16706649897786965 0.06907415663948159 -0.068066816294148 0.60112359550561811 -0.016853932584269645 -0.25280898876404484 0.067415730337078678 -0.012623070916908672 -0.013872962313251745 0.89325842696629221 -0.019082322983991536 0.33146067415730346 -0.082365999406130083
decision_type=2 2 2 2 2 2 2 2 2 2 2 2 2 2
left_child=2 8 3 13 6 -6 -5 -4 -2 10 -7 -3 -12 -1
right_child=1 11 7 4 5 9 -8 -9 -10 -11 12 -13 -14 -15
leaf_value=0.017735119533408783 0.026587492797697801 0.0035687580899287359 0.041311709206945435 -0.010915212084479649 0.013621462368627203 -0.01737154950251335 -0.033222770142102051 0.0033677544436488101 0.0049627613780969908 -0.024293471048734701 0.02885263912621356 0.040654163488280354 -0.022982502571898437 -0.0054885825576906355
leaf_weight=8.54269657935947 15.224897830747066 4.6302298475056878 7.8227633982896787 26.198097470914945 12.402204760815946 11.381552266422661 42.380642822477967 7.9934453926980495 55.482756142504513 26.774353083223104 7.0940146157518011 37.582644645124674 1.8531036740168927 105.93823989853263
leaf_count=155 153 34 58 1056 433 560 2237 100 891 831 95 218 62 2387
internal_value=1.46228e-10 0.0201924 -0.00886852 -0.0110652 -0.0176428 -0.00891332 -0.0249803 0.0234756 0.00992488 -0.0150065 -0.00220945 0.0367631 0.0168855 -0.00361703
internal_weight=371.302 112.921 258.381 242.565 128.084 59.5052 68.5787 15.8162 70.7077 47.103 20.3287 42.2129 8.94712 114.481
internal_count=9270 1296 7974 7816 5274 1981 3293 158 1044 1548 717 252 157 2542
is_linear=0
shrinkage=0.05


Tree=7
num_leaves=15
num_cat=0
split_feature=1 0 1 1 0 0 2 3 4 0 3 3 1 0
split_gain=21.1735 7.7322 5.4514 4.43323 4.35755 4.08699 2.43186 2.35258 2.19359 2.14021 2.03493 2.03369 2.39035 2.15943
threshold=0.063794651734372945 0.06398466160151596 0.16706649897786965 -0.093579590498613682 0.13626554625851331 -0.082365999406130083 0.84831460674157311 0.067415730337078678 -0.01293435125306425 -0.019082322983991536 -0.25280898876404484 0.41011235955056186 0.010877816846936674 0.0078835431623339742
decision_type=2 2 2 2 2 2 2 2 2 2 2 2 2 2
left_child=1 3 -2 5 9 -1 10 8 -3 -4 -5 12 13 -8
right_child=2 7 4 6 -6 -7 11 -9 -10 -11 -12 -13 -14 -15
leaf_value=0.030202621033830198 0.0091823550433304396 -0.029544055290310019 0.0032767276110495154 -0.0066434984045946307 -0.025703106923603704 -0.0046112424031667567 -0.0097718988610845936 0.004191885434078323 0.046564052846096465 0.040114115516236434 -0.021290265026384234 -0.033996740638409163 -0.014850797307992694 0.025754820846726069
leaf_weight=8.8095529768615943 69.316604007035494 0.38332667946815391 4.6349917631596318 32.408999884966761 2.3819983303546897 58.957542334683239 5.8691978645511069 8.920201229862867 8.1767009925097245 35.187278673052788 101.27181369066238 3.4024153174832454 11.11239482462406 11.400551985017954
leaf_count=126 1044 4 34 1195 22 1421 134 131 65 196 4367 153 223 155
internal_value=4.26013e-11 -0.0080601 0.0180307 -0.0104889 0.0320144 0.000287862 -0.0148778 0.0231609 0.040422 0.0360118 -0.0178151 -0.00235774 0.00246307 0.0138069
internal_weight=362.234 250.713 111.521 233.232 42.2043 67.7671 165.465 17.4802 8.56003 39.8223 133.681 31.7846 28.3821 17.2697
internal_count=9270 7974 1296 7774 252 1547 6227 200 69 230 5562 665 512 289
is_linear=0
shrinkage=0.05


Tree=8
num_leaves=15
num_cat=0
split_feature=1 2 1 1 0 3 3 1 0 0 2 3 1 1
split_gain=20.9798 6.0503 4.62787 6.44669 3.08317 2.7311 2.60479 2.42009 3.17369 2.17415 2.32748 2.12708 1.96698 1.95643
threshold=0.11704880593582491 0.93820224719101131 0.043849757710266675 -0.093579590498613682 0.032433103590560626 0.29775280898876416 -0.033707865168539304 0.19398772866322536 -0.019082322983991536 -0.082365999406130083 0.27528089887640456 -0.43258426966292124 -0.11829093882148599 0.32617339111272775
decision_type=2 2 2 2 2 2 2 2 2 2 2 2 2 2
left_child=1 2 3 9 -5 -3 -4 11 -9 10 12 -2 -1 -10
right_child=7 5 6 4 -6 -7 -8 8 13 -11 -12 -13 -14 -15
leaf_value=0.043414984641837358 0.038568856248190231 0.020775706550057241 0.010082477375563979 -0.021374209761373282 0.00025783932640417246 -0.025415215793977639 -0.013454522318655316 -0.0085424106844595362 0.045361722981496808 -0.0030371669422964934 -0.027866432914256195 0.007892380443139493 -0.011370831681253924 0.00028244475370447104
leaf_weight=6.1808291170746079 6.6770744621753719 26.283627006225291 45.112774664536119 111.47742367140017 19.270190430339426 2.7690113065764299 14.830884500872342 3.2552443929016617 25.256506573408846 63.914235664531589 1.1906189974397419 24.441500718705356 1.661310490220784 2.6635939702391616
leaf_count=66 51 313 743 5070 574 82 411 25 125 1411 40 309 20 30
internal_value=1.68488e-10 -0.00562706 -0.00802477 -0.0116056 -0.0182082 0.015674 0.00413388 0.0261102 0.0359196 0.000315012 0.021973 0.0154705 0.0318355 0.0412196
internal_weight=354.985 292.691 263.638 203.695 130.748 29.0526 59.9437 62.2939 31.1753 72.947 9.03276 31.1186 7.84214 27.9201
internal_count=9270 8730 8335 7181 5644 395 1154 540 180 1537 126 360 86 155
is_linear=0
shrinkage=0.05


Tree=9
num_leaves=15
num_cat=0
split_feature=1 2 1 1 0 0 3 0 0 0 3 3 4 3
split_gain=18.4281 5.91293 4.23667 6.49167 3.13805 2.41934 2.40445 2.3482 2.30594 2.36308 1.93247 1.92816 1.91168 1.81758
threshold=0.12084292800891995 0.88202247191011252 0.057063032645895413 -0.093579590498613682 -0.0078326955844690276 -0.082365999406130083 0.33146067415730346 0.061887760723280512 0.13626554625851331 0.080861485532439117 0.12921348314606745 -0.056179775280898854 0.014361166485571319 -0.15168539325842689
decision_type=2 2 2 2 2 2 2 2 2 2 2 2 2 2
left_child=1 2 3 5 -3 10 -6 -5 9 -2 -1 -7 -11 -4
right_child=8 4 13 7 6 11 -8 -9 -10 12 -12 -13 -14 -15
leaf_value=0.032781085789979583 0.020651513337869319 -0.045163387119371887 0.013924603562248818 -0.020042881776788014 0.015549714365985562 -0.021051816648114955 -0.017122380831016332 0.017572384681388251 -0.017108025370250534 0.049497295622793827 -0.027742906429643072 0.0009333148336284346 -0.016240621891307937 -0.0073771908945049584
leaf_weight=7.2215544171631318 42.504754368215799 1.5533625697717059 25.228198181837797 117.36310734041035 47.438752368092537 11.291902976110576 5.5386894112452856 3.5663802111521354 2.4266018308699122 13.124586520716544 0.78346986602991808 52.464277733117342 0.7381566911935814 15.393179605249314
leaf_count=99 382 50 336 5626 611 232 183 71 29 87 27 1156 6 375
internal_value=2.07108e-10 -0.00523024 -0.00869204 -0.0117761 0.009471 0.000153447 0.01188 -0.0187985 0.0252653 0.0273559 0.0244345 -0.00322545 0.0451397 0.00586914
internal_weight=346.637 287.843 233.312 192.691 54.5308 71.7612 52.9774 120.929 58.7941 56.3675 8.00502 63.7562 13.8627 40.6214
internal_count=9270 8766 7922 7211 844 1514 794 5697 504 475 126 1388 93 711
is_linear=0
shrinkage=0.05


Tree=10
num_leaves=15
num_cat=0
split_feature=1 1 2 1 3 4 0 0 3 4 3 3 4 3
split_gain=17.9331 5.30786 5.25632 7.19899 2.397 2.16594 2.13465 2.12272 2.03819 1.92964 1.92382 1.80693 1.72459 1.66973
threshold=0.16706649897786965 0.043849757710266675 0.87078651685393271 -0.093579590498613682 0.42134831460674166 -0.012350848500915971 -0.092994518064081363 -0.05672824382348262 0.089887640449438255 0.018224333734519798 0.14606741573033707 0.15168539325842698 0.01420407311310533 -0.016853932584269645
decision_type=2 2 2 2 2 2 2 2 2 2 2 2 2 2
left_child=1 2 3 7 5 11 -2 10 9 -3 -1 -4 -8 -14
right_child=6 8 4 -5 -6 -7 12 -9 -10 -11 -12 -13 13 -15
leaf_value=0.019815659753570483 -0.028974651551224636 0.009137698156049227 -0.027976544924733612 -0.020374814377641728 -0.023713054608735025 0.019673700779899887 0.036372892103327885 -0.0052215903468029838 -0.026462708138141708 -0.028734279498094869 -0.02004383739643506 0.017559426563721805 0.01984128743780806 -0.044592614398333549
leaf_weight=17.391713970340792 0.6817074716091146 83.217314028646797 4.358057756908237 103.8859301279299 4.1568951159715644 25.826423249207437 35.13102394528687 49.6935073453933 3.6330409827642134 2.5476230774074784 2.7847374342381945 2.7999407555907965 1.6715263575315478 0.62910384312271972
leaf_count=307 8 1368 72 5299 164 347 229 1127 169 47 73 45 9 6
internal_value=-4.25503e-11 -0.00413489 -0.00845143 -0.012092 0.00845052 0.0130825 0.0318516 0.000336991 0.00602902 0.00769451 0.0136276 -0.0101955 0.0336845 -0.00595022
internal_weight=338.409 300.295 210.897 173.756 37.1413 32.9844 38.1134 69.87 89.398 85.7649 20.1765 7.158 37.4317 2.30063
internal_count=9270 9018 7434 6806 628 464 252 1507 1584 1415 380 117 244 15
is_linear=0
shrinkage=0.05


Tree=11
num_leaves=15
num_cat=0
split_feature=1 0 1 1 0 2 3 0 4 1 2 4 2 3
split_gain=15.2015 5.09874 4.61282 4.18075 3.00353 2.57718 2.03815 1.98726 1.57809 2.26193 1.49299 1.45191 1.62111 1.40201
threshold=0.068897466118907694 0.041688694334543371 -0.098375520116531986 0.16706649897786965 -0.077538478924902718 0.8370786516853933 0.056179775280898896 0.13626554625851331 0.0043500901383134848 0.043849757710266675 0.27528089887640456 -0.01293435125306425 0.81460674157303381 0.42134831460674166
decision_type=2 2 2 2 2 2 2 2 2 2 2 2 2 2
left_child=1 2 4 -2 10 8 11 -5 9 -4 -1 -3 -13 -7
right_child=3 6 5 7 -6 13 -8 -9 -10 -11 -12 12 -14 -15
leaf_value=0.031022375373245079 0.0079577288055964306 -0.020821268100579948 -0.017132029103222507 0.031513321410350757 -0.0035319840080813912 0.0036163109324548848 0.00038106423697250718 -0.015877814502182504 -0.026061730625229082 0.0064983652892614766 -0.022441856059261151 -0.0061263128235080656 0.038597519702441858 -0.030688008083169373
leaf_weight=9.2712924331426585 63.068533459678292 0.83649756573140699 62.716385761275887 36.298902126029134 49.552675900049508 23.418653158470992 17.610191214829683 1.7674004659056652 40.578123927116394 11.494223068468271 0.77083440497517663 2.184378758072854 9.8504150714725238 2.3926111161708823
leaf_count=102 936 11 3230 230 1195 476 419 22 2025 284 39 88 89 124
internal_value=2.96075e-10 -0.00708451 -0.00998761 0.0160701 0.00165605 -0.0148997 0.011694 0.0289629 -0.0180846 -0.0134343 0.0252577 0.0260288 0.0306327 -0.000589567
internal_weight=331.811 230.676 200.195 101.135 59.5948 140.6 30.4815 38.0663 114.789 74.2106 10.0421 12.8713 12.0348 25.8113
internal_count=9270 8082 7475 1188 1336 6139 607 252 5539 3514 141 188 177 600
is_linear=0
shrinkage=0.05


Tree=12
num_leaves=15
num_cat=0
split_feature=1 2 1 1 0 1 1 3 3 3 2 1 2 2
split_gain=12.9383 4.16527 3.24696 4.91581 2.98542 1.94598 2.93057 1.96625 1.9378 1.85925 3.20888 1.64254 1.63211 1.49294
threshold=0.11704880593582491 0.88202247191011252 -0.11283922728455024 0.043849757710266675 -0.077538478924902718 0.24699773336960154 0.32617339111272775 -0.011235955056179718 0.33146067415730346 -0.18539325842696622 0.58988764044943831 -0.11514989351826037 0.016853932584269666 0.7471910112359551
decision_type=2 2 2 2 2 2 2 2 2 2 2 2 2 2
left_child=1 2 4 -4 -1 7 -7 12 -3 10 -5 -6 -2 -11
right_child=5 8 3 9 11 6 -8 -9 -10 13 -12 -13 -14 -15
leaf_value=0.027572915902667305 -0.031543424017968356 0.011099691628980798 -0.016129426824217467 0.0022806271629024059 -0.0072477482259002222 0.045265538744581328 -0.0061270109743376154 -0.0018914283600674027 -0.018547969467824152 -0.022534507165960824 0.043671262383053536 0.024184886503799324 0.023196792440254247 0.0036146568097803625
leaf_weight=9.6071487413719279 0.58270404115319507 46.980589400976896 123.48923804052174 23.01302453130484 28.604690912179645 12.960022907704117 3.1872614361345759 12.608192242681978 5.3135171132162204 9.1667615994811076 4.9193761395290485 3.8462323257699635 30.824075248092413 11.280611400492488
leaf_count=118 8 636 5968 376 717 72 36 162 194 346 57 72 262 246
internal_value=-4.78764e-10 -0.00474815 -0.00783649 -0.0108717 0.00453128 0.0207449 0.0353556 0.0147185 0.00779574 0.00260347 0.0108277 -0.00291059 0.0212392 -0.00861237
internal_weight=326.383 266.221 213.927 171.869 42.0581 60.1623 16.1473 44.015 52.2941 48.3798 27.9324 32.4509 31.4068 20.4474
internal_count=9270 8730 7900 6993 907 540 108 432 830 1025 433 789 270 592
is_linear=0
shrinkage=0.05


Tree=13
num_leaves=15
num_cat=0
split_feature=1 1 1 2 0 0 3 3 3 3 1 0 0 4
split_gain=12.0248 3.61992 3.77052 5.62842 2.62366 2.04617 2.08916 2.06099 1.98654 1.96029 1.59933 1.54329 2.07099 2.38314
threshold=0.16706649897786965 0.043849757710266675 -0.11283922728455024 0.87078651685393271 -0.077538478924902718 -0.069303435507977282 1.0000000180025095e-35 0.016853932584269652 0.42134831460674166 0.089887640449438255 0.22243687806385651 0.13626554625851331 0.058702299650153396 0.014037390756562556
decision_type=2 2 2 2 2 2 2 2 2 2 2 2 2 2
left_child=1 2 4 -4 -1 -2 11 -8 -5 -3 -9 12 -7 -14
right_child=5 9 3 8 -6 6 7 10 -10 -11 -12 -13 13 -15
leaf_value=0.026973173237339318 -0.022870285589651242 0.0065935444399655655 -0.016067364228646443 0.010330350856070434 -0.0012322625384394402 0.023240642993710911 -0.030803707886072153 -0.01745866252206207 -0.026799105937769709 -0.027258633390568401 0.04422666637645168 -0.011390617931317095 0.058819931800954198 -0.015696837453807049
leaf_weight=9.9567370731383544 1.2785792220383871 84.11600196082145 118.4778029830195 32.401174128986895 32.989703399129212 17.00704366341234 2.1210363805294028 0.98126093670725856 3.0751083409413686 3.5260669263079754 1.857192166149616 1.3408862762153138 10.643260579556223 0.77413142845034677
leaf_count=118 13 1415 5904 464 807 112 24 14 141 169 9 17 58 5
internal_value=6.82748e-11 -0.00347535 -0.00722688 -0.0108668 0.00577188 0.0268181 0.0292366 -0.000732542 0.00646548 0.00493944 0.0239091 0.0340916 0.0365513 0.0529103
internal_weight=320.546 284.543 196.901 153.954 42.9464 36.0034 34.7248 4.95949 35.4763 87.6421 2.83845 29.7653 28.4244 11.4174
internal_count=9270 9018 7434 6509 925 252 239 47 605 1584 23 192 175 63
is_linear=0
shrinkage=0.05


Tree=14
num_leaves=15
num_cat=0
split_feature=1 1 1 2 0 4 0 3 0 1 4 2 3 1
split_gain=11.6111 3.08226 3.45746 4.70593 2.93527 1.85852 1.81303 1.77828 1.6603 2.04758 2.01449 1.93906 1.53882 1.42948
threshold=0.16706649897786965 0.043849757710266675 -0.11283922728455024 0.88202247191011252 -0.077538478924902718 0.014037390756562556 -0.058497451245078318 0.33146067415730346 0.031650753413732143 -0.0075519237186820179 -0.012350848500915971 0.93820224719101131 0.089887640449438255 -0.11514989351826037
decision_type=2 2 2 2 2 2 2 2 2 2 2 2 2 2
left_child=1 2 4 -4 -1 6 -2 8 9 11 -10 -5 -3 -6
right_child=5 12 3 7 13 -7 -8 -9 10 -11 -12 -13 -14 -15
leaf_value=0.0266992075337684 -0.019962283630555248 0.0058166081916945223 -0.015155605364798506 -0.012433017151133166 -0.0065018396027576725 -0.0092855707472259859 0.03265583678764658 -0.021085882654474693 -0.017440636252964246 -0.030830662283160438 0.025676165352815222 0.033400963027680253 -0.024979304906709313 0.021551087519846843
leaf_weight=10.898708514869211 1.087938286364081 83.999233069829643 117.20997191919014 3.9552917564287782 28.433314470574256 2.811457246541976 30.698106277734041 4.3208250007592133 2.4983623959124115 3.6932999249547738 15.885338811203836 3.4843382341787219 3.2818365055136374 4.3781248629093197
leaf_count=118 13 1415 5968 78 735 20 219 170 31 73 159 30 169 72
internal_value=-1.92275e-10 -0.0033849 -0.00687333 -0.0104423 0.00541756 0.0269136 0.0303009 0.00585052 0.0103554 -0.00465885 0.0192191 0.0104474 0.00438882 -0.00223197
internal_weight=316.636 282.039 194.758 151.047 43.7101 34.5975 31.786 33.8375 29.5166 11.1329 18.3837 7.43963 87.2811 32.8114
internal_count=9270 9018 7434 6509 925 252 232 541 371 181 190 108 1584 807
is_linear=0
shrinkage=0.05


Tree=15
num_leaves=15
num_cat=0
split_feature=1 1 0 0 1 0 4 0 3 2 4 0 1 3
split_gain=10.1685 2.85636 3.07555 4.26808 2.18709 1.66733 1.72176 1.75934 1.98507 1.55001 1.52493 2.51625 1.48676 1.47854
threshold=0.16706649897786965 0.043849757710266675 -0.05941047516980346 0.031650753413732143 -0.12666050089121347 0.13626554625851331 0.014037390756562556 0.058702299650153396 1.0000000180025095e-35 0.039325842696629219 -0.0088988860104164558 0.024968989935644118 0.24699773336960154 -0.17977528089887634
decision_type=2 2 2 2 2 2 2 2 2 2 2 2 2 2
left_child=1 2 4 -4 -1 6 7 10 -9 -6 -2 -12 -10 -3
right_child=5 13 3 -5 9 -7 -8 8 12 -11 11 -13 -14 -15
leaf_value=0.022939945311376414 -0.0069302090034492926 0.012242005872927501 -0.013229428645064418 0.0063260986652961442 -0.026433951623941715 -0.016002353444866713 -0.0071038433243757046 0.055384035013108138 -0.015582743251150817 0.0062105415869089294 0.046571082968506948 0.0020377945947051214 0.037025484248613232 -0.0010433338845279932
leaf_weight=12.885806758888068 4.0208304263651398 34.47256791125983 130.83325329376385 34.740564815234393 4.3525639781728378 1.6792120859026898 2.831999395042657 9.8655263893306238 2.1071667410433288 10.509236055426298 6.2213969491422194 5.8269579075276852 1.4451463893055914 50.780487282201648
leaf_count=179 35 515 5904 816 149 22 19 58 26 386 37 46 9 1069
internal_value=5.99972e-11 -0.00318062 -0.00653274 -0.00911296 0.0086452 0.0254076 0.0279748 0.0314664 0.0446593 -0.0044138 0.0184792 0.0268402 0.00925124 0.00440832
internal_weight=312.573 278.574 193.321 165.574 27.7476 33.9982 32.319 29.487 13.4178 14.8618 16.0692 12.0484 3.55231 85.2531
internal_count=9270 9018 7434 6720 714 252 230 211 93 535 118 83 35 1584
is_linear=0
shrinkage=0.05


Tree=16
num_leaves=15
num_cat=0
split_feature=1 4 1 2 3 1 1 4 2 3 2 4 0 2
split_gain=9.09251 2.93563 2.58692 3.06743 2.91071 2.48194 2.47129 2.3605 1.68589 1.52711 1.7893 1.36491 1.36015 1.2551
threshold=0.12967663446259928 -0.018195579426778619 -0.15139921737048304 0.82584269662921361 0.067415730337078678 0.067411965878545158 -0.098375520116531986 0.014037390756562556 0.039325842696629219 -0.056179775280898812 0.028089887640449441 -0.026503202857854066 -0.011105184014630063 0.97191011235955072
decision_type=2 2 2 2 2 2 2 2 2 2 2 2 2 2
left_child=2 11 8 5 12 6 -4 -3 -1 10 -7 -2 -5 -9
right_child=1 7 3 4 -6 9 -8 13 -10 -11 -12 -13 -14 -15
leaf_value=0.039920850959639646 0.021018076139217193 0.026401509318797051 -0.00058407999380464951 -0.027550915733783123 -0.0072781887925088516 -0.034788791450935934 -0.014770759565312659 0.010073767793085033 0.0033375154728011724 -0.021463514342444305 0.012467281769494958 -0.040802145061550138 0.015344829353390236 -0.036092904436591557
leaf_weight=4.2097529210150233 0.54980362951755557 41.2964993910864 42.726576564833522 1.0511209927499283 29.642575593199581 1.2101754955947459 108.80891139945015 2.6881257630884638 8.4830146767199022 3.819337034597992 25.351078990846872 2.0273629464209071 36.098495400510728 1.5754868965595958
leaf_count=31 4 372 1093 45 809 20 5684 20 191 145 336 23 484 13
internal_value=4.73467e-11 0.0197394 -0.0036964 -0.00484392 0.0042739 -0.00819668 -0.0108008 0.0227853 0.0175003 0.00472257 0.0091301 -0.0254249 0.0134408 -0.0106017
internal_weight=309.538 48.1373 261.401 248.708 66.7922 181.916 151.535 45.5601 12.6928 30.3806 26.5613 2.57717 37.1496 4.26361
internal_count=9270 432 8838 8616 1338 7278 6777 405 222 501 356 27 529 33
is_linear=0
shrinkage=0.05


Tree=17
num_leaves=15
num_cat=0
split_feature=1 0 1 1 4 4 4 0 3 2 1 4 4 3
split_gain=8.39496 2.54304 3.17395 2.92422 1.76487 1.6902 1.6454 1.66496 1.47316 1.73949 2.00855 2.05699 1.86951 1.79764
threshold=0.14486942666840366 0.0297068192116311 -0.15139921737048304 0.058605460323464482 -0.018195579426778619 -0.0078458774981329023 0.014037390756562556 0.13626554625851331 -0.016853932584269645 0.89325842696629221 -0.023668480877371053 -0.012204698548717976 -0.026283586675912796 0.19101123595505617
decision_type=2 2 2 2 2 2 2 2 2 2 2 2 2 2
left_child=1 2 -1 -4 -2 -5 7 -6 -3 -10 -11 12 -12 -13
right_child=4 8 3 5 6 -7 -8 -9 9 10 11 13 -14 -15
leaf_value=0.017445082451341409 -0.019496936733432099 0.01917959037979455 -0.010828247830111336 0.019035865156198192 0.028080786040692668 -0.0027129710958869349 -0.0080769725119021179 -0.015939642222348577 -0.01184032045150577 0.031355379351785062 0.024728641713423795 0.012839066662500231 -0.043807823238359772 -0.026700181298836397
leaf_weight=12.521951730363069 1.8985280264168967 13.991381284315137 150.53527795337141 12.26498066075146 35.321974164806306 26.738614604342729 3.517573243007063 1.6628822237253178 15.935573343187569 6.1404396751895574 0.60836762189865146 19.065887730568647 2.9780193492770257 2.4014232573099425
leaf_count=212 20 294 6666 164 289 464 30 21 646 90 7 246 40 81
internal_value=-1.08575e-10 -0.00334808 -0.00604604 -0.0076814 0.0203798 0.00443101 0.0226738 0.0257341 0.00552486 0.00115691 0.0079581 0.00124025 -0.029325 0.0074245
internal_weight=305.583 263.182 202.061 189.539 42.401 39.0036 40.5024 36.9849 61.1211 47.1297 31.1941 25.0537 3.58639 21.4673
internal_count=9270 8910 7506 7294 360 628 340 310 1404 1110 464 374 47 327
is_linear=0
shrinkage=0.05


Tree=18
num_leaves=15
num_cat=0
split_feature=1 1 0 1 2 3 1 4 2 0 0 1 3 3
split_gain=7.88377 2.40467 3.34271 2.61412 2.51161 2.27226 1.98934 1.83305 1.63436 1.54054 1.51207 1.48606 2.26379 1.35696
threshold=0.16706649897786965 0.030556875292749756 -0.05941047516980346 -0.13489575023956488 0.89325842696629221 0.11797752808988766 0.32617339111272775 0.018224333734519798 0.99438202247191021 -0.019082322983991536 -0.047332535639015398 0.24699773336960154 -0.011235955056179718 -0.2078651685393258
decision_type=2 2 2 2 2 2 2 2 2 2 2 2 2 2
left_child=1 2 3 13 -4 7 9 -3 -6 10 -2 12 -11 -1
right_child=6 5 4 -5 8 -7 -8 -9 -10 11 -12 -13 -14 -15
leaf_value=-0.027008307566496775 0.019924084040036649 0.0067263539340557989 -0.012186138047664535 -0.0036856165484186244 0.0086614566544435095 -0.027079941335553154 -0.0098305203729057607 -0.030214445569621936 -0.032337952884979058 0.030928124263468998 -0.034954902175463057 0.044665176302812179 -0.0093215950458627201 0.031150846034516816
leaf_weight=0.3439582884311666 1.9305454995483162 88.491521879564971 122.49140181485564 15.244680646806954 24.022503190673891 4.7366238622926167 3.6176390945911399 2.5118253277614704 1.7086651604622591 10.016029793769123 1.2126933448016668 11.126270126551388 4.5555933043360701 10.724487611092629
leaf_count=2 15 1732 5860 557 410 238 36 57 18 73 13 63 52 144
internal_value=1.12014e-10 -0.0028244 -0.00630462 0.00985087 -0.00921941 0.00351971 0.0228995 0.00538941 0.00483101 0.0271968 -0.00457518 0.0311088 0.0185541 0.0272553
internal_weight=302.734 270.276 174.536 26.3131 148.223 95.74 32.4588 91.0033 25.7312 28.8411 3.14324 25.6979 14.5716 11.0684
internal_count=9270 9018 6991 703 6288 2027 252 1789 428 216 28 188 125 146
is_linear=0
shrinkage=0.05


Tree=19
num_leaves=15
num_cat=0
split_feature=1 1 1 3 2 1 2 1 4 0 0 3 2 2
split_gain=6.68543 2.32809 3.1094 2.03972 1.89917 1.85715 1.81973 1.66905 1.51178 1.49622 1.57504 1.4374 1.29543 1.25697
threshold=0.16706649897786965 -0.15139921737048304 0.030556875292749756 0.11797752808988766 0.061797752808988769 0.32617339111272775 0.89325842696629221 -0.098375520116531986 0.018224333734519798 -0.058497451245078318 0.13626554625851331 0.33146067415730346 0.99438202247191021 0.016853932584269666
decision_type=2 2 2 2 2 2 2 2 2 2 2 2 2 2
left_child=1 4 6 8 -1 9 7 -3 13 -2 -11 12 -8 -4
right_child=5 2 3 -5 -6 -7 11 -9 -10 10 -12 -13 -14 -15
leaf_value=0.036668026008544637 -0.022984282260798627 -0.0016628579218827674 -0.029987251652937832 -0.025841187551453305 0.00043941165955214804 -0.011509619714250399 0.012961334914482451 -0.013882091953419965 -0.027519889034775969 0.030425903467753191 -0.016681167147883376 -0.020055948803529483 -0.028345773297739369 0.0072716194764115526
leaf_weight=5.6132423784583798 0.80926380120218411 40.063484740443528 1.3537585707381357 4.6383183817379168 8.0398146975785476 3.2544462308287612 20.07471233885736 93.732324954587966 2.4403880294412366 26.094344712793831 1.2864323705434788 4.0557814375497392 1.1478676479309786 87.193382209632546
leaf_count=41 10 1127 39 238 181 36 262 5218 57 190 16 147 15 1693
internal_value=-2.63214e-11 -0.00258277 -0.00368457 0.00341882 0.0168202 0.0214421 -0.00794938 -0.0102627 0.00517512 0.0255102 0.0277029 0.00421925 0.00955215 0.00637347
internal_weight=299.798 268.353 254.7 95.6258 13.6531 31.4445 159.074 133.796 90.9875 28.19 27.3808 25.2784 21.2226 88.5471
internal_count=9270 9018 8796 2027 222 252 6769 6345 1789 216 206 424 277 1732
is_linear=0
shrinkage=0.05


Tree=20
num_leaves=15
num_cat=0
split_feature=1 0 1 1 0 0 2 2 1 4 0 0 4 4
split_gain=5.86732 2.21876 2.62545 3.01852 1.6166 1.8623 1.54933 1.48296 1.37452 1.36149 1.33793 1.41402 1.36905 1.31738
threshold=0.16706649897786965 0.0297068192116311 -0.15139921737048304 0.058605460323464482 -0.012623070916908672 -0.0064805905358337737 0.061797752808988769 0.039325842696629219 -0.098375520116531986 0.00681892891530977 -0.019082322983991536 -0.047332535639015398 0.014037390756562556 0.010620710189756065
decision_type=2 2 2 2 2 2 2 2 2 2 2 2 2 2
left_child=1 2 6 8 7 -6 -1 -5 -4 -7 11 -2 -12 -11
right_child=10 -3 3 4 5 9 -8 -9 -10 13 12 -13 -14 -15
leaf_value=0.034330101776540535 0.015135320433101977 0.0054468662780369622 -0.0018705187400499886 -0.017035533764923432 -0.032625244459109783 0.010725439638131724 0.00059195758474628205 0.022858049618803524 -0.012892294842116384 -0.037329826949153162 0.027293544481945153 -0.036041185601303594 -0.010717205821890619 0.0038528332535014264
leaf_weight=5.311256153509019 2.4067944660782818 66.420975546352565 38.95729533303529 2.0058484245091703 3.3419692032039192 16.058301057200882 7.4618484098464251 14.000352192670105 106.0787681476213 2.5004644924774757 24.946577332913879 1.2718650363385702 2.084222584962844 3.9887603195384145
leaf_count=41 20 1479 1101 36 60 284 171 149 5565 64 202 14 16 68
internal_value=-2.27335e-10 -0.00241385 -0.0050424 -0.00656467 0.00516419 -0.00260886 0.0160948 0.017151 -0.00996488 0.00303671 0.0203347 -0.00648001 0.0240849 -0.0148815
internal_weight=296.835 266.126 199.705 186.932 41.8957 25.8895 12.7731 16.0062 145.036 22.5475 30.7095 3.67866 27.0308 6.48922
internal_count=9270 9018 7539 7327 661 476 212 185 6666 416 252 34 218 132
is_linear=0
shrinkage=0.05


Tree=21
num_leaves=15
num_cat=0
split_feature=0 1 0 4 1 3 1 2 2 1 4 0 4 0
split_gain=5.23408 3.90081 2.92078 2.546 2.2773 1.93076 1.9079 1.52615 1.4092 1.38029 1.0962 2.64223 1.3651 1.35104
threshold=0.058702299650153396 0.063794651734372945 -0.05941047516980346 -0.012204698548717976 -0.13666568045871411 0.056179775280898896 0.24699773336960154 0.89325842696629221 0.11797752808988765 0.0018430272812600681 -0.011258262280815086 0.04068559509360737 -0.015037744648040202 0.024968989935644118
decision_type=2 2 2 2 2 2 2 2 2 2 2 2 2 2
left_child=1 2 4 6 8 -5 7 -2 -1 -9 11 12 -4 -14
right_child=3 -3 10 5 -6 -7 -8 9 -10 -11 -12 -13 13 -15
leaf_value=0.035630086697013647 0.011725145497707231 0.0073085451308955406 -0.014495175422950344 0.026390200379733022 -0.0032490959982733715 0.00050692066617654449 0.029831046945326602 0.01747732243636433 -0.00461353817080152 -0.05774582330357253 -0.011564633692103145 0.04153991657891247 0.0093478511444610498 -0.030182198663535942
leaf_weight=7.6291743628680724 1.0789521336555474 68.770530521869659 18.900812010280788 28.846884909085929 16.28212346881628 9.5499209431000036 0.85903508216142643 0.26778242364525828 2.62689009308815 2.3754330761730671 117.74767810804769 2.2427532644942394 15.876686700154098 1.4950846647843707
leaf_count=74 10 986 830 297 596 225 6 3 64 35 5435 30 642 37
internal_value=-3.81404e-10 -0.00277183 -0.00658324 0.015919 0.00851814 0.0201289 -0.0166499 -0.0314228 0.0258283 -0.0474196 -0.00918577 -0.00180458 -0.00552718 0.00448806
internal_weight=294.55 251.572 182.801 42.978 26.5382 38.3968 4.5812 3.72217 10.2561 2.64322 156.263 38.5153 36.2726 17.3718
internal_count=9270 8694 7708 576 734 522 54 48 138 38 6974 1539 1509 679
is_linear=0
shrinkage=0.05


Tree=22
num_leaves=15
num_cat=0
split_feature=1 0 1 1 4 3 4 0 0 0 0 4 0 4
split_gain=5.1418 2.38368 2.29328 2.25668 1.70635 1.30601 1.739 1.44809 1.29546 1.29331 1.24658 1.23918 1.19272 1.67823
threshold=0.14486942666840366 0.041688694334543371 -0.15139921737048304 0.068897466118907694 -0.020426596862010264 0.011235955056179791 0.014037390756562556 -0.058497451245078318 0.13626554625851331 0.073981412264700244 -0.077538478924902718 -0.026503202857854066 0.023891721526266178 -0.010070727445876502
decision_type=2 2 2 2 2 2 2 2 2 2 2 2 2 2
left_child=1 2 10 -4 11 6 7 -6 9 12 -1 -2 13 -9
right_child=4 -3 3 -5 5 -7 -8 8 -10 -11 -12 -13 -14 -15
leaf_value=0.031287615782625421 0.018326260471971462 0.0081519142809907789 -0.0086061979483215995 0.0051348811105493379 -0.016910753632574584 -0.0023610769145035928 -0.013394090553070627 -0.010745593988878883 -0.012915784164097636 0.048174847159013989 0.00090139939069341273 -0.04643946066798562 0.0091815214802765371 0.043266165993654265
leaf_weight=5.3563894368708134 0.50861150026321411 41.854330817703158 163.06890360359102 35.827328572515398 1.2289110347628618 5.9139442862942806 2.4527459219098082 1.3173969686031339 1.2658537384122599 7.6612538173794738 7.3276182040572149 0.93982579745352157 10.431964725255964 7.3628430888056879
leaf_count=46 4 865 7260 570 12 75 23 15 16 49 169 12 105 49
internal_value=5.94832e-11 -0.0026222 -0.00478183 -0.0061177 0.0166448 0.0188849 0.022797 0.0261722 0.0285778 0.030934 0.015082 -0.0255009 0.0219712 0.0348056
internal_weight=292.518 253.435 211.58 198.896 39.0834 37.6349 31.721 29.2682 28.0393 26.7735 12.684 1.44844 19.1122 8.68024
internal_count=9270 8910 8045 7830 360 344 269 246 234 218 215 16 169 64
is_linear=0
shrinkage=0.05


Tree=23
num_leaves=15
num_cat=0
split_feature=1 1 0 1 4 3 1 0 0 4 3 0 1 1
split_gain=4.94902 2.11495 2.00434 2.04248 1.45828 1.29709 1.40374 1.26474 1.12521 1.27583 1.57125 1.74613 1.18707 1.1123
threshold=0.14486942666840366 -0.17464603571011653 0.041688694334543371 0.068897466118907694 -0.020426596862010264 -0.016853932584269645 0.072236778818732375 -0.1227558119810364 0.13626554625851331 0.014037390756562556 1.0000000180025095e-35 0.073981412264700244 0.19398772866322536 0.24699773336960154
decision_type=2 2 2 2 2 2 2 2 2 2 2 2 2 2
left_child=1 -1 3 7 -2 -4 -7 -3 9 10 11 -6 -11 -12
right_child=4 2 5 -5 8 6 -8 -9 -10 12 13 -13 -14 -15
leaf_value=0.026219039366086262 -0.023004038846389435 0.025268629614380297 0.022557569486608642 0.0053509972827741684 0.018495840599736902 0.007588756101342845 -0.015423948243071424 -0.0081227443086024226 -0.014930153281053278 -0.033084513883535824 -0.015493108876028745 0.047574910469709644 0.016459154358945554 0.027852487590603426
leaf_weight=5.2439201818779102 1.3988599814474572 1.9375768685713399 8.8273724932223541 36.353613177780062 19.532663792371753 25.136903542559594 7.8879956547170869 167.39241830073297 1.6774568390101183 1.3195333331823342 3.7303299512714139 7.5983118228614321 1.6293841823935507 1.1587778665125368
leaf_count=74 16 32 150 570 178 533 179 7372 23 16 58 48 12 9
internal_value=6.84565e-12 -0.00254966 -0.00326215 -0.00529167 0.0165718 0.00660269 0.00180041 -0.00759455 0.0186534 0.0206347 0.0234909 0.0280414 -0.00847402 -0.00223467
internal_weight=290.825 252.78 247.536 205.684 38.0453 41.8523 33.0249 169.33 36.6465 34.969 32.0201 27.131 2.94892 4.88911
internal_count=9270 8910 8836 7974 360 862 712 7404 344 321 293 226 28 67
is_linear=0
shrinkage=0.05


Tree=24
num_leaves=15
num_cat=0
split_feature=1 0 0 1 1 2 2 4 4 3 4 1 2 3
split_gain=4.20799 1.70138 1.75457 2.10859 1.79136 1.53487 1.41794 1.34295 1.34047 1.04805 1.01503 1.56237 1.45745 1.28544
threshold=0.12967663446259928 0.04068559509360737 -0.05941047516980346 0.057063032645895413 -0.13666568045871411 0.016853932584269666 0.11797752808988765 -0.015037744648040202 -0.018195579426778619 -0.24157303370786509 0.0088366215328427606 0.072236778818732375 0.67977528089887651 0.028089887640449455
decision_type=2 2 2 2 2 2 2 2 2 2 2 2 2 2
left_child=1 2 4 -4 6 -6 -1 -5 -2 -9 11 12 -3 -14
right_child=8 10 3 7 5 -7 -8 9 -10 -11 -12 -13 13 -15
leaf_value=0.033446172006342118 -0.017923367626208823 -0.015919094239348744 -0.0090820177681599345 0.023768023270610342 -0.028418488423952282 0.005031454503991218 -0.0071083479034999789 0.0090250708093786193 0.016646270381868486 -0.0082292309449736121 -0.0055475072160236782 -0.0080146481940517999 0.039201383516560502 0.011897727856895957
leaf_weight=7.2275152951478976 2.2093393411487332 2.1524147521704498 138.42686459422112 6.0463101649656883 3.3796314531937268 14.902897336985914 2.5047887293621898 15.392473684623836 39.732229021377861 18.00476286932826 11.531244528479872 7.1494577759876838 6.4072389826178577 13.755602413788436
leaf_count=74 27 102 6504 74 106 515 64 219 405 417 242 150 78 293
internal_value=-6.57698e-11 -0.00250329 -0.00435717 -0.00619025 0.00709354 -0.00230508 0.0233189 0.00393204 0.0144503 -0.000245698 0.00668913 0.0115029 0.0178316 0.0220165
internal_weight=288.823 246.881 205.885 177.87 28.0148 18.2825 9.7323 39.4435 41.9416 33.3972 40.996 29.4647 22.3153 20.1628
internal_count=9270 8838 7973 7214 759 621 138 710 432 636 865 623 473 371
is_linear=0
shrinkage=0.05


Tree=25
num_leaves=15
num_cat=0
split_feature=1 4 1 0 1 3 2 0 4 1 0 2 3 0
split_gain=3.90001 1.91644 1.87893 1.81501 1.64299 1.60986 1.91142 1.42314 1.37434 1.33845 1.12405 1.19227 1.60778 1.89294
threshold=0.043849757710266675 0.018224333734519798 -0.17464603571011653 0.061887760723280512 0.24699773336960154 -0.016853932584269645 0.016853932584269666 -0.1227558119810364 -0.005179282241880437 0.32617339111272775 -0.033626924451793154 0.58988764044943831 -0.24157303370786509 -0.0064805905358337737
decision_type=2 2 2 2 2 2 2 2 2 2 2 2 2 2
left_child=2 4 -1 7 5 6 -2 -4 -5 -6 -8 -12 -13 -14
right_child=1 -3 3 8 9 -7 10 -9 -10 -11 11 12 13 -15
leaf_value=0.022618465136478964 -0.035130867290466293 -0.02697659057868896 0.027625553967012891 -0.015700430756828716 0.032232123333204701 -0.0035623372795688495 0.027786682102783122 -0.007567880595009663 0.020014457451216324 -0.0047482354666032664 -0.00052871018437757782 0.042298749512407106 -0.023398999784851451 0.014305571566211723
leaf_weight=5.182884518057107 1.2800207193940867 2.9649785431101909 1.9658262394368637 2.7268380858004102 10.362991865724323 28.988137610256672 8.8005906268954188 157.8663767138496 10.214473520871248 2.8190807625651351 20.598135440610356 3.6657145544886509 2.8758123600855425 26.455164603889003
leaf_count=74 33 58 30 41 72 672 97 7142 147 33 410 29 55 377
internal_value=1.23831e-10 0.00741789 -0.00455174 -0.00549227 0.00862482 0.00612197 0.0105176 -0.00696595 0.0119027 0.0245464 0.0119935 0.00893869 0.0146904 0.00995918
internal_weight=286.767 108.811 177.956 172.774 105.846 92.6636 63.6754 159.832 12.9413 13.1821 62.3954 53.5948 32.9967 29.331
internal_count=9270 1836 7434 7360 1778 1673 1001 7172 188 105 968 871 461 432
is_linear=0
shrinkage=0.05


Tree=26
num_leaves=15
num_cat=0
split_feature=1 1 0 4 1 1 3 2 2 1 3 0 2 3
split_gain=3.82234 1.87476 1.68226 1.65927 1.63029 1.4204 1.35425 1.40307 1.13554 1.06221 0.963285 0.96068 1.06193 1.61309
threshold=0.043849757710266675 -0.15594719991433667 0.031650753413732143 0.018224333734519798 0.24699773336960154 0.32617339111272775 -0.016853932584269645 0.016853932584269666 0.016853932584269666 -0.098375520116531986 0.33146067415730346 -0.033626924451793154 0.58988764044943831 -0.24157303370786509
decision_type=2 2 2 2 2 2 2 2 2 2 2 2 2 2
left_child=1 8 9 4 6 -6 7 -2 -1 -3 -4 -9 -13 -14
right_child=3 2 10 -5 5 -7 -8 11 -10 -11 -12 12 13 -15
leaf_value=0.039640546227237144 -0.030289009438385535 -0.0013200329963886728 0.0089001192403697065 -0.024996168029715087 0.032365185714039561 -0.00609936719061791 -0.0029270792704391094 0.025833327299030262 0.0045316135693308293 -0.011098357896505947 -0.011193563101826676 -0.00066520334389856507 0.041590603479025129 0.0091381893419086261
leaf_weight=2.3319277353584758 1.1585034737363447 39.437419601716101 25.039780971594158 2.8793215677142134 10.260563667863606 2.689619865268468 28.658470755442977 8.860336508601895 8.5023657009005529 95.342343559954315 6.8147984025999895 20.062555097974844 3.6125561185181061 29.406321524642415
leaf_count=16 33 1141 566 58 72 33 672 97 169 5301 241 410 29 432
internal_value=-4.01791e-10 -0.0045005 -0.00583615 0.00739673 0.00851552 0.0245119 0.00601798 0.0100629 0.0147994 -0.00826795 0.00439153 0.0112868 0.00842594 0.013807
internal_weight=285.057 177.469 166.634 107.588 104.709 12.9502 91.7587 63.1003 10.8343 134.78 31.8546 61.9418 53.0814 33.0189
internal_count=9270 7434 7249 1836 1778 105 1673 1001 185 6442 807 968 871 461
is_linear=0
shrinkage=0.05


Tree=27
num_leaves=15
num_cat=0
split_feature=1 1 4 1 1 0 4 3 2 0 2 0 0 2
split_gain=3.56308 1.58095 1.507 1.5576 1.5154 1.41466 1.30802 1.24092 1.19229 1.14782 0.885591 0.873771 0.894492 0.839736
threshold=0.043849757710266675 -0.15594719991433667 0.018224333734519798 0.24699773336960154 0.32617339111272775 0.061887760723280512 -0.005179282241880437 0.022471910112359567 0.016853932584269666 -0.03867004999026296 0.016853932584269666 -0.017042243201739801 0.13626554625851331 0.58988764044943831
decision_type=2 2 2 2 2 2 2 2 2 2 2 2 2 2
left_child=1 10 3 7 11 -3 -7 8 -2 -10 -1 -5 -13 -11
right_child=2 5 -4 4 -6 6 -8 -9 9 13 -12 12 -14 -15
leaf_value=0.035472854202480662 -0.029579752892331602 -0.0069334990822135225 -0.023847173346215146 -0.0090280253941032122 -0.007888208085812861 -0.017151929331119534 0.017851804310537289 -0.0089352823810511638 0.026298110425941525 -0.0016618989825155129 0.0042775993765831761 0.04032938916199412 -0.0067846618389598035 0.01017518191754967
leaf_weight=2.3115454576909533 1.1087221587076772 152.77075284300372 2.8458465719595543 0.80926025658845802 2.5963505022227755 2.6425233129411945 10.109237318392839 11.617664132267235 7.6036156341433516 20.875706469640136 8.3753274148330075 8.6439546532928908 0.83089330419898111 49.895275678485632
leaf_count=16 33 7062 58 9 33 41 146 403 79 446 169 54 9 712
internal_value=-5.52848e-11 -0.00436067 0.00716657 0.00823445 0.0239048 -0.00558679 0.00987827 0.00578337 0.00801901 0.00891686 0.013483 0.0319191 0.0359445 0.00670903
internal_weight=283.037 176.209 106.827 103.981 12.8805 165.523 12.7518 91.101 79.4833 78.3746 10.6869 10.2841 9.47485 70.771
internal_count=9270 7434 1836 1778 105 7249 187 1673 1270 1237 185 72 63 1158
is_linear=0
shrinkage=0.05


Tree=28
num_leaves=15
num_cat=0
split_feature=1 3 4 1 0 1 1 0 3 0 3 0 4 0
split_gain=3.21489 2.03743 1.6553 1.64572 1.49412 1.50849 3.18952 1.53917 1.41089 1.24209 1.15915 1.11935 1.0652 1.69077
threshold=0.030556875292749756 0.067415730337078678 0.018224333734519798 -0.17464603571011653 0.073981412264700244 0.062150941132217204 0.10256734289101889 0.13626554625851331 1.0000000180025095e-35 -0.1227558119810364 -0.016853932584269645 0.052332089796605759 0.010620710189756065 -0.069303435507977282
decision_type=2 2 2 2 2 2 2 2 2 2 2 2 2 2
left_child=3 2 4 -1 10 -6 -7 8 -8 -5 12 -12 13 -2
right_child=1 -3 -4 9 5 6 7 -9 -10 -11 11 -13 -14 -15
leaf_value=0.021274191940344772 -0.026618028608020372 -0.017910989150791794 -0.024871309468353087 0.02662733328922089 0.046577711617434854 -0.035826407686128402 0.039619187573146808 -0.015241837570589438 0.0033623330808648984 -0.0060575318043762424 0.0025768806334799214 -0.02386792883102799 0.02202118291732651 0.0081001596802946271
leaf_weight=4.9932602364569894 2.7718726228922597 7.2279985379427663 2.7822804581373921 1.9904685793444503 3.7437932640314129 1.9473492950201023 7.650008369237181 1.7830660231411464 4.1786177074536681 156.21518767764792 13.906698045320811 4.5288495039567342 12.099437945522366 55.674239797517657
leaf_count=74 45 350 60 29 22 28 56 30 57 6888 342 80 207 1002
internal_value=1.37257e-11 0.00624679 0.00796473 -0.00453843 0.0090283 0.0213301 0.0128091 0.0217428 0.0280715 -0.00548164 0.00615225 -0.00481331 0.00904509 0.00603354
internal_weight=281.493 118.294 111.066 163.199 108.284 19.3028 15.559 13.6117 11.8286 158.206 88.9811 18.4355 70.5456 58.4461
internal_count=9270 2279 1929 6991 1869 193 171 143 113 6917 1676 422 1254 1047
is_linear=0
shrinkage=0.05


Tree=29
num_leaves=15
num_cat=0
split_feature=0 1 3 1 0 2 0 4 4 1 1 1 1 3
split_gain=3.20194 2.38476 1.57807 1.46786 1.46746 1.30945 0.986929 0.918609 1.12019 2.10596 1.17599 1.05376 1.37685 0.950825
threshold=0.061887760723280512 0.063794651734372945 -0.016853932584269645 -0.11283922728455024 -0.077538478924902718 0.11797752808988765 1.0000000180025095e-35 -0.012204698548717976 -0.0009054284251989403 0.0083719328966282997 0.050809555728425611 0.24699773336960154 0.0018430272812600681 0.067415730337078678
decision_type=2 2 2 2 2 2 2 2 2 2 2 2 2 2
left_child=1 3 -2 4 5 -1 -6 11 9 -9 13 12 -4 -10
right_child=2 -3 7 -5 6 -7 -8 8 10 -11 -12 -13 -14 -15
leaf_value=0.029194842926648285 0.033128915527138696 0.0059865902080958426 0.019847509621223267 -0.0074261842681808913 -0.0056357418778049612 -0.015294192580183323 0.01818833604960279 -0.025277304868149938 0.031156796752102079 0.038033359947577589 -0.0073676288321209583 0.02123437555851837 -0.047559672395301067 0.0006510046737620628
leaf_weight=6.9423634242266399 7.2794230477884403 66.140902921091765 0.43248916789889635 139.9917078060098 25.689025394618515 1.4152432689443228 4.2007931647822252 0.89657187834382313 4.2249315874651092 5.6617752499878407 10.052273625507949 0.59255504980683316 1.5509416833519933 5.0828608805313706
leaf_count=76 76 1016 4 6830 709 42 93 19 37 64 166 5 32 101
internal_value=-8.63366e-11 -0.00206197 0.0137589 -0.00506537 0.00354464 0.0208319 -0.00180703 0.00785501 0.0108013 0.0271792 0.00419071 -0.0165196 -0.0311355 0.0161773
internal_weight=280.154 244.38 35.7738 178.239 38.2474 8.35761 29.8898 28.4944 25.9184 6.55835 19.3601 2.57599 1.98343 9.30779
internal_count=9270 8766 504 7750 920 118 802 428 387 83 304 41 36 138
is_linear=0
shrinkage=0.05


Tree=30
num_leaves=15
num_cat=0
split_feature=1 4 0 1 0 1 2 1 3 4 2 3 1 4
split_gain=3.01037 1.24746 1.24262 1.08039 1.28686 1.166 1.08348 0.952125 1.66949 0.929912 0.907659 0.878723 0.879513 0.912502
threshold=0.14486942666840366 -0.018195579426778619 0.06398466160151596 0.063794651734372945 -0.05941047516980346 -0.13066248337924688 0.12921348314606743 0.062150941132217204 0.067415730337078678 0.014037390756562556 0.039325842696629219 1.0000000180025095e-35 0.24699773336960154 0.005813636724110588
decision_type=2 2 2 2 2 2 2 2 2 2 2 2 2 2
left_child=2 -2 3 4 5 6 -1 8 -4 11 -7 -3 13 -13
right_child=1 9 7 -5 -6 10 -8 -9 -10 -11 -12 12 -14 -15
leaf_value=0.026815556511090383 -0.020951785772473114 0.021878852992866599 0.031469428334373446 0.0037107039424285528 -0.0065171769155336779 -0.020693627461106263 -0.0079875718375926972 -0.0072846352601062484 -0.0018776990660595806 -0.009317598887265275 0.0044961780614690494 -0.030391226247802224 0.023227119775275133 0.011969363218270072
leaf_weight=7.3845042148605007 1.6328593064099539 25.561075018718842 7.2611545436084288 46.244541270192713 153.26556953974068 4.1314144944772115 2.5257333172485232 5.2337523242458692 6.6829887684434652 2.7761486973613492 10.971391222439705 2.0295308008790012 1.4708086736500261 1.4663689294829962
leaf_count=92 20 238 66 821 7040 163 71 118 131 30 408 32 13 27
internal_value=-1.0291e-10 0.0135131 -0.00198453 -0.00304073 -0.00480294 0.00554764 0.0180265 0.00991862 0.016431 0.0157644 -0.00325174 0.0182685 -0.000864886 -0.0139127
internal_weight=278.638 34.9368 243.701 224.523 178.279 25.013 9.91024 19.1779 13.9441 33.3039 15.1028 30.5278 4.96671 3.4959
internal_count=9270 360 8910 8595 7774 734 163 315 197 340 571 310 72 59
is_linear=0
shrinkage=0.05


Tree=31
num_leaves=15
num_cat=0
split_feature=0 1 3 0 1 2 0 2 2 3 1 0 4 4
split_gain=2.61989 1.92367 1.26557 1.13346 1.07301 0.920747 0.91662 0.858515 0.904245 0.80176 0.757773 1.0183 0.743059 1.07257
threshold=0.061887760723280512 0.067411965878545158 -0.016853932584269645 -0.05941047516980346 -0.13066248337924688 0.12921348314606743 -0.066423772139186307 0.97191011235955072 0.96067415730337091 -0.028089887640449448 0.27597081720500521 0.052332089796605759 0.0050650012253572524 0.013628407421265322
decision_type=2 2 2 2 2 2 2 2 2 2 2 2 2 2
left_child=1 3 -2 4 5 -1 -6 8 9 -3 11 -9 -5 -14
right_child=2 7 -4 12 6 -7 -8 10 -10 -11 -12 -13 13 -15
leaf_value=0.025347980161576918 0.030171321421668243 0.0080837821298137269 0.0072429635248116107 -0.0035157723999152584 -0.011002879304133739 -0.0070336447438892214 0.013546234066694782 0.0011481357065394576 0.030303692129722601 -0.0070837935445763143 0.016606163225128139 -0.050821606160538858 -0.01715584611469324 -0.002854289994420031
leaf_weight=7.347567514516415 7.0992956487461916 46.629430775530636 27.645955484360456 101.58751437114552 10.623881886713205 2.4798119077458978 4.6846190630458286 1.7194399349391458 2.9697775226086369 9.8478540773503465 0.65136830136179913 0.97672845143824805 28.972533363848925 24.141917824279517
leaf_count=92 76 616 428 4574 391 71 182 29 27 255 4 15 1473 1037
internal_value=1.50663e-11 -0.00185463 0.0126408 -0.00448144 0.00521227 0.0172819 -0.00312052 0.00562063 0.00708853 0.0053618 -0.0160816 -0.0263349 -0.00607983 -0.0108283
internal_weight=277.378 242.632 34.7453 179.838 25.1359 9.82738 15.3085 62.7946 59.4471 56.4773 3.34754 2.69617 154.702 53.1145
internal_count=9270 8766 504 7820 736 163 573 946 898 871 48 44 7084 2510
is_linear=0
shrinkage=0.05


Tree=32
num_leaves=15
num_cat=0
split_feature=1 1 2 3 4 0 1 3 3 0 4 2 3 2
split_gain=2.57276 1.33945 1.27684 2.17415 1.68998 1.64238 1.33069 1.16962 1.1457 1.2869 1.01423 0.804665 1.14428 0.814303
threshold=0.098967927316163121 -0.17464603571011653 0.58988764044943831 0.067415730337078678 0.018224333734519798 -0.047904994370875968 -0.023668480877371053 0.1404494382022472 -0.24157303370786509 0.0074129245068399472 -0.018195579426778619 0.96067415730337091 0.23595505617977527 0.81460674157303381
decision_type=2 2 2 2 2 2 2 2 2 2 2 2 2 2
left_child=1 -1 5 4 8 7 11 -3 -4 -10 -2 12 13 -5
right_child=10 2 3 6 -6 -7 -8 -9 9 -11 -12 -13 -14 -15
leaf_value=0.0209215786782437 -0.015123026314897951 0.0054775382854423994 0.037447740740484424 -0.0014282860424812433 -0.030714953187711076 -0.010278520292274808 -0.016689047299311265 -0.022439591922552526 -0.0052732151862273108 0.013137253255510276 0.011437680507974574 0.022950073162352754 0.0034619554008651979 -0.033709608844565593
leaf_weight=5.016848621889948 3.01362620294094 32.698606764897704 2.7097965395078054 3.7995552076026859 1.676037099212407 83.413085240405053 17.920554506592453 3.2311911582946768 12.557331521064041 32.829558552708477 50.841947448439896 2.466628596186637 20.943997407332063 3.2334010913036764
leaf_count=74 40 1090 34 224 67 4042 807 117 500 642 680 40 799 114
internal_value=-7.09938e-11 -0.00238148 -0.00301234 0.00120911 0.00846253 -0.00646488 -0.00627579 0.00242729 0.0104256 0.0080397 0.00970281 0.000189771 -0.00253968 -0.0186185
internal_weight=276.352 222.497 217.48 98.1369 49.7727 119.343 48.3641 35.9298 48.0967 45.3869 53.8556 30.4436 27.977 7.03296
internal_count=9270 8550 8476 3227 1243 5249 1984 1207 1176 1142 720 1177 1137 338
is_linear=0
shrinkage=0.05


Tree=33
num_leaves=15
num_cat=0
split_feature=0 1 0 3 2 3 2 2 3 3 1 1 1 2
split_gain=2.45772 1.51904 1.46424 1.33187 0.896904 0.762108 1.75631 1.41861 0.984755 1.19723 1.28082 0.941754 1.0175 0.757017
threshold=0.058702299650153396 0.049612904056594138 -0.05941047516980346 -0.016853932584269645 0.82584269662921361 -0.15168539325842689 0.80337078651685401 0.58988764044943831 -0.43258426966292124 -0.74719101123595488 0.098967927316163121 0.12084292800891995 0.15112976239453493 0.095505617977528101
decision_type=2 2 2 2 2 2 2 2 2 2 2 2 2 2
left_child=1 2 -1 4 -2 7 -7 8 9 -3 -11 -9 -13 -4
right_child=3 5 13 -5 -6 6 -8 11 -10 10 -12 12 -14 -15
leaf_value=0.0063789042396561876 -0.0061435313792321854 -0.0054402770775898394 -0.019883862379157024 0.0061744739072020164 0.034367607774463675 -0.018110173596397324 0.0056307925853387106 0.032998386681009503 -0.012447938022297289 0.0028546616687850968 0.036632181444022853 -0.027769860684345928 0.017636514662948362 -0.0055030370760211587
leaf_weight=25.00199767248705 1.3135418090969304 8.4130072724074143 9.0803825720213336 29.698404367547482 7.1198359206318855 9.8236588183790428 26.81926420237869 7.0841246601194126 6.9664244223386076 6.2192971315234882 4.4088889714330435 0.96309977769851718 2.3236499447375536 129.7795612742193
leaf_count=720 28 108 459 482 66 362 423 85 161 105 43 15 21 6192
internal_value=5.27247e-11 -0.00191015 -0.00457509 0.0116119 0.0280754 0.00405106 -0.00104598 0.00907578 0.00253162 0.00835972 0.0188119 0.023821 0.000957041 -0.00657888
internal_weight=275.015 236.883 163.862 38.1318 8.43338 73.0214 36.6429 36.3785 26.0076 19.0412 10.6282 10.3709 3.28675 138.86
internal_count=9270 8694 7371 576 94 1323 785 538 417 256 148 121 36 6651
is_linear=0
shrinkage=0.05


Tree=34
num_leaves=15
num_cat=0
split_feature=1 1 4 1 1 0 4 3 2 2 2 0 2 4
split_gain=2.21281 1.31899 1.28068 1.16967 1.56386 0.960955 1.19421 0.952027 2.01623 1.62944 1.02166 0.989799 0.861827 1.58039
threshold=0.043849757710266675 -0.17464603571011653 0.021629966209206302 0.24699773336960154 0.32617339111272775 0.06398466160151596 -0.005179282241880437 -0.24157303370786509 0.58988764044943831 0.7471910112359551 0.016853932584269666 -0.044749389017405765 0.89325842696629221 -0.011258262280815086
decision_type=2 2 2 2 2 2 2 2 2 2 2 2 2 2
left_child=1 -1 3 7 -5 -3 -7 8 10 -9 -2 -12 -11 -14
right_child=2 5 -4 4 -6 6 -8 9 -10 12 11 -13 13 -15
leaf_value=0.019712992846177734 -0.028969661459241011 -0.0052602492131105291 -0.03736376535142228 0.029335876881021558 -0.0102234236967486 -0.018443422137313654 0.017173805712272151 -0.014765203242573419 0.038933782718723858 0.012709606688769881 0.024432262642188004 0.0014992829849884287 -0.023897007398242836 0.0050243798946207627
leaf_weight=4.9762220401316872 1.0597556261345804 156.4271633583121 0.70833992958068748 9.5067630745470506 2.7181569449603549 2.1799509935081014 9.071944373659786 12.304851786233483 4.5621916241943827 19.705591958481818 5.5698333680629792 17.093825713731345 4.8977353218942836 22.741529561579235
leaf_count=74 33 7192 17 72 34 37 131 444 35 384 61 314 82 360
internal_value=2.70063e-10 -0.00343193 0.00585041 0.00652235 0.0204321 -0.0042316 0.00933116 0.0043806 0.0117645 0.000742944 0.0051762 0.00792961 0.00499553 -0.000756017
internal_weight=273.524 172.655 100.869 100.16 12.2249 167.679 11.2519 87.9353 28.2856 59.6497 23.7234 22.6637 47.3449 27.6393
internal_count=9270 7434 1836 1819 106 7360 168 1713 443 1270 408 375 826 442
is_linear=0
shrinkage=0.05


Tree=35
num_leaves=15
num_cat=0
split_feature=1 1 4 1 1 3 2 0 4 0 0 4 0 1
split_gain=2.15917 1.41263 1.08669 0.97672 1.49465 0.896833 0.980802 0.778865 1.0238 0.742702 0.761731 0.721501 0.636234 1.04849
threshold=0.043849757710266675 -0.15139921737048304 0.021629966209206302 0.24699773336960154 0.32617339111272775 -0.02247191011235956 0.016853932584269666 0.06398466160151596 -0.005179282241880437 -0.017042243201739801 0.13626554625851331 0.0094496501255204816 0.09596393384856973 0.031505322004064647
decision_type=2 2 2 2 2 2 2 2 2 2 2 2 2 2
left_child=1 -1 3 5 9 6 -2 -3 -9 -5 -11 -10 -13 -14
right_child=2 7 -4 4 -6 -7 -8 8 11 10 -12 12 13 -15
leaf_value=0.012355971625777916 -0.026856418927820938 -0.0056334785416851992 -0.035067755963842116 -0.0097485820584297927 -0.010587873829271208 -0.0026424141616354772 0.0090551179106221069 -0.017994364369028334 0.024865837054266912 0.036451604774207114 -0.0069337197413453363 0.010628430259615053 -0.044319353150107627 0.019108905364713175
leaf_weight=12.240897177718578 1.017455656081437 148.73499764874578 0.62460035923868318 0.74411394074559112 2.7099539898335925 29.231446000281721 57.267587741836905 2.1966885030269632 5.4675066769123042 7.7663470618426782 0.81722594052553166 2.658474057912827 0.69631428644061066 0.34364718198776245
leaf_count=222 33 7046 17 9 34 715 965 37 84 54 9 37 6 2
internal_value=1.02211e-10 -0.00338786 0.00580406 0.00640668 0.0192262 0.00444611 0.0079858 -0.00466085 0.00749658 0.0280745 0.0320285 0.0147748 -0.00226035 -0.0242671
internal_weight=272.517 172.339 100.179 99.5541 12.0376 87.5165 58.285 160.098 11.3626 9.32769 8.58357 9.16594 3.69844 1.03996
internal_count=9270 7434 1836 1819 106 1713 998 7212 166 72 63 129 45 8
is_linear=0
shrinkage=0.05


Tree=36
num_leaves=15
num_cat=0
split_feature=0 1 1 0 3 3 3 2 1 3 2 3 0 2
split_gain=1.8054 1.39594 1.06772 1.12919 1.05495 1.02422 0.877405 1.11717 1.34117 2.70539 2.37855 0.908143 1.17969 0.819465
threshold=0.061887760723280512 0.063794651734372945 -0.098375520116531986 -0.077538478924902718 0.11235955056179774 -0.016853932584269645 0.55617977528089901 0.54494382022471921 -0.013872962313251745 1.0000000180025095e-35 0.93820224719101131 -0.25280898876404484 -0.018232689677132926 0.061797752808988769
decision_type=2 2 2 2 2 2 2 2 2 2 2 2 2 2
left_child=1 2 3 4 -1 -2 7 11 10 -10 -9 12 13 -4
right_child=5 -3 6 -5 -6 -7 -8 8 9 -11 -12 -13 -14 -15
leaf_value=0.023420360012324521 0.026241887868966998 0.0048095434379259033 -0.011252918466089125 -0.0012596292029000034 -0.021527540000386945 0.005655794784177326 -0.026817577358985753 0.00066018551331099504 0.0093906747765612891 -0.019638964951930515 0.038401507297051538 -0.014395988638447954 -0.018193527819547358 0.011556773639059695
leaf_weight=7.8616209002211672 7.1330799255520096 62.381048436742276 4.6642613257281544 41.328234666958451 0.72908858116716135 26.940138857811689 4.0713108144700518 21.671832839027051 13.336826164741071 17.542852398008108 4.1815005447715512 40.039340904448181 6.8264993331395081 12.432098146062343
leaf_count=111 76 1016 217 1222 30 428 203 1163 448 797 57 2537 369 596
internal_value=-1.30459e-10 -0.00156028 -0.00384941 0.0022978 0.0177588 0.0105907 -0.00630761 -0.00540108 -0.000269948 -0.00719988 0.00796717 -0.00987807 -0.00204228 0.00505584
internal_weight=271.14 237.067 174.685 49.9189 8.59071 34.0732 124.767 120.695 56.733 30.8797 25.8533 63.9622 23.9229 17.0964
internal_count=9270 8766 7750 1363 141 504 6387 6184 2465 1245 1220 3719 1182 813
is_linear=0
shrinkage=0.05


Tree=37
num_leaves=15
num_cat=0
split_feature=1 1 4 0 3 0 3 4 2 0 3 1 1 1
split_gain=1.5997 1.24871 0.962337 0.825745 0.758318 0.738903 0.753953 0.929461 1.10832 1.09059 1.07701 0.704109 0.590728 1.21226
threshold=0.043849757710266675 -0.17464603571011653 0.018224333734519798 -0.1227558119810364 0.067415730337078636 0.031650753413732143 0.33146067415730346 -0.01293435125306425 0.88202247191011252 0.035083816705298927 0.15730337078651688 -0.037984494217955349 0.24699773336960154 0.32617339111272775
decision_type=2 2 2 2 2 2 2 2 2 2 2 2 2 2
left_child=1 -1 4 -3 12 -5 7 10 -9 -10 -7 -8 -2 -14
right_child=2 3 -4 5 -6 6 11 8 9 -11 -12 -13 13 -15
leaf_value=0.019214016754053591 0.0052252926417663062 0.02313442026493957 -0.020783430805798416 -0.0057412326162178621 -0.013011422919186858 -0.037362244528004365 0.00023183724034749783 -0.0027204374051395894 0.050688698197493665 0.011584275191966628 0.017756315164625714 -0.031380868518259199 0.025182590472081535 -0.0097187951202005081
leaf_weight=5.1671963129192582 80.797058091964573 1.8359601749107231 2.5365335866808882 134.16665849508718 4.146052246913313 1.3640405572950904 5.0005253497511148 8.9904748331755417 1.4506053626537312 10.561684129759668 0.67041555792093266 1.707104415167122 9.0179237797856313 2.710489682853221
leaf_count=74 1452 30 58 6519 221 21 147 375 9 151 10 98 72 33
internal_value=-1.80872e-10 -0.00292686 0.00502126 -0.0037282 0.0059042 -0.00416754 0.00288659 0.00716838 0.0104975 0.0198391 -0.0193331 -0.0108412 0.00688186 0.0169869
internal_weight=270.123 170.915 99.2081 165.747 96.6715 163.912 29.7449 23.0372 21.0028 12.0123 2.03446 6.70763 92.5255 11.7284
internal_count=9270 7434 1836 7360 1778 7330 811 566 535 160 31 245 1557 105
is_linear=0
shrinkage=0.05


Tree=38
num_leaves=15
num_cat=0
split_feature=0 1 1 3 4 0 4 3 2 2 4 1 0 4
split_gain=1.51919 1.15061 1.38817 1.03354 0.814696 0.756428 0.756351 0.660594 1.38198 1.36024 0.819004 0.975097 0.953931 1.14756
threshold=0.061887760723280512 -0.17464603571011653 0.049612904056594138 -0.016853932584269645 -0.013445283106848444 -0.1227558119810364 0.00053910991704075634 -0.15168539325842689 0.80337078651685401 0.58988764044943831 0.007116870908064012 0.090327180827336387 0.035083816705298927 -0.00047005714628547225
decision_type=2 2 2 2 2 2 2 2 2 2 2 2 2 2
left_child=1 4 5 6 -1 -3 -2 9 -9 -4 11 -10 13 -13
right_child=3 2 7 -5 -6 -7 -8 8 10 -11 -12 12 -14 -15
leaf_value=-0.0078654203233821888 0.00038128694262358069 0.021097053596956062 0.0018805431677312889 0.0047806834820340637 0.030232087094262752 -0.0050425978987605653 0.034716420253590827 -0.016402449976301661 0.014289841740823921 0.022926195142937152 0.017186921488538898 0.012336395638475639 -0.021720904581386272 -0.029589669491471505
leaf_weight=1.5010883267968891 2.2280555348843327 1.8491170685738314 24.583823683671653 26.521170580759645 3.7277171667665234 156.51756962668151 4.9390264786779881 9.5233033313415927 6.1180137582123342 10.30126099847257 8.0942436298355442 6.4880471061915168 5.9509068997576833 1.0973774194717378
leaf_count=24 25 30 417 428 47 7308 51 368 124 121 128 94 88 17
internal_value=8.30812e-11 -0.0014318 -0.00199651 0.00977226 0.0197882 -0.00460692 0.0253962 0.00371736 -0.000921193 0.00856084 0.0047777 -0.000917477 -0.00830094 0.00353096
internal_weight=269.441 235.752 230.524 33.6883 5.22881 158.367 7.16708 72.157 37.2719 34.8851 27.7486 19.6543 13.5363 7.58542
internal_count=9270 8766 8695 504 71 7338 76 1357 819 538 451 323 199 111
is_linear=0
shrinkage=0.05


Tree=39
num_leaves=15
num_cat=0
split_feature=0 3 3 2 2 0 1 2 2 3 3 1 1 4
split_gain=1.60076 1.16399 1.09919 1.76566 1.23049 1.44819 1.06834 1.09388 1.40984 1.48504 1.31747 1.01216 0.951975 0.898641
threshold=0.058702299650153396 -0.016853932584269645 -0.24157303370786509 0.58988764044943831 0.016853932584269666 -0.018668548544992555 -0.15139921737048304 0.93820224719101131 0.97191011235955072 0.056179775280898896 0.29775280898876416 0.12084292800891995 0.095492610792362834 0.019832578913812009
decision_type=2 2 2 2 2 2 2 2 2 2 2 2 2 2
left_child=2 -2 3 4 -1 13 -4 -8 10 -10 -9 -5 -7 -6
right_child=1 -3 6 11 5 12 7 8 9 -11 -12 -13 -14 -15
leaf_value=-0.025355753445819453 0.024963286188575712 0.0043570758445652729 0.01040838867872663 0.041158443535260721 0.012759469275494551 -0.014886162904468841 -0.0058645867358314415 0.020523837603337758 -0.030120434605903162 0.015032989113696917 -0.02446745800216393 -0.0069254450017951601 0.01027070312975405 -0.022341924179872342
leaf_weight=2.9147901693359008 8.3055242532864195 28.313999525271356 12.115594557486473 3.693698256276547 26.648901014588773 11.702839000616228 149.49690644070506 11.935919582843782 3.4365277606993905 2.2865231074392796 1.0079188402742136 1.0906745009124277 4.5218033436685792 1.0552192982286204
leaf_count=112 94 482 217 41 861 492 6547 168 53 50 40 13 58 42
internal_value=8.93508e-11 0.00957003 -0.00154576 0.00482497 0.00157224 0.00388357 -0.00338675 -0.00443629 0.00671902 -0.0125276 0.015517 0.0308947 -0.00768572 0.0106907
internal_weight=268.527 36.6195 231.907 51.6279 46.8436 43.9288 180.279 168.164 18.6669 5.72305 12.9438 4.78437 16.2246 27.7041
internal_count=9270 576 8694 1619 1565 1453 7075 6858 311 103 208 54 550 903
is_linear=0
shrinkage=0.05


end of trees

feature_importances:
momentum_20d=168
momentum_5d=126
rank_momentum_5d=103
rank_pct_5d=84
market_return_1d=79

parameters:
[boosting: gbdt]
[objective: lambdarank]
[metric: ndcg]
[tree_learner: serial]
[device_type: cpu]
[data_sample_strategy: bagging]
[data: ]
[valid: ]
[num_iterations: 40]
[learning_rate: 0.05]
[num_leaves: 15]
[num_threads: 1]
[seed: 20260720]
[deterministic: 1]
[force_col_wise: 1]
[force_row_wise: 0]
[histogram_pool_size: -1]
[max_depth: -1]
[min_data_in_leaf: 2]
[min_sum_hessian_in_leaf: 0.001]
[bagging_fraction: 1]
[pos_bagging_fraction: 1]
[neg_bagging_fraction: 1]
[bagging_freq: 0]
[bagging_seed: 843]
[bagging_by_query: 0]
[feature_fraction: 1]
[feature_fraction_bynode: 1]
[feature_fraction_seed: 57]
[extra_trees: 0]
[extra_seed: 8811]
[early_stopping_round: 0]
[early_stopping_min_delta: 0]
[first_metric_only: 0]
[max_delta_step: 0]
[lambda_l1: 0]
[lambda_l2: 1]
[linear_lambda: 0]
[min_gain_to_split: 0]
[drop_rate: 0.1]
[max_drop: 50]
[skip_drop: 0.5]
[xgboost_dart_mode: 0]
[uniform_drop: 0]
[drop_seed: 21666]
[top_rate: 0.2]
[other_rate: 0.1]
[min_data_per_group: 100]
[max_cat_threshold: 32]
[cat_l2: 10]
[cat_smooth: 10]
[max_cat_to_onehot: 4]
[top_k: 20]
[monotone_constraints: ]
[monotone_constraints_method: basic]
[monotone_penalty: 0]
[feature_contri: ]
[forcedsplits_filename: ]
[refit_decay_rate: 0.9]
[cegb_tradeoff: 1]
[cegb_penalty_split: 0]
[cegb_penalty_feature_lazy: ]
[cegb_penalty_feature_coupled: ]
[path_smooth: 0]
[interaction_constraints: ]
[verbosity: -1]
[saved_feature_importance_type: 0]
[use_quantized_grad: 0]
[num_grad_quant_bins: 4]
[quant_train_renew_leaf: 0]
[stochastic_rounding: 1]
[linear_tree: 0]
[max_bin: 255]
[max_bin_by_feature: ]
[min_data_in_bin: 3]
[bin_construct_sample_cnt: 200000]
[data_random_seed: 4432]
[is_enable_sparse: 1]
[enable_bundle: 1]
[use_missing: 1]
[zero_as_missing: 0]
[feature_pre_filter: 1]
[pre_partition: 0]
[two_round: 0]
[header: 0]
[label_column: ]
[weight_column: ]
[group_column: ]
[ignore_column: ]
[categorical_feature: ]
[forcedbins_filename: ]
[precise_float_parser: 0]
[parser_config_file: ]
[objective_seed: 7759]
[num_class: 1]
[is_unbalance: 0]
[scale_pos_weight: 1]
[sigmoid: 1]
[boost_from_average: 1]
[reg_sqrt: 0]
[alpha: 0.9]
[fair_c: 1]
[poisson_max_delta_step: 0.7]
[tweedie_variance_power: 1.5]
[lambdarank_truncation_level: 30]
[lambdarank_norm: 1]
[label_gain: 0,1,3,7,15]
[lambdarank_position_bias_regularization: 0]
[eval_at: 1,2,3,4,5]
[multi_error_top_k: 1]
[auc_mu_weights: ]
[num_machines: 1]
[local_listen_port: 12400]
[time_out: 120]
[machine_list_filename: ]
[machines: ]
[gpu_platform_id: -1]
[gpu_device_id: -1]
[gpu_use_dp: 0]
[num_gpu: 1]

end of parameters

pandas_categorical:null
