tree
version=v4
num_class=1
num_tree_per_iteration=1
label_index=0
max_feature_idx=21
objective=lambdarank
feature_names=momentum_1d momentum_3d momentum_5d momentum_10d momentum_20d volatility_5d volatility_20d drawdown_20d volume_change_5d amount_change_5d rank_pct_5d rank_pct_20d rank_momentum_5d market_return_1d market_return_5d market_breadth_1d market_dispersion_1d market_volatility_20d rule_time_series_score rule_cross_section_score rule_rank_momentum_score rule_direction_score
feature_infos=[-0.10813718513007242:0.12229216739576731] [-0.18234825421959322:0.27465397817296533] [-0.25743860440229616:0.28092117351019485] [-0.27022648853672249:0.40351170424303073] [-0.28062547585271636:0.58906651566951895] [0.0012453562741035964:0.088373331352552278] [0.0039238631080082331:0.060188323905258592] [0.0043877162311911633:0.28987731592235633] [-0.70556637982934856:5.1127031970119425] [-0.70850366100994711:4.4775219112457263] [0:1] [0:1] [-1:0.97752808988764039] [-0.049585464134470299:0.036012358476607553] [-0.10116671736988472:0.054726216916397064] [0.022222222222222223:0.98888888888888893] [0.0079151013248990945:0.029086357152055337] [0.0039238631080082331:0.060188323905258592] [0:100] [0:100] [0:100] [0:100]
tree_sizes=894 891 891 889 888 896 892 894 898 894 893 894 897 891 898 895 893 892 890 893

Tree=0
num_leaves=7
num_cat=0
split_feature=11 7 3 6 14 11
split_gain=22.13 5.76484 3.69143 3.25643 2.98414 2.81393
threshold=0.76966292134831471 0.066272481937293917 0.02204332624525818 0.01795951711192775 -0.043531449693776002 0.26404494382022475
decision_type=2 2 2 2 2 2
left_child=1 5 3 -2 -4 -1
right_child=2 -3 4 -5 -6 -7
leaf_value=-0.04498062473094197 -0.019158567474573673 -0.0025811423079807033 -0.031218903867239481 0.022587154774139633 0.041719642344494226 -0.016350905405927013
leaf_weight=10.854793191421775 5.6174835921265212 98.474546305369586 0.77575071016326802 15.716555533464996 29.539912957698107 40.556178914383054
leaf_count=598 330 4632 40 660 1133 1877
internal_value=3.06241e-10 -0.00973901 0.0279104 0.0112294 0.0389159 -0.0231386
internal_weight=201.535 149.886 51.6497 21.334 30.3157 51.411
internal_count=9270 7107 2163 990 1173 2475
is_linear=0
shrinkage=0.05


Tree=1
num_leaves=7
num_cat=0
split_feature=11 5 4 6 10 7
split_gain=52.3696 17.6356 15.7611 10.9478 11.8988 9.53003
threshold=0.76966292134831471 0.014951632126243142 0.19398772866322536 0.025614282555239589 0.29775280898876411 0.052831062812136183
decision_type=2 2 2 2 2 2
left_child=1 -1 3 -2 -5 -4
right_child=2 -3 5 4 -6 -7
leaf_value=-0.030511527388765964 0.0033757118923055975 -0.002171509627241408 0.063347010824089278 -0.017666730748266021 0.038661356968355841 0.0036799078884262311
leaf_weight=119.40097009483725 147.73938944516703 101.19797030929476 24.201283441856503 10.870801297947763 49.926236898638308 9.286955973133443
leaf_count=4280 1556 2827 104 105 322 76
internal_value=3.27016e-10 -0.0175792 0.0160294 0.0107917 0.0284667 0.0473866
internal_weight=462.624 220.599 242.025 208.536 60.797 33.4882
internal_count=9270 7107 2163 1983 427 180
is_linear=0
shrinkage=0.05


Tree=2
num_leaves=7
num_cat=0
split_feature=11 5 8 11 18 14
split_gain=58.5134 26.4133 13.1577 11.4097 7.3392 6.32127
threshold=0.79213483146067432 0.014951632126243142 0.41918664732613414 0.94943820224719111 18.85845774415461 -0.043531449693776002
decision_type=2 2 2 2 2 2
left_child=1 -1 3 -2 -5 -6
right_child=2 -3 -4 4 5 -7
leaf_value=-0.036580034722491099 0.014254455756868617 -0.0021242597149320826 -0.0094102325734021896 -0.028570436250593453 -0.023784123626227251 0.047786038919307106
leaf_weight=99.485387789085507 100.20114616304636 124.87290501594543 32.255610411055386 2.9699269961565724 2.667889147065579 62.076614485122263
leaf_count=4376 1243 2937 290 32 31 361
internal_value=-9.32403e-12 -0.0174972 0.0196009 0.0251965 0.0409451 0.04452
internal_weight=424.529 224.358 200.171 167.916 67.7144 64.7445
internal_count=9270 7313 1957 1667 424 392
is_linear=0
shrinkage=0.05


Tree=3
num_leaves=7
num_cat=0
split_feature=11 5 14 11 9 4
split_gain=58.4457 24.9023 12.3728 10.2862 8.84359 7.60253
threshold=0.8370786516853933 0.015090917995118362 -0.043531449693776002 0.94943820224719111 0.66181446213705097 0.030556875292749756
decision_type=2 2 2 2 2 2
left_child=1 -1 -2 -4 5 -5
right_child=2 -3 3 4 -6 -7
leaf_value=-0.034486208318963395 -0.032136249941044213 -0.0017714920899469838 0.012836551747712832 -0.024295243269877094 -0.021274498187111107 0.04660809115091135
leaf_weight=101.66675752960145 8.8863441725261492 134.47633804520592 77.671421658247709 3.400084748864173 5.1680866573005906 70.372732838615775
leaf_count=4634 120 3091 950 38 56 381
internal_value=1.4671e-10 -0.0159422 0.0227064 0.0260024 0.0386338 0.043059
internal_weight=401.642 236.143 165.499 156.612 78.9409 73.7728
internal_count=9270 7725 1545 1425 475 419
is_linear=0
shrinkage=0.05


Tree=4
num_leaves=7
num_cat=0
split_feature=11 6 4 5 5 5
split_gain=51.5232 16.6334 7.6012 8.22627 6.22921 5.41755
threshold=0.88202247191011252 0.013829987631713088 0.16706649897786965 0.014740557502135401 0.02208106354372321 0.046177153296566818
decision_type=2 2 2 2 2 2
left_child=1 -1 3 -2 -3 -5
right_child=2 4 -4 5 -6 -7
leaf_value=-0.035812773203319603 -0.011855960684636537 -0.01150108541478902 0.043040936738745601 0.027607041315411685 0.0075289896074455104 -0.055009599221387054
leaf_weight=58.910076065920293 18.606473230291158 141.61584303434938 43.06047865236178 63.293104379437864 60.754386160988361 1.1461372412741173
leaf_count=2794 250 4176 247 627 1167 9
internal_value=2.84749e-10 -0.0126614 0.0261265 0.0169483 -0.00577906 0.0253194
internal_weight=387.386 261.28 126.106 83.0457 202.37 64.4392
internal_count=9270 8137 1133 886 5343 636
is_linear=0
shrinkage=0.05


Tree=5
num_leaves=7
num_cat=0
split_feature=11 5 14 1 5 11
split_gain=47.3324 18.1393 9.1373 7.78751 6.51008 6.74912
threshold=0.8370786516853933 0.015090917995118362 -0.043531449693776002 -0.065003288192729422 0.014740557502135401 0.89325842696629221
decision_type=2 2 2 2 2 2
left_child=1 -1 -2 -4 -5 -6
right_child=2 -3 3 4 5 -7
leaf_value=-0.03205859173149201 -0.029467625964805552 -0.0027580584996839247 -0.039698205925609555 0.0056012912277083951 0.0040765700894588473 0.037047887725555277
leaf_weight=90.161217562388629 7.6520196762867263 126.09228456858546 3.8160956390202037 31.526392843574286 18.937819942831993 92.276718845590949
leaf_count=4634 120 3091 44 427 285 669
internal_value=2.13099e-10 -0.0150655 0.0210879 0.0239093 0.0258741 0.0315198
internal_weight=370.463 216.254 154.209 146.557 142.741 111.215
internal_count=9270 7725 1545 1425 1381 954
is_linear=0
shrinkage=0.05


Tree=6
num_leaves=7
num_cat=0
split_feature=11 5 4 6 7 5
split_gain=42.4444 14.5705 7.77932 7.47022 6.45487 4.81097
threshold=0.79213483146067432 0.015090917995118362 0.16706649897786965 0.025614282555239589 0.15392114634640039 0.034822836431848934
decision_type=2 2 2 2 2 2
left_child=1 -1 3 -2 -5 -4
right_child=2 -3 5 4 -6 -7
leaf_value=-0.032022809992130107 0.0030815166586002102 -0.0043430467732091449 0.045068158853853603 0.033362303599287421 -0.046074247319812495 0.0020528553472364927
leaf_weight=79.632807936053723 80.739668327849358 116.76583869988099 33.895614749751985 40.443215368315578 1.8725870382040728 8.1090290695428831
leaf_count=4431 1326 2882 195 350 29 57
internal_value=-2.29722e-11 -0.0156716 0.0186291 0.0121089 0.0288645 0.0370049
internal_weight=361.459 196.399 165.06 123.055 42.3158 42.0046
internal_count=9270 7313 1957 1705 379 252
is_linear=0
shrinkage=0.05


Tree=7
num_leaves=7
num_cat=0
split_feature=11 5 4 6 10 14
split_gain=33.7145 12.7033 6.70771 5.14774 5.83606 4.96889
threshold=0.79213483146067432 0.014512532066101792 0.16706649897786965 0.025614282555239589 0.29775280898876411 -0.035833375522273836
decision_type=2 2 2 2 2 2
left_child=1 -1 3 -2 -5 -4
right_child=2 -3 5 4 -6 -7
leaf_value=-0.030329533279829259 0.0029266238438775457 -0.0039550337391915701 -0.025106507926764152 -0.017355800400316083 0.032385222111773485 0.03855710371482593
leaf_weight=73.109103185590357 77.24869101960212 119.84312135260552 2.6499872617423526 6.3762493692338458 35.479169108904898 38.808533571660519
leaf_count=4205 1326 3108 23 93 286 229
internal_value=-1.20691e-10 -0.0140531 0.0168704 0.0106772 0.0245795 0.0339923
internal_weight=353.515 192.952 160.563 119.104 41.8554 41.4585
internal_count=9270 7313 1957 1705 379 252
is_linear=0
shrinkage=0.05


Tree=8
num_leaves=7
num_cat=0
split_feature=11 6 14 8 5 5
split_gain=27.2937 11.8411 10.4832 7.93709 5.62604 5.44378
threshold=0.88202247191011252 0.013829987631713088 -0.043531449693776002 0.31376516151077433 0.02208106354372321 0.015767968676390947
decision_type=2 2 2 2 2 2
left_child=1 -1 -2 5 -3 -4
right_child=2 4 3 -5 -6 -7
leaf_value=-0.031431490950076101 -0.041602422602478734 -0.010222176789674976 0.006642631400015993 -0.0035175010759299916 0.0081191446644697657 0.036807113011297375
leaf_weight=48.921311025973409 5.6698851087130597 120.76645671948791 19.793410211801529 21.670314392074943 62.779535534791648 67.331560866907239
leaf_count=2794 88 4176 270 245 1167 530
internal_value=1.88659e-12 -0.00983429 0.0198846 0.0234388 -0.00393876 0.0301074
internal_weight=346.932 232.467 114.465 108.795 183.546 87.125
internal_count=9270 8137 1133 1045 5343 800
is_linear=0
shrinkage=0.05


Tree=9
num_leaves=7
num_cat=0
split_feature=11 6 14 8 5 5
split_gain=28.0617 10.1692 6.5123 6.13595 4.77478 4.44453
threshold=0.89325842696629221 0.013829987631713088 -0.043531449693776002 1.3133771006012223 0.010649446260398689 0.02208106354372321
decision_type=2 2 2 2 2 2
left_child=1 -1 -2 4 -4 -3
right_child=2 5 3 -5 -6 -7
leaf_value=-0.030206125454310256 -0.038878377079888657 -0.010092180498373996 -0.021696113167626173 -0.045995564705959988 0.027933905240387136 0.0059116697082624596
leaf_weight=47.000357012264431 3.4692090274766079 120.09568434581161 4.3931602928787461 2.2008894160389891 95.990276031196117 66.781200208701193
leaf_count=2802 80 4233 80 32 838 1205
internal_value=3.54474e-11 -0.00967026 0.0212167 0.0236047 0.0255693 -0.00437212
internal_weight=339.931 233.877 106.054 102.584 100.383 186.877
internal_count=9270 8240 1030 950 918 5438
is_linear=0
shrinkage=0.05


Tree=10
num_leaves=7
num_cat=0
split_feature=11 6 14 8 10 6
split_gain=25.342 9.02395 5.80643 4.54522 4.90333 3.73062
threshold=0.89325842696629221 0.013829987631713088 -0.043531449693776002 0.41053234176487136 0.80337078651685401 0.029102977136750825
decision_type=2 2 2 2 2 2
left_child=1 -1 -2 4 -4 -6
right_child=2 -3 3 -5 5 -7
leaf_value=-0.029084024688869854 -0.040241956789311785 -0.0042904222144572275 0.010879481662775003 -0.003383183442619508 0.026609965001378286 0.056977642093702409
leaf_weight=44.870238584466279 2.9286905953194937 186.04907344374806 32.052471119910479 14.242861775681375 39.231730185449123 15.07857860252261
leaf_count=2802 80 5438 344 177 343 86
internal_value=-1.89286e-10 -0.00921273 0.0204393 0.0225845 0.0268567 0.0359189
internal_weight=334.454 230.919 103.534 100.606 86.3628 54.3103
internal_count=9270 8240 1030 950 773 429
is_linear=0
shrinkage=0.05


Tree=11
num_leaves=7
num_cat=0
split_feature=11 5 11 8 1 10
split_gain=24.2471 8.9338 4.42279 5.65468 3.32518 3.30825
threshold=0.78089887640449451 0.012518146762366024 0.97191011235955072 0.41918664732613414 -0.018262635153140413 0.039325842696629219
decision_type=2 2 2 2 2 2
left_child=1 -1 5 4 -4 -2
right_child=2 -3 3 -5 -6 -7
leaf_value=-0.028675618731451288 -0.033319187081601337 -0.0047427171757643471 -0.00036357478276715613 -0.020493617927836209 0.041382513424401461 0.011263628202766739
leaf_weight=55.255079724593088 3.3866821993142358 128.78724314249121 5.5748317395336917 4.5128392870537928 31.346937461989 101.24280930077657
leaf_count=3284 72 3926 55 58 196 1679
internal_value=2.73573e-11 -0.0120442 0.0151546 0.0288262 0.0352359 0.00951878
internal_weight=330.106 184.042 146.064 41.4346 36.9218 104.629
internal_count=9270 7210 2060 309 251 1751
is_linear=0
shrinkage=0.05


Tree=12
num_leaves=7
num_cat=0
split_feature=11 5 5 8 21 8
split_gain=20.8904 7.9864 4.12796 3.78264 4.09498 3.65452
threshold=0.87078651685393271 0.010899567945764573 0.010950463128555989 0.41053234176487136 58.409991887119091 -0.14298267730455469
decision_type=2 2 2 2 2 2
left_child=1 -1 -2 4 5 -4
right_child=2 -3 3 -5 -6 -7
leaf_value=-0.026966449128946232 -0.018498367488481344 -0.0038220391544581626 0.023444500607756595 -0.0041089956016225147 0.032479850451255433 -0.0094369040273182183
leaf_weight=46.918012173380703 6.5377474110573521 169.83792788581923 19.224317968823016 13.338406421709804 54.688413676805794 13.773911945987491
leaf_count=2720 134 5314 223 195 482 202
internal_value=1.11317e-10 -0.00893261 0.0179171 0.0204319 0.0241691 0.00984548
internal_weight=324.319 216.756 107.563 101.025 87.6866 32.9982
internal_count=9270 8034 1236 1102 907 425
is_linear=0
shrinkage=0.05


Tree=13
num_leaves=7
num_cat=0
split_feature=11 5 11 9 14 5
split_gain=19.5324 8.34443 4.46042 4.55215 4.61613 3.06703
threshold=0.79213483146067432 0.012518146762366024 0.97191011235955072 0.46871978422293453 -0.035833375522273836 0.017144584946818097
decision_type=2 2 2 2 2 2
left_child=1 -1 5 4 -4 -2
right_child=2 -3 3 -5 -6 -7
leaf_value=-0.027813406928301899 -0.0025180367462468833 -0.0040358276133773728 -0.02456194608420274 -0.01586624597798612 0.038856635026789176 0.015323390863988373
leaf_weight=50.56610746611841 39.810846331063658 131.26873084297404 2.4675292663741848 4.6581878461875013 33.118308138102293 59.040689433459193
leaf_count=3322 810 3991 40 60 209 838
internal_value=-1.78627e-11 -0.010764 0.0140479 0.0279017 0.033908 0.00818479
internal_weight=320.93 181.835 139.096 40.244 35.5858 98.8515
internal_count=9270 7313 1957 309 249 1648
is_linear=0
shrinkage=0.05


Tree=14
num_leaves=7
num_cat=0
split_feature=11 5 14 8 10 6
split_gain=16.4889 7.0261 4.71365 3.76096 3.90516 5.90752
threshold=0.89325842696629221 0.010899567945764573 -0.043531449693776002 0.31376516151077433 0.23033707865168543 0.020581198599587916
decision_type=2 2 2 2 2 2
left_child=1 -1 -2 4 -4 -6
right_child=2 -3 3 -5 5 -7
leaf_value=-0.024888390097776214 -0.035717069464870764 -0.0029050649669502583 -0.0045279546649717754 -0.0021019546213291813 0.0036120025543412617 0.037704556531678063
leaf_weight=44.805115892086178 3.1242684647440901 177.71891076955944 9.9266430754214507 16.240156944841146 17.537003703415394 47.409802500158548
leaf_count=2743 80 5497 125 221 239 365
internal_value=1.41872e-10 -0.00742294 0.0174217 0.0196118 0.0242872 0.0286932
internal_weight=316.762 222.524 94.2379 91.1136 74.8734 64.9468
internal_count=9270 8240 1030 950 729 604
is_linear=0
shrinkage=0.05


Tree=15
num_leaves=7
num_cat=0
split_feature=11 5 1 5 11 8
split_gain=16.7603 5.87773 3.81509 3.88174 3.26154 3.17243
threshold=0.89325842696629221 0.010899567945764573 -0.060135989332393107 0.011424331283871535 0.75842696629213491 0.31376516151077433
decision_type=2 2 2 2 2 2
left_child=1 4 -2 -4 -1 -5
right_child=2 -3 3 5 -6 -7
leaf_value=-0.030038869964056098 -0.038616189345197525 -0.0033038882244412048 -0.016498339086418661 0.027144401706052319 0.004482709327417146 0.0013687627031394199
leaf_weight=35.352507432922721 1.9906016360037018 180.02554587880149 6.1541146272793403 67.570758821908385 8.1343480204232019 14.586535400478168
leaf_count=2471 41 5497 120 664 272 205
internal_value=1.81492e-10 -0.00734538 0.0180624 0.019758 -0.0236259 0.0226396
internal_weight=313.814 223.512 90.302 88.3114 43.4869 82.1573
internal_count=9270 8240 1030 989 2743 869
is_linear=0
shrinkage=0.05


Tree=16
num_leaves=7
num_cat=0
split_feature=11 5 5 8 11 1
split_gain=14.1099 5.54831 3.40547 3.27263 2.99113 2.92586
threshold=0.89325842696629221 0.01786779921613612 0.010649446260398689 0.9073933762733285 0.75842696629213491 -0.060135989332393107
decision_type=2 2 2 2 2 2
left_child=1 4 -2 5 -1 -4
right_child=2 -3 3 -5 -6 -7
leaf_value=-0.018686349627477852 -0.023229431733926373 0.0014452973417984304 -0.031230155620804764 -0.023207571383651697 0.00046773330361955454 0.022620773634417418
leaf_weight=88.527262992458418 4.2410206659696987 107.1031313391868 1.7657785792835046 3.5951254917308679 26.328256708569825 79.398557002656162
leaf_count=5163 94 2344 37 55 733 844
internal_value=-1.57277e-11 -0.00674526 0.0167101 0.018956 -0.0143295 0.0210834
internal_weight=310.959 221.959 89.0005 84.7595 114.856 81.1643
internal_count=9270 8240 1030 936 5896 881
is_linear=0
shrinkage=0.05


Tree=17
num_leaves=7
num_cat=0
split_feature=11 5 11 5 14 8
split_gain=13.2972 5.96846 2.91339 2.86497 2.83768 2.93039
threshold=0.89325842696629221 0.018001804448019555 0.75842696629213491 0.010649446260398689 -0.043531449693776002 0.9073933762733285
decision_type=2 2 2 2 2 2
left_child=1 2 -1 -2 -5 -6
right_child=3 -3 -4 4 5 -7
leaf_value=-0.019259640473187761 -0.021032565407321201 0.0017958470801664461 -0.0003099358112998577 -0.02808040343610493 0.021810790356354567 -0.02200672623996798
leaf_weight=84.090093448525295 4.1071929214522234 106.26103765005246 26.674600640777498 2.3606160019990048 79.218974538147449 3.2303822804242364
leaf_count=5194 94 2310 736 70 814 52
internal_value=4.25105e-11 -0.00667241 -0.0147397 0.0161789 0.0182051 0.0198509
internal_weight=305.943 217.026 110.765 88.9172 84.81 82.4494
internal_count=9270 8240 5930 1030 936 866
is_linear=0
shrinkage=0.05


Tree=18
num_leaves=7
num_cat=0
split_feature=11 5 5 1 21 14
split_gain=12.0153 5.4245 2.75241 2.87696 2.51502 2.74125
threshold=0.89325842696629221 0.018001804448019555 0.010649446260398689 -0.060135989332393107 39.455550701723404 0.022566823884922465
decision_type=2 2 2 2 2 2
left_child=1 -1 -2 -4 5 -3
right_child=2 4 3 -5 -6 -7
leaf_value=-0.014258169014239416 -0.021306924899489207 0.012860271557739 -0.032968224245022007 0.018951033414655358 -0.0052750463917914554 -0.036613741114658045
leaf_weight=107.64557906822301 4.0252073486335567 45.579730745637789 1.8754555110353965 82.25231687608175 58.723274832358584 2.0246821297332636
leaf_count=5930 94 920 39 897 1330 60
internal_value=1.48117e-10 -0.00640008 0.0154324 0.0174199 0.00161412 0.0100461
internal_weight=302.126 213.973 88.153 84.1278 106.328 47.6044
internal_count=9270 8240 1030 936 2310 980
is_linear=0
shrinkage=0.05


Tree=19
num_leaves=7
num_cat=0
split_feature=11 7 4 9 3 6
split_gain=10.7033 6.83004 4.25133 3.58621 4.88716 3.18643
threshold=0.75842696629213491 0.066757675632158744 0.16706649897786965 0.2215229431794549 0.17060225697883682 0.025614282555239589
decision_type=2 2 2 2 2 2
left_child=1 -1 5 -4 -5 -2
right_child=2 -3 3 4 -6 -7
leaf_value=-0.026667614230222736 -0.00060073447697429991 -0.0028089042929057115 0.03532689296292478 0.019506322811020049 -0.056335579149313586 0.017653335257802598
leaf_weight=39.774876021547243 76.466903856955469 114.56785901729017 23.507510420866314 6.507180805783717 1.9637087676674125 33.739920485764742
leaf_count=2443 1612 4561 165 65 22 402
internal_value=4.82703e-10 -0.0090895 0.00986127 0.0256304 -0.00216714 0.00509626
internal_weight=296.528 154.343 142.185 31.9784 8.47089 110.207
internal_count=9270 7004 2266 252 87 2014
is_linear=0
shrinkage=0.05


end of trees

feature_importances:
volatility_5d=29
rank_pct_20d=29
market_return_5d=12
volatility_20d=11
volume_change_5d=11
momentum_20d=6
momentum_3d=5
rank_pct_5d=5
drawdown_20d=4
amount_change_5d=3
momentum_10d=2
rule_direction_score=2
rule_time_series_score=1

parameters:
[boosting: gbdt]
[objective: lambdarank]
[metric: ndcg]
[tree_learner: serial]
[device_type: cpu]
[data_sample_strategy: bagging]
[data: ]
[valid: ]
[num_iterations: 20]
[learning_rate: 0.05]
[num_leaves: 7]
[num_threads: 1]
[seed: 20260720]
[deterministic: 1]
[force_col_wise: 1]
[force_row_wise: 0]
[histogram_pool_size: -1]
[max_depth: -1]
[min_data_in_leaf: 2]
[min_sum_hessian_in_leaf: 0.001]
[bagging_fraction: 1]
[pos_bagging_fraction: 1]
[neg_bagging_fraction: 1]
[bagging_freq: 0]
[bagging_seed: 843]
[bagging_by_query: 0]
[feature_fraction: 1]
[feature_fraction_bynode: 1]
[feature_fraction_seed: 57]
[extra_trees: 0]
[extra_seed: 8811]
[early_stopping_round: 0]
[early_stopping_min_delta: 0]
[first_metric_only: 0]
[max_delta_step: 0]
[lambda_l1: 0]
[lambda_l2: 1]
[linear_lambda: 0]
[min_gain_to_split: 0]
[drop_rate: 0.1]
[max_drop: 50]
[skip_drop: 0.5]
[xgboost_dart_mode: 0]
[uniform_drop: 0]
[drop_seed: 21666]
[top_rate: 0.2]
[other_rate: 0.1]
[min_data_per_group: 100]
[max_cat_threshold: 32]
[cat_l2: 10]
[cat_smooth: 10]
[max_cat_to_onehot: 4]
[top_k: 20]
[monotone_constraints: ]
[monotone_constraints_method: basic]
[monotone_penalty: 0]
[feature_contri: ]
[forcedsplits_filename: ]
[refit_decay_rate: 0.9]
[cegb_tradeoff: 1]
[cegb_penalty_split: 0]
[cegb_penalty_feature_lazy: ]
[cegb_penalty_feature_coupled: ]
[path_smooth: 0]
[interaction_constraints: ]
[verbosity: -1]
[saved_feature_importance_type: 0]
[use_quantized_grad: 0]
[num_grad_quant_bins: 4]
[quant_train_renew_leaf: 0]
[stochastic_rounding: 1]
[linear_tree: 0]
[max_bin: 255]
[max_bin_by_feature: ]
[min_data_in_bin: 3]
[bin_construct_sample_cnt: 200000]
[data_random_seed: 4432]
[is_enable_sparse: 1]
[enable_bundle: 1]
[use_missing: 1]
[zero_as_missing: 0]
[feature_pre_filter: 1]
[pre_partition: 0]
[two_round: 0]
[header: 0]
[label_column: ]
[weight_column: ]
[group_column: ]
[ignore_column: ]
[categorical_feature: ]
[forcedbins_filename: ]
[precise_float_parser: 0]
[parser_config_file: ]
[objective_seed: 7759]
[num_class: 1]
[is_unbalance: 0]
[scale_pos_weight: 1]
[sigmoid: 1]
[boost_from_average: 1]
[reg_sqrt: 0]
[alpha: 0.9]
[fair_c: 1]
[poisson_max_delta_step: 0.7]
[tweedie_variance_power: 1.5]
[lambdarank_truncation_level: 30]
[lambdarank_norm: 1]
[label_gain: 0,1,3,7,15]
[lambdarank_position_bias_regularization: 0]
[eval_at: 1,2,3,4,5]
[multi_error_top_k: 1]
[auc_mu_weights: ]
[num_machines: 1]
[local_listen_port: 12400]
[time_out: 120]
[machine_list_filename: ]
[machines: ]
[gpu_platform_id: -1]
[gpu_device_id: -1]
[gpu_use_dp: 0]
[num_gpu: 1]

end of parameters

pandas_categorical:null
